periods   1 
begin filament 
mirror NIL 
  1.537641121911625E+01   1.018054688994287E+00   1.437052615389919E-01   1.827039858214298E+07
  1.537769511091546E+01   1.104133702389379E+00   3.805745291996402E-01   1.827039858214298E+07
  1.537668187131723E+01   1.188296425182211E+00   6.177044281605090E-01   1.827039858214298E+07
  1.537446864836722E+01   1.271974712104646E+00   8.546166484979529E-01   1.827039858214298E+07
  1.537162029653486E+01   1.357041515136171E+00   1.090735968632165E+00   1.827039858214298E+07
  1.536806674592164E+01   1.445630764210599E+00   1.325361757923690E+00   1.827039858214298E+07
  1.536306762498016E+01   1.539924822012543E+00   1.557644100956018E+00   1.827039858214298E+07
  1.535524748214825E+01   1.641930276135460E+00   1.786574154943326E+00   1.827039858214298E+07
  1.534269727236627E+01   1.753263738442189E+00   2.010996690646516E+00   1.827039858214298E+07
  1.532313069031738E+01   1.874968221695101E+00   2.229649321209494E+00   1.827039858214298E+07
  1.529407821809060E+01   2.007377716527161E+00   2.441228236115123E+00   1.827039858214298E+07
  1.525309802198453E+01   2.150043099985161E+00   2.644475110805042E+00   1.827039858214298E+07
  1.519798146387467E+01   2.301726883492920E+00   2.838275149285272E+00   1.827039858214298E+07
  1.512693210203595E+01   2.460468042040021E+00   3.021752793777021E+00   1.827039858214298E+07
  1.503870048335836E+01   2.623711786346834E+00   3.194350178296931E+00   1.827039858214298E+07
  1.493266235756184E+01   2.788493179094777E+00   3.355874290395687E+00   1.827039858214298E+07
  1.480883455250642E+01   2.951658459357791E+00   3.506502046622948E+00   1.827039858214298E+07
  1.466782988093677E+01   3.110104268535852E+00   3.646737710001987E+00   1.827039858214298E+07
  1.451075929502953E+01   3.261013015130998E+00   3.777323575124455E+00   1.827039858214298E+07
  1.433909529603879E+01   3.402062599812900E+00   3.899111679812044E+00   1.827039858214298E+07
  1.415451469447563E+01   3.531590721798533E+00   4.012910442468985E+00   1.827039858214298E+07
  1.395874074659497E+01   3.648697908680669E+00   4.119324610057364E+00   1.827039858214298E+07
  1.375340425263521E+01   3.753278982111131E+00   4.218608990924034E+00   1.827039858214298E+07
  1.353994044401348E+01   3.845979445697080E+00   4.310555736349753E+00   1.827039858214298E+07
  1.331953372389001E+01   3.928080663477489E+00   4.394431430139648E+00   1.827039858214298E+07
  1.309311609922740E+01   4.001324983812700E+00   4.468974368691933E+00   1.827039858214298E+07
  1.286141816386245E+01   4.067698403320361E+00   4.532454947036807E+00   1.827039858214298E+07
  1.262506456613296E+01   4.129193234835205E+00   4.582794040109544E+00   1.827039858214298E+07
  1.238469983263623E+01   4.187575928174994E+00   4.617726811154240E+00   1.827039858214298E+07
  1.214112595016536E+01   4.244185268935504E+00   4.634993548580716E+00   1.827039858214298E+07
  1.189543079419531E+01   4.299783483000438E+00   4.632535758101969E+00   1.827039858214298E+07
  1.164908666695214E+01   4.354477440153272E+00   4.608675294214586E+00   1.827039858214298E+07
  1.140400093011795E+01   4.407719631411781E+00   4.562256853863214E+00   1.827039858214298E+07
  1.116250575822274E+01   4.458389633024114E+00   4.492739291312976E+00   1.827039858214298E+07
  1.092728089986644E+01   4.504947331321238E+00   4.400228186235682E+00   1.827039858214298E+07
  1.070121129262226E+01   4.545640357185664E+00   4.285449884237252E+00   1.827039858214298E+07
  1.048718956059954E+01   4.578741056723786E+00   4.149674700163381E+00   1.827039858214298E+07
  1.028788089916678E+01   4.602783859470435E+00   3.994603061648944E+00   1.827039858214298E+07
  1.010547373004594E+01   4.616772784770579E+00   3.822232228446573E+00   1.827039858214298E+07
  9.941443046172376E+00   4.620331366938000E+00   3.634722355533312E+00   1.827039858214298E+07
  9.796354045803053E+00   4.613773359453301E+00   3.434278998678452E+00   1.827039858214298E+07
  9.669731264288549E+00   4.598081626645486E+00   3.223065041186007E+00   1.827039858214298E+07
  9.560013068973641E+00   4.574793671109770E+00   3.003149169324522E+00   1.827039858214298E+07
  9.464603541468446E+00   4.545803994469118E+00   2.776491413530415E+00   1.827039858214298E+07
  9.380024182688501E+00   4.513104507544478E+00   2.544959973011511E+00   1.827039858214298E+07
  9.302157515280935E+00   4.478493071216269E+00   2.310368552274630E+00   1.827039858214298E+07
  9.226564625983166E+00   4.443285741319404E+00   2.074520530765843E+00   1.827039858214298E+07
  9.148850094722716E+00   4.408069560308888E+00   1.839245883958455E+00   1.827039858214298E+07
  9.065041589172845E+00   4.372529434349373E+00   1.606418884626614E+00   1.827039858214298E+07
  8.971948423247072E+00   4.335374974120218E+00   1.377948832167414E+00   1.827039858214298E+07
  8.867464021904462E+00   4.294381944302638E+00   1.155741634458287E+00   1.827039858214298E+07
  8.750781555442035E+00   4.246549433540165E+00   9.416360252863482E-01   1.827039858214298E+07
  8.622499655401633E+00   4.188359642545302E+00   7.373234999035784E-01   1.827039858214298E+07
  8.484605377838072E+00   4.116114062185528E+00   5.442647559685704E-01   1.827039858214298E+07
  8.340333410027116E+00   4.026309472258132E+00   3.636168615402210E-01   1.827039858214298E+07
  8.193912698215648E+00   3.916011036770365E+00   1.961842354370787E-01   1.827039858214298E+07
  8.050222915987765E+00   3.783178717844459E+00   4.240294835234774E-02   1.827039858214298E+07
  7.914392282430632E+00   3.626907571705840E+00  -9.763761679017527E-02   1.827039858214298E+07
  7.791374179277692E+00   3.447551841565722E+00  -2.241381856651151E-01   1.827039858214298E+07
  7.685542140788816E+00   3.246716088919974E+00  -3.375069395931877E-01   1.827039858214298E+07
  7.600340845087887E+00   3.027112337516540E+00  -4.382648538128767E-01   1.827039858214298E+07
  7.538024912585962E+00   2.792298426897994E+00  -5.269561708580377E-01   1.827039858214298E+07
  7.499508236638856E+00   2.546327460163089E+00  -6.040814491087316E-01   1.827039858214298E+07
  7.484335216983238E+00   2.293349507764571E+00  -6.700679285095165E-01   1.827039858214298E+07
  7.490772874333635E+00   2.037213113633080E+00  -7.252865316669981E-01   1.827039858214298E+07
  7.516010744921186E+00   1.781114751273534E+00  -7.701173932318859E-01   1.827039858214298E+07
  7.556444996347991E+00   1.527339022146678E+00  -8.050574663236921E-01   1.827039858214298E+07
  7.608015489927015E+00   1.277121654131194E+00  -8.308557763926672E-01   1.827039858214298E+07
  7.666560339747668E+00   1.030652510142434E+00  -8.486555736355110E-01   1.827039858214298E+07
  7.728152275189196E+00   7.872186578445145E-01  -8.601190757972931E-01   1.827039858214298E+07
  7.789384739131992E+00   5.454701945382529E-01  -8.675104242846775E-01   1.827039858214298E+07
  7.847582644949152E+00   3.037761258082585E-01  -8.737161305898307E-01   1.827039858214298E+07
  7.900922189947612E+00   6.062609205412507E-02  -8.821893463488135E-01   1.827039858214298E+07
  7.948454930212013E+00  -1.849724231472807E-01  -8.968139013861689E-01   1.827039858214298E+07
  7.990042181010153E+00  -4.331517949180033E-01  -9.216949522553528E-01   1.827039858214298E+07
  8.026215461685318E+00  -6.829411286718841E-01  -9.608937545575416E-01   1.827039858214298E+07
  8.057986071879707E+00  -9.321550143907289E-01  -1.018132969396394E+00   1.827039858214298E+07
  8.086631185157598E+00  -1.177431334686701E+00  -1.096504685737505E+00   1.827039858214298E+07
  8.113484683588121E+00  -1.414417671316166E+00  -1.198215032382992E+00   1.827039858214298E+07
  8.139758367690225E+00  -1.638088302619820E+00  -1.324396460907743E+00   1.827039858214298E+07
  8.166413609544565E+00  -1.843158438769601E+00  -1.475011722782914E+00   1.827039858214298E+07
  8.194095771222786E+00  -2.024551039702554E+00  -1.648863067462908E+00   1.827039858214298E+07
  8.223134826407382E+00  -2.177865615670771E+00  -1.843707586693810E+00   1.827039858214298E+07
  8.253606747405943E+00  -2.299798454202009E+00  -2.056466584594983E+00   1.827039858214298E+07
  8.285442460822964E+00  -2.388469631758050E+00  -2.283505122924419E+00   1.827039858214298E+07
  8.318565464058253E+00  -2.443623114634742E+00  -2.520949088049025E+00   1.827039858214298E+07
  8.353036173178683E+00  -2.466680793623002E+00  -2.765002484436887E+00   1.827039858214298E+07
  8.389181019557377E+00  -2.460647589576332E+00  -3.012227856071902E+00   1.827039858214298E+07
  8.427687119230619E+00  -2.429880811885742E+00  -3.259757790238238E+00   1.827039858214298E+07
  8.469648533901299E+00  -2.379750847307407E+00  -3.505414717255706E+00   1.827039858214298E+07
  8.516556963453279E+00  -2.316230438051014E+00  -3.747728451101677E+00   1.827039858214298E+07
  8.570237210401816E+00  -2.245455235482126E+00  -3.985854470413670E+00   1.827039858214298E+07
  8.632734935239682E+00  -2.173298586898614E+00  -4.219408981039535E+00   1.827039858214298E+07
  8.706170153715881E+00  -2.104998888949494E+00  -4.448247562497308E+00   1.827039858214298E+07
  8.792573884532688E+00  -2.044869185223817E+00  -4.672221229040262E+00   1.827039858214298E+07
  8.893726896963507E+00  -1.996107322506250E+00  -4.890946096974802E+00   1.827039858214298E+07
  9.011018526920678E+00  -1.960712502588936E+00  -5.103620256477643E+00   1.827039858214298E+07
  9.145340261571533E+00  -1.939502111288834E+00  -5.308914297206329E+00   1.827039858214298E+07
  9.297023769617581E+00  -1.932212735650964E+00  -5.504951258511057E+00   1.827039858214298E+07
  9.465827027339555E+00  -1.937662395591232E+00  -5.689379073471124E+00   1.827039858214298E+07
  9.650966019486996E+00  -1.953947829285305E+00  -5.859525624318063E+00   1.827039858214298E+07
  9.851184028199718E+00  -1.978651248986723E+00  -6.012615114547772E+00   1.827039858214298E+07
  1.006484648459315E+01  -2.009034869010006E+00  -6.146016145485304E+00   1.827039858214298E+07
  1.029004724558707E+01  -2.042207814404013E+00  -6.257487767997036E+00   1.827039858214298E+07
  1.052471218572769E+01  -2.075257581939283E+00  -6.345390369812809E+00   1.827039858214298E+07
  1.076668806378038E+01  -2.105345782015198E+00  -6.408833399065766E+00   1.827039858214298E+07
  1.101380835183633E+01  -2.129774269670257E+00  -6.447740826993060E+00   1.827039858214298E+07
  1.126393248730755E+01  -2.146032061718914E+00  -6.462826617512347E+00   1.827039858214298E+07
  1.151496007484278E+01  -2.151835102216899E+00  -6.455484678268656E+00   1.827039858214298E+07
  1.176482614668870E+01  -2.145169889543741E+00  -6.427609109433866E+00   1.827039858214298E+07
  1.201148699000882E+01  -2.124348562303857E+00  -6.381369490964615E+00   1.827039858214298E+07
  1.225290775325193E+01  -2.088077972835902E+00  -6.318971275326401E+00   1.827039858214298E+07
  1.248706278965379E+01  -2.035539517584827E+00  -6.242432430455776E+00   1.827039858214298E+07
  1.271195751314256E+01  -1.966471095981290E+00  -6.153404267559011E+00   1.827039858214298E+07
  1.292567674452515E+01  -1.881238514689775E+00  -6.053057453595287E+00   1.827039858214298E+07
  1.312645966914008E+01  -1.780881701541896E+00  -5.942044620856921E+00   1.827039858214298E+07
  1.331279632957156E+01  -1.667121667778911E+00  -5.820540161431606E+00   1.827039858214298E+07
  1.348353581942499E+01  -1.542317286554364E+00  -5.688347281247980E+00   1.827039858214298E+07
  1.363799276048332E+01  -1.409366269514244E+00  -5.545053644461442E+00   1.827039858214298E+07
  1.377603681939653E+01  -1.271551508850239E+00  -5.390211125010231E+00   1.827039858214298E+07
  1.389815030151496E+01  -1.132341259819829E+00  -5.223513005075715E+00   1.827039858214298E+07
  1.400544131343182E+01  -9.951584203291450E-01  -5.044943585284924E+00   1.827039858214298E+07
  1.409960437851497E+01  -8.631394245963803E-01  -4.854880216323437E+00   1.827039858214298E+07
  1.418282621564935E+01  -7.389062068296431E-01  -4.654135369301285E+00   1.827039858214298E+07
  1.425764093665400E+01  -6.243748157991268E-01  -4.443935341836438E+00   1.827039858214298E+07
  1.432674535166509E+01  -5.206214562262975E-01  -4.225841208354023E+00   1.827039858214298E+07
  1.439279055436481E+01  -4.278212743172142E-01  -4.001625378210660E+00   1.827039858214298E+07
  1.445816975100000E+01  -3.452677226325077E-01  -3.773122573925102E+00   1.827039858214298E+07
  1.452482385719621E+01  -2.714717318745119E-01  -3.542076517398874E+00   1.827039858214298E+07
  1.459408544327761E+01  -2.043312296321907E-01  -3.310002914420042E+00   1.827039858214298E+07
  1.466657819895273E+01  -1.413538338849937E-01  -3.078085733913851E+00   1.827039858214298E+07
  1.474218355577713E+01  -7.990974095413805E-02  -2.847117981009088E+00   1.827039858214298E+07
  1.482007906202852E+01  -1.748860982432967E-02  -2.617491148582837E+00   1.827039858214298E+07
  1.489884535467778E+01   4.806602061346859E-02  -2.389230419003663E+00   1.827039858214298E+07
  1.497663101836120E+01   1.183685574069746E-01  -2.162066550536081E+00   1.827039858214298E+07
  1.505135814967552E+01   1.943679096281068E-01  -1.935531088322129E+00   1.827039858214298E+07
  1.512094682369775E+01   2.763000210455621E-01  -1.709059622816540E+00   1.827039858214298E+07
  1.518353444168088E+01   3.637192918023896E-01  -1.482088412712123E+00   1.827039858214298E+07
  1.523766639774045E+01   4.556033321260946E-01  -1.254132523684629E+00   1.827039858214298E+07
  1.528243759924923E+01   5.505178256085369E-01  -1.024838093181370E+00   1.827039858214298E+07
  1.531756976515523E+01   6.468222304775210E-01  -7.940065679783809E-01   1.827039858214298E+07
  1.534341649836121E+01   7.428932130877737E-01  -5.615938433100495E-01   1.827039858214298E+07
  1.536089608062117E+01   8.373414169816463E-01  -3.276912987255232E-01   1.827039858214298E+07
  1.537135987188710E+01   9.291984607269987E-01  -9.249812580309352E-02   1.827039858214298E+07
  1.537641121911625E+01   1.018054688994287E+00   1.437052615389919E-01   0.000000000000000E+00 1 CurveXYZFourier43 
  1.652308996864855E+01   3.490455206638833E+00  -1.543957460632576E+00   1.439431960806082E+07
  1.651717824168316E+01   3.609766339702913E+00  -1.309133153990104E+00   1.439431960806082E+07
  1.650065091950185E+01   3.738613604137936E+00  -1.078783412431472E+00   1.439431960806082E+07
  1.647349473281423E+01   3.876443189090751E+00  -8.528913847372449E-01   1.439431960806082E+07
  1.643624322095960E+01   4.022368938451838E+00  -6.313765067961347E-01   1.439431960806082E+07
  1.638980026629016E+01   4.175180381306157E+00  -4.140880659225732E-01   1.439431960806082E+07
  1.633519956315492E+01   4.333343703654319E+00  -2.007956820003480E-01   1.439431960806082E+07
  1.627334057272260E+01   4.494999888329316E+00   8.817574800545003E-03   1.439431960806082E+07
  1.620474568414878E+01   4.657969377781662E+00   2.151530658608507E-01   1.439431960806082E+07
  1.612938036342744E+01   4.819775997062333E+00   4.186797325896967E-01   1.439431960806082E+07
  1.604656842106982E+01   4.977703559191090E+00   6.198986399161776E-01   1.439431960806082E+07
  1.595501962671591E+01   5.128896060441492E+00   8.192878774646332E-01   1.439431960806082E+07
  1.585296904358166E+01   5.270506726686235E+00   1.017230157833420E+00   1.439431960806082E+07
  1.573840943934963E+01   5.399893056706910E+00   1.213928834454836E+00   1.439431960806082E+07
  1.560938280190605E+01   5.514845607056135E+00   1.409320894342074E+00   1.439431960806082E+07
  1.546428680959063E+01   5.613829110740935E+00   1.602997275881662E+00   1.439431960806082E+07
  1.530214875963031E+01   5.696207269820023E+00   1.794141278739265E+00   1.439431960806082E+07
  1.512282357698506E+01   5.762418708061181E+00   1.981494735951979E+00   1.439431960806082E+07
  1.492708357664770E+01   5.814072199390933E+00   2.163359099936419E+00   1.439431960806082E+07
  1.471658400650370E+01   5.853934865515087E+00   2.337634964359089E+00   1.439431960806082E+07
  1.449370756850051E+01   5.885797284947323E+00   2.501899284698588E+00   1.439431960806082E+07
  1.426131013447291E+01   5.914213347449357E+00   2.653515254046864E+00   1.439431960806082E+07
  1.402240574472739E+01   5.944128549860119E+00   2.789766031643374E+00   1.439431960806082E+07
  1.377983914777311E+01   5.980426157145912E+00   2.908000826616182E+00   1.439431960806082E+07
  1.353599689879847E+01   6.027434000514341E+00   3.005780569863846E+00   1.439431960806082E+07
  1.329260279807180E+01   6.088443591989580E+00   3.081010715430014E+00   1.439431960806082E+07
  1.305063086914424E+01   6.165296141071272E+00   3.132050521460482E+00   1.439431960806082E+07
  1.281035095775519E+01   6.258086157636336E+00   3.157791176621216E+00   1.439431960806082E+07
  1.257150108083195E+01   6.365022718734339E+00   3.157698899485133E+00   1.439431960806082E+07
  1.233356007301930E+01   6.482472204599846E+00   3.131823089947624E+00   1.439431960806082E+07
  1.209607708072621E+01   6.605186239185946E+00   3.080773189691694E+00   1.439431960806082E+07
  1.185900377440779E+01   6.726697168430687E+00   3.005670629148909E+00   1.439431960806082E+07
  1.162297261223247E+01   6.839843413520603E+00   2.908083770338436E+00   1.439431960806082E+07
  1.138947070868816E+01   6.937371083836689E+00   2.789953968560017E+00   1.439431960806082E+07
  1.116087313093052E+01   7.012548492011380E+00   2.653519857687952E+00   1.439431960806082E+07
  1.094031981070516E+01   7.059728066830423E+00   2.501244996846749E+00   1.439431960806082E+07
  1.073144379509020E+01   7.074796004614827E+00   2.335751528665508E+00   1.439431960806082E+07
  1.053798179080282E+01   7.055463171287859E+00   2.159759989493207E+00   1.439431960806082E+07
  1.036331737456726E+01   7.001369616201371E+00   1.976033362781126E+00   1.439431960806082E+07
  1.021001982788403E+01   6.913997167126645E+00   1.787322262911726E+00   1.439431960806082E+07
  1.007944524374744E+01   6.796407083545239E+00   1.596307998338776E+00   1.439431960806082E+07
  9.971460560258304E+00   6.652839741238305E+00   1.405541207474621E+00   1.439431960806082E+07
  9.884336135785423E+00   6.488228243158844E+00   1.217375598781005E+00   1.439431960806082E+07
  9.814830375797575E+00   6.307685839670547E+00   1.033898692499103E+00   1.439431960806082E+07
  9.758463813752615E+00   6.116027191805768E+00   8.568638755849587E-01   1.439431960806082E+07
  9.709953640667409E+00   5.917375996257847E+00   6.876300320320382E-01   1.439431960806082E+07
  9.663756779355175E+00   5.714897525010922E+00   5.271160442969212E-01   1.439431960806082E+07
  9.614653566642506E+00   5.510676292383590E+00   3.757772651946431E-01   1.439431960806082E+07
  9.558297346843487E+00   5.305738984164432E+00   2.336095228296792E-01   1.439431960806082E+07
  9.491658885809334E+00   5.100203783784584E+00   1.001834650547745E-01   1.439431960806082E+07
  9.413308093739957E+00   4.893521903097660E+00  -2.529158074852694E-02   1.439431960806082E+07
  9.323497260054346E+00   4.684767475416782E+00  -1.438790398980763E-01   1.439431960806082E+07
  9.224036830409121E+00   4.472929134423584E+00  -2.568103351196046E-01   1.439431960806082E+07
  9.117982913062420E+00   4.257160707103601E+00  -3.653752820476894E-01   1.439431960806082E+07
  9.009181195607681E+00   4.036958599464436E+00  -4.708203704145341E-01   1.439431960806082E+07
  8.901731156338982E+00   3.812247891824728E+00  -5.742673055405736E-01   1.439431960806082E+07
  8.799444633733199E+00   3.583375535853656E+00  -6.766619870881480E-01   1.439431960806082E+07
  8.705372532251232E+00   3.351024775743717E+00  -7.787602688283504E-01   1.439431960806082E+07
  8.621462756820101E+00   3.116077575487695E+00  -8.811518424846588E-01   1.439431960806082E+07
  8.548392942860929E+00   2.879459517226045E+00  -9.843180964280743E-01   1.439431960806082E+07
  8.485596015629477E+00   2.642003236880333E+00  -1.088714606353276E+00   1.439431960806082E+07
  8.431468763879888E+00   2.404361837459883E+00  -1.194864809472178E+00   1.439431960806082E+07
  8.383727463712749E+00   2.166993695524410E+00  -1.303449064722816E+00   1.439431960806082E+07
  8.339853894242308E+00   1.930226320313994E+00  -1.415373149894194E+00   1.439431960806082E+07
  8.297562798277927E+00   1.694391686400796E+00  -1.531802429071877E+00   1.439431960806082E+07
  8.255219678910748E+00   1.460011221509299E+00  -1.654152239012748E+00   1.439431960806082E+07
  8.212146031102661E+00   1.227997725910362E+00  -1.784030966998355E+00   1.439431960806082E+07
  8.168766425128180E+00   9.998357566077759E-01  -1.923139043029839E+00   1.439431960806082E+07
  8.126575710070828E+00   7.777024676944277E-01  -2.073133709926124E+00   1.439431960806082E+07
  8.087931480992957E+00   5.644976446923571E-01  -2.235475007440304E+00   1.439431960806082E+07
  8.055702925542999E+00   3.637638198471317E-01  -2.411272068573784E+00   1.439431960806082E+07
  8.032828463471576E+00   1.794931756087089E-01  -2.601149977815022E+00   1.439431960806082E+07
  8.021848148572920E+00   1.583511153226381E-02  -2.805155818966177E+00   1.439431960806082E+07
  8.024480695141781E+00  -1.232657051775834E-01  -3.022718266807959E+00   1.439431960806082E+07
  8.041308714884178E+00  -2.344586982031716E-01  -3.252668653692087E+00   1.439431960806082E+07
  8.071620278909592E+00  -3.153553473986284E-01  -3.493323689308252E+00   1.439431960806082E+07
  8.113432551153329E+00  -3.648269960784876E-01  -3.742621959746027E+00   1.439431960806082E+07
  8.163697250861469E+00  -3.831906765409654E-01  -3.998299080529257E+00   1.439431960806082E+07
  8.218661861547297E+00  -3.722541411752450E-01  -4.258080943362446E+00   1.439431960806082E+07
  8.274338520436137E+00  -3.352086440939110E-01  -4.519871664767443E+00   1.439431960806082E+07
  8.327017505382564E+00  -2.763773528320174E-01  -4.781913059592735E+00   1.439431960806082E+07
  8.373756251731120E+00  -2.008459057688409E-01  -5.042895754509883E+00   1.439431960806082E+07
  8.412778615791225E+00  -1.140169720408701E-01  -5.302008034093872E+00   1.439431960806082E+07
  8.443731972376945E+00  -2.114057307681724E-02  -5.558916408604077E+00   1.439431960806082E+07
  8.467769711219052E+00   7.312499455892307E-02  -5.813680669412637E+00   1.439431960806082E+07
  8.487450811932346E+00   1.650709616741171E-01  -6.066614685311889E+00   1.439431960806082E+07
  8.506472920603318E+00   2.521747631005838E-01  -6.318111250648158E+00   1.439431960806082E+07
  8.529277195096771E+00   3.331916964826989E-01  -6.568453972141576E+00   1.439431960806082E+07
  8.560579099222121E+00   4.080965428733258E-01  -6.817640843485262E+00   1.439431960806082E+07
  8.604887205402951E+00   4.778893042393006E-01  -7.065242582164470E+00   1.439431960806082E+07
  8.666071025876017E+00   5.442960734931382E-01  -7.310314208254781E+00   1.439431960806082E+07
  8.747029367628055E+00   6.094083414855336E-01  -7.551371357120219E+00   1.439431960806082E+07
  8.849494354788590E+00   6.753101831134568E-01  -7.786434386501029E+00   1.439431960806082E+07
  8.973985692468155E+00   7.437420632413113E-01  -8.013134603494999E+00   1.439431960806082E+07
  9.119908106145122E+00   8.158427482831340E-01  -8.228869070535012E+00   1.439431960806082E+07
  9.285765386490363E+00   8.919982015892798E-01  -8.430984493804361E+00   1.439431960806082E+07
  9.469449884666652E+00   9.718103053713126E-01  -8.616967421894383E+00   1.439431960806082E+07
  9.668558593498165E+00   1.054181147094847E+00  -8.784617779690301E+00   1.439431960806082E+07
  9.880686971773063E+00   1.137492876951248E+00  -8.932185598814208E+00   1.439431960806082E+07
  1.010365907988803E+01   1.219850958826086E+00  -9.058456231677820E+00   1.439431960806082E+07
  1.033566593903726E+01   1.299351597383704E+00  -9.162776554010938E+00   1.439431960806082E+07
  1.057530098651383E+01   1.374333033098087E+00  -9.245022642413419E+00   1.439431960806082E+07
  1.082149927813792E+01   1.443575171834342E+00  -9.305517047344111E+00   1.439431960806082E+07
  1.107340285016538E+01   1.506421721511564E+00  -9.344910029901154E+00   1.439431960806082E+07
  1.133018596609005E+01   1.562812021469202E+00  -9.364043172364754E+00   1.439431960806082E+07
  1.159087918063821E+01   1.613224016019188E+00  -9.363815115966524E+00   1.439431960806082E+07
  1.185422961111176E+01   1.658543173876427E+00  -9.345067723835314E+00   1.439431960806082E+07
  1.211862696617630E+01   1.699882632569541E+00  -9.308507008183529E+00   1.439431960806082E+07
  1.238211219563627E+01   1.738385991137392E+00  -9.254667339720630E+00   1.439431960806082E+07
  1.264247029437180E+01   1.775045225637968E+00  -9.183920661471360E+00   1.439431960806082E+07
  1.289739340994626E+01   1.810562194639556E+00  -9.096525659939125E+00   1.439431960806082E+07
  1.314468752535952E+01   1.845273936192872E+00  -8.992706073117148E+00   1.439431960806082E+07
  1.338248773435133E+01   1.879150856753450E+00  -8.872743336244417E+00   1.439431960806082E+07
  1.360944483982574E+01   1.911864788028394E+00  -8.737067100760008E+00   1.439431960806082E+07
  1.382485004650341E+01   1.942912653704708E+00  -8.586327979782983E+00   1.439431960806082E+07
  1.402867421375964E+01   1.971772865228925E+00  -8.421439981068605E+00   1.439431960806082E+07
  1.422151189212178E+01   1.998066823337654E+00  -8.243584966006605E+00   1.439431960806082E+07
  1.440443593685147E+01   2.021697674228303E+00  -8.054177358867168E+00   1.439431960806082E+07
  1.457878332912845E+01   2.042942674342659E+00  -7.854793337149669E+00   1.439431960806082E+07
  1.474590450827809E+01   2.062483388425413E+00  -7.647073981934907E+00   1.439431960806082E+07
  1.490691509973401E+01   2.081368164404590E+00  -7.432615612382046E+00   1.439431960806082E+07
  1.506248929829119E+01   2.100912245291225E+00  -7.212862267032208E+00   1.439431960806082E+07
  1.521272821236240E+01   2.122550772829509E+00  -6.989014829653212E+00   1.439431960806082E+07
  1.535712508447619E+01   2.147667289022443E+00  -6.761968759417906E+00   1.439431960806082E+07
  1.549463424370816E+01   2.177424059141945E+00  -6.532288203134904E+00   1.439431960806082E+07
  1.562383428229041E+01   2.212620122240243E+00  -6.300219096442647E+00   1.439431960806082E+07
  1.574316087101439E+01   2.253598574971745E+00  -6.065738479872197E+00   1.439431960806082E+07
  1.585117324095230E+01   2.300216978499324E+00  -5.828632447527405E+00   1.439431960806082E+07
  1.594681250062705E+01   2.351885193161116E+00  -5.588591582575654E+00   1.439431960806082E+07
  1.602961060618479E+01   2.407664911751379E+00  -5.345310879498333E+00   1.439431960806082E+07
  1.609981591643804E+01   2.466416229048434E+00  -5.098581203894387E+00   1.439431960806082E+07
  1.615841378566914E+01   2.526970087440319E+00  -4.848361203745933E+00   1.439431960806082E+07
  1.620703665833680E+01   2.588302292542652E+00  -4.594821904393112E+00   1.439431960806082E+07
  1.624777515392566E+01   2.649685363593828E+00  -4.338360435219224E+00   1.439431960806082E+07
  1.628291701461620E+01   2.710798542639627E+00  -4.079583782496456E+00   1.439431960806082E+07
  1.631465212068672E+01   2.771783065595216E+00  -3.819267469784765E+00   1.439431960806082E+07
  1.634478726542899E+01   2.833238127596372E+00  -3.558297063516401E+00   1.439431960806082E+07
  1.637451313333716E+01   2.896161484162690E+00  -3.297601998643795E+00   1.439431960806082E+07
  1.640425810065394E+01   2.961845975452606E+00  -3.038091264941750E+00   1.439431960806082E+07
  1.643365026291722E+01   3.031748346036561E+00  -2.780599086414795E+00   1.439431960806082E+07
  1.646159252530912E+01   3.107348879193284E+00  -2.525846186990166E+00   1.439431960806082E+07
  1.648643823838371E+01   3.190019414532494E+00  -2.274419053185432E+00   1.439431960806082E+07
  1.650623942969695E+01   3.280913644128005E+00  -2.026766347540113E+00   1.439431960806082E+07
  1.651902858959754E+01   3.380888012462227E+00  -1.783208850168696E+00   1.439431960806082E+07
  1.652308996864855E+01   3.490455206638833E+00  -1.543957460632576E+00   0.000000000000000E+00 2 CurveXYZFourier44 
  1.725131356537232E+01   9.257427674125951E+00  -2.915044519995514E+00   2.350870160472177E+07
  1.727056178542131E+01   9.221547604526924E+00  -2.539088708746746E+00   2.350870160472177E+07
  1.725558554778080E+01   9.182318431671565E+00  -2.165673316870617E+00   2.350870160472177E+07
  1.720650291999057E+01   9.137409178862981E+00  -1.799726487875605E+00   2.350870160472177E+07
  1.712430050983837E+01   9.084899899848258E+00  -1.445182079089875E+00   2.350870160472177E+07
  1.701091100570043E+01   9.023541733372438E+00  -1.104537027096777E+00   2.350870160472177E+07
  1.686921447194948E+01   8.953014398901567E+00  -7.785863727997188E-01   2.350870160472177E+07
  1.670294609875007E+01   8.874153433644716E+00  -4.663863295088241E-01   2.350870160472177E+07
  1.651650415658422E+01   8.789115271933841E+00  -1.654658896094515E-01   2.350870160472177E+07
  1.631466562351153E+01   8.701447744462694E+00   1.277270177398661E-01   2.350870160472177E+07
  1.610223143454651E+01   8.616037604158013E+00   4.171930305266977E-01   2.350870160472177E+07
  1.588363634311534E+01   8.538915551962539E+00   7.066397145274180E-01   2.350870160472177E+07
  1.566256780894174E+01   8.476912507238181E+00   9.987273319844655E-01   2.350870160472177E+07
  1.544164233501642E+01   8.437177373275560E+00   1.294405176358354E+00   2.350870160472177E+07
  1.522218515215569E+01   8.426584472398382E+00   1.592434112867201E+00   2.350870160472177E+07
  1.500414987956567E+01   8.451075907426684E+00   1.889169933312039E+00   2.350870160472177E+07
  1.478619955539476E+01   8.514997931204457E+00   2.178650143254466E+00   2.350870160472177E+07
  1.456595095386849E+01   8.620498739423891E+00   2.452988015258684E+00   2.350870160472177E+07
  1.434036284532636E+01   8.767056230459737E+00   2.703037371731378E+00   2.350870160472177E+07
  1.410622868825439E+01   8.951197296353332E+00   2.919255128403221E+00   2.350870160472177E+07
  1.386071805915286E+01   9.166455224328141E+00   3.092661192089391E+00   2.350870160472177E+07
  1.360190141089513E+01   9.403589972659677E+00   3.215780732862410E+00   2.350870160472177E+07
  1.332919119995832E+01   9.651069602756367E+00   3.283454263365603E+00   2.350870160472177E+07
  1.304363966631305E+01   9.895782929814132E+00   3.293416420510242E+00   2.350870160472177E+07
  1.274804901161826E+01   1.012392684538972E+01   3.246572843490938E+00   2.350870160472177E+07
  1.244687165646288E+01   1.032199011126059E+01   3.146942262730868E+00   2.350870160472177E+07
  1.214590395506905E+01   1.047774162199753E+01   3.001272776371576E+00   2.350870160472177E+07
  1.185180288045665E+01   1.058112722858475E+01   2.818381661081489E+00   2.350870160472177E+07
  1.157147827338411E+01   1.062498609264827E+01   2.608301547473155E+00   2.350870160472177E+07
  1.131143010366891E+01   1.060551476315011E+01   2.381337984578396E+00   2.350870160472177E+07
  1.107710842531559E+01   1.052243298301106E+01   2.147151520184541E+00   2.350870160472177E+07
  1.087237204673443E+01   1.037883676019407E+01   1.913970608071945E+00   2.350870160472177E+07
  1.069911044179726E+01   1.018075780526174E+01   1.688021160173778E+00   2.350870160472177E+07
  1.055707349884701E+01   9.936480040306945E+00   1.473227494912442E+00   2.350870160472177E+07
  1.044392791639677E+01   9.655689694079632E+00   1.271202290934273E+00   2.350870160472177E+07
  1.035553080821381E+01   9.348552361301486E+00   1.081505171311965E+00   2.350870160472177E+07
  1.028638414321565E+01   9.024816258885645E+00   9.021159298504819E-01   2.350870160472177E+07
  1.023021162621757E+01   8.693035067739016E+00   7.300436220899531E-01   2.350870160472177E+07
  1.018058547094807E+01   8.359986988188664E+00   5.619798578569485E-01   2.350870160472177E+07
  1.013152609588921E+01   8.030341121572201E+00   3.949049493114858E-01   2.350870160472177E+07
  1.007800361149319E+01   7.706591284962636E+00   2.265684704646254E-01   2.350870160472177E+07
  1.001628516832648E+01   7.389244813963222E+00   5.578887969685703E-02   2.350870160472177E+07
  9.944094607279583E+00   7.077223916755426E+00  -1.174536194559182E-01   2.350870160472177E+07
  9.860577215339752E+00   6.768413443229288E+00  -2.921254000661037E-01   2.350870160472177E+07
  9.766089026903959E+00   6.460274396330757E+00  -4.664146918428228E-01   2.350870160472177E+07
  9.661853295562839E+00   6.150438776437108E+00  -6.381177516224914E-01   2.350870160472177E+07
  9.549543289556258E+00   5.837208614732181E+00  -8.050676808111972E-01   2.350870160472177E+07
  9.430858205972291E+00   5.519899072540197E+00  -9.655364393003829E-01   2.350870160472177E+07
  9.307156814669622E+00   5.198989752252334E+00  -1.118549960040660E+00   2.350870160472177E+07
  9.179201912320389E+00   4.876076463805482E+00  -1.264074189237581E+00   2.350870160472177E+07
  9.047049612690117E+00   4.553643762367996E+00  -1.403053138433366E+00   2.350870160472177E+07
  8.910093817950294E+00   4.234702848810558E+00  -1.537304718329676E+00   2.350870160472177E+07
  8.767251453763514E+00   3.922356729449322E+00  -1.669302249807867E+00   2.350870160472177E+07
  8.617251886576728E+00   3.619362703048382E+00  -1.801885697711390E+00   2.350870160472177E+07
  8.458977650044583E+00   3.327760406295150E+00  -1.937954515374827E+00   2.350870160472177E+07
  8.291795584356256E+00   3.048622311089478E+00  -2.080192616569610E+00   2.350870160472177E+07
  8.115818906269359E+00   2.781964521014902E+00  -2.230866035523271E+00   2.350870160472177E+07
  7.932051352711191E+00   2.526831768229377E+00  -2.391717322491489E+00   2.350870160472177E+07
  7.742382790958959E+00   2.281545083161492E+00  -2.563960720733686E+00   2.350870160472177E+07
  7.549428851184132E+00   2.044077243040648E+00  -2.748362271469488E+00   2.350870160472177E+07
  7.356231770683974E+00   1.812502984450391E+00  -2.945372712304308E+00   2.350870160472177E+07
  7.165862075258604E+00   1.585460480522102E+00  -3.155271232880469E+00   2.350870160472177E+07
  6.980977603151577E+00   1.362559021967027E+00  -3.378276565439698E+00   2.350870160472177E+07
  6.803405141740484E+00   1.144675233827528E+00  -3.614588842698327E+00   2.350870160472177E+07
  6.633809211319870E+00   9.340953069886706E-01  -3.864340007716104E+00   2.350870160472177E+07
  6.471502285228087E+00   7.344813904096752E-01  -4.127449879761677E+00   2.350870160472177E+07
  6.314432352787763E+00   5.506635414263618E-01  -4.403405939501205E+00   2.350870160472177E+07
  6.159359766352972E+00   3.882812550791916E-01  -4.691003811566934E+00   2.350870160472177E+07
  6.002209137911506E+00   2.533175512043844E-01  -4.988098852651653E+00   2.350870160472177E+07
  5.838557367825311E+00   1.515814410310979E-01  -5.291424573171136E+00   2.350870160472177E+07
  5.664199202720851E+00   8.819978453349329E-02  -5.596529466267884E+00   2.350870160472177E+07
  5.475719835152333E+00   6.717664207774578E-02  -5.897870339353211E+00   2.350870160472177E+07
  5.271001679126502E+00   9.106789637708192E-02  -6.189079119638033E+00   2.350870160472177E+07
  5.049599948784506E+00   1.608028401889371E-01  -6.463394317969077E+00   2.350870160472177E+07
  4.812938012765460E+00   2.756649813774494E-01  -6.714221732879633E+00   2.350870160472177E+07
  4.564296440062240E+00   4.334242637238856E-01  -6.935765692817156E+00   2.350870160472177E+07
  4.308596032577807E+00   6.305949590543938E-01  -7.123655951574876E+00   2.350870160472177E+07
  4.052001338051764E+00   8.627799608946712E-01  -7.275489106305343E+00   2.350870160472177E+07
  3.801393595708618E+00   1.125054689753987E+00  -7.391208528101234E+00   2.350870160472177E+07
  3.563777784786428E+00   1.412342981332612E+00  -7.473263049336301E+00   2.350870160472177E+07
  3.345695394035609E+00   1.719742880745518E+00  -7.526510139554119E+00   2.350870160472177E+07
  3.152711922287230E+00   2.042771036388674E+00  -7.557860701484239E+00   2.350870160472177E+07
  2.989036503705743E+00   2.377508531920935E+00  -7.575695653384176E+00   2.350870160472177E+07
  2.857312207108967E+00   2.720646293902488E+00  -7.589114515068749E+00   2.350870160472177E+07
  2.758592227331692E+00   3.069442408768861E+00  -7.607098998148708E+00   2.350870160472177E+07
  2.692492663712666E+00   3.421614811090751E+00  -7.637686798647444E+00   2.350870160472177E+07
  2.657490241639121E+00   3.775199464777727E+00  -7.687250548588726E+00   2.350870160472177E+07
  2.651316155693259E+00   4.128405690529131E+00  -7.759964097474531E+00   2.350870160472177E+07
  2.671387368582534E+00   4.479496837595468E+00  -7.857514638259599E+00   2.350870160472177E+07
  2.715215268509735E+00   4.826716935475521E+00  -7.979087885562967E+00   2.350870160472177E+07
  2.780738435607545E+00   5.168273740022704E+00  -8.121618863618261E+00   2.350870160472177E+07
  2.866540104149060E+00   5.502377478311188E+00  -8.280267642319314E+00   2.350870160472177E+07
  2.971929501755509E+00   5.827324403473485E+00  -8.449052124871164E+00   2.350870160472177E+07
  3.096886780114596E+00   6.141606558755790E+00  -8.621552416542066E+00   2.350870160472177E+07
  3.241890737368423E+00   6.444025012671733E+00  -8.791595665291149E+00   2.350870160472177E+07
  3.407664251529420E+00   6.733783740023887E+00  -8.953837115971181E+00   2.350870160472177E+07
  3.594882227918944E+00   7.010545098937287E+00  -9.104171230228433E+00   2.350870160472177E+07
  3.803889767635003E+00   7.274434699609359E+00  -9.239933277051049E+00   2.350870160472177E+07
  4.034474100905641E+00   7.525992129860741E+00  -9.359882818836255E+00   2.350870160472177E+07
  4.285723540416452E+00   7.766073010740188E+00  -9.463991466052304E+00   2.350870160472177E+07
  4.555992088481799E+00   7.995715723235287E+00  -9.553083718968900E+00   2.350870160472177E+07
  4.842971726465166E+00   8.215991635792175E+00  -9.628397981359246E+00   2.350870160472177E+07
  5.143858360399588E+00   8.427859961603550E+00  -9.691142524439520E+00   2.350870160472177E+07
  5.455584233231319E+00   8.632047216552550E+00  -9.742117517204083E+00   2.350870160472177E+07
  5.775081146796689E+00   8.828966931631852E+00  -9.781460136063087E+00   2.350870160472177E+07
  6.099536089352369E+00   9.018688595356560E+00  -9.808547663853673E+00   2.350870160472177E+07
  6.426603959103692E+00   9.200956915120278E+00  -9.822066959154116E+00   2.350870160472177E+07
  6.754550250533510E+00   9.375254703333827E+00  -9.820231867183290E+00   2.350870160472177E+07
  7.082308338514531E+00   9.540896269138992E+00  -9.801107135346706E+00   2.350870160472177E+07
  7.409449392723290E+00   9.697134126582588E+00  -9.762981591486037E+00   2.350870160472177E+07
  7.736075865919045E+00   9.843260701563178E+00  -9.704726959869383E+00   2.350870160472177E+07
  8.062659985208569E+00   9.978688624865228E+00  -9.626082450236487E+00   2.350870160472177E+07
  8.389855263485375E+00   1.010299773414343E+01  -9.527818302205450E+00   2.350870160472177E+07
  8.718310940513724E+00   1.021594325403042E+01  -9.411751529426537E+00   2.350870160472177E+07
  9.048516429190194E+00   1.031742668781563E+01  -9.280610876422541E+00   2.350870160472177E+07
  9.380695990620069E+00   1.040743755475383E+01  -9.137771662877105E+00   2.350870160472177E+07
  9.714764295071598E+00   1.048597916749545E+01  -8.986901030089227E+00   2.350870160472177E+07
  1.005034291119132E+01   1.055299436512973E+01  -8.831567084132875E+00   2.350870160472177E+07
  1.038682785271490E+01   1.060830709985556E+01  -8.674869653825285E+00   2.350870160472177E+07
  1.072349065028973E+01   1.065159307552411E+01  -8.519145375428348E+00   2.350870160472177E+07
  1.105959111625499E+01   1.068238774527393E+01  -8.365786582884086E+00   2.350870160472177E+07
  1.139447954260080E+01   1.070013372843138E+01  -8.215194321821784E+00   2.350870160472177E+07
  1.172766936979234E+01   1.070426313858462E+01  -8.066863931016677E+00   2.350870160472177E+07
  1.205886763405362E+01   1.069430448600458E+01  -7.919580649535176E+00   2.350870160472177E+07
  1.238795853402913E+01   1.066999964155315E+01  -7.771686022008493E+00   2.350870160472177E+07
  1.271494380846543E+01   1.063141444671176E+01  -7.621366158482829E+00   2.350870160472177E+07
  1.303985085326179E+01   1.057902716112994E+01  -7.466911662129082E+00   2.350870160472177E+07
  1.336262445334367E+01   1.051378187941112E+01  -7.306906365510677E+00   2.350870160472177E+07
  1.368301993354412E+01   1.043709877843174E+01  -7.140316594667700E+00   2.350870160472177E+07
  1.400051427090739E+01   1.035083876598984E+01  -6.966471989667502E+00   2.350870160472177E+07
  1.431424765487774E+01   1.025722586198223E+01  -6.784949639746639E+00   2.350870160472177E+07
  1.462300201002975E+01   1.015873556754383E+01  -6.595391879209752E+00   2.350870160472177E+07
  1.492521630017811E+01   1.005796087033607E+01  -6.397301307865013E+00   2.350870160472177E+07
  1.521903229767288E+01   9.957469004141767E+00  -6.189862084464558E+00   2.350870160472177E+07
  1.550236007100942E+01   9.859661596419576E+00  -5.971833196286932E+00   2.350870160472177E+07
  1.577295051279933E+01   9.766648716226742E+00  -5.741547599811312E+00   2.350870160472177E+07
  1.602846310147587E+01   9.680144170491118E+00  -5.497032652686662E+00   2.350870160472177E+07
  1.626652051845138E+01   9.601385934902195E+00  -5.236245074952747E+00   2.350870160472177E+07
  1.648474697695523E+01   9.531082593999351E+00  -4.957391451199185E+00   2.350870160472177E+07
  1.668079303790793E+01   9.469384701223090E+00  -4.659286802641786E+00   2.350870160472177E+07
  1.685235500400365E+01   9.415879379322652E+00  -4.341692318516235E+00   2.350870160472177E+07
  1.699720048062043E+01   9.369607246426964E+00  -4.005571203674815E+00   2.350870160472177E+07
  1.711321246191815E+01   9.329102506202542E+00  -3.653209606738015E+00   2.350870160472177E+07
  1.719846192438401E+01   9.292459130109561E+00  -3.288166964490796E+00   2.350870160472177E+07
  1.725131356537232E+01   9.257427674125951E+00  -2.915044519995514E+00   0.000000000000000E+00 3 CurveXYZFourier45 
  1.190193831302552E+01   1.217903696573473E+01  -1.831876424183051E+00   7.114895955665369E+06
  1.183334637064899E+01   1.222069141851509E+01  -1.596438858581587E+00   7.114895955665369E+06
  1.173833580920413E+01   1.226495473971764E+01  -1.370933702659858E+00   7.114895955665369E+06
  1.161962673121162E+01   1.230979468228346E+01  -1.156208901991675E+00   7.114895955665369E+06
  1.148033478464406E+01   1.235288608663317E+01  -9.519255504074496E-01   7.114895955665369E+06
  1.132398272540028E+01   1.239157641852624E+01  -7.567109004117040E-01   7.114895955665369E+06
  1.115451195969492E+01   1.242287008042304E+01  -5.684288291332302E-01   7.114895955665369E+06
  1.097626950300586E+01   1.244345372090581E+01  -3.845422375790691E-01   7.114895955665369E+06
  1.079394693750273E+01   1.244977965656203E+01  -2.025305058899438E-01   7.114895955665369E+06
  1.061245415637908E+01   1.243821557587009E+01  -2.031712330811320E-02   7.114895955665369E+06
  1.043672117133699E+01   1.240525724212822E+01   1.633408706047322E-01   7.114895955665369E+06
  1.027143447543311E+01   1.234778874749570E+01   3.485482141846180E-01   7.114895955665369E+06
  1.012072829396804E+01   1.226336398405256E+01   5.340908746527607E-01   7.114895955665369E+06
  9.987863185398000E+00   1.215047526911383E+01   7.174067643473426E-01   7.114895955665369E+06
  9.874932671169377E+00   1.200877195833761E+01   8.947187731816947E-01   7.114895955665369E+06
  9.782641170115012E+00   1.183919421515149E+01   1.061322857809203E+00   7.114895955665369E+06
  9.710192570325427E+00   1.164399489016958E+01   1.212005454581776E+00   7.114895955665369E+06
  9.655318342176249E+00   1.142663487887585E+01   1.341548067241450E+00   7.114895955665369E+06
  9.614458246096246E+00   1.119155281236964E+01   1.445264634508492E+00   7.114895955665369E+06
  9.583087382470493E+00   1.094382640879909E+01   1.519510935461296E+00   7.114895955665369E+06
  9.556163177527361E+00   1.068875795162217E+01   1.562105937381779E+00   7.114895955665369E+06
  9.528647788268890E+00   1.043142794460371E+01   1.572612913168250E+00   7.114895955665369E+06
  9.496048094219875E+00   1.017626723062490E+01   1.552442735352053E+00   7.114895955665369E+06
  9.454909125492701E+00   9.926697661543662E+00   1.504761500977868E+00   7.114895955665369E+06
  9.403198758463233E+00   9.684884556845184E+00   1.434207338360763E+00   7.114895955665369E+06
  9.340531969779853E+00   9.451631407099226E+00   1.346444196501299E+00   7.114895955665369E+06
  9.268200858425114E+00   9.226430130757370E+00   1.247600770763054E+00   7.114895955665369E+06
  9.188999911908740E+00   9.007660890503452E+00   1.143657832905851E+00   7.114895955665369E+06
  9.106861662709976E+00   8.792916573654386E+00   1.039855028677555E+00   7.114895955665369E+06
  9.026342569392133E+00   8.579411086764416E+00   9.401874548526598E-01   7.114895955665369E+06
  8.952019299646359E+00   8.364419789561866E+00   8.470528501979783E-01   7.114895955665369E+06
  8.887868719811310E+00   8.145696206613598E+00   7.610929618382771E-01   7.114895955665369E+06
  8.836708843787747E+00   7.921812226852462E+00   6.812495389947054E-01   7.114895955665369E+06
  8.799772001017592E+00   7.692378970451567E+00   6.050292273287200E-01   7.114895955665369E+06
  8.776466117269360E+00   7.458121072409094E+00   5.289456297130903E-01   7.114895955665369E+06
  8.764357110790227E+00   7.220796245178148E+00   4.490842688820906E-01   7.114895955665369E+06
  8.759377883463692E+00   6.982972102955046E+00   3.617200757985647E-01   7.114895955665369E+06
  8.756240790473379E+00   6.747690691925305E+00   2.639095192081047E-01   7.114895955665369E+06
  8.749004548392087E+00   6.518065542975258E+00   1.539817104074266E-01   7.114895955665369E+06
  8.731726715333389E+00   6.296864480798342E+00   3.186465468521914E-02   7.114895955665369E+06
  8.699121783683086E+00   6.086132835951057E+00  -1.007970746219661E-01   7.114895955665369E+06
  8.647144051136372E+00   5.886906014028761E+00  -2.407510354473621E-01   7.114895955665369E+06
  8.573423908890943E+00   5.699048429851278E+00  -3.834612696594011E-01   7.114895955665369E+06
  8.477504761822683E+00   5.521239286783536E+00  -5.236101031902767E-01   7.114895955665369E+06
  8.360853024070307E+00   5.351106824221744E+00  -6.557162654323155E-01   7.114895955665369E+06
  8.226642193541940E+00   5.185493984322618E+00  -7.747928264930790E-01   7.114895955665369E+06
  8.079340160522749E+00   5.020822391612976E+00  -8.769626673685230E-01   7.114895955665369E+06
  7.924152996868914E+00   4.853510112437958E+00  -9.599538227586483E-01   7.114895955665369E+06
  7.766395429981410E+00   4.680393205492525E+00  -1.023411546987750E+00   7.114895955665369E+06
  7.610865942155709E+00   4.499102091792460E+00  -1.068986545100498E+00   7.114895955665369E+06
  7.461302116194390E+00   4.308350884586279E+00  -1.100186623093086E+00   7.114895955665369E+06
  7.319979982898538E+00   4.108109851733223E+00  -1.122008496204457E+00   7.114895955665369E+06
  7.187501478162965E+00   3.899646353147154E+00  -1.140393879990132E+00   7.114895955665369E+06
  7.062789439503066E+00   3.685435784260699E+00  -1.161575771412038E+00   7.114895955665369E+06
  6.943283213031822E+00   3.468959111363613E+00  -1.191394229413069E+00   7.114895955665369E+06
  6.825303381121075E+00   3.254415620677828E+00  -1.234664299926044E+00   7.114895955665369E+06
  6.704534493290628E+00   3.046387149044822E+00  -1.294671622055334E+00   7.114895955665369E+06
  6.576562364840987E+00   2.849492627335274E+00  -1.372854678224414E+00   7.114895955665369E+06
  6.437398818376203E+00   2.668069293177342E+00  -1.468708810049823E+00   7.114895955665369E+06
  6.283931799508505E+00   2.505910150811789E+00  -1.579919137504225E+00   7.114895955665369E+06
  6.114251540534101E+00   2.366077448319643E+00  -1.702701024270088E+00   7.114895955665369E+06
  5.927821827907177E+00   2.250800706015568E+00  -1.832301387300710E+00   7.114895955665369E+06
  5.725486735783273E+00   2.161456835335122E+00  -1.963595160161363E+00   7.114895955665369E+06
  5.509324436442920E+00   2.098620627315670E+00  -2.091700924312211E+00   7.114895955665369E+06
  5.282378063056673E+00   2.062167468983648E+00  -2.212539290089377E+00   7.114895955665369E+06
  5.048306796271901E+00   2.051407145295740E+00  -2.323266905158753E+00   7.114895955665369E+06
  4.811006922780701E+00   2.065228011054654E+00  -2.422536591028393E+00   7.114895955665369E+06
  4.574252116781710E+00   2.102234148524619E+00  -2.510557594966925E+00   7.114895955665369E+06
  4.341395178630306E+00   2.160863433190065E+00  -2.588956115610202E+00   7.114895955665369E+06
  4.115161360537498E+00   2.239480558409773E+00  -2.660461653344404E+00   7.114895955665369E+06
  3.897548273183683E+00   2.336444848458990E+00  -2.728466070997148E+00   7.114895955665369E+06
  3.689831549817254E+00   2.450157128715163E+00  -2.796516859866637E+00   7.114895955665369E+06
  3.492661232783925E+00   2.579092370597039E+00  -2.867812278551624E+00   7.114895955665369E+06
  3.306223135197330E+00   2.721825067756894E+00  -2.944763215336342E+00   7.114895955665369E+06
  3.130433463234235E+00   2.877052554770823E+00  -3.028675472102457E+00   7.114895955665369E+06
  2.965134214951535E+00   3.043618357103482E+00  -3.119588418834132E+00   7.114895955665369E+06
  2.810260941224905E+00   3.220534020072929E+00  -3.216284187471927E+00   7.114895955665369E+06
  2.665962300056932E+00   3.406994644360605E+00  -3.316458784511610E+00   7.114895955665369E+06
  2.532660897047813E+00   3.602381394473163E+00  -3.417025763596163E+00   7.114895955665369E+06
  2.411055399531527E+00   3.806244119754690E+00  -3.514507096775407E+00   7.114895955665369E+06
  2.302073128714404E+00   4.018259134358019E+00  -3.605456573108789E+00   7.114895955665369E+06
  2.206788901618692E+00   4.238160921272855E+00  -3.686859422914251E+00   7.114895955665369E+06
  2.126328981017999E+00   4.465651444437516E+00  -3.756457829042345E+00   7.114895955665369E+06
  2.061778408488959E+00   4.700295973008102E+00  -3.812964430163805E+00   7.114895955665369E+06
  2.014106192278143E+00   4.941418813180701E+00  -3.856142891312414E+00   7.114895955665369E+06
  1.984116774102988E+00   5.188015129785220E+00  -3.886753614511479E+00   7.114895955665369E+06
  1.972429217457910E+00   5.438695381957757E+00  -3.906381003903904E+00   7.114895955665369E+06
  1.979479047026404E+00   5.691676436722060E+00  -3.917173893456164E+00   7.114895955665369E+06
  2.005532870506540E+00   5.944828272098172E+00  -3.921540827458448E+00   7.114895955665369E+06
  2.050703705692899E+00   6.195777926122884E+00  -3.921845672593503E+00   7.114895955665369E+06
  2.114955676008130E+00   6.442063984737564E+00  -3.920146271203023E+00   7.114895955665369E+06
  2.198090216667188E+00   6.681326687386277E+00  -3.918010177152576E+00   7.114895955665369E+06
  2.299711418557242E+00   6.911511990828923E+00  -3.916428406005477E+00   7.114895955665369E+06
  2.419174509457242E+00   7.131063850621238E+00  -3.915832605937539E+00   7.114895955665369E+06
  2.555527431953631E+00   7.339078392674861E+00  -3.916205406866569E+00   7.114895955665369E+06
  2.707459776523935E+00   7.535396893352787E+00  -3.917260161371835E+00   7.114895955665369E+06
  2.873274997951711E+00   7.720621327402014E+00  -3.918656708350365E+00   7.114895955665369E+06
  3.050900373194658E+00   7.896045871835609E+00  -3.920215405683553E+00   7.114895955665369E+06
  3.237944599246017E+00   8.063508894109004E+00  -3.922092956367709E+00   7.114895955665369E+06
  3.431805897799280E+00   8.225181034684606E+00  -3.924890147202774E+00   7.114895955665369E+06
  3.629825083511108E+00   8.383314382755904E+00  -3.929672447403984E+00   7.114895955665369E+06
  3.829469660548622E+00   8.539983987236056E+00  -3.937897831901790E+00   7.114895955665369E+06
  4.028528106751814E+00   8.696855000717795E+00  -3.951260241219571E+00   7.114895955665369E+06
  4.225289379779885E+00   8.855006161890067E+00  -3.971469774176596E+00   7.114895955665369E+06
  4.418682228185706E+00   9.014833293272165E+00  -4.000000282107346E+00   7.114895955665369E+06
  4.608352440035093E+00   9.176045899115016E+00  -4.037840220929053E+00   7.114895955665369E+06
  4.794663397905115E+00   9.337757217436131E+00  -4.085282782465555E+00   7.114895955665369E+06
  4.978615301649590E+00   9.498654990351431E+00  -4.141786532182419E+00   7.114895955665369E+06
  5.161689750774766E+00   9.657228649162345E+00  -4.205928758774434E+00   7.114895955665369E+06
  5.345637350060771E+00   9.812020271524650E+00  -4.275461770441555E+00   7.114895955665369E+06
  5.532234901371253E+00   9.961862833561810E+00  -4.347469087611637E+00   7.114895955665369E+06
  5.723044111395846E+00   1.010607059843491E+01  -4.418605642041551E+00   7.114895955665369E+06
  5.919204611498600E+00   1.024455286735966E+01  -4.485395345680887E+00   7.114895955665369E+06
  6.121290143324314E+00   1.037783294518988E+01  -4.544552064697995E+00   7.114895955665369E+06
  6.329248431110216E+00   1.050696758707194E+01  -4.593286969159251E+00   7.114895955665369E+06
  6.542433641058081E+00   1.063337651487452E+01  -4.629566704009437E+00   7.114895955665369E+06
  6.759727054382433E+00   1.075860478258546E+01  -4.652292543607591E+00   7.114895955665369E+06
  6.979728584055766E+00   1.088405092489706E+01  -4.661379842676532E+00   7.114895955665369E+06
  7.200990984155015E+00   1.101069945321879E+01  -4.657728492696662E+00   7.114895955665369E+06
  7.422261686951150E+00   1.113889651359084E+01  -4.643087332971377E+00   7.114895955665369E+06
  7.642695265757157E+00   1.126820230104712E+01  -4.619827118092405E+00   7.114895955665369E+06
  7.862002950029067E+00   1.139734382763967E+01  -4.590646419498434E+00   7.114895955665369E+06
  8.080514011122718E+00   1.152427824674955E+01  -4.558241733981381E+00   7.114895955665369E+06
  8.299136047516644E+00   1.164636201530401E+01  -4.524976461706509E+00   7.114895955665369E+06
  8.519215501263467E+00   1.176060682037646E+01  -4.492583096484887E+00   7.114895955665369E+06
  8.742314077619215E+00   1.186399141879434E+01  -4.461929145543315E+00   7.114895955665369E+06
  8.969929036705350E+00   1.195379097759503E+01  -4.432870518353197E+00   7.114895955665369E+06
  9.203193784673008E+00   1.202788319117219E+01  -4.404207206085663E+00   7.114895955665369E+06
  9.442598572626206E+00   1.208499366445186E+01  -4.373745976844555E+00   7.114895955665369E+06
  9.687768918177090E+00   1.212485127627857E+01  -4.338464538916441E+00   7.114895955665369E+06
  9.937331920099711E+00   1.214823624887550E+01  -4.294762118570791E+00   7.114895955665369E+06
  1.018888903631981E+01   1.215691769757674E+01  -4.238773468621938E+00   7.114895955665369E+06
  1.043909984212607E+01   1.215349150525101E+01  -4.166717589759703E+00   7.114895955665369E+06
  1.068386683215985E+01   1.214114147703639E+01  -4.075249315072334E+00   7.114895955665369E+06
  1.091859856950728E+01   1.212335522718169E+01  -3.961781565940526E+00   7.114895955665369E+06
  1.113851923450785E+01   1.210363004000520E+01  -3.824748511120542E+00   7.114895955665369E+06
  1.133898815052095E+01   1.208520265883779E+01  -3.663784835120017E+00   7.114895955665369E+06
  1.151579368998579E+01   1.207083098058443E+01  -3.479803461885786E+00   7.114895955665369E+06
  1.166539180334347E+01   1.206264605082033E+01  -3.274962853410915E+00   7.114895955665369E+06
  1.178506921438496E+01   1.206208116265767E+01  -3.052524754907323E+00   7.114895955665369E+06
  1.187302344383271E+01   1.206987312305020E+01  -2.816613237184673E+00   7.114895955665369E+06
  1.192836428317791E+01   1.208612069686214E+01  -2.571895279222889E+00   7.114895955665369E+06
  1.195105215106745E+01   1.211037839498560E+01  -2.323211109082207E+00   7.114895955665369E+06
  1.194179623326363E+01   1.214176111597759E+01  -2.075188290073439E+00   7.114895955665369E+06
  1.190193831302552E+01   1.217903696573473E+01  -1.831876424183051E+00   0.000000000000000E+00 4 CurveXYZFourier46 
  9.177388263155475E+00   1.361932733337908E+01  -3.775624022921866E-01   4.463831497187808E+06
  9.111023961745968E+00   1.363052046057521E+01  -1.703517356030828E-01   4.463831497187808E+06
  9.032418401597742E+00   1.362612791955613E+01   3.359128825933574E-02   4.463831497187808E+06
  8.945063491999720E+00   1.360443284966945E+01   2.335117933295645E-01   4.463831497187808E+06
  8.852648589441245E+00   1.356400055082375E+01   4.286753679497485E-01   4.463831497187808E+06
  8.758872552414839E+00   1.350378034280008E+01   6.182432104850923E-01   4.463831497187808E+06
  8.667241028850874E+00   1.342319080429638E+01   8.011703432925287E-01   4.463831497187808E+06
  8.580864617405119E+00   1.332217935948237E+01   9.761464460961492E-01   4.463831497187808E+06
  8.502275519619580E+00   1.320124886342515E+01   1.141592859679559E+00   4.463831497187808E+06
  8.433280386901405E+00   1.306144656057151E+01   1.295720988562450E+00   4.463831497187808E+06
  8.374865032786643E+00   1.290431429351136E+01   1.436647872840148E+00   4.463831497187808E+06
  8.327162571591231E+00   1.273180273688868E+01   1.562555498856551E+00   4.463831497187808E+06
  8.289490695432317E+00   1.254615625828183E+01   1.671872873956418E+00   4.463831497187808E+06
  8.260456814384076E+00   1.234977827997301E+01   1.763455194152124E+00   4.463831497187808E+06
  8.238122460245686E+00   1.214508929603882E+01   1.836733386876060E+00   4.463831497187808E+06
  8.220211594859594E+00   1.193439066123196E+01   1.891810195753496E+00   4.463831497187808E+06
  8.204342153367675E+00   1.171974674395929E+01   1.929485496965387E+00   4.463831497187808E+06
  8.188257035872256E+00   1.150289604543823E+01   1.951202857650702E+00   4.463831497187808E+06
  8.170030334270164E+00   1.128519864224709E+01   1.958920191004269E+00   4.463831497187808E+06
  8.148227014159517E+00   1.106762318957951E+01   1.954918197481263E+00   4.463831497187808E+06
  8.121999370169684E+00   1.085077222840761E+01   1.941569535203179E+00   4.463831497187808E+06
  8.091110789593511E+00   1.063494022882564E+01   1.921097953780853E+00   4.463831497187808E+06
  8.055885853824824E+00   1.042019521429115E+01   1.895358968340937E+00   4.463831497187808E+06
  8.017094548898108E+00   1.020647239783290E+01   1.865671605327811E+00   4.463831497187808E+06
  7.975786254283694E+00   9.993667321263533E+00   1.832724500320973E+00   4.463831497187808E+06
  7.933095224217673E+00   9.781716629793463E+00   1.796569958363535E+00   4.463831497187808E+06
  7.890042676723128E+00   9.570656737886464E+00   1.756707789986372E+00   4.463831497187808E+06
  7.847360896660627E+00   9.360653954452209E+00   1.712248428174563E+00   4.463831497187808E+06
  7.805361868516087E+00   9.152003688982470E+00   1.662133729639312E+00   4.463831497187808E+06
  7.763867219238311E+00   8.945100613979710E+00   1.605385540959176E+00   4.463831497187808E+06
  7.722208378933845E+00   8.740385551983357E+00   1.541347770390084E+00   4.463831497187808E+06
  7.679296847424961E+00   8.538277882557955E+00   1.469888009490310E+00   4.463831497187808E+06
  7.633755432588687E+00   8.339104044283971E+00   1.391529712730702E+00   4.463831497187808E+06
  7.584093453542274E+00   8.143033031365880E+00   1.307494935196593E+00   4.463831497187808E+06
  7.528903185631353E+00   7.950028645650077E+00   1.219649449816490E+00   4.463831497187808E+06
  7.467051996203686E+00   7.759825851566204E+00   1.130355117237791E+00   4.463831497187808E+06
  7.397845039745613E+00   7.571935250465217E+00   1.042246886454678E+00   4.463831497187808E+06
  7.321136988944620E+00   7.385675914187726E+00   9.579620555797999E-01   4.463831497187808E+06
  7.237377605635380E+00   7.200233115611058E+00   8.798560210944135E-01   4.463831497187808E+06
  7.147584186536494E+00   7.014734361643392E+00   8.097407947984497E-01   4.463831497187808E+06
  7.053242998903340E+00   6.828334974047885E+00   7.486798010049215E-01   4.463831497187808E+06
  6.956150597099327E+00   6.640303531674220E+00   6.968652736753312E-01   4.463831497187808E+06
  6.858213280621180E+00   6.450097862315714E+00   6.535939480917066E-01   4.463831497187808E+06
  6.761228009325065E+00   6.257423848063365E+00   6.173441381746098E-01   4.463831497187808E+06
  6.666670233469883E+00   6.062271816187899E+00   5.859444166175645E-01   4.463831497187808E+06
  6.575513107098108E+00   5.864928339919168E+00   5.568126932164518E-01   4.463831497187808E+06
  6.488098617882375E+00   5.665964421092967E+00   5.272360158196445E-01   4.463831497187808E+06
  6.404074839285850E+00   5.466203826292586E+00   4.946569691147067E-01   4.463831497187808E+06
  6.322405635259293E+00   5.266677425901428E+00   4.569326214367852E-01   4.463831497187808E+06
  6.241450739572450E+00   5.068570488408475E+00   4.125364444977945E-01   4.463831497187808E+06
  6.159106242863654E+00   4.873169910755694E+00   3.606817849534786E-01   4.463831497187808E+06
  6.072989100565734E+00   4.681817382212048E+00   3.013560977750764E-01   4.463831497187808E+06
  5.980645052614546E+00   4.495872693989868E+00   2.352667549924875E-01   4.463831497187808E+06
  5.879757741975403E+00   4.316689139776242E+00   1.637102309079853E-01   4.463831497187808E+06
  5.768337903775829E+00   4.145600582074944E+00   8.838538804315779E-02   4.463831497187808E+06
  5.644874995625006E+00   3.983917663333176E+00   1.117733736184904E-02   4.463831497187808E+06
  5.508438984504647E+00   3.832929138438751E+00  -6.605970448523793E-02   4.463831497187808E+06
  5.358726423434893E+00   3.693903610064482E+00  -1.416940607947503E-01   4.463831497187808E+06
  5.196051576013768E+00   3.568087139140884E+00  -2.144615657667970E-01   4.463831497187808E+06
  5.021289339330496E+00   3.456693214744767E+00  -2.835504786822892E-01   4.463831497187808E+06
  4.835781372345713E+00   3.360883206869470E+00  -3.486219970986479E-01   4.463831497187808E+06
  4.641219676292767E+00   3.281737402222874E+00  -4.097709615869966E-01   4.463831497187808E+06
  4.439522687494674E+00   3.220218699860440E+00  -4.674389233221978E-01   4.463831497187808E+06
  4.232717806117764E+00   3.177132689006959E+00  -5.222969765440213E-01   4.463831497187808E+06
  4.022841525916212E+00   3.153088873466628E+00  -5.751180505056228E-01   4.463831497187808E+06
  3.811864470534663E+00   3.148468074120318E+00  -6.266575888498535E-01   4.463831497187808E+06
  3.601644307780408E+00   3.163400488441887E+00  -6.775580618484200E-01   4.463831497187808E+06
  3.393905341439598E+00   3.197757601299283E+00  -7.282872923723133E-01   4.463831497187808E+06
  3.190240127881437E+00   3.251159329128809E+00  -7.791141231161998E-01   4.463831497187808E+06
  2.992126136298627E+00   3.322995728005908E+00  -8.301185976845615E-01   4.463831497187808E+06
  2.800949472748929E+00   3.412460630554688E+00  -8.812285789484094E-01   4.463831497187808E+06
  2.618028012603526E+00   3.518593007900025E+00  -9.322713569511546E-01   4.463831497187808E+06
  2.444627733167953E+00   3.640320928206885E+00  -9.830277303766323E-01   4.463831497187808E+06
  2.281968259978424E+00   3.776502847563293E+00  -1.033277303602669E+00   4.463831497187808E+06
  2.131216205701818E+00   3.925961641853243E+00  -1.082826959535508E+00   4.463831497187808E+06
  1.993467348924223E+00   4.087508161814519E+00  -1.131518965130826E+00   4.463831497187808E+06
  1.869720689883938E+00   4.259952949048203E+00  -1.179220067591510E+00   4.463831497187808E+06
  1.760848664003002E+00   4.442106793580402E+00  -1.225797329227618E+00   4.463831497187808E+06
  1.667568171589638E+00   4.632772719124446E+00  -1.271089525846457E+00   4.463831497187808E+06
  1.590416627234382E+00   4.830733447060562E+00  -1.314884142009828E+00   4.463831497187808E+06
  1.529736115038132E+00   5.034739179704201E+00  -1.356909118618141E+00   4.463831497187808E+06
  1.485667222332320E+00   5.243500528670374E+00  -1.396845697362154E+00   4.463831497187808E+06
  1.458152525267469E+00   5.455690592118176E+00  -1.434364459338842E+00   4.463831497187808E+06
  1.446948311889374E+00   5.669958679326747E+00  -1.469181727143596E+00   4.463831497187808E+06
  1.451642185275182E+00   5.884956224363235E+00  -1.501128778236664E+00   4.463831497187808E+06
  1.471673822741167E+00   6.099373326824451E+00  -1.530222672003663E+00   4.463831497187808E+06
  1.506356389804817E+00   6.311982436399424E+00  -1.556725628923425E+00   4.463831497187808E+06
  1.554896817423764E+00   6.521684263319162E+00  -1.581180237610059E+00   4.463831497187808E+06
  1.616414155716651E+00   6.727550279874812E+00  -1.604410363815722E+00   4.463831497187808E+06
  1.689956274254984E+00   6.928856301534754E+00  -1.627482176860840E+00   4.463831497187808E+06
  1.774516043084004E+00   7.125102594028299E+00  -1.651625541965754E+00   4.463831497187808E+06
  1.869048599822377E+00   7.316017611436293E+00  -1.678122265119084E+00   4.463831497187808E+06
  1.972491269759922E+00   7.501544588172892E+00  -1.708173336622575E+00   4.463831497187808E+06
  2.083787147104532E+00   7.681812471568418E+00  -1.742761474498610E+00   4.463831497187808E+06
  2.201912364875946E+00   7.857094754346631E+00  -1.782527200258843E+00   4.463831497187808E+06
  2.325905869059194E+00   8.027761337612207E+00  -1.827675992511213E+00   4.463831497187808E+06
  2.454899318247157E+00   8.194229389376236E+00  -1.877930757490056E+00   4.463831497187808E+06
  2.588143814545778E+00   8.356919135758512E+00  -1.932538330680088E+00   4.463831497187808E+06
  2.725029760321649E+00   8.516219635836418E+00  -1.990331728893067E+00   4.463831497187808E+06
  2.865096373999969E+00   8.672467979609614E+00  -2.049842395136498E+00   4.463831497187808E+06
  3.008028321493345E+00   8.825943253557844E+00  -2.109449799247652E+00   4.463831497187808E+06
  3.153638439834269E+00   8.976874354022307E+00  -2.167550484928564E+00   4.463831497187808E+06
  3.301837443663394E+00   9.125458634366053E+00  -2.222725773978185E+00   4.463831497187808E+06
  3.452593525220849E+00   9.271886760701454E+00  -2.273887292249667E+00   4.463831497187808E+06
  3.605886555183682E+00   9.416368262941639E+00  -2.320382296988269E+00   4.463831497187808E+06
  3.761662848213607E+00   9.559152234109765E+00  -2.362046069903148E+00   4.463831497187808E+06
  3.919796922422189E+00   9.700538454048971E+00  -2.399195640391462E+00   4.463831497187808E+06
  4.080066215828222E+00   9.840875768578169E+00  -2.432566814546436E+00   4.463831497187808E+06
  4.242143324198513E+00   9.980546607595519E+00  -2.463203804069148E+00   4.463831497187808E+06
  4.405608138656888E+00   1.011993876828719E+01  -2.492316636838565E+00   4.463831497187808E+06
  4.569979563531477E+00   1.025940768820099E+01  -2.521125170419204E+00   4.463831497187808E+06
  4.734763653330460E+00   1.039923407632610E+01  -2.550709445923407E+00   4.463831497187808E+06
  4.899512430352390E+00   1.053958271645981E+01  -2.581884247677908E+00   4.463831497187808E+06
  5.063885717708562E+00   1.068046836838432E+01  -2.615111425547039E+00   4.463831497187808E+06
  5.227707352126481E+00   1.082173395460837E+01  -2.650457501196283E+00   4.463831497187808E+06
  5.391007303258808E+00   1.096304474349239E+01  -2.687597272355724E+00   4.463831497187808E+06
  5.554042538886167E+00   1.110390023910518E+01  -2.725857601740244E+00   4.463831497187808E+06
  5.717291791027718E+00   1.124366325183785E+01  -2.764290314128761E+00   4.463831497187808E+06
  5.881422403313277E+00   1.138160346740333E+01  -2.801759891999908E+00   4.463831497187808E+06
  6.047230777246885E+00   1.151695105193760E+01  -2.837030887826397E+00   4.463831497187808E+06
  6.215561139498529E+00   1.164895466144011E+01  -2.868841692134493E+00   4.463831497187808E+06
  6.387209997564248E+00   1.177693780318712E+01  -2.895955144644888E+00   4.463831497187808E+06
  6.562825391252661E+00   1.190034785042295E+01  -2.917181749053156E+00   4.463831497187808E+06
  6.742810667844256E+00   1.201879305215148E+01  -2.931377027418689E+00   4.463831497187808E+06
  6.927241956251403E+00   1.213206442453895E+01  -2.937419834210838E+00   4.463831497187808E+06
  7.115806903902218E+00   1.224014121319180E+01  -2.934182339687443E+00   4.463831497187808E+06
  7.307769830052848E+00   1.234318040759949E+01  -2.920504221208851E+00   4.463831497187808E+06
  7.501965605674337E+00   1.244149232188169E+01  -2.895183048660072E+00   4.463831497187808E+06
  7.696821703642288E+00   1.253550533992109E+01  -2.856989994795583E+00   4.463831497187808E+06
  7.890405365307562E+00   1.262572345462346E+01  -2.804715310065088E+00   4.463831497187808E+06
  8.080491012272910E+00   1.271268020600531E+01  -2.737242256728841E+00   4.463831497187808E+06
  8.264642079735658E+00   1.279689213134431E+01  -2.653642371830595E+00   4.463831497187808E+06
  8.440301391367658E+00   1.287881404753943E+01  -2.553280029559280E+00   4.463831497187808E+06
  8.604884913333036E+00   1.295879759790068E+01  -2.435911176721557E+00   4.463831497187808E+06
  8.755874966804418E+00   1.303705372226037E+01  -2.301760420111356E+00   4.463831497187808E+06
  8.890910413714494E+00   1.311361922324510E+01  -2.151562571155904E+00   4.463831497187808E+06
  9.007872609520261E+00   1.318832750593248E+01  -1.986559096590860E+00   4.463831497187808E+06
  9.104966735139257E+00   1.326078387617961E+01  -1.808446077665186E+00   4.463831497187808E+06
  9.180798277228432E+00   1.333034641359596E+01  -1.619277323866053E+00   4.463831497187808E+06
  9.234443865387085E+00   1.339611422579395E+01  -1.421333124925749E+00   4.463831497187808E+06
  9.265514501232991E+00   1.345692562496481E+01  -1.216970656953009E+00   4.463831497187808E+06
  9.274207681122556E+00   1.351136921511953E+01  -1.008475355407529E+00   4.463831497187808E+06
  9.261343384937410E+00   1.355781083651845E+01  -7.979330224723782E-01   4.463831497187808E+06
  9.228377790304863E+00   1.359443865065779E+01  -5.871398701334367E-01   4.463831497187808E+06
  9.177388263155475E+00   1.361932733337908E+01  -3.775624022921866E-01   0.000000000000000E+00 5 CurveXYZFourier47 
  1.537641121911625E+01  -1.018054688994287E+00  -1.437052615389919E-01  -1.827039858214298E+07
  1.537769511091546E+01  -1.104133702389379E+00  -3.805745291996402E-01  -1.827039858214298E+07
  1.537668187131723E+01  -1.188296425182211E+00  -6.177044281605090E-01  -1.827039858214298E+07
  1.537446864836722E+01  -1.271974712104646E+00  -8.546166484979529E-01  -1.827039858214298E+07
  1.537162029653486E+01  -1.357041515136171E+00  -1.090735968632165E+00  -1.827039858214298E+07
  1.536806674592164E+01  -1.445630764210599E+00  -1.325361757923690E+00  -1.827039858214298E+07
  1.536306762498016E+01  -1.539924822012543E+00  -1.557644100956018E+00  -1.827039858214298E+07
  1.535524748214825E+01  -1.641930276135460E+00  -1.786574154943326E+00  -1.827039858214298E+07
  1.534269727236627E+01  -1.753263738442189E+00  -2.010996690646516E+00  -1.827039858214298E+07
  1.532313069031738E+01  -1.874968221695101E+00  -2.229649321209494E+00  -1.827039858214298E+07
  1.529407821809060E+01  -2.007377716527161E+00  -2.441228236115123E+00  -1.827039858214298E+07
  1.525309802198453E+01  -2.150043099985161E+00  -2.644475110805042E+00  -1.827039858214298E+07
  1.519798146387467E+01  -2.301726883492920E+00  -2.838275149285272E+00  -1.827039858214298E+07
  1.512693210203595E+01  -2.460468042040021E+00  -3.021752793777021E+00  -1.827039858214298E+07
  1.503870048335836E+01  -2.623711786346834E+00  -3.194350178296931E+00  -1.827039858214298E+07
  1.493266235756184E+01  -2.788493179094777E+00  -3.355874290395687E+00  -1.827039858214298E+07
  1.480883455250642E+01  -2.951658459357791E+00  -3.506502046622948E+00  -1.827039858214298E+07
  1.466782988093677E+01  -3.110104268535852E+00  -3.646737710001987E+00  -1.827039858214298E+07
  1.451075929502953E+01  -3.261013015130998E+00  -3.777323575124455E+00  -1.827039858214298E+07
  1.433909529603879E+01  -3.402062599812900E+00  -3.899111679812044E+00  -1.827039858214298E+07
  1.415451469447563E+01  -3.531590721798533E+00  -4.012910442468985E+00  -1.827039858214298E+07
  1.395874074659497E+01  -3.648697908680669E+00  -4.119324610057364E+00  -1.827039858214298E+07
  1.375340425263521E+01  -3.753278982111131E+00  -4.218608990924034E+00  -1.827039858214298E+07
  1.353994044401348E+01  -3.845979445697080E+00  -4.310555736349753E+00  -1.827039858214298E+07
  1.331953372389001E+01  -3.928080663477489E+00  -4.394431430139648E+00  -1.827039858214298E+07
  1.309311609922740E+01  -4.001324983812700E+00  -4.468974368691933E+00  -1.827039858214298E+07
  1.286141816386245E+01  -4.067698403320361E+00  -4.532454947036807E+00  -1.827039858214298E+07
  1.262506456613296E+01  -4.129193234835205E+00  -4.582794040109544E+00  -1.827039858214298E+07
  1.238469983263623E+01  -4.187575928174994E+00  -4.617726811154240E+00  -1.827039858214298E+07
  1.214112595016536E+01  -4.244185268935504E+00  -4.634993548580716E+00  -1.827039858214298E+07
  1.189543079419531E+01  -4.299783483000438E+00  -4.632535758101969E+00  -1.827039858214298E+07
  1.164908666695214E+01  -4.354477440153272E+00  -4.608675294214586E+00  -1.827039858214298E+07
  1.140400093011795E+01  -4.407719631411781E+00  -4.562256853863214E+00  -1.827039858214298E+07
  1.116250575822274E+01  -4.458389633024114E+00  -4.492739291312976E+00  -1.827039858214298E+07
  1.092728089986644E+01  -4.504947331321238E+00  -4.400228186235682E+00  -1.827039858214298E+07
  1.070121129262226E+01  -4.545640357185664E+00  -4.285449884237252E+00  -1.827039858214298E+07
  1.048718956059954E+01  -4.578741056723786E+00  -4.149674700163381E+00  -1.827039858214298E+07
  1.028788089916678E+01  -4.602783859470435E+00  -3.994603061648944E+00  -1.827039858214298E+07
  1.010547373004594E+01  -4.616772784770579E+00  -3.822232228446573E+00  -1.827039858214298E+07
  9.941443046172376E+00  -4.620331366938000E+00  -3.634722355533312E+00  -1.827039858214298E+07
  9.796354045803053E+00  -4.613773359453301E+00  -3.434278998678452E+00  -1.827039858214298E+07
  9.669731264288549E+00  -4.598081626645486E+00  -3.223065041186007E+00  -1.827039858214298E+07
  9.560013068973641E+00  -4.574793671109770E+00  -3.003149169324522E+00  -1.827039858214298E+07
  9.464603541468446E+00  -4.545803994469118E+00  -2.776491413530415E+00  -1.827039858214298E+07
  9.380024182688501E+00  -4.513104507544478E+00  -2.544959973011511E+00  -1.827039858214298E+07
  9.302157515280935E+00  -4.478493071216269E+00  -2.310368552274630E+00  -1.827039858214298E+07
  9.226564625983166E+00  -4.443285741319404E+00  -2.074520530765843E+00  -1.827039858214298E+07
  9.148850094722716E+00  -4.408069560308888E+00  -1.839245883958455E+00  -1.827039858214298E+07
  9.065041589172845E+00  -4.372529434349373E+00  -1.606418884626614E+00  -1.827039858214298E+07
  8.971948423247072E+00  -4.335374974120218E+00  -1.377948832167414E+00  -1.827039858214298E+07
  8.867464021904462E+00  -4.294381944302638E+00  -1.155741634458287E+00  -1.827039858214298E+07
  8.750781555442035E+00  -4.246549433540165E+00  -9.416360252863482E-01  -1.827039858214298E+07
  8.622499655401633E+00  -4.188359642545302E+00  -7.373234999035784E-01  -1.827039858214298E+07
  8.484605377838072E+00  -4.116114062185528E+00  -5.442647559685704E-01  -1.827039858214298E+07
  8.340333410027116E+00  -4.026309472258132E+00  -3.636168615402210E-01  -1.827039858214298E+07
  8.193912698215648E+00  -3.916011036770365E+00  -1.961842354370787E-01  -1.827039858214298E+07
  8.050222915987765E+00  -3.783178717844459E+00  -4.240294835234774E-02  -1.827039858214298E+07
  7.914392282430632E+00  -3.626907571705840E+00   9.763761679017527E-02  -1.827039858214298E+07
  7.791374179277692E+00  -3.447551841565722E+00   2.241381856651151E-01  -1.827039858214298E+07
  7.685542140788816E+00  -3.246716088919974E+00   3.375069395931877E-01  -1.827039858214298E+07
  7.600340845087887E+00  -3.027112337516540E+00   4.382648538128767E-01  -1.827039858214298E+07
  7.538024912585962E+00  -2.792298426897994E+00   5.269561708580377E-01  -1.827039858214298E+07
  7.499508236638856E+00  -2.546327460163089E+00   6.040814491087316E-01  -1.827039858214298E+07
  7.484335216983238E+00  -2.293349507764571E+00   6.700679285095165E-01  -1.827039858214298E+07
  7.490772874333635E+00  -2.037213113633080E+00   7.252865316669981E-01  -1.827039858214298E+07
  7.516010744921186E+00  -1.781114751273534E+00   7.701173932318859E-01  -1.827039858214298E+07
  7.556444996347991E+00  -1.527339022146678E+00   8.050574663236921E-01  -1.827039858214298E+07
  7.608015489927015E+00  -1.277121654131194E+00   8.308557763926672E-01  -1.827039858214298E+07
  7.666560339747668E+00  -1.030652510142434E+00   8.486555736355110E-01  -1.827039858214298E+07
  7.728152275189196E+00  -7.872186578445145E-01   8.601190757972931E-01  -1.827039858214298E+07
  7.789384739131992E+00  -5.454701945382529E-01   8.675104242846775E-01  -1.827039858214298E+07
  7.847582644949152E+00  -3.037761258082585E-01   8.737161305898307E-01  -1.827039858214298E+07
  7.900922189947612E+00  -6.062609205412507E-02   8.821893463488135E-01  -1.827039858214298E+07
  7.948454930212013E+00   1.849724231472807E-01   8.968139013861689E-01  -1.827039858214298E+07
  7.990042181010153E+00   4.331517949180033E-01   9.216949522553528E-01  -1.827039858214298E+07
  8.026215461685318E+00   6.829411286718841E-01   9.608937545575416E-01  -1.827039858214298E+07
  8.057986071879707E+00   9.321550143907289E-01   1.018132969396394E+00  -1.827039858214298E+07
  8.086631185157598E+00   1.177431334686701E+00   1.096504685737505E+00  -1.827039858214298E+07
  8.113484683588121E+00   1.414417671316166E+00   1.198215032382992E+00  -1.827039858214298E+07
  8.139758367690225E+00   1.638088302619820E+00   1.324396460907743E+00  -1.827039858214298E+07
  8.166413609544565E+00   1.843158438769601E+00   1.475011722782914E+00  -1.827039858214298E+07
  8.194095771222786E+00   2.024551039702554E+00   1.648863067462908E+00  -1.827039858214298E+07
  8.223134826407382E+00   2.177865615670771E+00   1.843707586693810E+00  -1.827039858214298E+07
  8.253606747405943E+00   2.299798454202009E+00   2.056466584594983E+00  -1.827039858214298E+07
  8.285442460822964E+00   2.388469631758050E+00   2.283505122924419E+00  -1.827039858214298E+07
  8.318565464058253E+00   2.443623114634742E+00   2.520949088049025E+00  -1.827039858214298E+07
  8.353036173178683E+00   2.466680793623002E+00   2.765002484436887E+00  -1.827039858214298E+07
  8.389181019557377E+00   2.460647589576332E+00   3.012227856071902E+00  -1.827039858214298E+07
  8.427687119230619E+00   2.429880811885742E+00   3.259757790238238E+00  -1.827039858214298E+07
  8.469648533901299E+00   2.379750847307407E+00   3.505414717255706E+00  -1.827039858214298E+07
  8.516556963453279E+00   2.316230438051014E+00   3.747728451101677E+00  -1.827039858214298E+07
  8.570237210401816E+00   2.245455235482126E+00   3.985854470413670E+00  -1.827039858214298E+07
  8.632734935239682E+00   2.173298586898614E+00   4.219408981039535E+00  -1.827039858214298E+07
  8.706170153715881E+00   2.104998888949494E+00   4.448247562497308E+00  -1.827039858214298E+07
  8.792573884532688E+00   2.044869185223817E+00   4.672221229040262E+00  -1.827039858214298E+07
  8.893726896963507E+00   1.996107322506250E+00   4.890946096974802E+00  -1.827039858214298E+07
  9.011018526920678E+00   1.960712502588936E+00   5.103620256477643E+00  -1.827039858214298E+07
  9.145340261571533E+00   1.939502111288834E+00   5.308914297206329E+00  -1.827039858214298E+07
  9.297023769617581E+00   1.932212735650964E+00   5.504951258511057E+00  -1.827039858214298E+07
  9.465827027339555E+00   1.937662395591232E+00   5.689379073471124E+00  -1.827039858214298E+07
  9.650966019486996E+00   1.953947829285305E+00   5.859525624318063E+00  -1.827039858214298E+07
  9.851184028199718E+00   1.978651248986723E+00   6.012615114547772E+00  -1.827039858214298E+07
  1.006484648459315E+01   2.009034869010006E+00   6.146016145485304E+00  -1.827039858214298E+07
  1.029004724558707E+01   2.042207814404013E+00   6.257487767997036E+00  -1.827039858214298E+07
  1.052471218572769E+01   2.075257581939283E+00   6.345390369812809E+00  -1.827039858214298E+07
  1.076668806378038E+01   2.105345782015198E+00   6.408833399065766E+00  -1.827039858214298E+07
  1.101380835183633E+01   2.129774269670257E+00   6.447740826993060E+00  -1.827039858214298E+07
  1.126393248730755E+01   2.146032061718914E+00   6.462826617512347E+00  -1.827039858214298E+07
  1.151496007484278E+01   2.151835102216899E+00   6.455484678268656E+00  -1.827039858214298E+07
  1.176482614668870E+01   2.145169889543741E+00   6.427609109433866E+00  -1.827039858214298E+07
  1.201148699000882E+01   2.124348562303857E+00   6.381369490964615E+00  -1.827039858214298E+07
  1.225290775325193E+01   2.088077972835902E+00   6.318971275326401E+00  -1.827039858214298E+07
  1.248706278965379E+01   2.035539517584827E+00   6.242432430455776E+00  -1.827039858214298E+07
  1.271195751314256E+01   1.966471095981290E+00   6.153404267559011E+00  -1.827039858214298E+07
  1.292567674452515E+01   1.881238514689775E+00   6.053057453595287E+00  -1.827039858214298E+07
  1.312645966914008E+01   1.780881701541896E+00   5.942044620856921E+00  -1.827039858214298E+07
  1.331279632957156E+01   1.667121667778911E+00   5.820540161431606E+00  -1.827039858214298E+07
  1.348353581942499E+01   1.542317286554364E+00   5.688347281247980E+00  -1.827039858214298E+07
  1.363799276048332E+01   1.409366269514244E+00   5.545053644461442E+00  -1.827039858214298E+07
  1.377603681939653E+01   1.271551508850239E+00   5.390211125010231E+00  -1.827039858214298E+07
  1.389815030151496E+01   1.132341259819829E+00   5.223513005075715E+00  -1.827039858214298E+07
  1.400544131343182E+01   9.951584203291450E-01   5.044943585284924E+00  -1.827039858214298E+07
  1.409960437851497E+01   8.631394245963803E-01   4.854880216323437E+00  -1.827039858214298E+07
  1.418282621564935E+01   7.389062068296431E-01   4.654135369301285E+00  -1.827039858214298E+07
  1.425764093665400E+01   6.243748157991268E-01   4.443935341836438E+00  -1.827039858214298E+07
  1.432674535166509E+01   5.206214562262975E-01   4.225841208354023E+00  -1.827039858214298E+07
  1.439279055436481E+01   4.278212743172142E-01   4.001625378210660E+00  -1.827039858214298E+07
  1.445816975100000E+01   3.452677226325077E-01   3.773122573925102E+00  -1.827039858214298E+07
  1.452482385719621E+01   2.714717318745119E-01   3.542076517398874E+00  -1.827039858214298E+07
  1.459408544327761E+01   2.043312296321907E-01   3.310002914420042E+00  -1.827039858214298E+07
  1.466657819895273E+01   1.413538338849937E-01   3.078085733913851E+00  -1.827039858214298E+07
  1.474218355577713E+01   7.990974095413805E-02   2.847117981009088E+00  -1.827039858214298E+07
  1.482007906202852E+01   1.748860982432967E-02   2.617491148582837E+00  -1.827039858214298E+07
  1.489884535467778E+01  -4.806602061346859E-02   2.389230419003663E+00  -1.827039858214298E+07
  1.497663101836120E+01  -1.183685574069746E-01   2.162066550536081E+00  -1.827039858214298E+07
  1.505135814967552E+01  -1.943679096281068E-01   1.935531088322129E+00  -1.827039858214298E+07
  1.512094682369775E+01  -2.763000210455621E-01   1.709059622816540E+00  -1.827039858214298E+07
  1.518353444168088E+01  -3.637192918023896E-01   1.482088412712123E+00  -1.827039858214298E+07
  1.523766639774045E+01  -4.556033321260946E-01   1.254132523684629E+00  -1.827039858214298E+07
  1.528243759924923E+01  -5.505178256085369E-01   1.024838093181370E+00  -1.827039858214298E+07
  1.531756976515523E+01  -6.468222304775210E-01   7.940065679783809E-01  -1.827039858214298E+07
  1.534341649836121E+01  -7.428932130877737E-01   5.615938433100495E-01  -1.827039858214298E+07
  1.536089608062117E+01  -8.373414169816463E-01   3.276912987255232E-01  -1.827039858214298E+07
  1.537135987188710E+01  -9.291984607269987E-01   9.249812580309352E-02  -1.827039858214298E+07
  1.537641121911625E+01  -1.018054688994287E+00  -1.437052615389919E-01   0.000000000000000E+00 6 RotatedCurve135 
  1.652308996864855E+01  -3.490455206638833E+00   1.543957460632576E+00  -1.439431960806082E+07
  1.651717824168316E+01  -3.609766339702913E+00   1.309133153990104E+00  -1.439431960806082E+07
  1.650065091950185E+01  -3.738613604137936E+00   1.078783412431472E+00  -1.439431960806082E+07
  1.647349473281423E+01  -3.876443189090751E+00   8.528913847372449E-01  -1.439431960806082E+07
  1.643624322095960E+01  -4.022368938451838E+00   6.313765067961347E-01  -1.439431960806082E+07
  1.638980026629016E+01  -4.175180381306157E+00   4.140880659225732E-01  -1.439431960806082E+07
  1.633519956315492E+01  -4.333343703654319E+00   2.007956820003480E-01  -1.439431960806082E+07
  1.627334057272260E+01  -4.494999888329316E+00  -8.817574800545003E-03  -1.439431960806082E+07
  1.620474568414878E+01  -4.657969377781662E+00  -2.151530658608507E-01  -1.439431960806082E+07
  1.612938036342744E+01  -4.819775997062333E+00  -4.186797325896967E-01  -1.439431960806082E+07
  1.604656842106982E+01  -4.977703559191090E+00  -6.198986399161776E-01  -1.439431960806082E+07
  1.595501962671591E+01  -5.128896060441492E+00  -8.192878774646332E-01  -1.439431960806082E+07
  1.585296904358166E+01  -5.270506726686235E+00  -1.017230157833420E+00  -1.439431960806082E+07
  1.573840943934963E+01  -5.399893056706910E+00  -1.213928834454836E+00  -1.439431960806082E+07
  1.560938280190605E+01  -5.514845607056135E+00  -1.409320894342074E+00  -1.439431960806082E+07
  1.546428680959063E+01  -5.613829110740935E+00  -1.602997275881662E+00  -1.439431960806082E+07
  1.530214875963031E+01  -5.696207269820023E+00  -1.794141278739265E+00  -1.439431960806082E+07
  1.512282357698506E+01  -5.762418708061181E+00  -1.981494735951979E+00  -1.439431960806082E+07
  1.492708357664770E+01  -5.814072199390933E+00  -2.163359099936419E+00  -1.439431960806082E+07
  1.471658400650370E+01  -5.853934865515087E+00  -2.337634964359089E+00  -1.439431960806082E+07
  1.449370756850051E+01  -5.885797284947323E+00  -2.501899284698588E+00  -1.439431960806082E+07
  1.426131013447291E+01  -5.914213347449357E+00  -2.653515254046864E+00  -1.439431960806082E+07
  1.402240574472739E+01  -5.944128549860119E+00  -2.789766031643374E+00  -1.439431960806082E+07
  1.377983914777311E+01  -5.980426157145912E+00  -2.908000826616182E+00  -1.439431960806082E+07
  1.353599689879847E+01  -6.027434000514341E+00  -3.005780569863846E+00  -1.439431960806082E+07
  1.329260279807180E+01  -6.088443591989580E+00  -3.081010715430014E+00  -1.439431960806082E+07
  1.305063086914424E+01  -6.165296141071272E+00  -3.132050521460482E+00  -1.439431960806082E+07
  1.281035095775519E+01  -6.258086157636336E+00  -3.157791176621216E+00  -1.439431960806082E+07
  1.257150108083195E+01  -6.365022718734339E+00  -3.157698899485133E+00  -1.439431960806082E+07
  1.233356007301930E+01  -6.482472204599846E+00  -3.131823089947624E+00  -1.439431960806082E+07
  1.209607708072621E+01  -6.605186239185946E+00  -3.080773189691694E+00  -1.439431960806082E+07
  1.185900377440779E+01  -6.726697168430687E+00  -3.005670629148909E+00  -1.439431960806082E+07
  1.162297261223247E+01  -6.839843413520603E+00  -2.908083770338436E+00  -1.439431960806082E+07
  1.138947070868816E+01  -6.937371083836689E+00  -2.789953968560017E+00  -1.439431960806082E+07
  1.116087313093052E+01  -7.012548492011380E+00  -2.653519857687952E+00  -1.439431960806082E+07
  1.094031981070516E+01  -7.059728066830423E+00  -2.501244996846749E+00  -1.439431960806082E+07
  1.073144379509020E+01  -7.074796004614827E+00  -2.335751528665508E+00  -1.439431960806082E+07
  1.053798179080282E+01  -7.055463171287859E+00  -2.159759989493207E+00  -1.439431960806082E+07
  1.036331737456726E+01  -7.001369616201371E+00  -1.976033362781126E+00  -1.439431960806082E+07
  1.021001982788403E+01  -6.913997167126645E+00  -1.787322262911726E+00  -1.439431960806082E+07
  1.007944524374744E+01  -6.796407083545239E+00  -1.596307998338776E+00  -1.439431960806082E+07
  9.971460560258304E+00  -6.652839741238305E+00  -1.405541207474621E+00  -1.439431960806082E+07
  9.884336135785423E+00  -6.488228243158844E+00  -1.217375598781005E+00  -1.439431960806082E+07
  9.814830375797575E+00  -6.307685839670547E+00  -1.033898692499103E+00  -1.439431960806082E+07
  9.758463813752615E+00  -6.116027191805768E+00  -8.568638755849587E-01  -1.439431960806082E+07
  9.709953640667409E+00  -5.917375996257847E+00  -6.876300320320382E-01  -1.439431960806082E+07
  9.663756779355175E+00  -5.714897525010922E+00  -5.271160442969212E-01  -1.439431960806082E+07
  9.614653566642506E+00  -5.510676292383590E+00  -3.757772651946431E-01  -1.439431960806082E+07
  9.558297346843487E+00  -5.305738984164432E+00  -2.336095228296792E-01  -1.439431960806082E+07
  9.491658885809334E+00  -5.100203783784584E+00  -1.001834650547745E-01  -1.439431960806082E+07
  9.413308093739957E+00  -4.893521903097660E+00   2.529158074852694E-02  -1.439431960806082E+07
  9.323497260054346E+00  -4.684767475416782E+00   1.438790398980763E-01  -1.439431960806082E+07
  9.224036830409121E+00  -4.472929134423584E+00   2.568103351196046E-01  -1.439431960806082E+07
  9.117982913062420E+00  -4.257160707103601E+00   3.653752820476894E-01  -1.439431960806082E+07
  9.009181195607681E+00  -4.036958599464436E+00   4.708203704145341E-01  -1.439431960806082E+07
  8.901731156338982E+00  -3.812247891824728E+00   5.742673055405736E-01  -1.439431960806082E+07
  8.799444633733199E+00  -3.583375535853656E+00   6.766619870881480E-01  -1.439431960806082E+07
  8.705372532251232E+00  -3.351024775743717E+00   7.787602688283504E-01  -1.439431960806082E+07
  8.621462756820101E+00  -3.116077575487695E+00   8.811518424846588E-01  -1.439431960806082E+07
  8.548392942860929E+00  -2.879459517226045E+00   9.843180964280743E-01  -1.439431960806082E+07
  8.485596015629477E+00  -2.642003236880333E+00   1.088714606353276E+00  -1.439431960806082E+07
  8.431468763879888E+00  -2.404361837459883E+00   1.194864809472178E+00  -1.439431960806082E+07
  8.383727463712749E+00  -2.166993695524410E+00   1.303449064722816E+00  -1.439431960806082E+07
  8.339853894242308E+00  -1.930226320313994E+00   1.415373149894194E+00  -1.439431960806082E+07
  8.297562798277927E+00  -1.694391686400796E+00   1.531802429071877E+00  -1.439431960806082E+07
  8.255219678910748E+00  -1.460011221509299E+00   1.654152239012748E+00  -1.439431960806082E+07
  8.212146031102661E+00  -1.227997725910362E+00   1.784030966998355E+00  -1.439431960806082E+07
  8.168766425128180E+00  -9.998357566077759E-01   1.923139043029839E+00  -1.439431960806082E+07
  8.126575710070828E+00  -7.777024676944277E-01   2.073133709926124E+00  -1.439431960806082E+07
  8.087931480992957E+00  -5.644976446923571E-01   2.235475007440304E+00  -1.439431960806082E+07
  8.055702925542999E+00  -3.637638198471317E-01   2.411272068573784E+00  -1.439431960806082E+07
  8.032828463471576E+00  -1.794931756087089E-01   2.601149977815022E+00  -1.439431960806082E+07
  8.021848148572920E+00  -1.583511153226381E-02   2.805155818966177E+00  -1.439431960806082E+07
  8.024480695141781E+00   1.232657051775834E-01   3.022718266807959E+00  -1.439431960806082E+07
  8.041308714884178E+00   2.344586982031716E-01   3.252668653692087E+00  -1.439431960806082E+07
  8.071620278909592E+00   3.153553473986284E-01   3.493323689308252E+00  -1.439431960806082E+07
  8.113432551153329E+00   3.648269960784876E-01   3.742621959746027E+00  -1.439431960806082E+07
  8.163697250861469E+00   3.831906765409654E-01   3.998299080529257E+00  -1.439431960806082E+07
  8.218661861547297E+00   3.722541411752450E-01   4.258080943362446E+00  -1.439431960806082E+07
  8.274338520436137E+00   3.352086440939110E-01   4.519871664767443E+00  -1.439431960806082E+07
  8.327017505382564E+00   2.763773528320174E-01   4.781913059592735E+00  -1.439431960806082E+07
  8.373756251731120E+00   2.008459057688409E-01   5.042895754509883E+00  -1.439431960806082E+07
  8.412778615791225E+00   1.140169720408701E-01   5.302008034093872E+00  -1.439431960806082E+07
  8.443731972376945E+00   2.114057307681724E-02   5.558916408604077E+00  -1.439431960806082E+07
  8.467769711219052E+00  -7.312499455892307E-02   5.813680669412637E+00  -1.439431960806082E+07
  8.487450811932346E+00  -1.650709616741171E-01   6.066614685311889E+00  -1.439431960806082E+07
  8.506472920603318E+00  -2.521747631005838E-01   6.318111250648158E+00  -1.439431960806082E+07
  8.529277195096771E+00  -3.331916964826989E-01   6.568453972141576E+00  -1.439431960806082E+07
  8.560579099222121E+00  -4.080965428733258E-01   6.817640843485262E+00  -1.439431960806082E+07
  8.604887205402951E+00  -4.778893042393006E-01   7.065242582164470E+00  -1.439431960806082E+07
  8.666071025876017E+00  -5.442960734931382E-01   7.310314208254781E+00  -1.439431960806082E+07
  8.747029367628055E+00  -6.094083414855336E-01   7.551371357120219E+00  -1.439431960806082E+07
  8.849494354788590E+00  -6.753101831134568E-01   7.786434386501029E+00  -1.439431960806082E+07
  8.973985692468155E+00  -7.437420632413113E-01   8.013134603494999E+00  -1.439431960806082E+07
  9.119908106145122E+00  -8.158427482831340E-01   8.228869070535012E+00  -1.439431960806082E+07
  9.285765386490363E+00  -8.919982015892798E-01   8.430984493804361E+00  -1.439431960806082E+07
  9.469449884666652E+00  -9.718103053713126E-01   8.616967421894383E+00  -1.439431960806082E+07
  9.668558593498165E+00  -1.054181147094847E+00   8.784617779690301E+00  -1.439431960806082E+07
  9.880686971773063E+00  -1.137492876951248E+00   8.932185598814208E+00  -1.439431960806082E+07
  1.010365907988803E+01  -1.219850958826086E+00   9.058456231677820E+00  -1.439431960806082E+07
  1.033566593903726E+01  -1.299351597383704E+00   9.162776554010938E+00  -1.439431960806082E+07
  1.057530098651383E+01  -1.374333033098087E+00   9.245022642413419E+00  -1.439431960806082E+07
  1.082149927813792E+01  -1.443575171834342E+00   9.305517047344111E+00  -1.439431960806082E+07
  1.107340285016538E+01  -1.506421721511564E+00   9.344910029901154E+00  -1.439431960806082E+07
  1.133018596609005E+01  -1.562812021469202E+00   9.364043172364754E+00  -1.439431960806082E+07
  1.159087918063821E+01  -1.613224016019188E+00   9.363815115966524E+00  -1.439431960806082E+07
  1.185422961111176E+01  -1.658543173876427E+00   9.345067723835314E+00  -1.439431960806082E+07
  1.211862696617630E+01  -1.699882632569541E+00   9.308507008183529E+00  -1.439431960806082E+07
  1.238211219563627E+01  -1.738385991137392E+00   9.254667339720630E+00  -1.439431960806082E+07
  1.264247029437180E+01  -1.775045225637968E+00   9.183920661471360E+00  -1.439431960806082E+07
  1.289739340994626E+01  -1.810562194639556E+00   9.096525659939125E+00  -1.439431960806082E+07
  1.314468752535952E+01  -1.845273936192872E+00   8.992706073117148E+00  -1.439431960806082E+07
  1.338248773435133E+01  -1.879150856753450E+00   8.872743336244417E+00  -1.439431960806082E+07
  1.360944483982574E+01  -1.911864788028394E+00   8.737067100760008E+00  -1.439431960806082E+07
  1.382485004650341E+01  -1.942912653704708E+00   8.586327979782983E+00  -1.439431960806082E+07
  1.402867421375964E+01  -1.971772865228925E+00   8.421439981068605E+00  -1.439431960806082E+07
  1.422151189212178E+01  -1.998066823337654E+00   8.243584966006605E+00  -1.439431960806082E+07
  1.440443593685147E+01  -2.021697674228303E+00   8.054177358867168E+00  -1.439431960806082E+07
  1.457878332912845E+01  -2.042942674342659E+00   7.854793337149669E+00  -1.439431960806082E+07
  1.474590450827809E+01  -2.062483388425413E+00   7.647073981934907E+00  -1.439431960806082E+07
  1.490691509973401E+01  -2.081368164404590E+00   7.432615612382046E+00  -1.439431960806082E+07
  1.506248929829119E+01  -2.100912245291225E+00   7.212862267032208E+00  -1.439431960806082E+07
  1.521272821236240E+01  -2.122550772829509E+00   6.989014829653212E+00  -1.439431960806082E+07
  1.535712508447619E+01  -2.147667289022443E+00   6.761968759417906E+00  -1.439431960806082E+07
  1.549463424370816E+01  -2.177424059141945E+00   6.532288203134904E+00  -1.439431960806082E+07
  1.562383428229041E+01  -2.212620122240243E+00   6.300219096442647E+00  -1.439431960806082E+07
  1.574316087101439E+01  -2.253598574971745E+00   6.065738479872197E+00  -1.439431960806082E+07
  1.585117324095230E+01  -2.300216978499324E+00   5.828632447527405E+00  -1.439431960806082E+07
  1.594681250062705E+01  -2.351885193161116E+00   5.588591582575654E+00  -1.439431960806082E+07
  1.602961060618479E+01  -2.407664911751379E+00   5.345310879498333E+00  -1.439431960806082E+07
  1.609981591643804E+01  -2.466416229048434E+00   5.098581203894387E+00  -1.439431960806082E+07
  1.615841378566914E+01  -2.526970087440319E+00   4.848361203745933E+00  -1.439431960806082E+07
  1.620703665833680E+01  -2.588302292542652E+00   4.594821904393112E+00  -1.439431960806082E+07
  1.624777515392566E+01  -2.649685363593828E+00   4.338360435219224E+00  -1.439431960806082E+07
  1.628291701461620E+01  -2.710798542639627E+00   4.079583782496456E+00  -1.439431960806082E+07
  1.631465212068672E+01  -2.771783065595216E+00   3.819267469784765E+00  -1.439431960806082E+07
  1.634478726542899E+01  -2.833238127596372E+00   3.558297063516401E+00  -1.439431960806082E+07
  1.637451313333716E+01  -2.896161484162690E+00   3.297601998643795E+00  -1.439431960806082E+07
  1.640425810065394E+01  -2.961845975452606E+00   3.038091264941750E+00  -1.439431960806082E+07
  1.643365026291722E+01  -3.031748346036561E+00   2.780599086414795E+00  -1.439431960806082E+07
  1.646159252530912E+01  -3.107348879193284E+00   2.525846186990166E+00  -1.439431960806082E+07
  1.648643823838371E+01  -3.190019414532494E+00   2.274419053185432E+00  -1.439431960806082E+07
  1.650623942969695E+01  -3.280913644128005E+00   2.026766347540113E+00  -1.439431960806082E+07
  1.651902858959754E+01  -3.380888012462227E+00   1.783208850168696E+00  -1.439431960806082E+07
  1.652308996864855E+01  -3.490455206638833E+00   1.543957460632576E+00   0.000000000000000E+00 7 RotatedCurve136 
  1.725131356537232E+01  -9.257427674125951E+00   2.915044519995514E+00  -2.350870160472177E+07
  1.727056178542131E+01  -9.221547604526924E+00   2.539088708746746E+00  -2.350870160472177E+07
  1.725558554778080E+01  -9.182318431671565E+00   2.165673316870617E+00  -2.350870160472177E+07
  1.720650291999057E+01  -9.137409178862981E+00   1.799726487875605E+00  -2.350870160472177E+07
  1.712430050983837E+01  -9.084899899848258E+00   1.445182079089875E+00  -2.350870160472177E+07
  1.701091100570043E+01  -9.023541733372438E+00   1.104537027096777E+00  -2.350870160472177E+07
  1.686921447194948E+01  -8.953014398901567E+00   7.785863727997188E-01  -2.350870160472177E+07
  1.670294609875007E+01  -8.874153433644716E+00   4.663863295088241E-01  -2.350870160472177E+07
  1.651650415658422E+01  -8.789115271933841E+00   1.654658896094515E-01  -2.350870160472177E+07
  1.631466562351153E+01  -8.701447744462694E+00  -1.277270177398661E-01  -2.350870160472177E+07
  1.610223143454651E+01  -8.616037604158013E+00  -4.171930305266977E-01  -2.350870160472177E+07
  1.588363634311534E+01  -8.538915551962539E+00  -7.066397145274180E-01  -2.350870160472177E+07
  1.566256780894174E+01  -8.476912507238181E+00  -9.987273319844655E-01  -2.350870160472177E+07
  1.544164233501642E+01  -8.437177373275560E+00  -1.294405176358354E+00  -2.350870160472177E+07
  1.522218515215569E+01  -8.426584472398382E+00  -1.592434112867201E+00  -2.350870160472177E+07
  1.500414987956567E+01  -8.451075907426684E+00  -1.889169933312039E+00  -2.350870160472177E+07
  1.478619955539476E+01  -8.514997931204457E+00  -2.178650143254466E+00  -2.350870160472177E+07
  1.456595095386849E+01  -8.620498739423891E+00  -2.452988015258684E+00  -2.350870160472177E+07
  1.434036284532636E+01  -8.767056230459737E+00  -2.703037371731378E+00  -2.350870160472177E+07
  1.410622868825439E+01  -8.951197296353332E+00  -2.919255128403221E+00  -2.350870160472177E+07
  1.386071805915286E+01  -9.166455224328141E+00  -3.092661192089391E+00  -2.350870160472177E+07
  1.360190141089513E+01  -9.403589972659677E+00  -3.215780732862410E+00  -2.350870160472177E+07
  1.332919119995832E+01  -9.651069602756367E+00  -3.283454263365603E+00  -2.350870160472177E+07
  1.304363966631305E+01  -9.895782929814132E+00  -3.293416420510242E+00  -2.350870160472177E+07
