periods   1 
begin filament 
mirror NIL 
  1.868797133085377E+01   4.561233886282015E+00  -6.820577000468100E-02   2.965421550195435E+07
  1.860036932941107E+01   4.924331552689750E+00   3.891493986821459E-02   2.965421550195435E+07
  1.851355500852130E+01   5.299028456193994E+00   1.538942204204703E-01   2.965421550195435E+07
  1.842681988013597E+01   5.681944261281179E+00   2.814805331740007E-01   2.965421550195435E+07
  1.833955125770667E+01   6.068025618731922E+00   4.262694927974799E-01   2.965421550195435E+07
  1.825136195681503E+01   6.450637260311398E+00   5.925156743640971E-01   2.965421550195435E+07
  1.816218177239580E+01   6.821839143698125E+00   7.838836492619515E-01   2.965421550195435E+07
  1.807230469667868E+01   7.172818838079712E+00   1.003154819172462E+00   2.965421550195435E+07
  1.798239061556429E+01   7.494431439236717E+00   1.251920160233084E+00   2.965421550195435E+07
  1.789342449149274E+01   7.777788981808587E+00   1.530298651333538E+00   2.965421550195435E+07
  1.780663945986027E+01   8.014838532802687E+00   1.836725086822000E+00   2.965421550195435E+07
  1.772341265759040E+01   8.198872808298859E+00   2.167848163872223E+00   2.965421550195435E+07
  1.764514395358658E+01   8.324928169836516E+00   2.518570214264913E+00   2.965421550195435E+07
  1.757312817675517E+01   8.390040356487665E+00   2.882244789657432E+00   2.965421550195435E+07
  1.750843112983654E+01   8.393345940584487E+00   3.251029481789337E+00   2.965421550195435E+07
  1.745177884739346E+01   8.336034787146984E+00   3.616371460212736E+00   2.965421550195435E+07
  1.740346838322791E+01   8.221173517966028E+00   3.969585080011676E+00   2.965421550195435E+07
  1.736330700894795E+01   8.053430447880706E+00   4.302467214974806E+00   2.965421550195435E+07
  1.733058510527888E+01   7.838737747423975E+00   4.607888797921030E+00   2.965421550195435E+07
  1.730408619790820E+01   7.583926608755011E+00   4.880301597449153E+00   2.965421550195435E+07
  1.728213546276247E+01   7.296366659611121E+00   5.116107646637907E+00   2.965421550195435E+07
  1.726268554584329E+01   6.983633116094836E+00   5.313853969940298E+00   2.965421550195435E+07
  1.724343571456452E+01   6.653215889540166E+00   5.474235356493011E+00   2.965421550195435E+07
  1.722197728551346E+01   6.312275830463544E+00   5.599910226262852E+00   2.965421550195435E+07
  1.719595518313794E+01   5.967446036815294E+00   5.695156134309523E+00   2.965421550195435E+07
  1.716323271580036E+01   5.624671731638154E+00   5.765409271326587E+00   2.965421550195435E+07
  1.712204463180184E+01   5.289081054800149E+00   5.816744082251533E+00   2.965421550195435E+07
  1.707112268136360E+01   4.964880973132169E+00   5.855353337486426E+00   2.965421550195435E+07
  1.700977864784404E+01   4.655276558233302E+00   5.887085225555454E+00   2.965421550195435E+07
  1.693793237043831E+01   4.362416860700951E+00   5.917082993604652E+00   2.965421550195435E+07
  1.685607669698576E+01   4.087375103639871E+00   5.949556064515541E+00   2.965421550195435E+07
  1.676517735379651E+01   3.830173610811034E+00   5.987691889783608E+00   2.965421550195435E+07
  1.666651289942333E+01   3.589863815853403E+00   6.033697932785871E+00   2.965421550195435E+07
  1.656146749547406E+01   3.364668454171144E+00   6.088945965451646E+00   2.965421550195435E+07
  1.645129626146435E+01   3.152186842225300E+00   6.154178705554936E+00   2.965421550195435E+07
  1.633688850043839E+01   2.949655842900306E+00   6.229733332958773E+00   2.965421550195435E+07
  1.621855717541554E+01   2.754250032262379E+00   6.315738193276700E+00   2.965421550195435E+07
  1.609588298012892E+01   2.563396323969263E+00   6.412247525187874E+00   2.965421550195435E+07
  1.596763781057208E+01   2.375072470558071E+00   6.519292826430049E+00   2.965421550195435E+07
  1.583180545889532E+01   2.188056757298848E+00   6.636846228423629E+00   2.965421550195435E+07
  1.568570743183038E+01   2.002098615424279E+00   6.764708286992848E+00   2.965421550195435E+07
  1.552622989417152E+01   1.817986894307624E+00   6.902347213990186E+00   2.965421550195435E+07
  1.535013515830653E+01   1.637503485045695E+00   7.048726467900539E+00   2.965421550195435E+07
  1.515442939771556E+01   1.463263538347909E+00   7.202161231474956E+00   2.965421550195435E+07
  1.493674889711735E+01   1.298457825856806E+00   7.360241048864870E+00   2.965421550195435E+07
  1.469572153205086E+01   1.146525785222043E+00   7.519846253013285E+00   2.965421550195435E+07
  1.443125929733879E+01   1.010797483260153E+00   7.677271252423356E+00   2.965421550195435E+07
  1.414474205493941E+01   8.941475505537581E-01   7.828450495303726E+00   2.965421550195435E+07
  1.383906210352315E+01   7.987031748097302E-01   7.969265646640980E+00   2.965421550195435E+07
  1.351851289710279E+01   7.256414146343024E-01   8.095897886007515E+00   2.965421550195435E+07
  1.318852188696167E+01   6.750992139074349E-01   8.205179571346800E+00   2.965421550195435E+07
  1.285524521459562E+01   6.462041495354550E-01   8.294896404435805E+00   2.965421550195435E+07
  1.252505878804522E+01   6.372172910855114E-01   8.363995303073553E+00   2.965421550195435E+07
  1.220399407938205E+01   6.457640066778002E-01   8.412664000570272E+00   2.965421550195435E+07
  1.189717599714457E+01   6.691164306864471E-01   8.442264523381468E+00   2.965421550195435E+07
  1.160832311777930E+01   7.044844743709237E-01   8.455121919422211E+00   2.965421550195435E+07
  1.133936678204210E+01   7.492718196158457E-01   8.454189230082664E+00   2.965421550195435E+07
  1.109023522915976E+01   8.012594604391982E-01   8.442626946637878E+00   2.965421550195435E+07
  1.085883299106880E+01   8.586912324454273E-01   8.423347616384859E+00   2.965421550195435E+07
  1.064122583461010E+01   9.202516956829355E-01   8.398582088370466E+00   2.965421550195435E+07
  1.043201977294175E+01   9.849443595715134E-01   8.369522261214273E+00   2.965421550195435E+07
  1.022490149343346E+01   1.051894897519098E+00   8.336086306493694E+00   2.965421550195435E+07
  1.001328938173042E+01   1.120117115879638E+00   8.296837388331724E+00   2.965421550195435E+07
  9.791031275561625E+00   1.188286914696165E+00   8.249067910200676E+00   2.965421550195435E+07
  9.553078717755616E+00   1.254570007024764E+00   8.189040854614891E+00   2.965421550195435E+07
  9.296068610255801E+00   1.316542467519183E+00   8.112360568580304E+00   2.965421550195435E+07
  9.018751764794990E+00   1.371230060464069E+00   8.014429898278172E+00   2.965421550195435E+07
  8.722223015356569E+00   1.415274541914166E+00   7.890940837894069E+00   2.965421550195435E+07
  8.409927665957317E+00   1.445215273135249E+00   7.738342955403731E+00   2.965421550195435E+07
  8.087441897253576E+00   1.457855439779307E+00   7.554237961414654E+00   2.965421550195435E+07
  7.762047845090221E+00   1.450666818951480E+00   7.337659113104357E+00   2.965421550195435E+07
  7.442144877762442E+00   1.422177783044716E+00   7.089209100323552E+00   2.965421550195435E+07
  7.136554896924666E+00   1.372287650861434E+00   6.811047493003902E+00   2.965421550195435E+07
  6.853789560100537E+00   1.302457087372253E+00   6.506736351448523E+00   2.965421550195435E+07
  6.601350178436959E+00   1.215738331706098E+00   6.180967938260453E+00   2.965421550195435E+07
  6.385126507045605E+00   1.116628817282318E+00   5.839209774008396E+00   2.965421550195435E+07
  6.208949362181727E+00   1.010754595825363E+00   5.487308367415730E+00   2.965421550195435E+07
  6.074335341309937E+00   9.044127518669802E-01   5.131093444186548E+00   2.965421550195435E+07
  5.980441811692212E+00   8.040215098007115E-01   4.776019824310410E+00   2.965421550195435E+07
  5.924229010751197E+00   7.155402117859199E-01   4.426875379902690E+00   2.965421550195435E+07
  5.900805862080399E+00   6.439268113205232E-01   4.087572353900948E+00   2.965421550195435E+07
  5.903919045105121E+00   5.926971127531222E-01   3.761027555892639E+00   2.965421550195435E+07
  5.926532624946720E+00   5.636380530297677E-01   3.449126317417250E+00   2.965421550195435E+07
  5.961439217332609E+00   5.567084207804425E-01   3.152756985224223E+00   2.965421550195435E+07
  6.001843611205964E+00   5.701370687180276E-01   2.871898019593524E+00   2.965421550195435E+07
  6.041865686102934E+00   6.007040502439287E-01   2.605738672024046E+00   2.965421550195435E+07
  6.076920408805091E+00   6.441675305623931E-01   2.352816341621146E+00   2.965421550195435E+07
  6.103947258282677E+00   6.957818252403392E-01   2.111158136922677E+00   2.965421550195435E+07
  6.121477895473291E+00   7.508418240383815E-01   1.878419662305443E+00   2.965421550195435E+07
  6.129547458681420E+00   8.051876402120155E-01   1.652019285049366E+00   2.965421550195435E+07
  6.129469829706752E+00   8.556106432711760E-01   1.429269960812243E+00   2.965421550195435E+07
  6.123509168178611E+00   9.001169287275582E-01   1.207512310006558E+00   2.965421550195435E+07
  6.114487954332528E+00   9.380245543225133E-01   9.842517585167900E-01   2.965421550195435E+07
  6.105375203741231E+00   9.698936153934986E-01   7.572994451139677E-01   2.965421550195435E+07
  6.098897412760776E+00   9.973102370619118E-01   5.249120096633229E-01   2.965421550195435E+07
  6.097209611106011E+00   1.022563791898805E+00   2.859204141350436E-01   2.965421550195435E+07
  6.101655459484751E+00   1.048268674119731E+00   3.983385593479841E-02   2.965421550195435E+07
  6.112634709184480E+00   1.076986281766286E+00  -2.130972427354823E-01   2.965421550195435E+07
  6.129584729533064E+00   1.110899123305864E+00  -4.718744177237075E-01   2.965421550195435E+07
  6.151071389053461E+00   1.151577991474642E+00  -7.348118190368732E-01   2.965421550195435E+07
  6.174974401463949E+00   1.199866781311799E+00  -9.996687614052894E-01   2.965421550195435E+07
  6.198744159036689E+00   1.255890357498959E+00  -1.263849596582495E+00   2.965421550195435E+07
  6.219701644519871E+00   1.319171830821336E+00  -1.524656507839083E+00   2.965421550195435E+07
  6.235350518926490E+00   1.388829524526769E+00  -1.779571716937408E+00   2.965421550195435E+07
  6.243670923246899E+00   1.463813126783140E+00  -2.026538769979360E+00   2.965421550195435E+07
  6.243367654695290E+00   1.543134515205225E+00  -2.264209357602820E+00   2.965421550195435E+07
  6.234050728896047E+00   1.626051929175417E+00  -2.492123376196861E+00   2.965421550195435E+07
  6.216333322456377E+00   1.712175880813323E+00  -2.710795854753682E+00   2.965421550195435E+07
  6.191840027406824E+00   1.801479780021591E+00  -2.921694447009972E+00   2.965421550195435E+07
  6.163126536423967E+00   1.894215329961858E+00  -3.127104238433017E+00   2.965421550195435E+07
  6.133519637052683E+00   1.990749604731025E+00  -3.329890937927547E+00   2.965421550195435E+07
  6.106893113446896E+00   2.091354696615792E+00  -3.533187126705271E+00   2.965421550195435E+07
  6.087400327016099E+00   2.195989730862749E+00  -3.740037141525769E+00   2.965421550195435E+07
  6.079187494481115E+00   2.304117501882367E+00  -3.953042705670106E+00   2.965421550195435E+07
  6.086112776183343E+00   2.414593596011649E+00  -4.174052490716734E+00   2.965421550195435E+07
  6.111495168025026E+00   2.525655292809927E+00  -4.403934055166589E+00   2.965421550195435E+07
  6.157913969378548E+00   2.635022383140508E+00  -4.642456554344549E+00   2.965421550195435E+07
  6.227074560300228E+00   2.740104606990244E+00  -4.888298525368898E+00   2.965421550195435E+07
  6.319749806145285E+00   2.838293340811454E+00  -5.139178812145841E+00   2.965421550195435E+07
  6.435799189512981E+00   2.927301042289973E+00  -5.392092549940316E+00   2.965421550195435E+07
  6.574260412521716E+00   3.005502936717246E+00  -5.643620347069946E+00   2.965421550195435E+07
  6.733501417726131E+00   3.072232889954430E+00  -5.890269348161155E+00   2.965421550195435E+07
  6.911415217138396E+00   3.127989782508739E+00  -6.128801107079410E+00   2.965421550195435E+07
  7.105636172944503E+00   3.174521383247223E+00  -6.356503699683135E+00   2.965421550195435E+07
  7.313754854790568E+00   3.214768203114615E+00  -6.571373930565325E+00   2.965421550195435E+07
  7.533509502666248E+00   3.252667882109203E+00  -6.772188640188528E+00   2.965421550195435E+07
  7.762935392607633E+00   3.292838761783254E+00  -6.958460116498447E+00   2.965421550195435E+07
  8.000458711682796E+00   3.340176878515389E+00  -7.130287158483602E+00   2.965421550195435E+07
  8.244928332946433E+00   3.399411532470912E+00  -7.288128047577390E+00   2.965421550195435E+07
  8.495586383530386E+00   3.474669398905975E+00  -7.432532444770211E+00   2.965421550195435E+07
  8.751985852336254E+00   3.569095308670199E+00  -7.563874516188994E+00   2.965421550195435E+07
  9.013869809268911E+00   3.684569751757925E+00  -7.682128674331364E+00   2.965421550195435E+07
  9.281031323321884E+00   3.821550148586585E+00  -7.786722396565414E+00   2.965421550195435E+07
  9.553175288199730E+00   3.979046951751868E+00  -7.876488721462615E+00   2.965421550195435E+07
  9.829802788447832E+00   4.154729009163027E+00  -7.949726023556989E+00   2.965421550195435E+07
  1.011013539449563E+01   4.345137666658319E+00  -8.004356776343451E+00   2.965421550195435E+07
  1.039309123097205E+01   4.545977804377047E+00  -8.038162593262722E+00   2.965421550195435E+07
  1.067731749500729E+01   4.752447752582518E+00  -8.049062006990516E+00   2.965421550195435E+07
  1.096127621559256E+01   4.959569379899655E+00  -8.035391768802954E+00   2.965421550195435E+07
  1.124337246600185E+01   5.162484291339527E+00  -7.996152689859228E+00   2.965421550195435E+07
  1.152210798104679E+01   5.356690937034211E+00  -7.931187068044809E+00   2.965421550195435E+07
  1.179623905462854E+01   5.538208856342066E+00  -7.841265531944527E+00   2.965421550195435E+07
  1.206491629841297E+01   5.703668309028229E+00  -7.728074953361683E+00   2.965421550195435E+07
  1.232778557145718E+01   5.850334242278818E+00  -7.594113748883867E+00   2.965421550195435E+07
  1.258503398610777E+01   5.976081308032212E+00  -7.442514117087361E+00   2.965421550195435E+07
  1.283737181059200E+01   6.079340456648668E+00  -7.276820495167027E+00   2.965421550195435E+07
  1.308594944945642E+01   6.159037192280103E+00  -7.100758285629204E+00   2.965421550195435E+07
  1.333221739740349E+01   6.214537333628670E+00  -6.918026014412448E+00   2.965421550195435E+07
  1.357774496215110E+01   6.245609181632931E+00  -6.732137754522386E+00   2.965421550195435E+07
  1.382401955004360E+01   6.252402896671392E+00  -6.546331973866466E+00   2.965421550195435E+07
  1.407225154653557E+01   6.235440341140386E+00  -6.363549735710504E+00   2.965421550195435E+07
  1.432320979656963E+01   6.195603219913957E+00  -6.186471612136925E+00   2.965421550195435E+07
  1.457710932044521E+01   6.134105206165284E+00  -6.017591057670852E+00   2.965421550195435E+07
  1.483356656141377E+01   6.052435404605959E+00  -5.859294336241695E+00   2.965421550195435E+07
  1.509162893297061E+01   5.952265784271230E+00  -5.713914793053599E+00   2.965421550195435E+07
  1.534987580918406E+01   5.835323210661659E+00  -5.583732863955032E+00   2.965421550195435E+07
  1.560657864294631E+01   5.703235963403054E+00  -5.470902322119592E+00   2.965421550195435E+07
  1.585989986996467E+01   5.557373362404228E+00  -5.377296574447479E+00   2.965421550195435E+07
  1.610810475792237E+01   5.398703547816939E+00  -5.304284316337614E+00   2.965421550195435E+07
  1.634975816927465E+01   5.227697069629136E+00  -5.252459089413630E+00   2.965421550195435E+07
  1.658387967313681E+01   5.044301816602784E+00  -5.221359765998206E+00   2.965421550195435E+07
  1.681003543575897E+01   4.848007788204384E+00  -5.209226543110009E+00   2.965421550195435E+07
  1.702835323903008E+01   4.638008955586089E+00  -5.212838179339344E+00   2.965421550195435E+07
  1.723945682572574E+01   4.413455404989847E+00  -5.227470384097412E+00   2.965421550195435E+07
  1.744432628555561E+01   4.173774122151181E+00  -5.247002938703419E+00   2.965421550195435E+07
  1.764410101322421E+01   3.919023456164757E+00  -5.264185753745614E+00   2.965421550195435E+07
  1.783984960374987E+01   3.650236725563647E+00  -5.271053910037807E+00   2.965421550195435E+07
  1.803233586611747E+01   3.369706405042832E+00  -5.259461541503166E+00   2.965421550195435E+07
  1.822181128646096E+01   3.081162937596777E+00  -5.221687042483570E+00   2.965421550195435E+07
  1.840786158260278E+01   2.789811600141362E+00  -5.151050046047511E+00   2.965421550195435E+07
  1.858932878589714E+01   2.502206153650061E+00  -5.042475759660398E+00   2.965421550195435E+07
  1.876432134060190E+01   2.225957449664498E+00  -4.892945428342747E+00   2.965421550195435E+07
  1.893031415269581E+01   1.969296258985108E+00  -4.701782685095687E+00   2.965421550195435E+07
  1.908432967811343E+01   1.740529482476847E+00  -4.470743020208248E+00   2.965421550195435E+07
  1.922318137110448E+01   1.547444778260539E+00  -4.203895324038799E+00   2.965421550195435E+07
  1.934375332443149E+01   1.396728116647890E+00  -3.907307604318165E+00   2.965421550195435E+07
  1.944328562903817E+01   1.293460276638164E+00  -3.588570522823053E+00   2.965421550195435E+07
  1.951963435133645E+01   1.240751299977005E+00  -3.256209540418783E+00   2.965421550195435E+07
  1.957147809061849E+01   1.239557053256069E+00  -2.919047030601573E+00   2.965421550195435E+07
  1.959844939351357E+01   1.288701048907864E+00  -2.585578473668130E+00   2.965421550195435E+07
  1.960117802800535E+01   1.385100161161646E+00  -2.263421626014017E+00   2.965421550195435E+07
  1.958124314031591E+01   1.524168001612645E+00  -1.958885325675543E+00   2.965421550195435E+07
  1.954104139173108E+01   1.700347761147735E+00  -1.676687252652589E+00   2.965421550195435E+07
  1.948358709335049E+01   1.907710212264016E+00  -1.419830081042723E+00   2.965421550195435E+07
  1.941226710755364E+01   2.140544483579168E+00  -1.189625890507624E+00   2.965421550195435E+07
  1.933057715873557E+01   2.393870297893417E+00  -9.858421588197928E-01   2.965421550195435E+07
  1.924186687196588E+01   2.663810521262776E+00  -8.069313135514292E-01   2.965421550195435E+07
  1.914911842431725E+01   2.947780807260207E+00  -6.503010142223120E-01   2.965421550195435E+07
  1.905477861290746E+01   3.244476505460175E+00  -5.125843773983565E-01   2.965421550195435E+07
  1.896065717459540E+01   3.553662784942793E+00  -3.898775088212913E-01   2.965421550195435E+07
  1.886789627362094E+01   3.875798748702604E+00  -2.779243163926782E-01   2.965421550195435E+07
  1.877700819304152E+01   4.211546983419995E+00  -1.722433495312453E-01   2.965421550195435E+07
  1.868797133085377E+01   4.561233886282015E+00  -6.820577000468100E-02   0.000000000000000E+00 1 CurveXYZFourier18 
  1.411141314192806E+01   1.178714421910470E+01   1.162064920285329E-01   2.046235210852822E+07
  1.393241321234458E+01   1.197511450071109E+01   1.892144015112377E-01   2.046235210852822E+07
  1.375243117475451E+01   1.216931345072452E+01   2.658363288115774E-01   2.046235210852822E+07
  1.357021012376651E+01   1.236893350810145E+01   3.526233733017409E-01   2.046235210852822E+07
  1.338487435596960E+01   1.257206253827383E+01   4.557630922572859E-01   2.046235210852822E+07
  1.319630561139236E+01   1.277554283784704E+01   5.807040280475418E-01   2.046235210852822E+07
  1.300540366976041E+01   1.297496640022855E+01   7.318030643790151E-01   2.046235210852822E+07
  1.281419761191420E+01   1.316481814899960E+01   9.120189105659291E-01   2.046235210852822E+07
  1.262579431831143E+01   1.333876174334852E+01   1.122675004867699E+00   2.046235210852822E+07
  1.244417232139318E+01   1.349004535044106E+01   1.363313196992086E+00   2.046235210852822E+07
  1.227384904170235E+01   1.361198960931133E+01   1.631655445272082E+00   2.046235210852822E+07
  1.211946509343979E+01   1.369850884164892E+01   1.923684417634151E+00   2.046235210852822E+07
  1.198533876690801E+01   1.374461091177520E+01   2.233845584871895E+00   2.046235210852822E+07
  1.187504591620282E+01   1.374682185782651E+01   2.555363716561184E+00   2.046235210852822E+07
  1.179107527039447E+01   1.370348857704390E+01   2.880656486618732E+00   2.046235210852822E+07
  1.173459762821951E+01   1.361492570155483E+01   3.201818215591943E+00   2.046235210852822E+07
  1.170537131827587E+01   1.348338986094599E+01   3.511138746594932E+00   2.046235210852822E+07
  1.170178809769154E+01   1.331288374940618E+01   3.801617132429290E+00   2.046235210852822E+07
  1.172104591338073E+01   1.310881145123401E+01   4.067428050079479E+00   2.046235210852822E+07
  1.175942007716285E+01   1.287752298079855E+01   4.304301156052414E+00   2.046235210852822E+07
  1.181259430839075E+01   1.262579791760494E+01   4.509780009312440E+00   2.046235210852822E+07
  1.187600890219770E+01   1.236032389307283E+01   4.683337288108071E+00   2.046235210852822E+07
  1.194518520843469E+01   1.208722481073020E+01   4.826335914629045E+00   2.046235210852822E+07
  1.201599297405344E+01   1.181168621705677E+01   4.941840093266401E+00   2.046235210852822E+07
  1.208483846481446E+01   1.153771219165221E+01   5.034294633673895E+00   2.046235210852822E+07
  1.214876468082050E+01   1.126803121048806E+01   5.109103670920963E+00   2.046235210852822E+07
  1.220546825852960E+01   1.100414985750387E+01   5.172149543736596E+00   2.046235210852822E+07
  1.225324879579269E+01   1.074653541339511E+01   5.229297999048632E+00   2.046235210852822E+07
  1.229091377997147E+01   1.049489350705861E+01   5.285936381496406E+00   2.046235210852822E+07
  1.231766515038485E+01   1.024849702103464E+01   5.346586937724841E+00   2.046235210852822E+07
  1.233299168163495E+01   1.000651847731903E+01   5.414628314348687E+00   2.046235210852822E+07
  1.233658550502996E+01   9.768320557272443E+00   5.492145802782325E+00   2.046235210852822E+07
  1.232829250086604E+01   9.533667736414841E+00   5.579916358391605E+00   2.046235210852822E+07
  1.230809670678556E+01   9.302834970476662E+00   5.677519617417983E+00   2.046235210852822E+07
  1.227613011549359E+01   9.076605085644520E+00   5.783552806336554E+00   2.046235210852822E+07
  1.223269289632048E+01   8.856162801120345E+00   5.895917147847481E+00   2.046235210852822E+07
  1.217826631555733E+01   8.642907913016902E+00   6.012137289061241E+00   2.046235210852822E+07
  1.211350193530847E+01   8.438221136632048E+00   6.129674045032387E+00   2.046235210852822E+07
  1.203917578540680E+01   8.243222018229028E+00   6.246194380692469E+00   2.046235210852822E+07
  1.195610417844917E+01   8.058558489893462E+00   6.359770446199647E+00   2.046235210852822E+07
  1.186502719064999E+01   7.884262160925052E+00   6.468990501632233E+00   2.046235210852822E+07
  1.176647479371860E+01   7.719693203200340E+00   6.572977204487245E+00   2.046235210852822E+07
  1.166063744471151E+01   7.563585223815364E+00   6.671321299373910E+00   2.046235210852822E+07
  1.154726618934574E+01   7.414185771889939E+00   6.763949604765183E+00   2.046235210852822E+07
  1.142562614904255E+01   7.269474183966678E+00   6.850953963898378E+00   2.046235210852822E+07
  1.129452151849977E+01   7.127427268369156E+00   6.932411587853023E+00   2.046235210852822E+07
  1.115240055693938E+01   6.986296379713044E+00   7.008226601749237E+00   2.046235210852822E+07
  1.099753687236648E+01   6.844857636308612E+00   7.078017843510216E+00   2.046235210852822E+07
  1.082827043881610E+01   6.702600548351924E+00   7.141069849473979E+00   2.046235210852822E+07
  1.064328033588955E+01   6.559828576125043E+00   7.196353721588824E+00   2.046235210852822E+07
  1.044185313255397E+01   6.417656903599638E+00   7.242613697839250E+00   2.046235210852822E+07
  1.022410769601353E+01   6.277906313488508E+00   7.278505283293273E+00   2.046235210852822E+07
  9.991139838014186E+00   6.142905590743639E+00   7.302763123900583E+00   2.046235210852822E+07
  9.745058601906477E+00   6.015226524519636E+00   7.314372449203699E+00   2.046235210852822E+07
  9.488899236257559E+00   5.897383796825391E+00   7.312717418034847E+00   2.046235210852822E+07
  9.226414295133370E+00   5.791535829036196E+00   7.297683066034352E+00   2.046235210852822E+07
  8.961761588124546E+00   5.699221637816986E+00   7.269694228991298E+00   2.046235210852822E+07
  8.699123369545958E+00   5.621163237633076E+00   7.229683802972018E+00   2.046235210852822E+07
  8.442302827229025E+00   5.557154035905222E+00   7.178992699054973E+00   2.046235210852822E+07
  8.194349715132189E+00   5.506042377059584E+00   7.119213440411182E+00   2.046235210852822E+07
  7.957265763770218E+00   5.465807529833480E+00   7.051997201426051E+00   2.046235210852822E+07
  7.731832165689547E+00   5.433714612715978E+00   6.978849141750809E+00   2.046235210852822E+07
  7.517586861735866E+00   5.406526623630976E+00   6.900938494468860E+00   2.046235210852822E+07
  7.312960364203491E+00   5.380746870479553E+00   6.818947872611654E+00   2.046235210852822E+07
  7.115557948765114E+00   5.352864132008547E+00   6.732981011064947E+00   2.046235210852822E+07
  6.922556076037679E+00   5.319575669829844E+00   6.642540452068030E+00   2.046235210852822E+07
  6.731164657447860E+00   5.277969078335454E+00   6.546577621535402E+00   2.046235210852822E+07
  6.539096595032906E+00   5.225651801251192E+00   6.443608594074041E+00   2.046235210852822E+07
  6.344983441287418E+00   5.160825632055183E+00   6.331880842743652E+00   2.046235210852822E+07
  6.148681555972368E+00   5.082311301969228E+00   6.209570450451946E+00   2.046235210852822E+07
  5.951426179564636E+00   4.989534184504768E+00   6.074986318589015E+00   2.046235210852822E+07
  5.755809750444252E+00   4.882485412312203E+00   5.926758114111875E+00   2.046235210852822E+07
  5.565583092247270E+00   4.761672986519637E+00   5.763987869380568E+00   2.046235210852822E+07
  5.385300829067874E+00   4.628074945228818E+00   5.586350704879158E+00   2.046235210852822E+07
  5.219852511232085E+00   4.483101993036489E+00   5.394137193767191E+00   2.046235210852822E+07
  5.073935758588976E+00   4.328571168406117E+00   5.188237375344523E+00   2.046235210852822E+07
  4.951535274709842E+00   4.166686305373424E+00   4.970073294383068E+00   2.046235210852822E+07
  4.855470867805252E+00   4.000016373624894E+00   4.741492287919185E+00   2.046235210852822E+07
  4.787068770304232E+00   3.831460187926618E+00   4.504636430542552E+00   2.046235210852822E+07
  4.745994815479889E+00   3.664186029427936E+00   4.261804310642183E+00   2.046235210852822E+07
  4.730267562454452E+00   3.501537521364135E+00   4.015319751103237E+00   2.046235210852822E+07
  4.736447029292154E+00   3.346902271595622E+00   3.767418661298347E+00   2.046235210852822E+07
  4.759973289464935E+00   3.203546529616422E+00   3.520160623767495E+00   2.046235210852822E+07
  4.795611607860915E+00   3.074426300269227E+00   3.275366924131624E+00   2.046235210852822E+07
  4.837949259607909E+00   2.961991777388924E+00   3.034582366122151E+00   2.046235210852822E+07
  4.881885035784710E+00   2.868006444244185E+00   2.799055074105080E+00   2.046235210852822E+07
  4.923056000806222E+00   2.793403828045376E+00   2.569727023154185E+00   2.046235210852822E+07
  4.958156574419736E+00   2.738203196167233E+00   2.347228387189826E+00   2.046235210852822E+07
  4.985120788611892E+00   2.701500445032954E+00   2.131870767060584E+00   2.046235210852822E+07
  5.003157273758996E+00   2.681542576796649E+00   1.923637473802715E+00   2.046235210852822E+07
  5.012645501952145E+00   2.675884454028278E+00   1.722172618581905E+00   2.046235210852822E+07
  5.014918472589938E+00   2.681616257855222E+00   1.526774039523378E+00   2.046235210852822E+07
  5.011969216040849E+00   2.695640675939699E+00   1.336397366356603E+00   2.046235210852822E+07
  5.006124792879993E+00   2.714971668236071E+00   1.149679249182785E+00   2.046235210852822E+07
  4.999731361035613E+00   2.737022785346008E+00   9.649866882223034E-01   2.046235210852822E+07
  4.994887797746681E+00   2.759853097643563E+00   7.804965468802542E-01   2.046235210852822E+07
  4.993254568538845E+00   2.782342948546658E+00   5.943050795024605E-01   2.046235210852822E+07
  4.995950925320667E+00   2.804279525968056E+00   4.045622927806145E-01   2.046235210852822E+07
  5.003539299932888E+00   2.826342698549531E+00   2.096209906163518E-01   2.046235210852822E+07
  5.016083119436217E+00   2.849993354793074E+00   8.186274765583616E-03   2.046235210852822E+07
  5.033255029227603E+00   2.877278083831166E+00  -2.005511560766826E-01   2.046235210852822E+07
  5.054467872327505E+00   2.910573930969753E+00  -4.168148086227355E-01   2.046235210852822E+07
  5.079001157774996E+00   2.952303858163638E+00  -6.401900253979351E-01   2.046235210852822E+07
  5.106100759196114E+00   3.004656550563726E+00  -8.696297107671918E-01   2.046235210852822E+07
  5.135038090520894E+00   3.069342970362244E+00  -1.103522157799122E+00   2.046235210852822E+07
  5.165125359346284E+00   3.147416774889561E+00  -1.339817690806317E+00   2.046235210852822E+07
  5.195693804637314E+00   3.239177132636709E+00  -1.576203482374785E+00   2.046235210852822E+07
  5.226050256470807E+00   3.344161765334379E+00  -1.810309495563549E+00   2.046235210852822E+07
  5.255432445468152E+00   3.461226658184339E+00  -2.039923959911274E+00   2.046235210852822E+07
  5.282984366675912E+00   3.588698319477909E+00  -2.263194801432180E+00   2.046235210852822E+07
  5.307769523289331E+00   3.724576097644158E+00  -2.478794364698697E+00   2.046235210852822E+07
  5.328832640344182E+00   3.866756913869031E+00  -2.686028550385115E+00   2.046235210852822E+07
  5.345310689138362E+00   4.013253415740242E+00  -2.884877712165010E+00   2.046235210852822E+07
  5.356583478038469E+00   4.162379046312042E+00  -3.075964542418799E+00   2.046235210852822E+07
  5.362444485959328E+00   4.312879375894385E+00  -3.260452722278562E+00   2.046235210852822E+07
  5.363265747083467E+00   4.463997341113338E+00  -3.439888216867360E+00   2.046235210852822E+07
  5.360127732696710E+00   4.615469555513751E+00  -3.616001715006665E+00   2.046235210852822E+07
  5.354886987353256E+00   4.767460252426200E+00  -3.790494997215427E+00   2.046235210852822E+07
  5.350160692764569E+00   4.920447414984976E+00  -3.964835434659362E+00   2.046235210852822E+07
  5.349217548304765E+00   5.075081203478810E+00  -4.140081229261865E+00   2.046235210852822E+07
  5.355776947016814E+00   5.232037248731642E+00  -4.316755658758309E+00   2.046235210852822E+07
  5.373731560331508E+00   5.391886541336949E+00  -4.494782110289666E+00   2.046235210852822E+07
  5.406820165586746E+00   5.554999778567425E+00  -4.673483965123548E+00   2.046235210852822E+07
  5.458286070966912E+00   5.721497815767060E+00  -4.851645473825876E+00   2.046235210852822E+07
  5.530560470084714E+00   5.891252291354081E+00  -5.027622674525190E+00   2.046235210852822E+07
  5.625008801192181E+00   6.063932690398647E+00  -5.199488053250229E+00   2.046235210852822E+07
  5.741771760611580E+00   6.239089202715044E+00  -5.365189658963645E+00   2.046235210852822E+07
  5.879721844922632E+00   6.416255666584425E+00  -5.522705058780946E+00   2.046235210852822E+07
  6.036542622085263E+00   6.595054317739767E+00  -5.670172770439962E+00   2.046235210852822E+07
  6.208923225787935E+00   6.775284254686477E+00  -5.805988209638045E+00   2.046235210852822E+07
  6.392846839263329E+00   6.956978353458128E+00  -5.928857032299212E+00   2.046235210852822E+07
  6.583941040589063E+00   7.140418319012583E+00  -6.037805160690059E+00   2.046235210852822E+07
  6.777851254335722E+00   7.326103868325033E+00  -6.132150843041337E+00   2.046235210852822E+07
  6.970597001624568E+00   7.514678765967016E+00  -6.211448985875853E+00   2.046235210852822E+07
  7.158874236457364E+00   7.706822622255894E+00  -6.275421097744623E+00   2.046235210852822E+07
  7.340275145829059E+00   7.903122179199769E+00  -6.323885157159063E+00   2.046235210852822E+07
  7.513408103848271E+00   8.103938641124165E+00  -6.356698549593773E+00   2.046235210852822E+07
  7.677913322091348E+00   8.309288147705722E+00  -6.373724198465005E+00   2.046235210852822E+07
  7.834382293539855E+00   8.518750758575450E+00  -6.374825683092996E+00   2.046235210852822E+07
  7.984199674463238E+00   8.731419649543382E+00  -6.359892192644485E+00   2.046235210852822E+07
  8.129333452288273E+00   8.945897183520616E+00  -6.328889358440954E+00   2.046235210852822E+07
  8.272102335310178E+00   9.160338836750324E+00  -6.281928024673225E+00   2.046235210852822E+07
  8.414948156800348E+00   9.372540395980000E+00  -6.219340385849025E+00   2.046235210852822E+07
  8.560236243420844E+00   9.580059091065600E+00  -6.141751934859026E+00   2.046235210852822E+07
  8.710099223302187E+00   9.780355930076182E+00  -6.050138363982828E+00   2.046235210852822E+07
  8.866331053080319E+00   9.970944783045200E+00  -5.945858726817239E+00   2.046235210852822E+07
  9.030329637233931E+00   1.014953379697176E+01  -5.830659382745838E+00   2.046235210852822E+07
  9.203079658962690E+00   1.031414636922732E+01  -5.706646960928095E+00   2.046235210852822E+07
  9.385163131791076E+00   1.046321182302678E+01  -5.576232217029681E+00   2.046235210852822E+07
  9.576784184651871E+00   1.059561965952140E+01  -5.442049690738950E+00   2.046235210852822E+07
  9.777796595090486E+00   1.071073530287675E+01  -5.306860120843872E+00   2.046235210852822E+07
  9.987726922965692E+00   1.080837913087550E+01  -5.173443443291870E+00   2.046235210852822E+07
  1.020579169154916E+01   1.088877390379060E+01  -5.044489902432454E+00   2.046235210852822E+07
  1.043091261970909E+01   1.095246820220773E+01  -4.922495557004874E+00   2.046235210852822E+07
  1.066173815557769E+01   1.100024503093862E+01  -4.809666617509162E+00   2.046235210852822E+07
  1.089668148288398E+01   1.103302533856513E+01  -4.707835043833601E+00   2.046235210852822E+07
  1.113398419770737E+01   1.105177593571021E+01  -4.618386090342968E+00   2.046235210852822E+07
  1.137181098022041E+01   1.105743032388947E+01  -4.542197356946792E+00   2.046235210852822E+07
  1.160837438873252E+01   1.105082944358625E+01  -4.479588592461394E+00   2.046235210852822E+07
  1.184208145591175E+01   1.103268747404345E+01  -4.430282025851113E+00   2.046235210852822E+07
  1.207168646875663E+01   1.100358569439438E+01  -4.393374214874911E+00   2.046235210852822E+07
  1.229642865372324E+01   1.096399513682333E+01  -4.367321990394680E+00   2.046235210852822E+07
  1.251613078426037E+01   1.091432639489915E+01  -4.349946630899449E+00   2.046235210852822E+07
  1.273123588346933E+01   1.085500256096772E+01  -4.338461494374467E+00   2.046235210852822E+07
  1.294276451460925E+01   1.078654894765497E+01  -4.329528586641229E+00   2.046235210852822E+07
  1.315218424992590E+01   1.070969113812140E+01  -4.319348704923059E+00   2.046235210852822E+07
  1.336119472240047E+01   1.062545119966252E+01  -4.303787786854452E+00   2.046235210852822E+07
  1.357144458835859E+01   1.053523082197708E+01  -4.278539041305289E+00   2.046235210852822E+07
  1.378420883292609E+01   1.044086995750679E+01  -4.239316650120415E+00   2.046235210852822E+07
  1.400006417301297E+01   1.034467047122561E+01  -4.182072769447861E+00   2.046235210852822E+07
  1.421860516653749E+01   1.024937649448943E+01  -4.103225768942265E+00   2.046235210852822E+07
  1.443824289033467E+01   1.015810663206186E+01  -3.999884672898052E+00   2.046235210852822E+07
  1.465612133527608E+01   1.007423772987515E+01  -3.870053076306436E+00   2.046235210852822E+07
  1.486817448347611E+01   1.000124521937602E+01  -3.712795717719485E+00   2.046235210852822E+07
  1.506933071590416E+01   9.942510580349245E+00  -3.528352517032235E+00   2.046235210852822E+07
  1.525385277044309E+01   9.901111543715361E+00  -3.318188128298831E+00   2.046235210852822E+07
  1.541578337197935E+01   9.879614569111135E+00  -3.084969607868041E+00   2.046235210852822E+07
  1.554945141184484E+01   9.879891202134299E+00  -2.832470185880575E+00   2.046235210852822E+07
  1.564998340804529E+01   9.902979616351937E+00  -2.565402787227070E+00   2.046235210852822E+07
  1.571376155896191E+01   9.949009699125794E+00  -2.289192291240228E+00   2.046235210852822E+07
  1.573877376792824E+01   1.001720449707875E+01  -2.009700023558072E+00   2.046235210852822E+07
  1.572481230949835E+01   1.010596310692063E+01  -1.732917242495094E+00   2.046235210852822E+07
  1.567349506768896E+01   1.021302093792432E+01  -1.464646192163284E+00   2.046235210852822E+07
  1.558810437963365E+01   1.033567372135475E+01  -1.210187610473935E+00   2.046235210852822E+07
  1.547326075778205E+01   1.047104290209455E+01  -9.740525419927885E-01   2.046235210852822E+07
  1.533446921267629E+01   1.061635333443642E+01  -7.597141882470894E-01   2.046235210852822E+07
  1.517759181228258E+01   1.076919057861621E+01  -5.694126825415367E-01   2.046235210852822E+07
  1.500830931664033E+01   1.092770530190802E+01  -4.040224635890814E-01   2.046235210852822E+07
  1.483163592062582E+01   1.109073662559850E+01  -2.629886512109090E-01   2.046235210852822E+07
  1.465154409502859E+01   1.125783449879288E+01  -1.443357083091610E-01   2.046235210852822E+07
  1.447074212151952E+01   1.142917255701817E+01  -4.474879502207754E-02   2.046235210852822E+07
  1.429062705451858E+01   1.160535619982397E+01   4.027444478599849E-02   2.046235210852822E+07
  1.411141314192806E+01   1.178714421910470E+01   1.162064920285329E-01   0.000000000000000E+00 2 CurveXYZFourier19 
  8.841522439646242E+00   1.547102875365001E+01   8.507076824195159E-02   1.501713970234543E+07
  8.630086464921698E+00   1.558112410241999E+01   1.940559222129818E-01   1.501713970234543E+07
  8.407839946752794E+00   1.569382876242217E+01   3.023261843408200E-01   1.501713970234543E+07
  8.177066691662542E+00   1.580681067656105E+01   4.148282190362385E-01   1.501713970234543E+07
  7.940641106012709E+00   1.591693241558819E+01   5.366506248407898E-01   1.501713970234543E+07
  7.702051556726555E+00   1.602037413046425E+01   6.725550119546734E-01   1.501713970234543E+07
  7.465364474151581E+00   1.611284156662090E+01   8.265062477603241E-01   1.501713970234543E+07
  7.235124026402279E+00   1.618984280708145E+01   1.001252966952319E+00   1.501713970234543E+07
  7.016188970412532E+00   1.624700837712310E+01   1.198005723959540E+00   1.501713970234543E+07
  6.813515311070145E+00   1.628042310314583E+01   1.416250572827484E+00   1.501713970234543E+07
  6.631899884562118E+00   1.628693556559863E+01   1.653721504112900E+00   1.501713970234543E+07
  6.475705167622978E+00   1.626441253631469E+01   1.906537791887096E+00   1.501713970234543E+07
  6.348588866632061E+00   1.621191131873726E+01   2.169494050589733E+00   1.501713970234543E+07
  6.253262726501424E+00   1.612975175872882E+01   2.436473931940079E+00   1.501713970234543E+07
  6.191303342735726E+00   1.601948076240214E+01   2.700944983736232E+00   1.501713970234543E+07
  6.163033667624360E+00   1.588373404798752E+01   2.956483865281236E+00   1.501713970234543E+07
  6.167487756427928E+00   1.572601106796625E+01   3.197278821432525E+00   1.501713970234543E+07
  6.202463722167143E+00   1.555038816214300E+01   3.418560227430984E+00   1.501713970234543E+07
  6.264661648485228E+00   1.536120092884828E+01   3.616919503936595E+00   1.501713970234543E+07
  6.349895220727692E+00   1.516272885575085E+01   3.790490443694851E+00   1.501713970234543E+07
  6.453358930230446E+00   1.495891328407594E+01   3.938983159227520E+00   1.501713970234543E+07
  6.569927625367248E+00   1.475313417637211E+01   4.063577374576838E+00   1.501713970234543E+07
  6.694462465267206E+00   1.454806277592398E+01   4.166696594490213E+00   1.501713970234543E+07
  6.822097257263119E+00   1.434559728529781E+01   4.251696045122176E+00   1.501713970234543E+07
  6.948481713681975E+00   1.414687851944153E+01   4.322503969590736E+00   1.501713970234543E+07
  7.069963044538160E+00   1.395237344498287E+01   4.383257325697707E+00   1.501713970234543E+07
  7.183693953838412E+00   1.376200772835211E+01   4.437969332452742E+00   1.501713970234543E+07
  7.287662784725304E+00   1.357532464388800E+01   4.490258468088507E+00   1.501713970234543E+07
  7.380649417844657E+00   1.339164724440952E+01   4.543157773567365E+00   1.501713970234543E+07
  7.462117719906354E+00   1.321022339359680E+01   4.599011307844603E+00   1.501713970234543E+07
  7.532061110115280E+00   1.303033848809559E+01   4.659453042714685E+00   1.501713970234543E+07
  7.590821582560602E+00   1.285138751533286E+01   4.725453904171808E+00   1.501713970234543E+07
  7.638903952999104E+00   1.267290538279528E+01   4.797416205797203E+00   1.501713970234543E+07
  7.676806120282630E+00   1.249456109595753E+01   4.875291992161672E+00   1.501713970234543E+07
  7.704882949045110E+00   1.231612640038734E+01   4.958702845404805E+00   1.501713970234543E+07
  7.723256434405213E+00   1.213743228577137E+01   5.047042979543917E+00   1.501713970234543E+07
  7.731778726187359E+00   1.195832701011386E+01   5.139553983805623E+00   1.501713970234543E+07
  7.730048098031596E+00   1.177864718631069E+01   5.235367134971618E+00   1.501713970234543E+07
  7.717471790518758E+00   1.159820949566755E+01   5.333516468294698E+00   1.501713970234543E+07
  7.693364511904485E+00   1.141682554146247E+01   5.432931603848337E+00   1.501713970234543E+07
  7.657067775417135E+00   1.123433715430042E+01   5.532422810385789E+00   1.501713970234543E+07
  7.608073519177160E+00   1.105066501619073E+01   5.630671524656955E+00   1.501713970234543E+07
  7.546135696215948E+00   1.086586052459605E+01   5.726237582944880E+00   1.501713970234543E+07
  7.471355611319648E+00   1.068014983404535E+01   5.817590264917023E+00   1.501713970234543E+07
  7.384230389107181E+00   1.049396010672062E+01   5.903164748400458E+00   1.501713970234543E+07
  7.285658600279789E+00   1.030792093298261E+01   5.981439774761514E+00   1.501713970234543E+07
  7.176902176788539E+00   1.012283809791334E+01   6.051027293195514E+00   1.501713970234543E+07
  7.059508719388031E+00   9.939641610373664E+00   6.110761494214660E+00   1.501713970234543E+07
  6.935202600637195E+00   9.759314337841245E+00   6.159773557992735E+00   1.501713970234543E+07
  6.805756459971093E+00   9.582810928316752E+00   6.197539832554306E+00   1.501713970234543E+07
  6.672856493280430E+00   9.410978369082272E+00   6.223894794253548E+00   1.501713970234543E+07
  6.537975248191509E+00   9.244489241679135E+00   6.239005419274831E+00   1.501713970234543E+07
  6.402264510367289E+00   9.083796533172974E+00   6.243309622052418E+00   1.501713970234543E+07
  6.266478518918476E+00   8.929115136291943E+00   6.237427177003953E+00   1.501713970234543E+07
  6.130934507580049E+00   8.780430562739408E+00   6.222056055543564E+00   1.501713970234543E+07
  5.995513826608354E+00   8.637530710185970E+00   6.197869603443522E+00   1.501713970234543E+07
  5.859703068568815E+00   8.500052591564955E+00   6.165430005579994E+00   1.501713970234543E+07
  5.722671078422087E+00   8.367533464301035E+00   6.125130990702239E+00   1.501713970234543E+07
  5.583374784142656E+00   8.239455255195374E+00   6.077178085619187E+00   1.501713970234543E+07
  5.440684652881035E+00   8.115272707538880E+00   6.021608659121781E+00   1.501713970234543E+07
  5.293519367582834E+00   7.994419068725812E+00   5.958347465072351E+00   1.501713970234543E+07
  5.140979035368581E+00   7.876287849196494E+00   5.887287452922882E+00   1.501713970234543E+07
  4.982466799879448E+00   7.760194431227697E+00   5.808381233420870E+00   1.501713970234543E+07
  4.817789989731701E+00   7.645326182173274E+00   5.721726501730465E+00   1.501713970234543E+07
  4.647233712917306E+00   7.530693351024679E+00   5.627629307964336E+00   1.501713970234543E+07
  4.471601912349352E+00   7.415094692802249E+00   5.526632284828610E+00   1.501713970234543E+07
  4.292223154252009E+00   7.297111061357783E+00   5.419500334773360E+00   1.501713970234543E+07
  4.110920680827871E+00   7.175137100402668E+00   5.307163035910037E+00   1.501713970234543E+07
  3.929948408875011E+00   7.047456001096272E+00   5.190620111365273E+00   1.501713970234543E+07
  3.751896517707550E+00   6.912355788995519E+00   5.070822617454198E+00   1.501713970234543E+07
  3.579571989680338E+00   6.768278710749688E+00   4.948547042043193E+00   1.501713970234543E+07
  3.415860906309152E+00   6.613989076641738E+00   4.824281524747450E+00   1.501713970234543E+07
  3.263580427095508E+00   6.448740388015249E+00   4.698142549942410E+00   1.501713970234543E+07
  3.125329145975535E+00   6.272420532298871E+00   4.569836791901357E+00   1.501713970234543E+07
  3.003344882203262E+00   6.085654710276504E+00   4.438676806652465E+00   1.501713970234543E+07
  2.899378862820523E+00   5.889849591785016E+00   4.303651820568083E+00   1.501713970234543E+07
  2.814594640018865E+00   5.687168555851270E+00   4.163547042418789E+00   1.501713970234543E+07
  2.749498922636271E+00   5.480435946685013E+00   4.017097870478575E+00   1.501713970234543E+07
  2.703909782991119E+00   5.272976976135443E+00   3.863160119275268E+00   1.501713970234543E+07
  2.676965471189440E+00   5.068408012733811E+00   3.700874728639392E+00   1.501713970234543E+07
  2.667174428572198E+00   4.870398361273194E+00   3.529805738290547E+00   1.501713970234543E+07
  2.672504199072244E+00   4.682428330269267E+00   3.350033573702325E+00   1.501713970234543E+07
  2.690504003915249E+00   4.507568855944142E+00   3.162191422415014E+00   1.501713970234543E+07
  2.718453020611238E+00   4.348305109706352E+00   2.967439855569146E+00   1.501713970234543E+07
  2.753524154215648E+00   4.206420750736965E+00   2.767382806813493E+00   1.501713970234543E+07
  2.792951553967493E+00   4.082951612764269E+00   2.563935427922792E+00   1.501713970234543E+07
  2.834189510806958E+00   3.978208760132188E+00   2.359160163269240E+00   1.501713970234543E+07
  2.875050793895175E+00   3.891862281648744E+00   2.155090840131257E+00   1.501713970234543E+07
  2.913813971866210E+00   3.823070133940878E+00   1.953565238647937E+00   1.501713970234543E+07
  2.949291732160244E+00   3.770631791238581E+00   1.756084483824802E+00   1.501713970234543E+07
  2.980855465995911E+00   3.733145016716179E+00   1.563713103517554E+00   1.501713970234543E+07
  3.008415140324100E+00   3.709145877946525E+00   1.377027472094918E+00   1.501713970234543E+07
  3.032357378164222E+00   3.697216825087963E+00   1.196113578792616E+00   1.501713970234543E+07
  3.053448332377124E+00   3.696054431776712E+00   1.020608656105753E+00   1.501713970234543E+07
  3.072710995346335E+00   3.704496141861454E+00   8.497761135804184E-01   1.501713970234543E+07
  3.091288723636941E+00   3.721512799688668E+00   6.826001427238899E-01   1.501713970234543E+07
  3.110307750351559E+00   3.746179648067867E+00   5.178856430514989E-01   1.501713970234543E+07
  3.130751206126385E+00   3.777641879812713E+00   3.543507307704460E-01   1.501713970234543E+07
  3.153355703200426E+00   3.815091149374961E+00   1.907026185586377E-01   1.501713970234543E+07
  3.178539017512819E+00   3.857766611050408E+00   2.569238570545276E-02   1.501713970234543E+07
  3.206364106469798E+00   3.904988488072054E+00  -1.418507967602964E-01   1.501713970234543E+07
  3.236540982089235E+00   3.956224789819817E+00  -3.130009787970976E-01   1.501713970234543E+07
  3.268464218880481E+00   4.011183806116708E+00  -4.887242276590215E-01   1.501713970234543E+07
  3.301280506379842E+00   4.069917782503414E+00  -6.698657380742331E-01   1.501713970234543E+07
  3.333978001216054E+00   4.132918011187620E+00  -8.571270936442676E-01   1.501713970234543E+07
  3.365487547993780E+00   4.201179473512900E+00  -1.051028459484108E+00   1.501713970234543E+07
  3.394785261360387E+00   4.276214708333526E+00  -1.251854829658143E+00   1.501713970234543E+07
  3.420986503604041E+00   4.360001771154102E+00  -1.459590402203587E+00   1.501713970234543E+07
  3.443422836953336E+00   4.454859429799577E+00  -1.673849785079011E+00   1.501713970234543E+07
  3.461695852827865E+00   4.563253039762150E+00  -1.893818148695967E+00   1.501713970234543E+07
  3.475704578939515E+00   4.687545413017299E+00  -2.118213912424139E+00   1.501713970234543E+07
  3.485646097538989E+00   4.829716828853208E+00  -2.345286664373536E+00   1.501713970234543E+07
  3.491991735720049E+00   4.991085593477487E+00  -2.572859728732812E+00   1.501713970234543E+07
  3.495443416856695E+00   5.172063996246167E+00  -2.798421476622839E+00   1.501713970234543E+07
  3.496876273727984E+00   5.371983387932291E+00  -3.019262843585586E+00   1.501713970234543E+07
  3.497274301585899E+00   5.589016295795410E+00  -3.232651539673017E+00   1.501713970234543E+07
  3.497665665631567E+00   5.820213528690031E+00  -3.436027191909000E+00   1.501713970234543E+07
  3.499063368873638E+00   6.061661258167695E+00  -3.627197157402266E+00   1.501713970234543E+07
  3.502415516542978E+00   6.308748698161684E+00  -3.804510779716498E+00   1.501713970234543E+07
  3.508567623968095E+00   6.556523107592447E+00  -3.966990869609383E+00   1.501713970234543E+07
  3.518237571925158E+00   6.800097266260555E+00  -4.114405181099996E+00   1.501713970234543E+07
  3.532002170773781E+00   7.035066923421248E+00  -4.247267187376342E+00   1.501713970234543E+07
  3.550293060992488E+00   7.257893102236949E+00  -4.366763710270057E+00   1.501713970234543E+07
  3.573398991169756E+00   7.466207024750720E+00  -4.474615818541253E+00   1.501713970234543E+07
  3.601471427188467E+00   7.659003541320634E+00  -4.572887664368331E+00   1.501713970234543E+07
  3.634530920974145E+00   7.836701348889127E+00  -4.663764417462705E+00   1.501713970234543E+07
  3.672472585761217E+00   8.001063432821038E+00  -4.749324260563635E+00   1.501713970234543E+07
  3.715070207864764E+00   8.154987164141295E+00  -4.831329981404678E+00   1.501713970234543E+07
  3.761979758342725E+00   8.302188307284188E+00  -4.911062945853325E+00   1.501713970234543E+07
  3.812744133922547E+00   8.446814976264319E+00  -4.989216550956646E+00   1.501713970234543E+07
  3.866801664437833E+00   8.593034856776820E+00  -5.065858441346390E+00   1.501713970234543E+07
  3.923501136729741E+00   8.744640923435085E+00  -5.140461936280526E+00   1.501713970234543E+07
  3.982125738225161E+00   8.904717269772643E+00  -5.211998504414900E+00   1.501713970234543E+07
  4.041927434925028E+00   9.075398101167892E+00  -5.279075939837750E+00   1.501713970234543E+07
  4.102171966418246E+00   9.257740622217220E+00  -5.340102112484768E+00   1.501713970234543E+07
  4.162193031107803E+00   9.451718150743831E+00  -5.393452397308407E+00   1.501713970234543E+07
  4.221452561621690E+00   9.656325213935824E+00  -5.437620282051268E+00   1.501713970234543E+07
  4.279602486908108E+00   9.869773503398411E+00  -5.471334891184371E+00   1.501713970234543E+07
  4.336542267340996E+00   1.008974798034937E+01  -5.493635500754117E+00   1.501713970234543E+07
  4.392465956853447E+00   1.031368723638844E+01  -5.503900509877552E+00   1.501713970234543E+07
  4.447892712659766E+00   1.053905191096211E+01  -5.501835594813391E+00   1.501713970234543E+07
  4.503675578760599E+00   1.076354935408721E+01  -5.487431762086918E+00   1.501713970234543E+07
  4.560984965913652E+00   1.098529098857443E+01  -5.460907822084216E+00   1.501713970234543E+07
  4.621265404059489E+00   1.120286966566707E+01  -5.422652872656480E+00   1.501713970234543E+07
  4.686166646287709E+00   1.141535612424150E+01  -5.373182611863327E+00   1.501713970234543E+07
  4.757452797836812E+00   1.162222479820433E+01  -5.313119051915020E+00   1.501713970234543E+07
  4.836895547338154E+00   1.182322818349888E+01  -5.243197249267904E+00   1.501713970234543E+07
  4.926159516239420E+00   1.201824466238918E+01  -5.164296047080420E+00   1.501713970234543E+07
  5.026688980595224E+00   1.220712648944674E+01  -5.077483707873866E+00   1.501713970234543E+07
  5.139605588108640E+00   1.238957254803518E+01  -4.984064784691818E+00   1.501713970234543E+07
  5.265626110748931E+00   1.256504501863405E+01  -4.885612476099139E+00   1.501713970234543E+07
  5.405007757139317E+00   1.273274124367460E+01  -4.783971482200006E+00   1.501713970234543E+07
  5.557526237814674E+00   1.289162309959823E+01  -4.681220005476511E+00   1.501713970234543E+07
  5.722488840622369E+00   1.304049745868509E+01  -4.579585528204167E+00   1.501713970234543E+07
  5.898781515394670E+00   1.317813409194127E+01  -4.481316450458902E+00   1.501713970234543E+07
  6.084945713383061E+00   1.330340259107423E+01  -4.388519423686780E+00   1.501713970234543E+07
  6.279277815627697E+00   1.341540811607387E+01  -4.302979010185997E+00   1.501713970234543E+07
  6.479941728537349E+00   1.351360707197876E+01  -4.225980993009633E+00   1.501713970234543E+07
  6.685083878557088E+00   1.359788778861915E+01  -4.158162400865216E+00   1.501713970234543E+07
  6.892939566757786E+00   1.366860714668012E+01  -4.099409680450254E+00   1.501713970234543E+07
  7.101920505287554E+00   1.372658084788148E+01  -4.048821537971161E+00   1.501713970234543E+07
  7.310675288704039E+00   1.377303157989893E+01  -4.004745386642585E+00   1.501713970234543E+07
  7.518117375629515E+00   1.380950469148767E+01  -3.964887112237998E+00   1.501713970234543E+07
  7.723418590060155E+00   1.383776443298868E+01  -3.926484320123122E+00   1.501713970234543E+07
  7.925969842693623E+00   1.385968494759294E+01  -3.886524756482731E+00   1.501713970234543E+07
  8.125314328061028E+00   1.387714903086805E+01  -3.841985478689666E+00   1.501713970234543E+07
  8.321061483586096E+00   1.389196459545199E+01  -3.790065535542689E+00   1.501713970234543E+07
  8.512792158834118E+00   1.390580446213626E+01  -3.728385881587529E+00   1.501713970234543E+07
  8.699966480152010E+00   1.392017039151511E+01  -3.655134906628244E+00   1.501713970234543E+07
  8.881845668547587E+00   1.393637803252920E+01  -3.569145670726983E+00   1.501713970234543E+07
  9.057437575733047E+00   1.395555642564574E+01  -3.469900585275412E+00   1.501713970234543E+07
  9.225473086453505E+00   1.397865433736693E+01  -3.357469450870146E+00   1.501713970234543E+07
  9.384417068279399E+00   1.400644616994398E+01  -3.232395931864114E+00   1.501713970234543E+07
  9.532513612225618E+00   1.403953229028753E+01  -3.095554324664324E+00   1.501713970234543E+07
  9.667861343801430E+00   1.407833185501111E+01  -2.948001815334228E+00   1.501713970234543E+07
  9.788511055768108E+00   1.412306986287156E+01  -2.790850785246709E+00   1.501713970234543E+07
  9.892575245514671E+00   1.417376344840501E+01  -2.625181176722316E+00   1.501713970234543E+07
  9.978337667950150E+00   1.423021461040697E+01  -2.452005143055529E+00   1.501713970234543E+07
  1.004435094427476E+01   1.429201711156680E+01  -2.272286362749627E+00   1.501713970234543E+07
  1.008951164234174E+01   1.435858395451909E+01  -2.087006024705054E+00   1.501713970234543E+07
  1.011310493768198E+01   1.442919874792546E+01  -1.897258237537319E+00   1.501713970234543E+07
  1.011481468403304E+01   1.450308987902344E+01  -1.704351001040733E+00   1.501713970234543E+07
  1.009469904168868E+01   1.457952143674565E+01  -1.509886056100021E+00   1.501713970234543E+07
  1.005313621554776E+01   1.465789017189891E+01  -1.315792506748650E+00   1.501713970234543E+07
  9.990748796849145E+00   1.473781434058614E+01  -1.124295033396361E+00   1.501713970234543E+07
  9.908318172975408E+00   1.481919881493077E+01  -9.378070696656667E-01   1.501713970234543E+07
  9.806702057205758E+00   1.490226184345664E+01  -7.587511959407719E-01   1.501713970234543E+07
  9.686768137271910E+00   1.498751240907559E+01  -5.893215049328098E-01   1.501713970234543E+07
  9.549355082080849E+00   1.507567295746106E+01  -4.312139482198590E-01   1.501713970234543E+07
  9.395268822120507E+00   1.516754965512567E+01  -2.853589141209785E-01   1.501713970234543E+07
  9.225317472625500E+00   1.526386028653803E+01  -1.516941210130460E-01   1.501713970234543E+07
  9.040383007845435E+00   1.536503725400703E+01  -2.901452390903211E-02   1.501713970234543E+07
  8.841522439646242E+00   1.547102875365001E+01   8.507076824195159E-02   0.000000000000000E+00 3 CurveXYZFourier20 
  3.152403909953692E+00   1.754373544828140E+01   4.219266836743037E-02   1.621072141872258E+07
  2.942174186472416E+00   1.758071191225657E+01   1.328775955689972E-01   1.621072141872258E+07
  2.726898797200864E+00   1.761592449879097E+01   2.247554821373594E-01   1.621072141872258E+07
  2.506893047648248E+00   1.764850537155660E+01   3.232855335427433E-01   1.621072141872258E+07
  2.283128725860450E+00   1.767691775250031E+01   4.336597535129949E-01   1.621072141872258E+07
  2.057502914185440E+00   1.769902938303045E+01   5.603746495672972E-01   1.621072141872258E+07
  1.832994767074932E+00   1.771226608615500E+01   7.068504491153997E-01   1.621072141872258E+07
  1.613679949962505E+00   1.771383227402809E+01   8.751347214139131E-01   1.621072141872258E+07
  1.404590210631158E+00   1.770097606782244E+01   1.065718869776352E+00   1.621072141872258E+07
  1.211425538436133E+00   1.767127007968034E+01   1.277484344983439E+00   1.621072141872258E+07
  1.040145946500447E+00   1.762287583132710E+01   1.507782069869834E+00   1.621072141872258E+07
  8.964864800870341E-01   1.755476075529300E+01   1.752635093446689E+00   1.621072141872258E+07
  7.854503614141343E-01   1.746684168888661E+01   2.007042525234369E+00   1.621072141872258E+07
  7.108396457428927E-01   1.736003711682045E+01   2.265353712035038E+00   1.621072141872258E+07
  6.748796944143437E-01   1.723622106002209E+01   2.521676367560264E+00   1.621072141872258E+07
  6.779834699891379E-01   1.709808303925379E+01   2.770281374362614E+00   1.621072141872258E+07
  7.186853914378371E-01   1.694890943701136E+01   3.005970101889039E+00   1.621072141872258E+07
  7.937543179321440E-01   1.679231041378753E+01   3.224376654426641E+00   1.621072141872258E+07
  8.984737500506654E-01   1.663192218248722E+01   3.422186402890386E+00   1.621072141872258E+07
  1.027057320875010E+00   1.647111624575244E+01   3.597262155958095E+00   1.621072141872258E+07
  1.173151680789040E+00   1.631274504216725E+01   3.748679045009685E+00   1.621072141872258E+07
  1.330369007331070E+00   1.615894776994072E+01   3.876677448622193E+00   1.621072141872258E+07
  1.492788834305939E+00   1.601103187882268E+01   3.982549200520556E+00   1.621072141872258E+07
  1.655373958791865E+00   1.586943609036067E+01   4.068475467927332E+00   1.621072141872258E+07
  1.814257113059538E+00   1.573377120622597E+01   4.137335070177790E+00   1.621072141872258E+07
  1.966872244628429E+00   1.560292670219719E+01   4.192500062535454E+00   1.621072141872258E+07
  2.111924323759288E+00   1.547522522036317E+01   4.237631883176821E+00   1.621072141872258E+07
  2.249211930065851E+00   1.534860418639843E+01   4.276487162853667E+00   1.621072141872258E+07
  2.379334801211356E+00   1.522080401929966E+01   4.312738333822088E+00   1.621072141872258E+07
  2.503331762749018E+00   1.508954540113328E+01   4.349811191442702E+00   1.621072141872258E+07
  2.622301371856975E+00   1.495268305463193E+01   4.390740015586116E+00   1.621072141872258E+07
  2.737057447384067E+00   1.480832939004495E+01   4.438040850832560E+00   1.621072141872258E+07
  2.847864634489658E+00   1.465494710129781E+01   4.493604816562434E+00   1.621072141872258E+07
  2.954286389806606E+00   1.449141430126102E+01   4.558615315711232E+00   1.621072141872258E+07
  3.055161142456463E+00   1.431706835975027E+01   4.633494998934992E+00   1.621072141872258E+07
  3.148704231892444E+00   1.413173492698137E+01   4.717889553019178E+00   1.621072141872258E+07
  3.232716034616273E+00   1.393574682852824E+01   4.810695178409957E+00   1.621072141872258E+07
  3.304862759144302E+00   1.372995417128479E+01   4.910134623219734E+00   1.621072141872258E+07
  3.362987496312588E+00   1.351572299006342E+01   5.013882826879654E+00   1.621072141872258E+07
  3.405406306011986E+00   1.329491613396064E+01   5.119237957029365E+00   1.621072141872258E+07
  3.431147585407440E+00   1.306984784393361E+01   5.223327604759319E+00   1.621072141872258E+07
  3.440102017557662E+00   1.284320337907395E+01   5.323334084221148E+00   1.621072141872258E+07
  3.433063617755860E+00   1.261791748929986E+01   5.416718200487989E+00   1.621072141872258E+07
  3.411657826210108E+00   1.239701040224378E+01   5.501418454068184E+00   1.621072141872258E+07
  3.378168048323444E+00   1.218338669027235E+01   5.576003130480629E+00   1.621072141872258E+07
  3.335285398179505E+00   1.197960988533350E+01   5.639756367365204E+00   1.621072141872258E+07
  3.285815901797176E+00   1.178767271997606E+01   5.692685907035763E+00   1.621072141872258E+07
  3.232383906386568E+00   1.160878803580320E+01   5.735449148729558E+00   1.621072141872258E+07
  3.177169500890685E+00   1.144322752896032E+01   5.769204216499740E+00   1.621072141872258E+07
  3.121711733429615E+00   1.129023379665505E+01   5.795402688889199E+00   1.621072141872258E+07
  3.066799358460662E+00   1.114802536435663E+01   5.815548952391262E+00   1.621072141872258E+07
  3.012458326435290E+00   1.101390490647098E+01   5.830956541576881E+00   1.621072141872258E+07
  2.958032086263890E+00   1.088446874892071E+01   5.842533363734849E+00   1.621072141872258E+07
  2.902338856939454E+00   1.075590249952484E+01   5.850624937888705E+00   1.621072141872258E+07
  2.843880932565310E+00   1.062433514156265E+01   5.854937877206102E+00   1.621072141872258E+07
  2.781075933533745E+00   1.048621404326796E+01   5.854555592351682E+00   1.621072141872258E+07
  2.712479209551817E+00   1.033865773433409E+01   5.848045898141836E+00   1.621072141872258E+07
  2.636970180703661E+00   1.017974312219350E+01   5.833647528140113E+00   1.621072141872258E+07
  2.553882505257641E+00   1.000868949241475E+01   5.809511286720586E+00   1.621072141872258E+07
  2.463067352421578E+00   9.825912761960753E+00   5.773963346923133E+00   1.621072141872258E+07
  2.364889232686272E+00   9.632938821153905E+00   5.725754305289505E+00   1.621072141872258E+07
  2.260163262636565E+00   9.432182519544616E+00   5.664258721421109E+00   1.621072141872258E+07
  2.150050076307840E+00   9.226616592038308E+00   5.589595989149344E+00   1.621072141872258E+07
  2.035928889676799E+00   9.019370130756030E+00   5.502653775561667E+00   1.621072141872258E+07
  1.919270039390411E+00   8.813306856811977E+00   5.405008554932778E+00   1.621072141872258E+07
  1.801525767228237E+00   8.610637762347602E+00   5.298752132658145E+00   1.621072141872258E+07
  1.684052735980193E+00   8.412619824038764E+00   5.186246472565199E+00   1.621072141872258E+07
  1.568072760694757E+00   8.219382556046472E+00   5.069839668699610E+00   1.621072141872258E+07
  1.454670758823308E+00   8.029908287423098E+00   4.951581969011467E+00   1.621072141872258E+07
  1.344822215218128E+00   7.842172200885052E+00   4.832981398994417E+00   1.621072141872258E+07
  1.239437591473361E+00   7.653426959172241E+00   4.714833544145962E+00   1.621072141872258E+07
  1.139408806246423E+00   7.460597043803149E+00   4.597150033576360E+00   1.621072141872258E+07
  1.045643447806886E+00   7.260732482578296E+00   4.479196562277129E+00   1.621072141872258E+07
  9.590755481928654E-01   7.051462671786447E+00   4.359635793744038E+00   1.621072141872258E+07
  8.806469156342284E-01   6.831389886391309E+00   4.236755390301678E+00   1.621072141872258E+07
  8.112592380047514E-01   6.600369135936123E+00   4.108748902401480E+00   1.621072141872258E+07
  7.517033308274375E-01   6.359635455347654E+00   3.974009157148358E+00   1.621072141872258E+07
  7.025769339303624E-01   6.111759667905640E+00   3.831391364875459E+00   1.621072141872258E+07
  6.642054905887256E-01   5.860436470460910E+00   3.680406863058701E+00   1.621072141872258E+07
  6.365808445707362E-01   5.610131271886295E+00   3.521317820584970E+00   1.621072141872258E+07
  6.193306618674945E-01   5.365631449694921E+00   3.355117088182800E+00   1.621072141872258E+07
  6.117269608539998E-01   5.131560879753017E+00   3.183393797964372E+00   1.621072141872258E+07
  6.127361331675882E-01   4.911921845600657E+00   3.008101983583500E+00   1.621072141872258E+07
  6.211062356953522E-01   4.709724932366992E+00   2.831264034590210E+00   1.621072141872258E+07
  6.354812126118430E-01   4.526755649521600E+00   2.654651099688345E+00   1.621072141872258E+07
  6.545270745798821E-01   4.363507869444351E+00   2.479487067867562E+00   1.621072141872258E+07
  6.770526952023362E-01   4.219291241529375E+00   2.306220734178416E+00   1.621072141872258E+07
  7.021081993305288E-01   4.092495691412593E+00   2.134402361883305E+00   1.621072141872258E+07
  7.290469049921817E-01   3.980974275425453E+00   1.962687150059607E+00   1.621072141872258E+07
  7.575420062854429E-01   3.882489086465570E+00   1.788970932498543E+00   1.621072141872258E+07
  7.875558565811146E-01   3.795155945402845E+00   1.610645109846828E+00   1.621072141872258E+07
  8.192668037909717E-01   3.717823565295211E+00   1.424940881599454E+00   1.621072141872258E+07
  8.529649428760757E-01   3.650331814221509E+00   1.229319663611711E+00   1.621072141872258E+07
  8.889328843932731E-01   3.593610444766876E+00   1.021859020731492E+00   1.621072141872258E+07
  9.273299462210437E-01   3.549601927506085E+00   8.015826238614586E-01   1.621072141872258E+07
  9.680976853985227E-01   3.521016761990252E+00   5.686888487004433E-01   1.621072141872258E+07
  1.010901456268354E+00   3.510953420562529E+00   3.246449127062006E-01   1.621072141872258E+07
  1.055117191289585E+00   3.522434600684794E+00   7.213029285133174E-02   1.621072141872258E+07
  1.099865683468725E+00   3.557923988093509E+00  -1.851676530511080E-01   1.621072141872258E+07
  1.144089358374500E+00   3.618891490449472E+00  -4.428839778328571E-01   1.621072141872258E+07
  1.186659973934495E+00   3.705489319431926E+00  -6.963942478087199E-01   1.621072141872258E+07
  1.226500882097712E+00   3.816387095816454E+00  -9.412710289813265E-01   1.621072141872258E+07
  1.262705168026316E+00   3.948793233594132E+00  -1.173724374694157E+00   1.621072141872258E+07
  1.294631511981761E+00   4.098665058263927E+00  -1.390973968268937E+00   1.621072141872258E+07
  1.321962925418610E+00   4.261084798103742E+00  -1.591509274876288E+00   1.621072141872258E+07
  1.344719102352712E+00   4.430756192084612E+00  -1.775208212006804E+00   1.621072141872258E+07
  1.363220158736086E+00   4.602560017259144E+00  -1.943302535673948E+00   1.621072141872258E+07
  1.378006945600269E+00   4.772098566465680E+00  -2.098196998638807E+00   1.621072141872258E+07
  1.389729796516419E+00   4.936160100328734E+00  -2.243166894553187E+00   1.621072141872258E+07
  1.399022497210821E+00   5.093044390623761E+00  -2.381972610870278E+00   1.621072141872258E+07
  1.406380697963939E+00   5.242708270490770E+00  -2.518438552377688E+00   1.621072141872258E+07
  1.412063554621092E+00   5.386713187968620E+00  -2.656046291919736E+00   1.621072141872258E+07
  1.416034137277187E+00   5.527982012938950E+00  -2.797587940837145E+00   1.621072141872258E+07
  1.417948561354764E+00   5.670396408384108E+00  -2.944916245541149E+00   1.621072141872258E+07
  1.417196694336735E+00   5.818285785307951E+00  -3.098814269862016E+00   1.621072141872258E+07
  1.412989715439674E+00   5.975871689538566E+00  -3.258991678102805E+00   1.621072141872258E+07
  1.404482863687604E+00   6.146735855987366E+00  -3.424198768768205E+00   1.621072141872258E+07
  1.390916412498129E+00   6.333375709584228E+00  -3.592435609175446E+00   1.621072141872258E+07
  1.371755020013069E+00   6.536898580967253E+00  -3.761223595943414E+00   1.621072141872258E+07
  1.346805532023629E+00   6.756887185976546E+00  -3.927901628022458E+00   1.621072141872258E+07
  1.316296055144500E+00   6.991446620019883E+00  -4.089909214264455E+00   1.621072141872258E+07
  1.280904263540972E+00   7.237420275063606E+00  -4.245023887068986E+00   1.621072141872258E+07
  1.241729705661109E+00   7.490741712717825E+00  -4.391529237974383E+00   1.621072141872258E+07
  1.200212366492736E+00   7.746874206458265E+00  -4.528301228032539E+00   1.621072141872258E+07
  1.158006865456878E+00   8.001281215129373E+00  -4.654812409532076E+00   1.621072141872258E+07
  1.116827454616416E+00   8.249870291781113E+00  -4.771064600285920E+00   1.621072141872258E+07
  1.078282664475336E+00   8.489359618798559E+00  -4.877468920437349E+00   1.621072141872258E+07
  1.043719580393671E+00   8.717529246151951E+00  -4.974696944707626E+00   1.621072141872258E+07
  1.014096247387111E+00   8.933336159869492E+00  -5.063527637033026E+00   1.621072141872258E+07
  9.898968886095354E-01   9.136891012250901E+00  -5.144711929719869E+00   1.621072141872258E+07
  9.710990878939535E-01   9.329312086339652E+00  -5.218871042123270E+00   1.621072141872258E+07
  9.571956443111862E-01   9.512486489834901E+00  -5.286437060859518E+00   1.621072141872258E+07
  9.472673542235901E-01   9.688777904421631E+00  -5.347636280126164E+00   1.621072141872258E+07
  9.400973594481780E-01   9.860723487096564E+00  -5.402508658833643E+00   1.621072141872258E+07
  9.343135929508082E-01   1.003075966746077E+01  -5.450951590635339E+00   1.621072141872258E+07
  9.285436706890965E-01   1.020100841792874E+01  -5.492773707502093E+00   1.621072141872258E+07
  9.215664318672280E-01   1.037314361547134E+01  -5.527744861303119E+00   1.621072141872258E+07
  9.124460351536459E-01   1.054834334722189E+01  -5.555631462926969E+00   1.621072141872258E+07
  9.006376452899819E-01   1.072732057153478E+01  -5.576211283671747E+00   1.621072141872258E+07
  8.860577046273972E-01   1.091041339578036E+01  -5.589267621467452E+00   1.621072141872258E+07
  8.691159371727046E-01   1.109770888812695E+01  -5.594568272043648E+00   1.621072141872258E+07
  8.507099938231553E-01   1.128917166730042E+01  -5.591838968988198E+00   1.621072141872258E+07
  8.321865774490416E-01   1.148475062767109E+01  -5.580743070054692E+00   1.621072141872258E+07
  8.152747507160911E-01   1.168444344227173E+01  -5.560878861391544E+00   1.621072141872258E+07
  8.019979165757221E-01   1.188830772453954E+01  -5.531802970851417E+00   1.621072141872258E+07
  7.945708599298686E-01   1.209641830912943E+01  -5.493083512427367E+00   1.621072141872258E+07
  7.952875792174419E-01   1.230878029080732E+01  -5.444380570237642E+00   1.621072141872258E+07
  8.064048074750910E-01   1.252521563622850E+01  -5.385545531464932E+00   1.621072141872258E+07
  8.300254811694621E-01   1.274524613343853E+01  -5.316725689553502E+00   1.621072141872258E+07
  8.679862068709731E-01   1.296799649605526E+01  -5.238457411451275E+00   1.621072141872258E+07
  9.217530776970518E-01   1.319213855291491E+01  -5.151730638806542E+00   1.621072141872258E+07
  9.923308925513522E-01   1.341589120219862E+01  -5.058009798866895E+00   1.621072141872258E+07
  1.080191653129830E+00   1.363708226565450E+01  -4.959201102482188E+00   1.621072141872258E+07
  1.185228768023342E+00   1.385326893417858E+01  -4.857563041471606E+00   1.621072141872258E+07
  1.306743266188829E+00   1.406190463186975E+01  -4.755564674908424E+00   1.621072141872258E+07
  1.443467170724283E+00   1.426053318166636E+01  -4.655703848542142E+00   1.621072141872258E+07
  1.593626826311264E+00   1.444698712935154E+01  -4.560303666967616E+00   1.621072141872258E+07
  1.755045454564116E+00   1.461956648859472E+01  -4.471309368582250E+00   1.621072141872258E+07
  1.925279829434252E+00   1.477717697881086E+01  -4.390108617534298E+00   1.621072141872258E+07
  2.101781253009186E+00   1.491941249380941E+01  -4.317395947719505E+00   1.621072141872258E+07
  2.282066672491305E+00   1.504657410495248E+01  -4.253096969139817E+00   1.621072141872258E+07
  2.463882578018282E+00   1.515962616493113E+01  -4.196360705163118E+00   1.621072141872258E+07
  2.645342960997159E+00   1.526009778686566E+01  -4.145620118342842E+00   1.621072141872258E+07
  2.825023602610571E+00   1.534994402770628E+01  -4.098712708118845E+00   1.621072141872258E+07
  3.001998506328440E+00   1.543138471992021E+01  -4.053046202864873E+00   1.621072141872258E+07
  3.175810215552324E+00   1.550673971056196E+01  -4.005789787696926E+00   1.621072141872258E+07
  3.346373506221764E+00   1.557827738198717E+01  -3.954069615146369E+00   1.621072141872258E+07
  3.513820608949747E+00   1.564808926474377E+01  -3.895148693609761E+00   1.621072141872258E+07
  3.678304553593886E+00   1.571799814641854E+01  -3.826575321228829E+00   1.621072141872258E+07
  3.839784215262620E+00   1.578950132745181E+01  -3.746290294348646E+00   1.621072141872258E+07
  3.997819045074958E+00   1.586374556004466E+01  -3.652690134562798E+00   1.621072141872258E+07
  4.151402437699687E+00   1.594152653445795E+01  -3.544650379187382E+00   1.621072141872258E+07
  4.298859793594123E+00   1.602330404514788E+01  -3.421518455670690E+00   1.621072141872258E+07
  4.437830673594483E+00   1.610922429308647E+01  -3.283088935591434E+00   1.621072141872258E+07
  4.565344662610609E+00   1.619914288977335E+01  -3.129574541222725E+00   1.621072141872258E+07
  4.677988796497134E+00   1.629264542806867E+01  -2.961584120042819E+00   1.621072141872258E+07
  4.772152161227037E+00   1.638906617345420E+01  -2.780114341712860E+00   1.621072141872258E+07
  4.844322212129379E+00   1.648750865030826E+01  -2.586555941291346E+00   1.621072141872258E+07
  4.891399084894861E+00   1.658687390036636E+01  -2.382709034189573E+00   1.621072141872258E+07
  4.910989982624565E+00   1.668590246998675E+01  -2.170796555909615E+00   1.621072141872258E+07
  4.901646425682719E+00   1.678323457742452E+01  -1.953461321480104E+00   1.621072141872258E+07
  4.863012901282644E+00   1.687748963856913E+01  -1.733731356822598E+00   1.621072141872258E+07
  4.795865706292398E+00   1.696736195522231E+01  -1.514940400222854E+00   1.621072141872258E+07
  4.702034341831800E+00   1.705172471415715E+01  -1.300595676373987E+00   1.621072141872258E+07
  4.584212976174092E+00   1.712973044144207E+01  -1.094192576835270E+00   1.621072141872258E+07
  4.445684228841745E+00   1.720089358665800E+01  -8.989846884587580E-01   1.621072141872258E+07
  4.289989801468816E+00   1.726514064437479E+01  -7.177263745406453E-01   1.621072141872258E+07
  4.120590506232314E+00   1.732281548092969E+01  -5.524124367543923E-01   1.621072141872258E+07
  3.940560755652446E+00   1.737463222885336E+01  -4.040440118171286E-01   1.621072141872258E+07
  3.752359029444824E+00   1.742157471712029E+01  -2.724508629835721E-01   1.621072141872258E+07
  3.557706494778513E+00   1.746474903617301E+01  -1.561971774542757E-01   1.621072141872258E+07
  3.357591905486216E+00   1.750520336769815E+01  -5.259101076037287E-02   1.621072141872258E+07
  3.152403909953692E+00   1.754373544828140E+01   4.219266836743037E-02   0.000000000000000E+00 4 CurveXYZFourier21 
  1.868797133085377E+01  -4.561233886282015E+00   6.820577000468100E-02  -2.965421550195435E+07
  1.860036932941107E+01  -4.924331552689750E+00  -3.891493986821459E-02  -2.965421550195435E+07
  1.851355500852130E+01  -5.299028456193994E+00  -1.538942204204703E-01  -2.965421550195435E+07
  1.842681988013597E+01  -5.681944261281179E+00  -2.814805331740007E-01  -2.965421550195435E+07
  1.833955125770667E+01  -6.068025618731922E+00  -4.262694927974799E-01  -2.965421550195435E+07
  1.825136195681503E+01  -6.450637260311398E+00  -5.925156743640971E-01  -2.965421550195435E+07
  1.816218177239580E+01  -6.821839143698125E+00  -7.838836492619515E-01  -2.965421550195435E+07
  1.807230469667868E+01  -7.172818838079712E+00  -1.003154819172462E+00  -2.965421550195435E+07
  1.798239061556429E+01  -7.494431439236717E+00  -1.251920160233084E+00  -2.965421550195435E+07
  1.789342449149274E+01  -7.777788981808587E+00  -1.530298651333538E+00  -2.965421550195435E+07
  1.780663945986027E+01  -8.014838532802687E+00  -1.836725086822000E+00  -2.965421550195435E+07
  1.772341265759040E+01  -8.198872808298859E+00  -2.167848163872223E+00  -2.965421550195435E+07
  1.764514395358658E+01  -8.324928169836516E+00  -2.518570214264913E+00  -2.965421550195435E+07
  1.757312817675517E+01  -8.390040356487665E+00  -2.882244789657432E+00  -2.965421550195435E+07
  1.750843112983654E+01  -8.393345940584487E+00  -3.251029481789337E+00  -2.965421550195435E+07
  1.745177884739346E+01  -8.336034787146984E+00  -3.616371460212736E+00  -2.965421550195435E+07
  1.740346838322791E+01  -8.221173517966028E+00  -3.969585080011676E+00  -2.965421550195435E+07
  1.736330700894795E+01  -8.053430447880706E+00  -4.302467214974806E+00  -2.965421550195435E+07
  1.733058510527888E+01  -7.838737747423975E+00  -4.607888797921030E+00  -2.965421550195435E+07
  1.730408619790820E+01  -7.583926608755011E+00  -4.880301597449153E+00  -2.965421550195435E+07
  1.728213546276247E+01  -7.296366659611121E+00  -5.116107646637907E+00  -2.965421550195435E+07
  1.726268554584329E+01  -6.983633116094836E+00  -5.313853969940298E+00  -2.965421550195435E+07
  1.724343571456452E+01  -6.653215889540166E+00  -5.474235356493011E+00  -2.965421550195435E+07
  1.722197728551346E+01  -6.312275830463544E+00  -5.599910226262852E+00  -2.965421550195435E+07
  1.719595518313794E+01  -5.967446036815294E+00  -5.695156134309523E+00  -2.965421550195435E+07
  1.716323271580036E+01  -5.624671731638154E+00  -5.765409271326587E+00  -2.965421550195435E+07
  1.712204463180184E+01  -5.289081054800149E+00  -5.816744082251533E+00  -2.965421550195435E+07
  1.707112268136360E+01  -4.964880973132169E+00  -5.855353337486426E+00  -2.965421550195435E+07
  1.700977864784404E+01  -4.655276558233302E+00  -5.887085225555454E+00  -2.965421550195435E+07
  1.693793237043831E+01  -4.362416860700951E+00  -5.917082993604652E+00  -2.965421550195435E+07
  1.685607669698576E+01  -4.087375103639871E+00  -5.949556064515541E+00  -2.965421550195435E+07
  1.676517735379651E+01  -3.830173610811034E+00  -5.987691889783608E+00  -2.965421550195435E+07
  1.666651289942333E+01  -3.589863815853403E+00  -6.033697932785871E+00  -2.965421550195435E+07
  1.656146749547406E+01  -3.364668454171144E+00  -6.088945965451646E+00  -2.965421550195435E+07
  1.645129626146435E+01  -3.152186842225300E+00  -6.154178705554936E+00  -2.965421550195435E+07
  1.633688850043839E+01  -2.949655842900306E+00  -6.229733332958773E+00  -2.965421550195435E+07
  1.621855717541554E+01  -2.754250032262379E+00  -6.315738193276700E+00  -2.965421550195435E+07
  1.609588298012892E+01  -2.563396323969263E+00  -6.412247525187874E+00  -2.965421550195435E+07
  1.596763781057208E+01  -2.375072470558071E+00  -6.519292826430049E+00  -2.965421550195435E+07
  1.583180545889532E+01  -2.188056757298848E+00  -6.636846228423629E+00  -2.965421550195435E+07
  1.568570743183038E+01  -2.002098615424279E+00  -6.764708286992848E+00  -2.965421550195435E+07
  1.552622989417152E+01  -1.817986894307624E+00  -6.902347213990186E+00  -2.965421550195435E+07
  1.535013515830653E+01  -1.637503485045695E+00  -7.048726467900539E+00  -2.965421550195435E+07
  1.515442939771556E+01  -1.463263538347909E+00  -7.202161231474956E+00  -2.965421550195435E+07
  1.493674889711735E+01  -1.298457825856806E+00  -7.360241048864870E+00  -2.965421550195435E+07
  1.469572153205086E+01  -1.146525785222043E+00  -7.519846253013285E+00  -2.965421550195435E+07
  1.443125929733879E+01  -1.010797483260153E+00  -7.677271252423356E+00  -2.965421550195435E+07
  1.414474205493941E+01  -8.941475505537581E-01  -7.828450495303726E+00  -2.965421550195435E+07
  1.383906210352315E+01  -7.987031748097302E-01  -7.969265646640980E+00  -2.965421550195435E+07
  1.351851289710279E+01  -7.256414146343024E-01  -8.095897886007515E+00  -2.965421550195435E+07
  1.318852188696167E+01  -6.750992139074349E-01  -8.205179571346800E+00  -2.965421550195435E+07
  1.285524521459562E+01  -6.462041495354550E-01  -8.294896404435805E+00  -2.965421550195435E+07
  1.252505878804522E+01  -6.372172910855114E-01  -8.363995303073553E+00  -2.965421550195435E+07
  1.220399407938205E+01  -6.457640066778002E-01  -8.412664000570272E+00  -2.965421550195435E+07
  1.189717599714457E+01  -6.691164306864471E-01  -8.442264523381468E+00  -2.965421550195435E+07
  1.160832311777930E+01  -7.044844743709237E-01  -8.455121919422211E+00  -2.965421550195435E+07
  1.133936678204210E+01  -7.492718196158457E-01  -8.454189230082664E+00  -2.965421550195435E+07
  1.109023522915976E+01  -8.012594604391982E-01  -8.442626946637878E+00  -2.965421550195435E+07
  1.085883299106880E+01  -8.586912324454273E-01  -8.423347616384859E+00  -2.965421550195435E+07
  1.064122583461010E+01  -9.202516956829355E-01  -8.398582088370466E+00  -2.965421550195435E+07
  1.043201977294175E+01  -9.849443595715134E-01  -8.369522261214273E+00  -2.965421550195435E+07
  1.022490149343346E+01  -1.051894897519098E+00  -8.336086306493694E+00  -2.965421550195435E+07
  1.001328938173042E+01  -1.120117115879638E+00  -8.296837388331724E+00  -2.965421550195435E+07
  9.791031275561625E+00  -1.188286914696165E+00  -8.249067910200676E+00  -2.965421550195435E+07
  9.553078717755616E+00  -1.254570007024764E+00  -8.189040854614891E+00  -2.965421550195435E+07
  9.296068610255801E+00  -1.316542467519183E+00  -8.112360568580304E+00  -2.965421550195435E+07
  9.018751764794990E+00  -1.371230060464069E+00  -8.014429898278172E+00  -2.965421550195435E+07
  8.722223015356569E+00  -1.415274541914166E+00  -7.890940837894069E+00  -2.965421550195435E+07
  8.409927665957317E+00  -1.445215273135249E+00  -7.738342955403731E+00  -2.965421550195435E+07
  8.087441897253576E+00  -1.457855439779307E+00  -7.554237961414654E+00  -2.965421550195435E+07
  7.762047845090221E+00  -1.450666818951480E+00  -7.337659113104357E+00  -2.965421550195435E+07
  7.442144877762442E+00  -1.422177783044716E+00  -7.089209100323552E+00  -2.965421550195435E+07
  7.136554896924666E+00  -1.372287650861434E+00  -6.811047493003902E+00  -2.965421550195435E+07
  6.853789560100537E+00  -1.302457087372253E+00  -6.506736351448523E+00  -2.965421550195435E+07
  6.601350178436959E+00  -1.215738331706098E+00  -6.180967938260453E+00  -2.965421550195435E+07
  6.385126507045605E+00  -1.116628817282318E+00  -5.839209774008396E+00  -2.965421550195435E+07
  6.208949362181727E+00  -1.010754595825363E+00  -5.487308367415730E+00  -2.965421550195435E+07
  6.074335341309937E+00  -9.044127518669802E-01  -5.131093444186548E+00  -2.965421550195435E+07
  5.980441811692212E+00  -8.040215098007115E-01  -4.776019824310410E+00  -2.965421550195435E+07
  5.924229010751197E+00  -7.155402117859199E-01  -4.426875379902690E+00  -2.965421550195435E+07
  5.900805862080399E+00  -6.439268113205232E-01  -4.087572353900948E+00  -2.965421550195435E+07
  5.903919045105121E+00  -5.926971127531222E-01  -3.761027555892639E+00  -2.965421550195435E+07
  5.926532624946720E+00  -5.636380530297677E-01  -3.449126317417250E+00  -2.965421550195435E+07
  5.961439217332609E+00  -5.567084207804425E-01  -3.152756985224223E+00  -2.965421550195435E+07
  6.001843611205964E+00  -5.701370687180276E-01  -2.871898019593524E+00  -2.965421550195435E+07
  6.041865686102934E+00  -6.007040502439287E-01  -2.605738672024046E+00  -2.965421550195435E+07
  6.076920408805091E+00  -6.441675305623931E-01  -2.352816341621146E+00  -2.965421550195435E+07
  6.103947258282677E+00  -6.957818252403392E-01  -2.111158136922677E+00  -2.965421550195435E+07
  6.121477895473291E+00  -7.508418240383815E-01  -1.878419662305443E+00  -2.965421550195435E+07
  6.129547458681420E+00  -8.051876402120155E-01  -1.652019285049366E+00  -2.965421550195435E+07
  6.129469829706752E+00  -8.556106432711760E-01  -1.429269960812243E+00  -2.965421550195435E+07
  6.123509168178611E+00  -9.001169287275582E-01  -1.207512310006558E+00  -2.965421550195435E+07
  6.114487954332528E+00  -9.380245543225133E-01  -9.842517585167900E-01  -2.965421550195435E+07
  6.105375203741231E+00  -9.698936153934986E-01  -7.572994451139677E-01  -2.965421550195435E+07
  6.098897412760776E+00  -9.973102370619118E-01  -5.249120096633229E-01  -2.965421550195435E+07
  6.097209611106011E+00  -1.022563791898805E+00  -2.859204141350436E-01  -2.965421550195435E+07
  6.101655459484751E+00  -1.048268674119731E+00  -3.983385593479841E-02  -2.965421550195435E+07
  6.112634709184480E+00  -1.076986281766286E+00   2.130972427354823E-01  -2.965421550195435E+07
  6.129584729533064E+00  -1.110899123305864E+00   4.718744177237075E-01  -2.965421550195435E+07
  6.151071389053461E+00  -1.151577991474642E+00   7.348118190368732E-01  -2.965421550195435E+07
  6.174974401463949E+00  -1.199866781311799E+00   9.996687614052894E-01  -2.965421550195435E+07
  6.198744159036689E+00  -1.255890357498959E+00   1.263849596582495E+00  -2.965421550195435E+07
  6.219701644519871E+00  -1.319171830821336E+00   1.524656507839083E+00  -2.965421550195435E+07
  6.235350518926490E+00  -1.388829524526769E+00   1.779571716937408E+00  -2.965421550195435E+07
  6.243670923246899E+00  -1.463813126783140E+00   2.026538769979360E+00  -2.965421550195435E+07
  6.243367654695290E+00  -1.543134515205225E+00   2.264209357602820E+00  -2.965421550195435E+07
  6.234050728896047E+00  -1.626051929175417E+00   2.492123376196861E+00  -2.965421550195435E+07
  6.216333322456377E+00  -1.712175880813323E+00   2.710795854753682E+00  -2.965421550195435E+07
  6.191840027406824E+00  -1.801479780021591E+00   2.921694447009972E+00  -2.965421550195435E+07
  6.163126536423967E+00  -1.894215329961858E+00   3.127104238433017E+00  -2.965421550195435E+07
  6.133519637052683E+00  -1.990749604731025E+00   3.329890937927547E+00  -2.965421550195435E+07
  6.106893113446896E+00  -2.091354696615792E+00   3.533187126705271E+00  -2.965421550195435E+07
  6.087400327016099E+00  -2.195989730862749E+00   3.740037141525769E+00  -2.965421550195435E+07
  6.079187494481115E+00  -2.304117501882367E+00   3.953042705670106E+00  -2.965421550195435E+07
  6.086112776183343E+00  -2.414593596011649E+00   4.174052490716734E+00  -2.965421550195435E+07
  6.111495168025026E+00  -2.525655292809927E+00   4.403934055166589E+00  -2.965421550195435E+07
  6.157913969378548E+00  -2.635022383140508E+00   4.642456554344549E+00  -2.965421550195435E+07
  6.227074560300228E+00  -2.740104606990244E+00   4.888298525368898E+00  -2.965421550195435E+07
  6.319749806145285E+00  -2.838293340811454E+00   5.139178812145841E+00  -2.965421550195435E+07
  6.435799189512981E+00  -2.927301042289973E+00   5.392092549940316E+00  -2.965421550195435E+07
  6.574260412521716E+00  -3.005502936717246E+00   5.643620347069946E+00  -2.965421550195435E+07
  6.733501417726131E+00  -3.072232889954430E+00   5.890269348161155E+00  -2.965421550195435E+07
  6.911415217138396E+00  -3.127989782508739E+00   6.128801107079410E+00  -2.965421550195435E+07
  7.105636172944503E+00  -3.174521383247223E+00   6.356503699683135E+00  -2.965421550195435E+07
  7.313754854790568E+00  -3.214768203114615E+00   6.571373930565325E+00  -2.965421550195435E+07
  7.533509502666248E+00  -3.252667882109203E+00   6.772188640188528E+00  -2.965421550195435E+07
  7.762935392607633E+00  -3.292838761783254E+00   6.958460116498447E+00  -2.965421550195435E+07
  8.000458711682796E+00  -3.340176878515389E+00   7.130287158483602E+00  -2.965421550195435E+07
  8.244928332946433E+00  -3.399411532470912E+00   7.288128047577390E+00  -2.965421550195435E+07
  8.495586383530386E+00  -3.474669398905975E+00   7.432532444770211E+00  -2.965421550195435E+07
  8.751985852336254E+00  -3.569095308670199E+00   7.563874516188994E+00  -2.965421550195435E+07
  9.013869809268911E+00  -3.684569751757925E+00   7.682128674331364E+00  -2.965421550195435E+07
  9.281031323321884E+00  -3.821550148586585E+00   7.786722396565414E+00  -2.965421550195435E+07
  9.553175288199730E+00  -3.979046951751868E+00   7.876488721462615E+00  -2.965421550195435E+07
  9.829802788447832E+00  -4.154729009163027E+00   7.949726023556989E+00  -2.965421550195435E+07
  1.011013539449563E+01  -4.345137666658319E+00   8.004356776343451E+00  -2.965421550195435E+07
  1.039309123097205E+01  -4.545977804377047E+00   8.038162593262722E+00  -2.965421550195435E+07
  1.067731749500729E+01  -4.752447752582518E+00   8.049062006990516E+00  -2.965421550195435E+07
  1.096127621559256E+01  -4.959569379899655E+00   8.035391768802954E+00  -2.965421550195435E+07
  1.124337246600185E+01  -5.162484291339527E+00   7.996152689859228E+00  -2.965421550195435E+07
  1.152210798104679E+01  -5.356690937034211E+00   7.931187068044809E+00  -2.965421550195435E+07
  1.179623905462854E+01  -5.538208856342066E+00   7.841265531944527E+00  -2.965421550195435E+07
  1.206491629841297E+01  -5.703668309028229E+00   7.728074953361683E+00  -2.965421550195435E+07
  1.232778557145718E+01  -5.850334242278818E+00   7.594113748883867E+00  -2.965421550195435E+07
  1.258503398610777E+01  -5.976081308032212E+00   7.442514117087361E+00  -2.965421550195435E+07
  1.283737181059200E+01  -6.079340456648668E+00   7.276820495167027E+00  -2.965421550195435E+07
  1.308594944945642E+01  -6.159037192280103E+00   7.100758285629204E+00  -2.965421550195435E+07
  1.333221739740349E+01  -6.214537333628670E+00   6.918026014412448E+00  -2.965421550195435E+07
  1.357774496215110E+01  -6.245609181632931E+00   6.732137754522386E+00  -2.965421550195435E+07
  1.382401955004360E+01  -6.252402896671392E+00   6.546331973866466E+00  -2.965421550195435E+07
  1.407225154653557E+01  -6.235440341140386E+00   6.363549735710504E+00  -2.965421550195435E+07
  1.432320979656963E+01  -6.195603219913957E+00   6.186471612136925E+00  -2.965421550195435E+07
  1.457710932044521E+01  -6.134105206165284E+00   6.017591057670852E+00  -2.965421550195435E+07
  1.483356656141377E+01  -6.052435404605959E+00   5.859294336241695E+00  -2.965421550195435E+07
  1.509162893297061E+01  -5.952265784271230E+00   5.713914793053599E+00  -2.965421550195435E+07
  1.534987580918406E+01  -5.835323210661659E+00   5.583732863955032E+00  -2.965421550195435E+07
  1.560657864294631E+01  -5.703235963403054E+00   5.470902322119592E+00  -2.965421550195435E+07
  1.585989986996467E+01  -5.557373362404228E+00   5.377296574447479E+00  -2.965421550195435E+07
  1.610810475792237E+01  -5.398703547816939E+00   5.304284316337614E+00  -2.965421550195435E+07
  1.634975816927465E+01  -5.227697069629136E+00   5.252459089413630E+00  -2.965421550195435E+07
  1.658387967313681E+01  -5.044301816602784E+00   5.221359765998206E+00  -2.965421550195435E+07
  1.681003543575897E+01  -4.848007788204384E+00   5.209226543110009E+00  -2.965421550195435E+07
  1.702835323903008E+01  -4.638008955586089E+00   5.212838179339344E+00  -2.965421550195435E+07
  1.723945682572574E+01  -4.413455404989847E+00   5.227470384097412E+00  -2.965421550195435E+07
  1.744432628555561E+01  -4.173774122151181E+00   5.247002938703419E+00  -2.965421550195435E+07
  1.764410101322421E+01  -3.919023456164757E+00   5.264185753745614E+00  -2.965421550195435E+07
  1.783984960374987E+01  -3.650236725563647E+00   5.271053910037807E+00  -2.965421550195435E+07
  1.803233586611747E+01  -3.369706405042832E+00   5.259461541503166E+00  -2.965421550195435E+07
  1.822181128646096E+01  -3.081162937596777E+00   5.221687042483570E+00  -2.965421550195435E+07
  1.840786158260278E+01  -2.789811600141362E+00   5.151050046047511E+00  -2.965421550195435E+07
  1.858932878589714E+01  -2.502206153650061E+00   5.042475759660398E+00  -2.965421550195435E+07
  1.876432134060190E+01  -2.225957449664498E+00   4.892945428342747E+00  -2.965421550195435E+07
  1.893031415269581E+01  -1.969296258985108E+00   4.701782685095687E+00  -2.965421550195435E+07
  1.908432967811343E+01  -1.740529482476847E+00   4.470743020208248E+00  -2.965421550195435E+07
  1.922318137110448E+01  -1.547444778260539E+00   4.203895324038799E+00  -2.965421550195435E+07
  1.934375332443149E+01  -1.396728116647890E+00   3.907307604318165E+00  -2.965421550195435E+07
  1.944328562903817E+01  -1.293460276638164E+00   3.588570522823053E+00  -2.965421550195435E+07
  1.951963435133645E+01  -1.240751299977005E+00   3.256209540418783E+00  -2.965421550195435E+07
  1.957147809061849E+01  -1.239557053256069E+00   2.919047030601573E+00  -2.965421550195435E+07
  1.959844939351357E+01  -1.288701048907864E+00   2.585578473668130E+00  -2.965421550195435E+07
  1.960117802800535E+01  -1.385100161161646E+00   2.263421626014017E+00  -2.965421550195435E+07
  1.958124314031591E+01  -1.524168001612645E+00   1.958885325675543E+00  -2.965421550195435E+07
  1.954104139173108E+01  -1.700347761147735E+00   1.676687252652589E+00  -2.965421550195435E+07
  1.948358709335049E+01  -1.907710212264016E+00   1.419830081042723E+00  -2.965421550195435E+07
  1.941226710755364E+01  -2.140544483579168E+00   1.189625890507624E+00  -2.965421550195435E+07
  1.933057715873557E+01  -2.393870297893417E+00   9.858421588197928E-01  -2.965421550195435E+07
  1.924186687196588E+01  -2.663810521262776E+00   8.069313135514292E-01  -2.965421550195435E+07
  1.914911842431725E+01  -2.947780807260207E+00   6.503010142223120E-01  -2.965421550195435E+07
  1.905477861290746E+01  -3.244476505460175E+00   5.125843773983565E-01  -2.965421550195435E+07
  1.896065717459540E+01  -3.553662784942793E+00   3.898775088212913E-01  -2.965421550195435E+07
  1.886789627362094E+01  -3.875798748702604E+00   2.779243163926782E-01  -2.965421550195435E+07
  1.877700819304152E+01  -4.211546983419995E+00   1.722433495312453E-01  -2.965421550195435E+07
  1.868797133085377E+01  -4.561233886282015E+00   6.820577000468100E-02   0.000000000000000E+00 5 RotatedCurve52 
  1.411141314192806E+01  -1.178714421910470E+01  -1.162064920285329E-01  -2.046235210852822E+07
  1.393241321234458E+01  -1.197511450071109E+01  -1.892144015112377E-01  -2.046235210852822E+07
  1.375243117475451E+01  -1.216931345072452E+01  -2.658363288115774E-01  -2.046235210852822E+07
  1.357021012376651E+01  -1.236893350810145E+01  -3.526233733017409E-01  -2.046235210852822E+07
  1.338487435596960E+01  -1.257206253827383E+01  -4.557630922572859E-01  -2.046235210852822E+07
  1.319630561139236E+01  -1.277554283784704E+01  -5.807040280475418E-01  -2.046235210852822E+07
  1.300540366976041E+01  -1.297496640022855E+01  -7.318030643790151E-01  -2.046235210852822E+07
  1.281419761191420E+01  -1.316481814899960E+01  -9.120189105659291E-01  -2.046235210852822E+07
  1.262579431831143E+01  -1.333876174334852E+01  -1.122675004867699E+00  -2.046235210852822E+07
  1.244417232139318E+01  -1.349004535044106E+01  -1.363313196992086E+00  -2.046235210852822E+07
  1.227384904170235E+01  -1.361198960931133E+01  -1.631655445272082E+00  -2.046235210852822E+07
  1.211946509343979E+01  -1.369850884164892E+01  -1.923684417634151E+00  -2.046235210852822E+07
  1.198533876690801E+01  -1.374461091177520E+01  -2.233845584871895E+00  -2.046235210852822E+07
  1.187504591620282E+01  -1.374682185782651E+01  -2.555363716561184E+00  -2.046235210852822E+07
  1.179107527039447E+01  -1.370348857704390E+01  -2.880656486618732E+00  -2.046235210852822E+07
  1.173459762821951E+01  -1.361492570155483E+01  -3.201818215591943E+00  -2.046235210852822E+07
  1.170537131827587E+01  -1.348338986094599E+01  -3.511138746594932E+00  -2.046235210852822E+07
  1.170178809769154E+01  -1.331288374940618E+01  -3.801617132429290E+00  -2.046235210852822E+07
  1.172104591338073E+01  -1.310881145123401E+01  -4.067428050079479E+00  -2.046235210852822E+07
  1.175942007716285E+01  -1.287752298079855E+01  -4.304301156052414E+00  -2.046235210852822E+07
  1.181259430839075E+01  -1.262579791760494E+01  -4.509780009312440E+00  -2.046235210852822E+07
  1.187600890219770E+01  -1.236032389307283E+01  -4.683337288108071E+00  -2.046235210852822E+07
  1.194518520843469E+01  -1.208722481073020E+01  -4.826335914629045E+00  -2.046235210852822E+07
  1.201599297405344E+01  -1.181168621705677E+01  -4.941840093266401E+00  -2.046235210852822E+07
  1.208483846481446E+01  -1.153771219165221E+01  -5.034294633673895E+00  -2.046235210852822E+07
  1.214876468082050E+01  -1.126803121048806E+01  -5.109103670920963E+00  -2.046235210852822E+07
  1.220546825852960E+01  -1.100414985750387E+01  -5.172149543736596E+00  -2.046235210852822E+07
  1.225324879579269E+01  -1.074653541339511E+01  -5.229297999048632E+00  -2.046235210852822E+07
  1.229091377997147E+01  -1.049489350705861E+01  -5.285936381496406E+00  -2.046235210852822E+07
  1.231766515038485E+01  -1.024849702103464E+01  -5.346586937724841E+00  -2.046235210852822E+07
  1.233299168163495E+01  -1.000651847731903E+01  -5.414628314348687E+00  -2.046235210852822E+07
  1.233658550502996E+01  -9.768320557272443E+00  -5.492145802782325E+00  -2.046235210852822E+07
  1.232829250086604E+01  -9.533667736414841E+00  -5.579916358391605E+00  -2.046235210852822E+07
  1.230809670678556E+01  -9.302834970476662E+00  -5.677519617417983E+00  -2.046235210852822E+07
  1.227613011549359E+01  -9.076605085644520E+00  -5.783552806336554E+00  -2.046235210852822E+07
  1.223269289632048E+01  -8.856162801120345E+00  -5.895917147847481E+00  -2.046235210852822E+07
  1.217826631555733E+01  -8.642907913016902E+00  -6.012137289061241E+00  -2.046235210852822E+07
  1.211350193530847E+01  -8.438221136632048E+00  -6.129674045032387E+00  -2.046235210852822E+07
  1.203917578540680E+01  -8.243222018229028E+00  -6.246194380692469E+00  -2.046235210852822E+07
  1.195610417844917E+01  -8.058558489893462E+00  -6.359770446199647E+00  -2.046235210852822E+07
  1.186502719064999E+01  -7.884262160925052E+00  -6.468990501632233E+00  -2.046235210852822E+07
  1.176647479371860E+01  -7.719693203200340E+00  -6.572977204487245E+00  -2.046235210852822E+07
  1.166063744471151E+01  -7.563585223815364E+00  -6.671321299373910E+00  -2.046235210852822E+07
  1.154726618934574E+01  -7.414185771889939E+00  -6.763949604765183E+00  -2.046235210852822E+07
  1.142562614904255E+01  -7.269474183966678E+00  -6.850953963898378E+00  -2.046235210852822E+07
  1.129452151849977E+01  -7.127427268369156E+00  -6.932411587853023E+00  -2.046235210852822E+07
  1.115240055693938E+01  -6.986296379713044E+00  -7.008226601749237E+00  -2.046235210852822E+07
  1.099753687236648E+01  -6.844857636308612E+00  -7.078017843510216E+00  -2.046235210852822E+07
  1.082827043881610E+01  -6.702600548351924E+00  -7.141069849473979E+00  -2.046235210852822E+07
  1.064328033588955E+01  -6.559828576125043E+00  -7.196353721588824E+00  -2.046235210852822E+07
  1.044185313255397E+01  -6.417656903599638E+00  -7.242613697839250E+00  -2.046235210852822E+07
  1.022410769601353E+01  -6.277906313488508E+00  -7.278505283293273E+00  -2.046235210852822E+07
  9.991139838014186E+00  -6.142905590743639E+00  -7.302763123900583E+00  -2.046235210852822E+07
  9.745058601906477E+00  -6.015226524519636E+00  -7.314372449203699E+00  -2.046235210852822E+07
  9.488899236257559E+00  -5.897383796825391E+00  -7.312717418034847E+00  -2.046235210852822E+07
  9.226414295133370E+00  -5.791535829036196E+00  -7.297683066034352E+00  -2.046235210852822E+07
  8.961761588124546E+00  -5.699221637816986E+00  -7.269694228991298E+00  -2.046235210852822E+07
  8.699123369545958E+00  -5.621163237633076E+00  -7.229683802972018E+00  -2.046235210852822E+07
  8.442302827229025E+00  -5.557154035905222E+00  -7.178992699054973E+00  -2.046235210852822E+07
  8.194349715132189E+00  -5.506042377059584E+00  -7.119213440411182E+00  -2.046235210852822E+07
  7.957265763770218E+00  -5.465807529833480E+00  -7.051997201426051E+00  -2.046235210852822E+07
  7.731832165689547E+00  -5.433714612715978E+00  -6.978849141750809E+00  -2.046235210852822E+07
  7.517586861735866E+00  -5.406526623630976E+00  -6.900938494468860E+00  -2.046235210852822E+07
  7.312960364203491E+00  -5.380746870479553E+00  -6.818947872611654E+00  -2.046235210852822E+07
  7.115557948765114E+00  -5.352864132008547E+00  -6.732981011064947E+00  -2.046235210852822E+07
  6.922556076037679E+00  -5.319575669829844E+00  -6.642540452068030E+00  -2.046235210852822E+07
  6.731164657447860E+00  -5.277969078335454E+00  -6.546577621535402E+00  -2.046235210852822E+07
  6.539096595032906E+00  -5.225651801251192E+00  -6.443608594074041E+00  -2.046235210852822E+07
  6.344983441287418E+00  -5.160825632055183E+00  -6.331880842743652E+00  -2.046235210852822E+07
  6.148681555972368E+00  -5.082311301969228E+00  -6.209570450451946E+00  -2.046235210852822E+07
  5.951426179564636E+00  -4.989534184504768E+00  -6.074986318589015E+00  -2.046235210852822E+07
  5.755809750444252E+00  -4.882485412312203E+00  -5.926758114111875E+00  -2.046235210852822E+07
  5.565583092247270E+00  -4.761672986519637E+00  -5.763987869380568E+00  -2.046235210852822E+07
  5.385300829067874E+00  -4.628074945228818E+00  -5.586350704879158E+00  -2.046235210852822E+07
  5.219852511232085E+00  -4.483101993036489E+00  -5.394137193767191E+00  -2.046235210852822E+07
