periods   1 
begin filament 
mirror NIL 
  1.552489825296059E+01   5.446225842456950E-01  -9.984987593449685E-01   2.262392722834422E+07
  1.558293986292822E+01   6.350372801023131E-01  -7.984157432359344E-01   2.262392722834422E+07
  1.563627648172490E+01   7.323006471526805E-01  -5.910937835847468E-01   2.262392722834422E+07
  1.568411672535740E+01   8.350573381465149E-01  -3.747449516053378E-01   2.262392722834422E+07
  1.572598044049151E+01   9.416813743990277E-01  -1.488020397252205E-01   2.262392722834422E+07
  1.576176666731716E+01   1.050468243118807E+00   8.599218907115949E-02   2.262392722834422E+07
  1.579176740507549E+01   1.159841124001521E+00   3.276882358078785E-01   2.262392722834422E+07
  1.581661451781724E+01   1.268549689796973E+00   5.734087511685215E-01   2.262392722834422E+07
  1.583715768825000E+01   1.375839141436126E+00   8.197593652897333E-01   2.262392722834422E+07
  1.585428344184050E+01   1.481568910696069E+00   1.063307589930358E+00   2.262392722834422E+07
  1.586869686139728E+01   1.586264788572646E+00   1.301055615998043E+00   2.262392722834422E+07
  1.588069660102486E+01   1.691094781170299E+00   1.530834016396327E+00   2.262392722834422E+07
  1.588997842171991E+01   1.797767112981696E+00   1.751555895514650E+00   2.262392722834422E+07
  1.589550158832743E+01   1.908357601353918E+00   1.963292986429076E+00   2.262392722834422E+07
  1.589544583511613E+01   2.025082085058081E+00   2.167163188450320E+00   2.262392722834422E+07
  1.588727492248564E+01   2.150036658638721E+00   2.365048703906418E+00   2.262392722834422E+07
  1.586790764938452E+01   2.284933217596716E+00   2.559190629540113E+00   2.262392722834422E+07
  1.583398079667143E+01   2.430859578270242E+00   2.751725375993286E+00   2.262392722834422E+07
  1.578217342361595E+01   2.588091864809986E+00   2.944237516626621E+00   2.262392722834422E+07
  1.570955071289718E+01   2.755982017401959E+00   3.137401084742716E+00   2.262392722834422E+07
  1.561388016323507E+01   2.932935638650713E+00   3.330767270542389E+00   2.262392722834422E+07
  1.549387453639248E+01   3.116485783188356E+00   3.522733050958932E+00   2.262392722834422E+07
  1.534932469270988E+01   3.303457794935653E+00   3.710696146818926E+00   2.262392722834422E+07
  1.518110028949626E+01   3.490210123297072E+00   3.891371415159555E+00   2.262392722834422E+07
  1.499101524980244E+01   3.672927400786495E+00   4.061217160078859E+00   2.262392722834422E+07
  1.478157517849215E+01   3.847935968353038E+00   4.216901180425876E+00   2.262392722834422E+07
  1.455564241674068E+01   4.012009221614966E+00   4.355728771567816E+00   2.262392722834422E+07
  1.431606823010307E+01   4.162630962768636E+00   4.475959770446104E+00   2.262392722834422E+07
  1.406534836788215E+01   4.298189289268191E+00   4.576958545419224E+00   2.262392722834422E+07
  1.380535655615491E+01   4.418080922984635E+00   4.659147162301534E+00   2.262392722834422E+07
  1.353720028238577E+01   4.522715420855721E+00   4.723763838587876E+00   2.262392722834422E+07
  1.326122569738753E+01   4.613419304693251E+00   4.772461307972350E+00   2.262392722834422E+07
  1.297717598090525E+01   4.692250593152070E+00   4.806807728522406E+00   2.262392722834422E+07
  1.268448333016994E+01   4.761743345883098E+00   4.827771735560359E+00   2.262392722834422E+07
  1.238265247280559E+01   4.824608655280809E+00   4.835279917635741E+00   2.262392722834422E+07
  1.207167676952714E+01   4.883422358476256E+00   4.827927958835964E+00   2.262392722834422E+07
  1.175241937099989E+01   4.940330273853597E+00   4.802906601712029E+00   2.262392722834422E+07
  1.142689320773631E+01   4.996799067324628E+00   4.756173123903757E+00   2.262392722834422E+07
  1.109838507460423E+01   5.053435364452325E+00   4.682862525362903E+00   2.262392722834422E+07
  1.077138945660964E+01   5.109888180099530E+00   4.577895459116038E+00   2.262392722834422E+07
  1.045134438082962E+01   5.164841062082412E+00   4.436707711339764E+00   2.262392722834422E+07
  1.014419078452860E+01   5.216091531052272E+00   4.256003745981587E+00   2.262392722834422E+07
  9.855804450776242E+00   5.260707381314480E+00   4.034428105512921E+00   2.262392722834422E+07
  9.591371350951324E+00   5.295242958887609E+00   3.773054992064007E+00   2.262392722834422E+07
  9.354789812713765E+00   5.315994184195944E+00   3.475617601678475E+00   2.262392722834422E+07
  9.148184088052281E+00   5.319269084717386E+00   3.148432018618645E+00   2.262392722834422E+07
  8.971602998664922E+00   5.301650911135784E+00   2.800011144574332E+00   2.262392722834422E+07
  8.822955479366213E+00   5.260233244853082E+00   2.440406509728488E+00   2.262392722834422E+07
  8.698204734706152E+00   5.192810398182416E+00   2.080353809678750E+00   2.262392722834422E+07
  8.591808349279461E+00   5.098011293388482E+00   1.730326095472826E+00   2.262392722834422E+07
  8.497357757924394E+00   4.975370299537321E+00   1.399612536019264E+00   2.262392722834422E+07
  8.408341769738779E+00   4.825333683394881E+00   1.095538385461789E+00   2.262392722834422E+07
  8.318939520211941E+00   4.649204984438772E+00   8.229233671979588E-01   2.262392722834422E+07
  8.224741249269778E+00   4.449036491148356E+00   5.838436091827304E-01   2.262392722834422E+07
  8.123301954043221E+00   4.227476958605521E+00   3.777210025710961E-01   2.262392722834422E+07
  8.014452646524658E+00   3.987587770633306E+00   2.017192344728715E-01   2.262392722834422E+07
  7.900324229002572E+00   3.732640998648771E+00   5.138410939974859E-02   2.262392722834422E+07
  7.785075935247162E+00   3.465913361550276E+00  -7.856693633626008E-02   2.262392722834422E+07
  7.674358936341254E+00   3.190490049906080E+00  -1.934203351781381E-01   2.262392722834422E+07
  7.574580832525696E+00   2.909091799922031E+00  -2.977239054529445E-01   2.262392722834422E+07
  7.492063525699048E+00   2.623937483373826E+00  -3.947294940054246E-01   2.262392722834422E+07
  7.432201672914656E+00   2.336652760784084E+00  -4.860953160823000E-01   2.262392722834422E+07
  7.398729472463224E+00   2.048232943270717E+00  -5.718835397868215E-01   2.262392722834422E+07
  7.393189778226082E+00   1.759065057591839E+00  -6.508448194564662E-01   2.262392722834422E+07
  7.414673288253876E+00   1.469010207897914E+00  -7.209391760238357E-01   2.262392722834422E+07
  7.459860344258257E+00   1.177542783123589E+00  -7.800079695273973E-01   2.262392722834422E+07
  7.523358476995821E+00   8.839381121589920E-01  -8.264896983547287E-01   2.262392722834422E+07
  7.598290575682914E+00   5.874951999010979E-01  -8.600661294036644E-01   2.262392722834422E+07
  7.677056611938839E+00   2.877766808763336E-01  -8.821356487112622E-01   2.262392722834422E+07
  7.752170483403913E+00  -1.515533756404225E-02  -8.960361428216396E-01   2.262392722834422E+07
  7.817065549605565E+00  -3.205307523260452E-01  -9.069764205547732E-01   2.262392722834422E+07
  7.866768740048319E+00  -6.267133115632743E-01  -9.216777867217160E-01   2.262392722834422E+07
  7.898362669257583E+00  -9.311133945142126E-01  -9.477696790460317E-01   2.262392722834422E+07
  7.911185126312101E+00  -1.230187432693168E+00  -9.930191521081082E-01   2.262392722834422E+07
  7.906751349542653E+00  -1.519532701781013E+00  -1.064498283676708E+00   2.262392722834422E+07
  7.888421596785609E+00  -1.794077641704075E+00  -1.167802850628201E+00   2.262392722834422E+07
  7.860869555977936E+00  -2.048358482910507E+00  -1.306428638430154E+00   2.262392722834422E+07
  7.829431640364452E+00  -2.276863732757942E+00  -1.481389640249277E+00   2.262392722834422E+07
  7.799429979908984E+00  -2.474420041493270E+00  -1.691128480175590E+00   2.262392722834422E+07
  7.775561462902614E+00  -2.636587102656874E+00  -1.931728648937209E+00   2.262392722834422E+07
  7.761431895338946E+00  -2.760026345975198E+00  -2.197396493271763E+00   2.262392722834422E+07
  7.759290428212515E+00  -2.842808755291080E+00  -2.481144336324853E+00   2.262392722834422E+07
  7.769988511123746E+00  -2.884631317384447E+00  -2.775579798434401E+00   2.262392722834422E+07
  7.793154333448851E+00  -2.886919094670451E+00  -3.073693951208358E+00   2.262392722834422E+07
  7.827542824468786E+00  -2.852800032940424E+00  -3.369543924745127E+00   2.262392722834422E+07
  7.871497164239765E+00  -2.786951350443117E+00  -3.658743288086351E+00   2.262392722834422E+07
  7.923443703547782E+00  -2.695328472686773E+00  -3.938703101599655E+00   2.262392722834422E+07
  7.982339979221089E+00  -2.584798667512302E+00  -4.208603485119901E+00   2.262392722834422E+07
  8.048005168150082E+00  -2.462710566301925E+00  -4.469114357216456E+00   2.262392722834422E+07
  8.121282159529880E+00  -2.336436628913269E+00  -4.721919014801579E+00   2.262392722834422E+07
  8.204007309846819E+00  -2.212927675556935E+00  -4.969120446253648E+00   2.262392722834422E+07
  8.298793789976790E+00  -2.098316657237240E+00  -5.212624108233470E+00   2.262392722834422E+07
  8.408662802704626E+00  -1.997603119043232E+00  -5.453590649113201E+00   2.262392722834422E+07
  8.536579710915669E+00  -1.914441010990984E+00  -5.692038146927553E+00   2.262392722834422E+07
  8.684966040470213E+00  -1.851041649985797E+00  -5.926648273242773E+00   2.262392722834422E+07
  8.855261529391914E+00  -1.808191983813966E+00  -6.154798430467944E+00   2.262392722834422E+07
  9.047602609420521E+00  -1.785377168872968E+00  -6.372807346147025E+00   2.262392722834422E+07
  9.260666260519972E+00  -1.780987066961129E+00  -6.576350055097507E+00   2.262392722834422E+07
  9.491703791490046E+00  -1.792579570634113E+00  -6.760974289185436E+00   2.262392722834422E+07
  9.736761449108112E+00  -1.817170304963626E+00  -6.922637390928625E+00   2.262392722834422E+07
  9.991057927763947E+00  -1.851518430176128E+00  -7.058182592730448E+00   2.262392722834422E+07
  1.024946672551777E+01  -1.892381759080620E+00  -7.165685528916517E+00   2.262392722834422E+07
  1.050703699286084E+01  -1.936720594790414E+00  -7.244623984870192E+00   2.262392722834422E+07
  1.075948196719931E+01  -1.981837684446810E+00  -7.295852463214713E+00   2.262392722834422E+07
  1.100356974282548E+01  -2.025450403148088E+00  -7.321393595422765E+00   2.262392722834422E+07
  1.123736596448486E+01  -2.065699634431510E+00  -7.324086008320858E+00   2.262392722834422E+07
  1.146029971603038E+01  -2.101106819727172E+00  -7.307148785995058E+00   2.262392722834422E+07
  1.167304913087365E+01  -2.130495562116319E+00  -7.273733156446723E+00   2.262392722834422E+07
  1.187726836838969E+01  -2.152896556427629E+00  -7.226531116099141E+00   2.262392722834422E+07
  1.207519898637360E+01  -2.167454394978557E+00  -7.167498829918389E+00   2.262392722834422E+07
  1.226922343772353E+01  -2.173352220342992E+00  -7.097731961964245E+00   2.262392722834422E+07
  1.246142452515385E+01  -2.169765798611945E+00  -7.017504091036495E+00   2.262392722834422E+07
  1.265321155670239E+01  -2.155853094453960E+00  -6.926452308674317E+00   2.262392722834422E+07
  1.284506240335448E+01  -2.130779649065080E+00  -6.823870330328599E+00   2.262392722834422E+07
  1.303641261443826E+01  -2.093774767125093E+00  -6.709052725743891E+00   2.262392722834422E+07
  1.322570101908770E+01  -2.044209348986581E+00  -6.581626761123132E+00   2.262392722834422E+07
  1.341055908840996E+01  -1.981683591391106E+00  -6.441811840969241E+00   2.262392722834422E+07
  1.358811194738998E+01  -1.906111908317492E+00  -6.290559927221088E+00   2.262392722834422E+07
  1.375534497246745E+01  -1.817793228287207E+00  -6.129551302617935E+00   2.262392722834422E+07
  1.390948315042743E+01  -1.717457025626912E+00  -5.961045138508716E+00   2.262392722834422E+07
  1.404833143669843E+01  -1.606278607577633E+00  -5.787609394460222E+00   2.262392722834422E+07
  1.417053268734515E+01  -1.485860798492672E+00  -5.611775516247894E+00   2.262392722834422E+07
  1.427571375175349E+01  -1.358182734984316E+00  -5.435676791250023E+00   2.262392722834422E+07
  1.436450764118982E+01  -1.225519588644181E+00  -5.260732873197296E+00   2.262392722834422E+07
  1.443845759686198E+01  -1.090339373356574E+00  -5.087436282106617E+00   2.262392722834422E+07
  1.449982469210856E+01  -9.551844357390982E-01  -4.915280670399980E+00   2.262392722834422E+07
  1.455133210256864E+01  -8.225457863103596E-01  -4.742847874817138E+00   2.262392722834422E+07
  1.459588493284356E+01  -6.947382463926501E-01  -4.568044893763538E+00   2.262392722834422E+07
  1.463630403097526E+01  -5.737836796455807E-01  -4.388457105469676E+00   2.262392722834422E+07
  1.467510607685438E+01  -4.613085873744749E-01  -4.201764292546053E+00   2.262392722834422E+07
  1.471435178092231E+01  -3.584612816296181E-01  -4.006154596630119E+00   2.262392722834422E+07
  1.475557125594570E+01  -2.658528450976601E-01  -3.800670323792112E+00   2.262392722834422E+07
  1.479976275778452E+01  -1.835251829806468E-01  -3.585428872771738E+00   2.262392722834422E+07
  1.484745013743874E+01  -1.109486176276119E-01  -3.361680605090453E+00   2.262392722834422E+07
  1.489877714927649E+01  -4.705055054666838E-02  -3.131690389988057E+00   2.262392722834422E+07
  1.495361414792846E+01   9.724430906219744E-03  -2.898456976593421E+00   2.262392722834422E+07
  1.501165476939760E+01   6.132412162627141E-02  -2.665309978225410E+00   2.262392722834422E+07
  1.507248620283227E+01   1.099709659683175E-01  -2.435444047942343E+00   2.262392722834422E+07
  1.513562522939150E+01   1.580223136400657E-01  -2.211460608526601E+00   2.262392722834422E+07
  1.520052154863673E+01   2.078164085161708E-01  -1.994987485380135E+00   2.262392722834422E+07
  1.526653817560777E+01   2.615142123534579E-01  -1.786435862110236E+00   2.262392722834422E+07
  1.533292427894386E+01   3.209490580446101E-01  -1.584933724205379E+00   2.262392722834422E+07
  1.539879768936895E+01   3.874971596195207E-01  -1.388448432009245E+00   2.262392722834422E+07
  1.546315210983151E+01   4.619818252800530E-01  -1.194082327157219E+00   2.262392722834422E+07
  1.552489825296059E+01   5.446225842456950E-01  -9.984987593449685E-01   0.000000000000000E+00 1 CurveXYZFourier57 
  1.483999677831133E+01   3.328753026991238E+00  -2.371305725026311E+00   3.318166559271262E+06
  1.487355166889538E+01   3.377154455151622E+00  -2.224245063483834E+00   3.318166559271262E+06
  1.490884385917155E+01   3.425561686378194E+00  -2.076056075615070E+00   3.318166559271262E+06
  1.494540342209485E+01   3.474930529795246E+00  -1.925801854550499E+00   3.318166559271262E+06
  1.498249001461087E+01   3.526530933775754E+00  -1.772553018310798E+00   3.318166559271262E+06
  1.501911538766306E+01   3.581798740173120E+00  -1.615511805926601E+00   3.318166559271262E+06
  1.505408684317769E+01   3.642155702189630E+00  -1.454122903558801E+00   3.318166559271262E+06
  1.508606878847491E+01   3.708821108890975E+00  -1.288155261897929E+00   3.318166559271262E+06
  1.511365736545246E+01   3.782640488920540E+00  -1.117743080752305E+00   3.318166559271262E+06
  1.513546132672068E+01   3.863955524353798E+00  -9.433798893034959E-01   3.318166559271262E+06
  1.515018113919031E+01   3.952534570792992E+00  -7.658664519054993E-01   3.318166559271262E+06
  1.515667792112571E+01   4.047575605791075E+00  -5.862201122252555E-01   3.318166559271262E+06
  1.515402439263059E+01   4.147783977011695E+00  -4.055591430625976E-01   3.318166559271262E+06
  1.514153157469780E+01   4.251517238798508E+00  -2.249797888053382E-01   3.318166559271262E+06
  1.511874742544573E+01   4.356980009969543E+00  -4.544530431373960E-02   3.318166559271262E+06
  1.508542675094316E+01   4.462444443835020E+00   1.322949164049897E-01   3.318166559271262E+06
  1.504147525956659E+01   4.566467610733928E+00   3.077419892691912E-01   3.318166559271262E+06
  1.498687414760903E+01   4.668076495284796E+00   4.806320662431217E-01   3.318166559271262E+06
  1.492159467211045E+01   4.766894558855221E+00   6.508685147735163E-01   3.318166559271262E+06
  1.484551435591580E+01   4.863190553019472E+00   8.184095855647328E-01   3.318166559271262E+06
  1.475834741619215E+01   4.957839664013209E+00   9.831266887192313E-01   3.318166559271262E+06
  1.465960146625690E+01   5.052197933854140E+00   1.144653824838673E+00   3.318166559271262E+06
  1.454857042937031E+01   5.147901851851601E+00   1.302251429318031E+00   3.318166559271262E+06
  1.442437002940143E+01   5.246614635504452E+00   1.454707385497042E+00   3.318166559271262E+06
  1.428601748843831E+01   5.349747787894700E+00   1.600294185105147E+00   3.318166559271262E+06
  1.413255164082257E+01   5.458190128835639E+00   1.736794562323783E+00   3.318166559271262E+06
  1.396318417114646E+01   5.572076198624995E+00   1.861599217608072E+00   3.318166559271262E+06
  1.377746776836011E+01   5.690621780705268E+00   1.971870609909761E+00   3.318166559271262E+06
  1.357546331141972E+01   5.812046828661249E+00   2.064757526104683E+00   3.318166559271262E+06
  1.335788631658961E+01   5.933596271774593E+00   2.137637517310097E+00   3.318166559271262E+06
  1.312621315868775E+01   6.051658249088262E+00   2.188359416185411E+00   3.318166559271262E+06
  1.288273016747267E+01   6.161968633845446E+00   2.215456764261596E+00   3.318166559271262E+06
  1.263051346424789E+01   6.259881541251204E+00   2.218305374497230E+00   3.318166559271262E+06
  1.237333393796275E+01   6.340678915054662E+00   2.197204216477929E+00   3.318166559271262E+06
  1.211548941975962E+01   6.399888955449899E+00   2.153367638572579E+00   3.318166559271262E+06
  1.186157408001200E+01   6.433583339686261E+00   2.088827532080040E+00   3.318166559271262E+06
  1.161620243800743E+01   6.438626704349806E+00   2.006255039530905E+00   3.318166559271262E+06
  1.138371125905228E+01   6.412858106589280E+00   1.908721378829968E+00   3.318166559271262E+06
  1.116786626518619E+01   6.355192256274730E+00   1.799424978796017E+00   3.318166559271262E+06
  1.097160148055501E+01   6.265637136429601E+00   1.681416376663528E+00   3.318166559271262E+06
  1.079681694927605E+01   6.145233109351246E+00   1.557352626307441E+00   3.318166559271262E+06
  1.064425562146876E+01   5.995925770251430E+00   1.429309237169705E+00   3.318166559271262E+06
  1.051347285985370E+01   5.820389934071420E+00   1.298670368690079E+00   3.318166559271262E+06
  1.040290302751665E+01   5.621824823348642E+00   1.166108076165174E+00   3.318166559271262E+06
  1.031001794264913E+01   5.403740716659563E+00   1.031650123670676E+00   3.318166559271262E+06
  1.023156269653273E+01   5.169755297819431E+00   8.948247100648540E-01   3.318166559271262E+06
  1.016384647189416E+01   4.923414255185725E+00   7.548608429417417E-01   3.318166559271262E+06
  1.010306046649163E+01   4.668046016517322E+00   6.109162842193087E-01   3.318166559271262E+06
  1.004559245946933E+01   4.406655608901548E+00   4.623018510886519E-01   3.318166559271262E+06
  9.988308255602266E+00   4.141858175677728E+00   3.086717745019383E-01   3.318166559271262E+06
  9.928774127738246E+00   3.875849169851718E+00   1.501546487605678E-01   3.318166559271262E+06
  9.865401002742120E+00   3.610405959731180E+00  -1.259240530599380E-02   3.318166559271262E+06
  9.797499735191357E+00   3.346914568585790E+00  -1.784134694231143E-01   3.318166559271262E+06
  9.725246393785110E+00   3.086415346903111E+00  -3.457634495424792E-01   3.318166559271262E+06
  9.649565949226018E+00   2.829662200874248E+00  -5.128830937733411E-01   3.318166559271262E+06
  9.571951026852558E+00   2.577191149106021E+00  -6.780163687417896E-01   3.318166559271262E+06
  9.494238555622562E+00   2.329395033001143E+00  -8.396416451756643E-01   3.318166559271262E+06
  9.418370554821896E+00   2.086601835748108E+00  -9.966863297551268E-01   3.318166559271262E+06
  9.346165638718386E+00   1.849154091993810E+00  -1.148696644120820E+00   3.318166559271262E+06
  9.279125147249507E+00   1.617486297569814E+00  -1.295939871750740E+00   3.318166559271262E+06
  9.218292545562981E+00   1.392196234350643E+00  -1.439424798144036E+00   3.318166559271262E+06
  9.164177593635896E+00   1.174105024155043E+00  -1.580836149052752E+00   3.318166559271262E+06
  9.116748689730699E+00   9.642999029590631E-01  -1.722389287770346E+00   3.318166559271262E+06
  9.075488743138596E+00   7.641535382520291E-01  -1.866620953341752E+00   3.318166559271262E+06
  9.039502894973063E+00   5.753144834880465E-01  -2.016139249351951E+00   3.318166559271262E+06
  9.007661181828009E+00   3.996652029736251E-01  -2.173360568766834E+00   3.318166559271262E+06
  8.978756370424657E+00   2.392469403324961E-01  -2.340262204157675E+00   3.318166559271262E+06
  8.951656909922489E+00   9.615427372024721E-02  -2.518177028020524E+00   3.318166559271262E+06
  8.925437146171170E+00  -2.759394085328221E-02  -2.707651246717348E+00   3.318166559271262E+06
  8.899471204390151E+00  -1.301969417922899E-01  -2.908378603851614E+00   3.318166559271262E+06
  8.873482615883637E+00  -2.102146972844104E-01  -3.119215548812868E+00   3.318166559271262E+06
  8.847548033990956E+00  -2.666963391905652E-01  -3.338272911463778E+00   3.318166559271262E+06
  8.822059410112775E+00  -2.992802100267534E-01  -3.563071608393136E+00   3.318166559271262E+06
  8.797654011866449E+00  -3.082534299346460E-01  -3.790743745895337E+00   3.318166559271262E+06
  8.775125063891124E+00  -2.945626584321160E-01  -4.018256794575744E+00   3.318166559271262E+06
  8.755327223232587E+00  -2.597727771770054E-01  -4.242637562726896E+00   3.318166559271262E+06
  8.739090491992025E+00  -2.059759536828877E-01  -4.461174408266120E+00   3.318166559271262E+06
  8.727153724903394E+00  -1.356592307825924E-01  -4.671580100178663E+00   3.318166559271262E+06
  8.720125052461947E+00  -5.154366412749605E-02  -4.872103322833372E+00   3.318166559271262E+06
  8.718471923367909E+00   4.358857554578673E-02  -5.061583219034268E+00   3.318166559271262E+06
  8.722538763406105E+00   1.470612987832924E-01  -5.239447767848336E+00   3.318166559271262E+06
  8.732586121457684E+00   2.564485411947929E-01  -5.405662445460101E+00   3.318166559271262E+06
  8.748842185652434E+00   3.696818239751083E-01  -5.560639941375222E+00   3.318166559271262E+06
  8.771556077993074E+00   4.851109891493591E-01  -5.705124342336872E+00   3.318166559271262E+06
  8.801042519453873E+00   6.015150078344039E-01  -5.840064043934865E+00   3.318166559271262E+06
  8.837709204557710E+00   7.180653709257369E-01  -5.966486831616574E+00   3.318166559271262E+06
  8.882061221710472E+00   8.342504185218027E-01  -6.085388406783938E+00   3.318166559271262E+06
  8.934680623843606E+00   9.497734771116435E-01  -6.197642564525159E+00   3.318166559271262E+06
  8.996183220853114E+00   1.064440357701339E+00  -6.303937753081450E+00   3.318166559271262E+06
  9.067158249165875E+00   1.178052290188065E+00  -6.404741334705911E+00   3.318166559271262E+06
  9.148099265437258E+00   1.290318704118399E+00  -6.500289912702148E+00   3.318166559271262E+06
  9.239336043725958E+00   1.400800698335526E+00  -6.590601854848713E+00   3.318166559271262E+06
  9.340977250362890E+00   1.508891123217088E+00  -6.675506751967033E+00   3.318166559271262E+06
  9.452872258182451E+00   1.613831664115050E+00  -6.754685989905644E+00   3.318166559271262E+06
  9.574597869524894E+00   1.714761972127350E+00  -6.827718763209591E+00   3.318166559271262E+06
  9.705472333034267E+00   1.810791501539179E+00  -6.894128530124703E+00   3.318166559271262E+06
  9.844595351376359E+00   1.901081887399525E+00  -6.953425888012991E+00   3.318166559271262E+06
  9.990909304184594E+00   1.984926791729880E+00  -7.005144938909821E+00   3.318166559271262E+06
  1.014327412849128E+01   2.061817227864633E+00  -7.048871266873086E+00   3.318166559271262E+06
  1.030054657580196E+01   2.131483204923516E+00  -7.084260574477166E+00   3.318166559271262E+06
  1.046165411394042E+01   2.193906625252137E+00  -7.111047800048046E+00   3.318166559271262E+06
  1.062565459632562E+01   2.249305044788648E+00  -7.129047182881387E+00   3.318166559271262E+06
  1.079177483635328E+01   2.298090425073672E+00  -7.138144308205480E+00   3.318166559271262E+06
  1.095942410193002E+01   2.340810665018516E+00  -7.138281692408766E+00   3.318166559271262E+06
  1.112818187944020E+01   2.378083951461778E+00  -7.129439981808829E+00   3.318166559271262E+06
  1.129776259325163E+01   2.410536496210034E+00  -7.111617314419711E+00   3.318166559271262E+06
  1.146796286635365E+01   2.438753001160423E+00  -7.084809770413900E+00   3.318166559271262E+06
  1.163859900292293E+01   2.463246462309562E+00  -7.048996017810791E+00   3.318166559271262E+06
  1.180944341697768E+01   2.484450177347504E+00  -7.004129139631137E+00   3.318166559271262E+06
  1.198016862296909E+01   2.502730707881423E+00  -6.950138119881350E+00   3.318166559271262E+06
  1.215030619921962E+01   2.518416766500873E+00  -6.886940528208837E+00   3.318166559271262E+06
  1.231922602953723E+01   2.531836189980260E+00  -6.814466607379059E+00   3.318166559271262E+06
  1.248613842685094E+01   2.543351796794516E+00  -6.732693346302291E+00   3.318166559271262E+06
  1.265011881368611E+01   2.553387240996554E+00  -6.641685404442943E+00   3.318166559271262E+06
  1.281015185838931E+01   2.562435915314883E+00  -6.541638188479886E+00   3.318166559271262E+06
  1.296518968595903E+01   2.571049199457289E+00  -6.432917238503101E+00   3.318166559271262E+06
  1.311421726047795E+01   2.579804347047399E+00  -6.316087605900599E+00   3.318166559271262E+06
  1.325631742496660E+01   2.589256372854540E+00  -6.191927276597951E+00   3.318166559271262E+06
  1.339072841333510E+01   2.599881732837618E+00  -6.061419980463506E+00   3.318166559271262E+06
  1.351688782779724E+01   2.612023766609457E+00  -5.925724864051846E+00   3.318166559271262E+06
  1.363445891276234E+01   2.625850374004165E+00  -5.786123281382578E+00   3.318166559271262E+06
  1.374333719190495E+01   2.641333072096614E+00  -5.643946043404597E+00   3.318166559271262E+06
  1.384363787526266E+01   2.658253574400079E+00  -5.500487443041902E+00   3.318166559271262E+06
  1.393566660044030E+01   2.676239782585219E+00  -5.356914792822687E+00   3.318166559271262E+06
  1.401987780012446E+01   2.694828237603871E+00  -5.214183668338056E+00   3.318166559271262E+06
  1.409682610917488E+01   2.713545418939007E+00  -5.072969240954887E+00   3.318166559271262E+06
  1.416711664505483E+01   2.731996586198191E+00  -4.933622866412571E+00   3.318166559271262E+06
  1.423135971064249E+01   2.749948780562664E+00  -4.796160527575513E+00   3.318166559271262E+06
  1.429013455592908E+01   2.767394565572409E+00  -4.660286068606023E+00   3.318166559271262E+06
  1.434396543824074E+01   2.784585199636529E+00  -4.525447842879244E+00   3.318166559271262E+06
  1.439331152687570E+01   2.802025971195651E+00  -4.390922993651833E+00   3.318166559271262E+06
  1.443857041405528E+01   2.820431851858789E+00  -4.255919711413272E+00   3.318166559271262E+06
  1.448009332147680E+01   2.840647651859272E+00  -4.119685044204454E+00   3.318166559271262E+06
  1.451820870639081E+01   2.863542586010925E+00  -3.981604630673489E+00   3.318166559271262E+06
  1.455325000758576E+01   2.889893675004239E+00  -3.841281334049396E+00   3.318166559271262E+06
  1.458558281389026E+01   2.920274961745770E+00  -3.698582183916465E+00   3.318166559271262E+06
  1.461562681578118E+01   2.954969629652760E+00  -3.553647024626904E+00   3.318166559271262E+06
  1.464386849238030E+01   2.993919636427391E+00  -3.406857329390628E+00   3.318166559271262E+06
  1.467086152340290E+01   3.036722675928822E+00  -3.258769095593133E+00   3.318166559271262E+06
  1.469721329279931E+01   3.082679767067165E+00  -3.110018831028298E+00   3.318166559271262E+06
  1.472355743462820E+01   3.130889438843414E+00  -2.961215634178399E+00   3.318166559271262E+06
  1.475051401179559E+01   3.180377388868957E+00  -2.812834655275967E+00   3.318166559271262E+06
  1.477864045802159E+01   3.230244698631981E+00  -2.665127412946523E+00   3.318166559271262E+06
  1.480837770050576E+01   3.279814100573044E+00  -2.518062436686539E+00   3.318166559271262E+06
  1.483999677831133E+01   3.328753026991238E+00  -2.371305725026311E+00   0.000000000000000E+00 2 CurveXYZFourier58 
  1.904692406261261E+01   8.507258935083176E+00  -4.043086289188207E+00   3.368539416178502E+07
  1.903722371086170E+01   8.450864131075489E+00  -3.556878025501875E+00   3.368539416178502E+07
  1.898293824416242E+01   8.422555507420697E+00  -3.072534194344115E+00   3.368539416178502E+07
  1.888046499193373E+01   8.415737587788398E+00  -2.600607920390369E+00   3.368539416178502E+07
  1.872808020965853E+01   8.422074628538462E+00  -2.150107778249710E+00   3.368539416178502E+07
  1.852663873072143E+01   8.432262468346893E+00  -1.727408697619477E+00   3.368539416178502E+07
  1.828000310472409E+01   8.436991968013132E+00  -1.335457675710681E+00   3.368539416178502E+07
  1.799511034626741E+01   8.428011755403000E+00  -9.733936124534278E-01   3.368539416178502E+07
  1.768163258488338E+01   8.399176277422393E+00  -6.366494365790560E-01   3.368539416178502E+07
  1.735124500294999E+01   8.347355753543471E+00  -3.175426658581995E-01   3.368539416178502E+07
  1.701657223781819E+01   8.273089772354387E+00  -6.295946690741995E-03   3.368539416178502E+07
  1.668993434937477E+01   8.180886457098392E+00   3.076292520483969E-01   3.368539416178502E+07
  1.638204791458521E+01   8.079102887580309E+00   6.340466934991269E-01   3.368539416178502E+07
  1.610085131663510E+01   7.979386479177078E+00   9.805916715668620E-01   3.368539416178502E+07
  1.585061332175121E+01   7.895706434256150E+00   1.351483720257026E+00   3.368539416178502E+07
  1.563145143888845E+01   7.843053382767248E+00   1.746665455242027E+00   3.368539416178502E+07
  1.543933549831740E+01   7.835927856804152E+00   2.161431802255954E+00   3.368539416178502E+07
  1.526658926140091E+01   7.886768772737566E+00   2.586603331944419E+00   3.368539416178502E+07
  1.510283733651165E+01   8.004487372128732E+00   3.009229810646625E+00   3.368539416178502E+07
  1.493628538389688E+01   8.193267717231761E+00   3.413744316309001E+00   3.368539416178502E+07
  1.475517688313730E+01   8.451771705297551E+00   3.783432985223666E+00   3.368539416178502E+07
  1.454924591366411E+01   8.772846838378847E+00   4.102047797064996E+00   3.368539416178502E+07
  1.431098581139973E+01   9.143782948507001E+00   4.355374479237986E+00   3.368539416178502E+07
  1.403657812333555E+01   9.547105628277917E+00   4.532576268130446E+00   3.368539416178502E+07
  1.372637147579711E+01   9.961836044819048E+00   4.627165320394504E+00   3.368539416178502E+07
  1.338485938841558E+01   1.036509596359381E+01   4.637502474945261E+00   3.368539416178502E+07
  1.302017133248598E+01   1.073389921254501E+01   4.566785996132944E+00   3.368539416178502E+07
  1.264315334355921E+01   1.104695094018357E+01   4.422552752343344E+00   3.368539416178502E+07
  1.226616473855847E+01   1.128627618912157E+01   4.215772719953129E+00   3.368539416178502E+07
  1.190174925976511E+01   1.143851941388887E+01   3.959662453041039E+00   3.368539416178502E+07
  1.156134833911180E+01   1.149579410106513E+01   3.668369885034025E+00   3.368539416178502E+07
  1.125421050803619E+01   1.145601199918867E+01   3.355688819426444E+00   3.368539416178502E+07
  1.098661696203394E+01   1.132267854348164E+01   3.033946925268318E+00   3.368539416178502E+07
  1.076149448690887E+01   1.110419806292839E+01   2.713178958815994E+00   3.368539416178502E+07
  1.057843091811836E+01   1.081278263148464E+01   2.400652519496486E+00   3.368539416178502E+07
  1.043405341480129E+01   1.046309629707481E+01   2.100763580936417E+00   3.368539416178502E+07
  1.032268402254965E+01   1.007078788479659E+01   1.815270415511081E+00   3.368539416178502E+07
  1.023715658585356E+01   9.651068744274831E+00   1.543793867726429E+00   3.368539416178502E+07
  1.016966782472654E+01   9.217477115965091E+00   1.284484262177284E+00   3.368539416178502E+07
  1.011254403005968E+01   8.780940820642536E+00   1.034743467254374E+00   3.368539416178502E+07
  1.005883098974466E+01   8.349209090270049E+00   7.918952571750868E-01   3.368539416178502E+07
  1.000265341536119E+01   7.926678060826439E+00   5.537162337204127E-01   3.368539416178502E+07
  9.939334476335921E+00   7.514588635945262E+00   3.187693330712617E-01   3.368539416178502E+07
  9.865308553863004E+00   7.111535621428985E+00   8.651721330019185E-02   3.368539416178502E+07
  9.777894006361638E+00   6.714197668609319E+00  -1.427719961399200E-01   3.368539416178502E+07
  9.675012226111040E+00   6.318181498069565E+00  -3.682841805940895E-01   3.368539416178502E+07
  9.554941668147332E+00   5.918872072658439E+00  -5.890209177630353E-01   3.368539416178502E+07
  9.416180866068077E+00   5.512191916788042E+00  -8.041912480931905E-01   3.368539416178502E+07
  9.257465620985862E+00   5.095195039453448E+00  -1.013564326980241E+00   3.368539416178502E+07
  9.077947863440592E+00   4.666450097967986E+00  -1.217727044596587E+00   3.368539416178502E+07
  8.877503970319097E+00   4.226199101818502E+00  -1.418211347215963E+00   3.368539416178502E+07
  8.657105796144187E+00   3.776307687177396E+00  -1.617479994614356E+00   3.368539416178502E+07
  8.419164783080666E+00   3.320047005857933E+00  -1.818782609321099E+00   3.368539416178502E+07
  8.167752810619158E+00   2.861762891024665E+00  -2.025912360032142E+00   3.368539416178502E+07
  7.908614844826419E+00   2.406493915394977E+00  -2.242904794111444E+00   3.368539416178502E+07
  7.648916838444671E+00   1.959596460124557E+00  -2.473722982551925E+00   3.368539416178502E+07
  7.396713699438981E+00   1.526423522010713E+00  -2.721967653118174E+00   3.368539416178502E+07
  7.160170142696321E+00   1.112087277162169E+00  -2.990639201881915E+00   3.368539416178502E+07
  6.946614160903162E+00   7.213165241630553E-01  -3.281963285092238E+00   3.368539416178502E+07
  6.761540828495570E+00   3.584022296226560E-01  -3.597276488088045E+00   3.368539416178502E+07
  6.607706412069971E+00   2.721023419030159E-02  -3.936956582993040E+00   3.368539416178502E+07
  6.484454730914317E+00  -2.687683434698755E-01  -4.300375609321935E+00   3.368539416178502E+07
  6.387397818678337E+00  -5.263605062791875E-01  -4.685854717744533E+00   3.368539416178502E+07
  6.308532951111685E+00  -7.426759349145813E-01  -5.090607232198390E+00   3.368539416178502E+07
  6.236822974912785E+00  -9.151110214290827E-01  -5.510669104248648E+00   3.368539416178502E+07
  6.159204072416012E+00  -1.041398824390247E+00  -5.940831101163099E+00   3.368539416178502E+07
  6.061923564412929E+00  -1.119699062850075E+00  -6.374601274065234E+00   3.368539416178502E+07
  5.932059184997339E+00  -1.148711821812602E+00  -6.804236050020757E+00   3.368539416178502E+07
  5.759038350401077E+00  -1.127791958688774E+00  -7.220880852161657E+00   3.368539416178502E+07
  5.535966766102923E+00  -1.057039405280038E+00  -7.614854821434150E+00   3.368539416178502E+07
  5.260592460571980E+00  -9.373438626518938E-01  -7.976098891134209E+00   3.368539416178502E+07
  4.935772493955809E+00  -7.703700723262616E-01  -8.294783723291660E+00   3.368539416178502E+07
  4.569370103306485E+00  -5.584804255642338E-01  -8.562046936819518E+00   3.368539416178502E+07
  4.173581957658518E+00  -3.046031498244069E-01  -8.770801804789372E+00   3.368539416178502E+07
  3.763768759540599E+00  -1.206454514621677E-02  -8.916536782773058E+00   3.368539416178502E+07
  3.356927484526163E+00   3.155891861443592E-01  -8.998011167652509E+00   3.368539416178502E+07
  2.969990981997851E+00   6.747524308128504E-01  -9.017750165577935E+00   3.368539416178502E+07
  2.618163719990783E+00   1.061877454287030E+00  -8.982254327874923E+00   3.368539416178502E+07
  2.313497754677816E+00   1.473530318768309E+00  -8.901863351718973E+00   3.368539416178502E+07
  2.063881022037554E+00   1.906378245925580E+00  -8.790250220674174E+00   3.368539416178502E+07
  1.872555094610954E+00   2.357114044139124E+00  -8.663564335957973E+00   3.368539416178502E+07
  1.738209160298340E+00   2.822335669099493E+00  -8.539286139327420E+00   3.368539416178502E+07
  1.655620869438319E+00   3.298408906015676E+00  -8.434894714814350E+00   3.368539416178502E+07
  1.616743354527153E+00   3.781346737641317E+00  -8.366478302550666E+00   3.368539416178502E+07
  1.612080941229280E+00   4.266739046795675E+00  -8.347431104135683E+00   3.368539416178502E+07
  1.632161530880703E+00   4.749760614429482E+00  -8.387375667477201E+00   3.368539416178502E+07
  1.668905853542511E+00   5.225274565275464E+00  -8.491428335306876E+00   3.368539416178502E+07
  1.716713473354730E+00   5.688033980461583E+00  -8.659888020138998E+00   3.368539416178502E+07
  1.773129406235968E+00   6.132968464922214E+00  -8.888380437547220E+00   3.368539416178502E+07
  1.839016928672754E+00   6.555527457119950E+00  -9.168437024755665E+00   3.368539416178502E+07
  1.918232645979407E+00   6.952040361418019E+00  -9.488437017737237E+00   3.368539416178502E+07
  2.016869077917965E+00   7.320047096034841E+00  -9.834799302337181E+00   3.368539416178502E+07
  2.142188194943993E+00   7.658552569495011E+00  -1.019328329794903E+01   3.368539416178502E+07
  2.301408533192072E+00   7.968165181651361E+00  -1.055024893044195E+01   3.368539416178502E+07
  2.500523631783073E+00   8.251091963681903E+00  -1.089373587142619E+01   3.368539416178502E+07
  2.743319029142384E+00   8.510979810422670E+00  -1.121425016032473E+01   3.368539416178502E+07
  3.030721099391194E+00   8.752611148668237E+00  -1.150518811274118E+01   3.368539416178502E+07
  3.360559111678245E+00   8.981480733451367E+00  -1.176287717448445E+01   3.368539416178502E+07
  3.727760027801969E+00   9.203295533268303E+00  -1.198626415845223E+01   3.368539416178502E+07
  4.124932944043186E+00   9.423449743460688E+00  -1.217632608255040E+01   3.368539416178502E+07
  4.543245836881068E+00   9.646530475083392E+00  -1.233531152718747E+01   3.368539416178502E+07
  4.973459037892091E+00   9.875906152104932E+00  -1.246593677166458E+01   3.368539416178502E+07
  5.406962738340369E+00   1.011343964329336E+01  -1.257065907975961E+01   3.368539416178502E+07
  5.836671659316580E+00   1.035935308061152E+01  -1.265113017340903E+01   3.368539416178502E+07
  6.257657221800832E+00   1.061225327067941E+01  -1.270789946199749E+01   3.368539416178502E+07
  6.667441385529855E+00   1.086930804517753E+01  -1.274039428805830E+01   3.368539416178502E+07
  7.065929717689889E+00   1.112654727193756E+01  -1.274715980961477E+01   3.368539416178502E+07
  7.455015888948791E+00   1.137924965754185E+01  -1.272630088547877E+01   3.368539416178502E+07
  7.837937406824983E+00   1.162236936626841E+01  -1.267603839894272E+01   3.368539416178502E+07
  8.218496009130719E+00   1.185095548126948E+01  -1.259527712119434E+01   3.368539416178502E+07
  8.600271097431337E+00   1.206052217990026E+01  -1.248408346727700E+01   3.368539416178502E+07
  8.985949211085096E+00   1.224733712027248E+01  -1.234398876505174E+01   3.368539416178502E+07
  9.376868308965690E+00   1.240860826954763E+01  -1.217806392913868E+01   3.368539416178502E+07
  9.772836886006505E+00   1.254256325294164E+01  -1.199074973766551E+01   3.368539416178502E+07
  1.017224118561736E+01   1.264842826960355E+01  -1.178746710351942E+01   3.368539416178502E+07
  1.057240654284192E+01   1.272632401270512E+01  -1.157406744661546E+01   3.368539416178502E+07
  1.097013866234263E+01   1.277710269471365E+01  -1.135620890680624E+01   3.368539416178502E+07
  1.136234358619353E+01   1.280215274880159E+01  -1.113875571392021E+01   3.368539416178502E+07
  1.174661521345906E+01   1.280319629601427E+01  -1.092529381563672E+01   3.368539416178502E+07
  1.212168767580661E+01   1.278209989030647E+01  -1.071783662013595E+01   3.368539416178502E+07
  1.248767489667592E+01   1.274071265348768E+01  -1.051676357963179E+01   3.368539416178502E+07
  1.284605690132554E+01   1.268073912480222E+01  -1.032099634661830E+01   3.368539416178502E+07
  1.319941565569487E+01   1.260364829915236E+01  -1.012837849622107E+01   3.368539416178502E+07
  1.355096528312512E+01   1.251061638485025E+01  -9.936191580674363E+00   3.368539416178502E+07
  1.390395560674290E+01   1.240249922707758E+01  -9.741717972080606E+00   3.368539416178502E+07
  1.426104862375811E+01   1.227983098327659E+01  -9.542753257325833E+00   3.368539416178502E+07
  1.462377149493475E+01   1.214284783300903E+01  -9.337979271092580E+00   3.368539416178502E+07
  1.499213641609845E+01   1.199153820854613E+01  -9.127132040648068E+00   3.368539416178502E+07
  1.536448961135475E+01   1.182572304572800E+01  -8.910933428224862E+00   3.368539416178502E+07
  1.573761334695565E+01   1.164516979686830E+01  -8.690795687232724E+00   3.368539416178502E+07
  1.610706265861492E+01   1.144974170744681E+01  -8.468348050882122E+00   3.368539416178502E+07
  1.646767938669422E+01   1.123957898413258E+01  -8.244867356750852E+00   3.368539416178502E+07
  1.681419659591679E+01   1.101530147025505E+01  -8.020715064196288E+00   3.368539416178502E+07
  1.714183144515048E+01   1.077821440908623E+01  -7.794887186478431E+00   3.368539416178502E+07
  1.744676664581020E+01   1.053049138765724E+01  -7.564770445456339E+00   3.368539416178502E+07
  1.772643960411385E+01   1.027530338699973E+01  -7.326168877792570E+00   3.368539416178502E+07
  1.797959121684906E+01   1.001686166922691E+01  -7.073624222256763E+00   3.368539416178502E+07
  1.820606780534103E+01   9.760346203669348E+00  -6.801006706828589E+00   3.368539416178502E+07
  1.840641306647257E+01   9.511700930044242E+00  -6.502307427260685E+00   3.368539416178502E+07
  1.858132501822710E+01   9.277291910446120E+00  -6.172526486549559E+00   3.368539416178502E+07
  1.873107928063560E+01   9.063442902945640E+00  -5.808528507781527E+00   3.368539416178502E+07
  1.885503000134238E+01   8.875882819432992E+00  -5.409733093355972E+00   3.368539416178502E+07
  1.895129120400105E+01   8.719158054221829E+00  -4.978523661904057E+00   3.368539416178502E+07
  1.901667514079483E+01   8.596076749253214E+00  -4.520292282625352E+00   3.368539416178502E+07
  1.904692406261261E+01   8.507258935083176E+00  -4.043086289188207E+00   0.000000000000000E+00 3 CurveXYZFourier59 
  1.194289567199211E+01   1.097727577352876E+01  -2.793670599686419E+00   2.875209781604839E+06
  1.193460571885095E+01   1.102909612899492E+01  -2.589695379397566E+00   2.875209781604839E+06
  1.190814356699123E+01   1.108734638605053E+01  -2.388429924096263E+00   2.875209781604839E+06
  1.186474610752370E+01   1.115231593752449E+01  -2.191546575315773E+00   2.875209781604839E+06
  1.180565072001377E+01   1.122431235435366E+01  -2.000129395324266E+00   2.875209781604839E+06
  1.173196738402861E+01   1.130353788853262E+01  -1.814529487837695E+00   2.875209781604839E+06
  1.164460071498000E+01   1.138992328160934E+01  -1.634283071407804E+00   2.875209781604839E+06
  1.154423017965994E+01   1.148293611094630E+01  -1.458114738504985E+00   2.875209781604839E+06
  1.143134706024416E+01   1.158138842106870E+01  -1.284040149098959E+00   2.875209781604839E+06
  1.130633761630559E+01   1.168327313830540E+01  -1.109570826429379E+00   2.875209781604839E+06
  1.116959478460702E+01   1.178565967448984E+01  -9.320100957127817E-01   2.875209781604839E+06
  1.102163675860446E+01   1.188467559944480E+01  -7.488153495381255E-01   2.875209781604839E+06
  1.086321049164998E+01   1.197559333355921E+01  -5.579897721474767E-01   2.875209781604839E+06
  1.069536155043693E+01   1.205302917983651E+01  -3.584583663326079E-01   2.875209781604839E+06
  1.051945818585708E+01   1.211124799291005E+01  -1.503801746517383E-01   2.875209781604839E+06
  1.033716586310821E+01   1.214455214913316E+01   6.464810804374489E-02   2.875209781604839E+06
  1.015037735892327E+01   1.214772025068819E+01   2.835322890242311E-01   2.875209781604839E+06
  9.961111365715487E+00   1.211645113740027E+01   5.017846007740668E-01   2.875209781604839E+06
  9.771397983411477E+00   1.204776392826926E+01   7.137924028408188E-01   2.875209781604839E+06
  9.583171568306884E+00   1.194030601435092E+01   9.132321804277840E-01   2.875209781604839E+06
  9.398189743540707E+00   1.179452844105553E+01   1.093590059378988E+00   2.875209781604839E+06
  9.217992193587563E+00   1.161270135508434E+01   1.248734639231707E+00   2.875209781604839E+06
  9.043905011384465E+00   1.139875972779372E+01   1.373478703049887E+00   2.875209781604839E+06
  8.877087170082920E+00   1.115798931281543E+01   1.464064851703976E+00   2.875209781604839E+06
  8.718606754363625E+00   1.089658225201111E+01   1.518516895387104E+00   2.875209781604839E+06
  8.569527525468089E+00   1.062110833082161E+01   1.536813364923228E+00   2.875209781604839E+06
  8.430982571466309E+00   1.033795929656985E+01   1.520860144047095E+00   2.875209781604839E+06
  8.304212080964669E+00   1.005282819050285E+01   1.474263438557955E+00   2.875209781604839E+06
  8.190546890926445E+00   9.770282467939207E+00   1.401928980688538E+00   2.875209781604839E+06
  8.091327895430794E+00   9.493478961516676E+00   1.309535246794245E+00   2.875209781604839E+06
  8.007762490885131E+00   9.224051670876857E+00   1.202944560548471E+00   2.875209781604839E+06
  7.940731292846903E+00   8.962182018187203E+00   1.087623988593409E+00   2.875209781604839E+06
  7.890569444476804E+00   8.706838304031777E+00   9.681466804228580E-01   2.875209781604839E+06
  7.856855035089413E+00   8.456149622368326E+00   8.478337671332833E-01   2.875209781604839E+06
  7.838240887063289E+00   8.207862314479513E+00   7.285783875641927E-01   2.875209781604839E+06
  7.832364282932251E+00   7.959816512603886E+00   6.108692430600535E-01   2.875209781604839E+06
  7.835861911507973E+00   7.710377949465086E+00   4.940044869814774E-01   2.875209781604839E+06
  7.844505088444619E+00   7.458766426070538E+00   3.764613034610104E-01   2.875209781604839E+06
  7.853454626052502E+00   7.205236423725827E+00   2.563656832352506E-01   2.875209781604839E+06
  7.857617677117601E+00   6.951085531583526E+00   1.319935343902794E-01   2.875209781604839E+06
  7.852072876920125E+00   6.698490005137373E+00   2.230249905337406E-03   2.875209781604839E+06
  7.832517562280264E+00   6.450190737926826E+00  -1.330781960402059E-01   2.875209781604839E+06
  7.795683792555308E+00   6.209073997835035E+00  -2.729343860935536E-01   2.875209781604839E+06
  7.739669686435126E+00   5.977706581082382E+00  -4.151882385223298E-01   2.875209781604839E+06
  7.664139659890243E+00   5.757892445154480E+00  -5.567283106233702E-01   2.875209781604839E+06
  7.570360930965909E+00   5.550316309190767E+00  -6.938414394051894E-01   2.875209781604839E+06
  7.461062600551180E+00   5.354329265165668E+00  -8.226926248142391E-01   2.875209781604839E+06
  7.340125390040463E+00   5.167913424886306E+00  -9.398596120311182E-01   2.875209781604839E+06
  7.212131894937856E+00   4.987839360320839E+00  -1.042848059474607E+00   2.875209781604839E+06
  7.081826068695149E+00   4.810004620127039E+00  -1.130514696509528E+00   2.875209781604839E+06
  6.953543952622331E+00   4.629917278680941E+00  -1.203337306385088E+00   2.875209781604839E+06
  6.830683457083756E+00   4.443268515150337E+00  -1.263490183166291E+00   2.875209781604839E+06
  6.715278278447762E+00   4.246525282427035E+00  -1.314709225468550E+00   2.875209781604839E+06
  6.607729928017958E+00   4.037469940941850E+00  -1.361958585752414E+00   2.875209781604839E+06
  6.506733603650124E+00   3.815618880926035E+00  -1.410937032765433E+00   2.875209781604839E+06
  6.409410480356835E+00   3.582465992708521E+00  -1.467483365696422E+00   2.875209781604839E+06
  6.311633852559082E+00   3.341517586447949E+00  -1.536953505518538E+00   2.875209781604839E+06
  6.208512652614911E+00   3.098110335033949E+00  -1.623645536364693E+00   2.875209781604839E+06
  6.094976295764817E+00   2.859029808261141E+00  -1.730342555542385E+00   2.875209781604839E+06
  5.966392113242029E+00   2.631970869566696E+00  -1.858027663823136E+00   2.875209781604839E+06
  5.819142493741193E+00   2.424899638660393E+00  -2.005802964726769E+00   2.875209781604839E+06
  5.651093801590131E+00   2.245387625549960E+00  -2.171018135396283E+00   2.875209781604839E+06
  5.461902528824425E+00   2.099990762476958E+00  -2.349587555230950E+00   2.875209781604839E+06
  5.253124215458079E+00   1.993739303319996E+00  -2.536451687483313E+00   2.875209781604839E+06
  5.028114820044065E+00   1.929789973104415E+00  -2.726121453640591E+00   2.875209781604839E+06
  4.791739313525092E+00   1.909271363912243E+00  -2.913235853642196E+00   2.875209781604839E+06
  4.549925087713348E+00   1.931330110794622E+00  -3.093064005138707E+00   2.875209781604839E+06
  4.309115442045197E+00   1.993361882227105E+00  -3.261892738756677E+00   2.875209781604839E+06
  4.075688786375000E+00   2.091390632643899E+00  -3.417258305002510E+00   2.875209781604839E+06
  3.855411118747809E+00   2.220544361507125E+00  -3.558003053591845E+00   2.875209781604839E+06
  3.652982784188942E+00   2.375567489627619E+00  -3.684161966997141E+00   2.875209781604839E+06
  3.471726585529554E+00   2.551309603298156E+00  -3.796706347814720E+00   2.875209781604839E+06
  3.313445033255181E+00   2.743137396862130E+00  -3.897189771258139E+00   2.875209781604839E+06
  3.178452565680763E+00   2.947229878864417E+00  -3.987352342436109E+00   2.875209781604839E+06
  3.065766886818023E+00   3.160734268328527E+00  -4.068742089181228E+00   2.875209781604839E+06
  2.973424961269433E+00   3.381779029258555E+00  -4.142406890749940E+00   2.875209781604839E+06
  2.898875963005985E+00   3.609358617264493E+00  -4.208697753466425E+00   2.875209781604839E+06
  2.839397079498061E+00   3.843119444322449E+00  -4.267206522147088E+00   2.875209781604839E+06
  2.792479024837867E+00   4.083086562721463E+00  -4.316840934530285E+00   2.875209781604839E+06
  2.756135903312027E+00   4.329374645305410E+00  -4.356020208189291E+00   2.875209781604839E+06
  2.729107274752736E+00   4.581924868079233E+00  -4.382957846461312E+00   2.875209781604839E+06
  2.710936822391603E+00   4.840301978643944E+00  -4.395987255826168E+00   2.875209781604839E+06
  2.701929479458741E+00   5.103574536074977E+00  -4.393881426045923E+00   2.875209781604839E+06
  2.703004803416862E+00   5.370287861651167E+00  -4.376120668561675E+00   2.875209781604839E+06
  2.715476712438948E+00   5.638525641864514E+00  -4.343071547459581E+00   2.875209781604839E+06
  2.740796955836761E+00   5.906044252500289E+00  -4.296054093688128E+00   2.875209781604839E+06
  2.780301215920370E+00   6.170455227071147E+00  -4.237290963768270E+00   2.875209781604839E+06
  2.834992723442006E+00   6.429426813468166E+00  -4.169748901309507E+00   2.875209781604839E+06
  2.905389683545379E+00   6.680875529638858E+00  -4.096897282629274E+00   2.875209781604839E+06
  2.991451223643243E+00   6.923122668908701E+00  -4.022418708710028E+00   2.875209781604839E+06
  3.092583895028449E+00   7.154997890293398E+00  -3.949911279192737E+00   2.875209781604839E+06
  3.207718929456352E+00   7.375881050535819E+00  -3.882620944212723E+00   2.875209781604839E+06
  3.335441159628557E+00   7.585682822989978E+00  -3.823235654993893E+00   2.875209781604839E+06
  3.474144954440307E+00   7.784773001611756E+00  -3.773762179994820E+00   2.875209781604839E+06
  3.622191245206337E+00   7.973871575230542E+00  -3.735493235121073E+00   2.875209781604839E+06
  3.778042582230329E+00   8.153920968019289E+00  -3.709059075359645E+00   2.875209781604839E+06
  3.940359382351048E+00   8.325958063779156E+00  -3.694545936833743E+00   2.875209781604839E+06
  4.108048849696620E+00   8.491002043530566E+00  -3.691655371502837E+00   2.875209781604839E+06
  4.280266961352280E+00   8.649969358714134E+00  -3.699874657205916E+00   2.875209781604839E+06
  4.456381893552647E+00   8.803621299049325E+00  -3.718629438233777E+00   2.875209781604839E+06
  4.635913051051272E+00   8.952543657066355E+00  -3.747395148130316E+00   2.875209781604839E+06
  4.818462618024193E+00   9.097152924635154E+00  -3.785752519599500E+00   2.875209781604839E+06
  5.003655992570934E+00   9.237720032796767E+00  -3.833383059971360E+00   2.875209781604839E+06
  5.191103894857338E+00   9.374401278889781E+00  -3.890011014660852E+00   2.875209781604839E+06
  5.380393152732267E+00   9.507266805285843E+00  -3.955307370294129E+00   2.875209781604839E+06
  5.571106322737696E+00   9.636319470774652E+00  -4.028777501789365E+00   2.875209781604839E+06
  5.762863700041004E+00   9.761500575300714E+00  -4.109656304110041E+00   2.875209781604839E+06
  5.955376130488294E+00   9.882682888476792E+00  -4.196832863395775E+00   2.875209781604839E+06
  6.148494298137978E+00   9.999655003128161E+00  -4.288821349290799E+00   2.875209781604839E+06
  6.342240316776082E+00   1.011210352097577E+01  -4.383786836102431E+00   2.875209781604839E+06
  6.536810477116556E+00   1.021960054660482E+01  -4.479625545861555E+00   2.875209781604839E+06
  6.732543353265946E+00   1.032160328653177E+01  -4.574090060268288E+00   2.875209781604839E+06
  6.929854195705862E+00   1.041747040236559E+01  -4.664942784743364E+00   2.875209781604839E+06
  7.129143423808189E+00   1.050649659836067E+01  -4.750116465563799E+00   2.875209781604839E+06
  7.330692823025770E+00   1.058796336006681E+01  -4.827859482351191E+00   2.875209781604839E+06
  7.534566663434327E+00   1.066120048848872E+01  -4.896846026350050E+00   2.875209781604839E+06
  7.740535656399138E+00   1.072565071383624E+01  -4.956236644621081E+00   2.875209781604839E+06
  7.948039209195881E+00   1.078092866848273E+01  -5.005682044352597E+00   2.875209781604839E+06
  8.156196112562778E+00   1.082686603973762E+01  -5.045271286797494E+00   2.875209781604839E+06
  8.363866388691660E+00   1.086353671385943E+01  -5.075433253484849E+00   2.875209781604839E+06
  8.569758697601353E+00   1.089125880306780E+01  -5.096806366237757E+00   2.875209781604839E+06
  8.772569799737274E+00   1.091057405984497E+01  -5.110095129197588E+00   2.875209781604839E+06
  8.971136426478713E+00   1.092220867570917E+01  -5.115932717040063E+00   2.875209781604839E+06
  9.164576598320121E+00   1.092702220743023E+01  -5.114766628994272E+00   2.875209781604839E+06
  9.352397607951024E+00   1.092595288340727E+01  -5.106779888925762E+00   2.875209781604839E+06
  9.534551666764511E+00   1.091996755538669E+01  -5.091854271924536E+00   2.875209781604839E+06
  9.711427141620836E+00   1.091002309050560E+01  -5.069575638936588E+00   2.875209781604839E+06
  9.883772415793320E+00   1.089704333483450E+01  -5.039275724252277E+00   2.875209781604839E+06
  1.005255935662855E+01   1.088191243425627E+01  -5.000100526499796E+00   2.875209781604839E+06
  1.021880265899458E+01   1.086548191430722E+01  -4.951093357996925E+00   2.875209781604839E+06
  1.038335852037965E+01   1.084858615305829E+01  -4.891280758281256E+00   2.875209781604839E+06
  1.054673004392663E+01   1.083205927649414E+01  -4.819751607476311E+00   2.875209781604839E+06
  1.070890678701977E+01   1.081674639631593E+01  -4.735723265106600E+00   2.875209781604839E+06
  1.086926188778364E+01   1.080350354544653E+01  -4.638592567674464E+00   2.875209781604839E+06
  1.102652272949720E+01   1.079318339572117E+01  -4.527973143714583E+00   2.875209781604839E+06
  1.117882119789084E+01   1.078660734961070E+01  -4.403722965324127E+00   2.875209781604839E+06
  1.132381868246204E+01   1.078452818917066E+01  -4.265966837142865E+00   2.875209781604839E+06
  1.145889066826061E+01   1.078759039071895E+01  -4.115117486204158E+00   2.875209781604839E+06
  1.158134757871776E+01   1.079629680586791E+01  -3.951896322854936E+00   2.875209781604839E+06
  1.168866367249277E+01   1.081099021500645E+01  -3.777351419728894E+00   2.875209781604839E+06
  1.177868498176976E+01   1.083185613771321E+01  -3.592866676541564E+00   2.875209781604839E+06
  1.184979061392576E+01   1.085894945725290E+01  -3.400153460467318E+00   2.875209781604839E+06
  1.190098870778877E+01   1.089224245334347E+01  -3.201215087045058E+00   2.875209781604839E+06
  1.193193787981155E+01   1.093168658144701E+01  -2.998275903131983E+00   2.875209781604839E+06
  1.194289567199211E+01   1.097727577352876E+01  -2.793670599686419E+00   0.000000000000000E+00 4 CurveXYZFourier60 
  9.976359979678893E+00   1.330721923721024E+01  -1.492372137804265E+00   5.249449516773291E+06
  9.951495502527758E+00   1.341010173161979E+01  -1.287118204914283E+00   5.249449516773291E+06
  9.907703311165703E+00   1.350611816168605E+01  -1.081599448380088E+00   5.249449516773291E+06
  9.846952560675096E+00   1.359340788259544E+01  -8.755248687188519E-01   5.249449516773291E+06
  9.771199124015107E+00   1.367016887383522E+01  -6.682405704410816E-01   5.249449516773291E+06
  9.682314292897320E+00   1.373460949641940E+01  -4.589049583634092E-01   5.249449516773291E+06
  9.582060793415707E+00   1.378492055904724E+01  -2.467000461591315E-01   5.249449516773291E+06
  9.472108049507449E+00   1.381927840632975E+01  -3.105051122009427E-02   5.249449516773291E+06
  9.354072180731775E+00   1.383588378040142E+01   1.881792719255677E-01   5.249449516773291E+06
  9.229562859669178E+00   1.383303445452619E+01   4.105373943860788E-01   5.249449516773291E+06
  9.100219329959137E+00   1.380922317253855E+01   6.349066818943294E-01   5.249449516773291E+06
  8.967721442204182E+00   1.376324728094613E+01   8.595088636532591E-01   5.249449516773291E+06
  8.833767773140602E+00   1.369431343597470E+01   1.081991676009982E+00   5.249449516773291E+06
  8.700020581197029E+00   1.360212040055943E+01   1.299588972698701E+00   5.249449516773291E+06
  8.568025102139776E+00   1.348690530612868E+01   1.509334218811096E+00   5.249449516773291E+06
  8.439117079547119E+00   1.334944351176564E+01   1.708300629669514E+00   5.249449516773291E+06
  8.314336267339643E+00   1.319099864946285E+01   1.893837647368755E+00   5.249449516773291E+06
  8.194364180860426E+00   1.301322663329228E+01   2.063773922464113E+00   5.249449516773291E+06
  8.079501419145464E+00   1.281804424545772E+01   2.216561439195480E+00   5.249449516773291E+06
  7.969693847355421E+00   1.260747834778033E+01   2.351343304340507E+00   5.249449516773291E+06
  7.864608771063975E+00   1.238351495608276E+01   2.467937965105882E+00   5.249449516773291E+06
  7.763753302217955E+00   1.214796783662483E+01   2.566743860737230E+00   5.249449516773291E+06
  7.666618935249773E+00   1.190238382416151E+01   2.648579236799763E+00   5.249449516773291E+06
  7.572830373244107E+00   1.164799703280753E+01   2.714480614510151E+00   5.249449516773291E+06
  7.482274005553212E+00   1.138573722967515E+01   2.765489021703020E+00   5.249449516773291E+06
  7.395182766300160E+00   1.111628984701621E+01   2.802454786155690E+00   5.249449516773291E+06
  7.312159395603016E+00   1.084019754327245E+01   2.825889217036675E+00   5.249449516773291E+06
  7.234128731597491E+00   1.055798698810370E+01   2.835885163384417E+00   5.249449516773291E+06
  7.162220366221626E+00   1.027030056103790E+01   2.832119063248355E+00   5.249449516773291E+06
  7.097594196896932E+00   9.978011522361690E+00   2.813935914361981E+00   5.249449516773291E+06
  7.041231347946004E+00   9.682303138661018E+00   2.780507082320208E+00   5.249449516773291E+06
  6.993719992049075E+00   9.384696990124223E+00   2.731040539736052E+00   5.249449516773291E+06
  6.955068528663648E+00   9.087022616490533E+00   2.665015372158179E+00   5.249449516773291E+06
  6.924576718139427E+00   8.791328825660893E+00   2.582408233346815E+00   5.249449516773291E+06
  6.900788782490333E+00   8.499745268405899E+00   2.483879454878692E+00   5.249449516773291E+06
  6.881541946170268E+00   8.214310131088595E+00   2.370890741738553E+00   5.249449516773291E+06
  6.864110810564236E+00   7.936785015417699E+00   2.245734300979235E+00   5.249449516773291E+06
  6.845434175538570E+00   7.668480541723346E+00   2.111463863979687E+00   5.249449516773291E+06
  6.822398449889400E+00   7.410115592294754E+00   1.971730039077392E+00   5.249449516773291E+06
  6.792142511001201E+00   7.161729489937414E+00   1.830534264901537E+00   5.249449516773291E+06
  6.752344250963730E+00   6.922660276958819E+00   1.691925844298023E+00   5.249449516773291E+06
  6.701449909211291E+00   6.691594447020137E+00   1.559673856275090E+00   5.249449516773291E+06
  6.638813689289498E+00   6.466685025789718E+00   1.436949273136534E+00   5.249449516773291E+06
  6.564726335417103E+00   6.245726901341066E+00   1.326051937216699E+00   5.249449516773291E+06
  6.480325839736943E+00   6.026371789801098E+00   1.228212288146471E+00   5.249449516773291E+06
  6.387399291041608E+00   5.806360979301792E+00   1.143489492851517E+00   5.249449516773291E+06
  6.288099856522026E+00   5.583752492349308E+00   1.070776949281510E+00   5.249449516773291E+06
  6.184614890156290E+00   5.357120629556475E+00   1.007914323645444E+00   5.249449516773291E+06
  6.078828456449767E+00   5.125709714109641E+00   9.518937620296017E-01   5.249449516773291E+06
  5.972023062646705E+00   4.889529630924250E+00   8.991380435882386E-01   5.249449516773291E+06
  5.864660828992307E+00   4.649387607411965E+00   8.458213317972422E-01   5.249449516773291E+06
  5.756274270369777E+00   4.406857676950616E+00   7.881995840347974E-01   5.249449516773291E+06
  5.645482664254318E+00   4.164195502475434E+00   7.229179021769189E-01   5.249449516773291E+06
  5.530133575723025E+00   3.924210979321634E+00   6.472659826167354E-01   5.249449516773291E+06
  5.407552747530281E+00   3.690113803978664E+00   5.593597555981541E-01   5.249449516773291E+06
  5.274871480411507E+00   3.465347819337144E+00   4.582363512237930E-01   5.249449516773291E+06
  5.129390736989741E+00   3.253428572801985E+00   3.438595400225503E-01   5.249449516773291E+06
  4.968936815504637E+00   3.057795569605620E+00   2.170425537024666E-01   5.249449516773291E+06
  4.792165089994430E+00   2.881686780244531E+00   7.930356941125979E-02   5.249449516773291E+06
  4.598775684531367E+00   2.728038765475351E+00  -6.732476664893965E-02   5.249449516773291E+06
  4.389616927729051E+00   2.599411986007620E+00  -2.205071764639706E-01   5.249449516773291E+06
  4.166667279923076E+00   2.497938009466216E+00  -3.778142000916954E-01   5.249449516773291E+06
  3.932902029846294E+00   2.425283751208426E+00  -5.369052621993560E-01   5.249449516773291E+06
  3.692065250267124E+00   2.382627679001796E+00  -6.956694976584457E-01   5.249449516773291E+06
  3.448378365670464E+00   2.370643920485505E+00  -8.523142308078228E-01   5.249449516773291E+06
  3.206222827209180E+00   2.389492079078397E+00  -1.005398447689109E+00   5.249449516773291E+06
  2.969835134327202E+00   2.438812799763768E+00  -1.153815788269912E+00   5.249449516773291E+06
  2.743047910777539E+00   2.517731202433372E+00  -1.296737655828717E+00   5.249449516773291E+06
  2.529101819438452E+00   2.624871743510815E+00  -1.433531320582612E+00   5.249449516773291E+06
  2.330541282778318E+00   2.758388539671532E+00  -1.563669969353896E+00   5.249449516773291E+06
  2.149194137147827E+00   2.916014547305906E+00  -1.686651399562286E+00   5.249449516773291E+06
  1.986223448743468E+00   3.095131309948906E+00  -1.801939639701726E+00   5.249449516773291E+06
  1.842230505857274E+00   3.292858535090331E+00  -1.908939616330279E+00   5.249449516773291E+06
  1.717382754189414E+00   3.506159963623118E+00  -2.007009682174938E+00   5.249449516773291E+06
  1.611539783621485E+00   3.731959346865969E+00  -2.095511077655448E+00   5.249449516773291E+06
  1.524354295050362E+00   3.967258332463329E+00  -2.173887940394732E+00   5.249449516773291E+06
  1.455332462125676E+00   4.209247068969090E+00  -2.241766956407552E+00   5.249449516773291E+06
  1.403847881702451E+00   4.455398591237737E+00  -2.299062675581036E+00   5.249449516773291E+06
  1.369113670091677E+00   4.703539560596834E+00  -2.346073216862018E+00   5.249449516773291E+06
  1.350126441110816E+00   4.951892509634213E+00  -2.383551675424434E+00   5.249449516773291E+06
  1.345602348819825E+00   5.199088005093202E+00  -2.412740911230408E+00   5.249449516773291E+06
  1.353928009949516E+00   5.444148598288288E+00  -2.435363250727318E+00   5.249449516773291E+06
  1.373147489811234E+00   5.686449547768751E+00  -2.453561525340898E+00   5.249449516773291E+06
  1.401000895049510E+00   5.925663592507977E+00  -2.469793258921388E+00   5.249449516773291E+06
  1.435021381501659E+00   6.161698177419028E+00  -2.486685119941657E+00   5.249449516773291E+06
  1.472686984404174E+00   6.394633330822172E+00  -2.506859411912015E+00   5.249449516773291E+06
  1.511613327054635E+00   6.624666930527298E+00  -2.532747899579511E+00   5.249449516773291E+06
  1.549764693097529E+00   6.852071648162109E+00  -2.566410288606667E+00   5.249449516773291E+06
  1.585655626019885E+00   7.077164874245057E+00  -2.609374970677072E+00   5.249449516773291E+06
  1.618514119547291E+00   7.300289937075333E+00  -2.662518158551372E+00   5.249449516773291E+06
  1.648380900878325E+00   7.521804477927485E+00  -2.725994380237171E+00   5.249449516773291E+06
  1.676126888267710E+00   7.742070384996905E+00  -2.799226751180342E+00   5.249449516773291E+06
  1.703381568821496E+00   7.961439501687627E+00  -2.880959907724081E+00   5.249449516773291E+06
  1.732377231934180E+00   8.180230471842641E+00  -2.969372476077662E+00   5.249449516773291E+06
  1.765725882123884E+00   8.398694387334569E+00  -3.062240040461846E+00   5.249449516773291E+06
  1.806155428292861E+00   8.616969968347790E+00  -3.157134344142190E+00   5.249449516773291E+06
  1.856237883539883E+00   8.835032284490580E+00  -3.251640447756174E+00   5.249449516773291E+06
  1.918143819637229E+00   9.052641899260502E+00  -3.343571226449242E+00   5.249449516773291E+06
  1.993453900518600E+00   9.269303210778443E+00  -3.431158215036945E+00   5.249449516773291E+06
  2.083050409279046E+00   9.484241224174637E+00  -3.513199533407935E+00   5.249449516773291E+06
  2.187100406197775E+00   9.696404800588697E+00  -3.589149364027492E+00   5.249449516773291E+06
  2.305129153545186E+00   9.904501628104557E+00  -3.659138921809374E+00   5.249449516773291E+06
  2.436169634032986E+00   1.010706607114215E+01  -3.723925571522197E+00   5.249449516773291E+06
  2.578963278608412E+00   1.030255623634196E+01  -3.784774069085803E+00   5.249449516773291E+06
  2.732180009984213E+00   1.048947176620316E+01  -3.843281089085238E+00   5.249449516773291E+06
  2.894623459677926E+00   1.066647981281371E+01  -3.901160481487723E+00   5.249449516773291E+06
  3.065390078472957E+00   1.083253406282085E+01  -3.960011359471132E+00   5.249449516773291E+06
  3.243958417050678E+00   1.098697110868732E+01  -4.021093577952549E+00   5.249449516773291E+06
  3.430195980924145E+00   1.112957014200103E+01  -4.085135050692174E+00   5.249449516773291E+06
  3.624284094687108E+00   1.126056580380579E+01  -4.152192571825237E+00   5.249449516773291E+06
  3.826574182944920E+00   1.138060965024560E+01  -4.221582550463225E+00   5.249449516773291E+06
  4.037399825660409E+00   1.149068237430320E+01  -4.291890821565737E+00   5.249449516773291E+06
  4.256876204302752E+00   1.159196576217279E+01  -4.361062201954011E+00   5.249449516773291E+06
  4.484720998455609E+00   1.168568937868045E+01  -4.426561636177740E+00   5.249449516773291E+06
  4.720128014179239E+00   1.177297126156043E+01  -4.485590622453036E+00   5.249449516773291E+06
  4.961717201056070E+00   1.185467375643672E+01  -4.535336088624428E+00   5.249449516773291E+06
  5.207573349499490E+00   1.193129465766281E+01  -4.573224813737752E+00   5.249449516773291E+06
  5.455372326170872E+00   1.200291003573830E+01  -4.597155415380602E+00   5.249449516773291E+06
  5.702580196273202E+00   1.206917893171479E+01  -4.605682061582355E+00   5.249449516773291E+06
  5.946699014932001E+00   1.212941224191577E+01  -4.598129254894976E+00   5.249449516773291E+06
  6.185525188528011E+00   1.218269962179531E+01  -4.574624736928367E+00   5.249449516773291E+06
  6.417383318680400E+00   1.222808024810730E+01  -4.536046913170966E+00   5.249449516773291E+06
  6.641300839438846E+00   1.226473690014837E+01  -4.483893111987608E+00   5.249449516773291E+06
  6.857096245466566E+00   1.229218896676464E+01  -4.420084280314947E+00   5.249449516773291E+06
  7.065365242022446E+00   1.231045924260353E+01  -4.346729239966732E+00   5.249449516773291E+06
  7.267363088998031E+00   1.232019191543513E+01  -4.265876432155353E+00   5.249449516773291E+06
  7.464795770490319E+00   1.232270468949000E+01  -4.179282530466804E+00   5.249449516773291E+06
  7.659545346532521E+00   1.231996584495030E+01  -4.088225176937573E+00   5.249449516773291E+06
  7.853364121588782E+00   1.231449618337632E+01  -3.993381610571353E+00   5.249449516773291E+06
  8.047576784388667E+00   1.230920504866227E+01  -3.894786759634859E+00   5.249449516773291E+06
  8.242828814986987E+00   1.230717771820209E+01  -3.791874460687452E+00   5.249449516773291E+06
  8.438913372323510E+00   1.231143735418786E+01  -3.683595084609324E+00   5.249449516773291E+06
  8.634698469629409E+00   1.232470761526469E+01  -3.568593307704122E+00   5.249449516773291E+06
  8.828163023364519E+00   1.234920158752790E+01  -3.445422288783115E+00   5.249449516773291E+06
  9.016536211881165E+00   1.238645899388800E+01  -3.312766074319391E+00   5.249449516773291E+06
  9.196521491084422E+00   1.243724722023349E+01  -3.169641244222118E+00   5.249449516773291E+06
  9.364576383962715E+00   1.250153346162113E+01  -3.015551755709465E+00   5.249449516773291E+06
  9.517213138049401E+00   1.257852638642929E+01  -2.850577278289695E+00   5.249449516773291E+06
  9.651284241769442E+00   1.266677736104099E+01  -2.675384227179275E+00   5.249449516773291E+06
  9.764220592002514E+00   1.276432459475004E+01  -2.491159037114830E+00   5.249449516773291E+06
  9.854198087757803E+00   1.286885942134429E+01  -2.299473617326373E+00   5.249449516773291E+06
  9.920219281623869E+00   1.297789282171995E+01  -2.102102015261218E+00   5.249449516773291E+06
  9.962108770064342E+00   1.308890226160926E+01  -1.900813878058757E+00   5.249449516773291E+06
  9.980432450397899E+00   1.319944357898631E+01  -1.697173449575486E+00   5.249449516773291E+06
  9.976359979678893E+00   1.330721923721024E+01  -1.492372137804265E+00   0.000000000000000E+00 5 CurveXYZFourier61 
  1.552489825296059E+01  -5.446225842456950E-01   9.984987593449685E-01  -2.262392722834422E+07
  1.558293986292822E+01  -6.350372801023131E-01   7.984157432359344E-01  -2.262392722834422E+07
  1.563627648172490E+01  -7.323006471526805E-01   5.910937835847468E-01  -2.262392722834422E+07
  1.568411672535740E+01  -8.350573381465149E-01   3.747449516053378E-01  -2.262392722834422E+07
  1.572598044049151E+01  -9.416813743990277E-01   1.488020397252205E-01  -2.262392722834422E+07
  1.576176666731716E+01  -1.050468243118807E+00  -8.599218907115949E-02  -2.262392722834422E+07
  1.579176740507549E+01  -1.159841124001521E+00  -3.276882358078785E-01  -2.262392722834422E+07
  1.581661451781724E+01  -1.268549689796973E+00  -5.734087511685215E-01  -2.262392722834422E+07
  1.583715768825000E+01  -1.375839141436126E+00  -8.197593652897333E-01  -2.262392722834422E+07
  1.585428344184050E+01  -1.481568910696069E+00  -1.063307589930358E+00  -2.262392722834422E+07
  1.586869686139728E+01  -1.586264788572646E+00  -1.301055615998043E+00  -2.262392722834422E+07
  1.588069660102486E+01  -1.691094781170299E+00  -1.530834016396327E+00  -2.262392722834422E+07
  1.588997842171991E+01  -1.797767112981696E+00  -1.751555895514650E+00  -2.262392722834422E+07
  1.589550158832743E+01  -1.908357601353918E+00  -1.963292986429076E+00  -2.262392722834422E+07
  1.589544583511613E+01  -2.025082085058081E+00  -2.167163188450320E+00  -2.262392722834422E+07
  1.588727492248564E+01  -2.150036658638721E+00  -2.365048703906418E+00  -2.262392722834422E+07
  1.586790764938452E+01  -2.284933217596716E+00  -2.559190629540113E+00  -2.262392722834422E+07
  1.583398079667143E+01  -2.430859578270242E+00  -2.751725375993286E+00  -2.262392722834422E+07
  1.578217342361595E+01  -2.588091864809986E+00  -2.944237516626621E+00  -2.262392722834422E+07
  1.570955071289718E+01  -2.755982017401959E+00  -3.137401084742716E+00  -2.262392722834422E+07
  1.561388016323507E+01  -2.932935638650713E+00  -3.330767270542389E+00  -2.262392722834422E+07
  1.549387453639248E+01  -3.116485783188356E+00  -3.522733050958932E+00  -2.262392722834422E+07
  1.534932469270988E+01  -3.303457794935653E+00  -3.710696146818926E+00  -2.262392722834422E+07
  1.518110028949626E+01  -3.490210123297072E+00  -3.891371415159555E+00  -2.262392722834422E+07
  1.499101524980244E+01  -3.672927400786495E+00  -4.061217160078859E+00  -2.262392722834422E+07
  1.478157517849215E+01  -3.847935968353038E+00  -4.216901180425876E+00  -2.262392722834422E+07
  1.455564241674068E+01  -4.012009221614966E+00  -4.355728771567816E+00  -2.262392722834422E+07
  1.431606823010307E+01  -4.162630962768636E+00  -4.475959770446104E+00  -2.262392722834422E+07
  1.406534836788215E+01  -4.298189289268191E+00  -4.576958545419224E+00  -2.262392722834422E+07
  1.380535655615491E+01  -4.418080922984635E+00  -4.659147162301534E+00  -2.262392722834422E+07
  1.353720028238577E+01  -4.522715420855721E+00  -4.723763838587876E+00  -2.262392722834422E+07
  1.326122569738753E+01  -4.613419304693251E+00  -4.772461307972350E+00  -2.262392722834422E+07
  1.297717598090525E+01  -4.692250593152070E+00  -4.806807728522406E+00  -2.262392722834422E+07
  1.268448333016994E+01  -4.761743345883098E+00  -4.827771735560359E+00  -2.262392722834422E+07
  1.238265247280559E+01  -4.824608655280809E+00  -4.835279917635741E+00  -2.262392722834422E+07
  1.207167676952714E+01  -4.883422358476256E+00  -4.827927958835964E+00  -2.262392722834422E+07
  1.175241937099989E+01  -4.940330273853597E+00  -4.802906601712029E+00  -2.262392722834422E+07
  1.142689320773631E+01  -4.996799067324628E+00  -4.756173123903757E+00  -2.262392722834422E+07
  1.109838507460423E+01  -5.053435364452325E+00  -4.682862525362903E+00  -2.262392722834422E+07
  1.077138945660964E+01  -5.109888180099530E+00  -4.577895459116038E+00  -2.262392722834422E+07
  1.045134438082962E+01  -5.164841062082412E+00  -4.436707711339764E+00  -2.262392722834422E+07
  1.014419078452860E+01  -5.216091531052272E+00  -4.256003745981587E+00  -2.262392722834422E+07
  9.855804450776242E+00  -5.260707381314480E+00  -4.034428105512921E+00  -2.262392722834422E+07
  9.591371350951324E+00  -5.295242958887609E+00  -3.773054992064007E+00  -2.262392722834422E+07
  9.354789812713765E+00  -5.315994184195944E+00  -3.475617601678475E+00  -2.262392722834422E+07
  9.148184088052281E+00  -5.319269084717386E+00  -3.148432018618645E+00  -2.262392722834422E+07
  8.971602998664922E+00  -5.301650911135784E+00  -2.800011144574332E+00  -2.262392722834422E+07
  8.822955479366213E+00  -5.260233244853082E+00  -2.440406509728488E+00  -2.262392722834422E+07
  8.698204734706152E+00  -5.192810398182416E+00  -2.080353809678750E+00  -2.262392722834422E+07
  8.591808349279461E+00  -5.098011293388482E+00  -1.730326095472826E+00  -2.262392722834422E+07
  8.497357757924394E+00  -4.975370299537321E+00  -1.399612536019264E+00  -2.262392722834422E+07
  8.408341769738779E+00  -4.825333683394881E+00  -1.095538385461789E+00  -2.262392722834422E+07
  8.318939520211941E+00  -4.649204984438772E+00  -8.229233671979588E-01  -2.262392722834422E+07
  8.224741249269778E+00  -4.449036491148356E+00  -5.838436091827304E-01  -2.262392722834422E+07
  8.123301954043221E+00  -4.227476958605521E+00  -3.777210025710961E-01  -2.262392722834422E+07
  8.014452646524658E+00  -3.987587770633306E+00  -2.017192344728715E-01  -2.262392722834422E+07
  7.900324229002572E+00  -3.732640998648771E+00  -5.138410939974859E-02  -2.262392722834422E+07
  7.785075935247162E+00  -3.465913361550276E+00   7.856693633626008E-02  -2.262392722834422E+07
  7.674358936341254E+00  -3.190490049906080E+00   1.934203351781381E-01  -2.262392722834422E+07
  7.574580832525696E+00  -2.909091799922031E+00   2.977239054529445E-01  -2.262392722834422E+07
  7.492063525699048E+00  -2.623937483373826E+00   3.947294940054246E-01  -2.262392722834422E+07
  7.432201672914656E+00  -2.336652760784084E+00   4.860953160823000E-01  -2.262392722834422E+07
  7.398729472463224E+00  -2.048232943270717E+00   5.718835397868215E-01  -2.262392722834422E+07
  7.393189778226082E+00  -1.759065057591839E+00   6.508448194564662E-01  -2.262392722834422E+07
  7.414673288253876E+00  -1.469010207897914E+00   7.209391760238357E-01  -2.262392722834422E+07
  7.459860344258257E+00  -1.177542783123589E+00   7.800079695273973E-01  -2.262392722834422E+07
  7.523358476995821E+00  -8.839381121589920E-01   8.264896983547287E-01  -2.262392722834422E+07
  7.598290575682914E+00  -5.874951999010979E-01   8.600661294036644E-01  -2.262392722834422E+07
  7.677056611938839E+00  -2.877766808763336E-01   8.821356487112622E-01  -2.262392722834422E+07
  7.752170483403913E+00   1.515533756404225E-02   8.960361428216396E-01  -2.262392722834422E+07
  7.817065549605565E+00   3.205307523260452E-01   9.069764205547732E-01  -2.262392722834422E+07
  7.866768740048319E+00   6.267133115632743E-01   9.216777867217160E-01  -2.262392722834422E+07
  7.898362669257583E+00   9.311133945142126E-01   9.477696790460317E-01  -2.262392722834422E+07
  7.911185126312101E+00   1.230187432693168E+00   9.930191521081082E-01  -2.262392722834422E+07
  7.906751349542653E+00   1.519532701781013E+00   1.064498283676708E+00  -2.262392722834422E+07
  7.888421596785609E+00   1.794077641704075E+00   1.167802850628201E+00  -2.262392722834422E+07
  7.860869555977936E+00   2.048358482910507E+00   1.306428638430154E+00  -2.262392722834422E+07
  7.829431640364452E+00   2.276863732757942E+00   1.481389640249277E+00  -2.262392722834422E+07
  7.799429979908984E+00   2.474420041493270E+00   1.691128480175590E+00  -2.262392722834422E+07
  7.775561462902614E+00   2.636587102656874E+00   1.931728648937209E+00  -2.262392722834422E+07
  7.761431895338946E+00   2.760026345975198E+00   2.197396493271763E+00  -2.262392722834422E+07
  7.759290428212515E+00   2.842808755291080E+00   2.481144336324853E+00  -2.262392722834422E+07
  7.769988511123746E+00   2.884631317384447E+00   2.775579798434401E+00  -2.262392722834422E+07
  7.793154333448851E+00   2.886919094670451E+00   3.073693951208358E+00  -2.262392722834422E+07
  7.827542824468786E+00   2.852800032940424E+00   3.369543924745127E+00  -2.262392722834422E+07
  7.871497164239765E+00   2.786951350443117E+00   3.658743288086351E+00  -2.262392722834422E+07
  7.923443703547782E+00   2.695328472686773E+00   3.938703101599655E+00  -2.262392722834422E+07
  7.982339979221089E+00   2.584798667512302E+00   4.208603485119901E+00  -2.262392722834422E+07
  8.048005168150082E+00   2.462710566301925E+00   4.469114357216456E+00  -2.262392722834422E+07
  8.121282159529880E+00   2.336436628913269E+00   4.721919014801579E+00  -2.262392722834422E+07
  8.204007309846819E+00   2.212927675556935E+00   4.969120446253648E+00  -2.262392722834422E+07
  8.298793789976790E+00   2.098316657237240E+00   5.212624108233470E+00  -2.262392722834422E+07
  8.408662802704626E+00   1.997603119043232E+00   5.453590649113201E+00  -2.262392722834422E+07
  8.536579710915669E+00   1.914441010990984E+00   5.692038146927553E+00  -2.262392722834422E+07
  8.684966040470213E+00   1.851041649985797E+00   5.926648273242773E+00  -2.262392722834422E+07
  8.855261529391914E+00   1.808191983813966E+00   6.154798430467944E+00  -2.262392722834422E+07
  9.047602609420521E+00   1.785377168872968E+00   6.372807346147025E+00  -2.262392722834422E+07
  9.260666260519972E+00   1.780987066961129E+00   6.576350055097507E+00  -2.262392722834422E+07
  9.491703791490046E+00   1.792579570634113E+00   6.760974289185436E+00  -2.262392722834422E+07
  9.736761449108112E+00   1.817170304963626E+00   6.922637390928625E+00  -2.262392722834422E+07
  9.991057927763947E+00   1.851518430176128E+00   7.058182592730448E+00  -2.262392722834422E+07
  1.024946672551777E+01   1.892381759080620E+00   7.165685528916517E+00  -2.262392722834422E+07
  1.050703699286084E+01   1.936720594790414E+00   7.244623984870192E+00  -2.262392722834422E+07
  1.075948196719931E+01   1.981837684446810E+00   7.295852463214713E+00  -2.262392722834422E+07
  1.100356974282548E+01   2.025450403148088E+00   7.321393595422765E+00  -2.262392722834422E+07
  1.123736596448486E+01   2.065699634431510E+00   7.324086008320858E+00  -2.262392722834422E+07
  1.146029971603038E+01   2.101106819727172E+00   7.307148785995058E+00  -2.262392722834422E+07
  1.167304913087365E+01   2.130495562116319E+00   7.273733156446723E+00  -2.262392722834422E+07
  1.187726836838969E+01   2.152896556427629E+00   7.226531116099141E+00  -2.262392722834422E+07
  1.207519898637360E+01   2.167454394978557E+00   7.167498829918389E+00  -2.262392722834422E+07
  1.226922343772353E+01   2.173352220342992E+00   7.097731961964245E+00  -2.262392722834422E+07
  1.246142452515385E+01   2.169765798611945E+00   7.017504091036495E+00  -2.262392722834422E+07
  1.265321155670239E+01   2.155853094453960E+00   6.926452308674317E+00  -2.262392722834422E+07
  1.284506240335448E+01   2.130779649065080E+00   6.823870330328599E+00  -2.262392722834422E+07
  1.303641261443826E+01   2.093774767125093E+00   6.709052725743891E+00  -2.262392722834422E+07
  1.322570101908770E+01   2.044209348986581E+00   6.581626761123132E+00  -2.262392722834422E+07
  1.341055908840996E+01   1.981683591391106E+00   6.441811840969241E+00  -2.262392722834422E+07
  1.358811194738998E+01   1.906111908317492E+00   6.290559927221088E+00  -2.262392722834422E+07
  1.375534497246745E+01   1.817793228287207E+00   6.129551302617935E+00  -2.262392722834422E+07
  1.390948315042743E+01   1.717457025626912E+00   5.961045138508716E+00  -2.262392722834422E+07
  1.404833143669843E+01   1.606278607577633E+00   5.787609394460222E+00  -2.262392722834422E+07
  1.417053268734515E+01   1.485860798492672E+00   5.611775516247894E+00  -2.262392722834422E+07
  1.427571375175349E+01   1.358182734984316E+00   5.435676791250023E+00  -2.262392722834422E+07
  1.436450764118982E+01   1.225519588644181E+00   5.260732873197296E+00  -2.262392722834422E+07
  1.443845759686198E+01   1.090339373356574E+00   5.087436282106617E+00  -2.262392722834422E+07
  1.449982469210856E+01   9.551844357390982E-01   4.915280670399980E+00  -2.262392722834422E+07
  1.455133210256864E+01   8.225457863103596E-01   4.742847874817138E+00  -2.262392722834422E+07
  1.459588493284356E+01   6.947382463926501E-01   4.568044893763538E+00  -2.262392722834422E+07
  1.463630403097526E+01   5.737836796455807E-01   4.388457105469676E+00  -2.262392722834422E+07
  1.467510607685438E+01   4.613085873744749E-01   4.201764292546053E+00  -2.262392722834422E+07
  1.471435178092231E+01   3.584612816296181E-01   4.006154596630119E+00  -2.262392722834422E+07
  1.475557125594570E+01   2.658528450976601E-01   3.800670323792112E+00  -2.262392722834422E+07
  1.479976275778452E+01   1.835251829806468E-01   3.585428872771738E+00  -2.262392722834422E+07
  1.484745013743874E+01   1.109486176276119E-01   3.361680605090453E+00  -2.262392722834422E+07
  1.489877714927649E+01   4.705055054666838E-02   3.131690389988057E+00  -2.262392722834422E+07
  1.495361414792846E+01  -9.724430906219744E-03   2.898456976593421E+00  -2.262392722834422E+07
  1.501165476939760E+01  -6.132412162627141E-02   2.665309978225410E+00  -2.262392722834422E+07
  1.507248620283227E+01  -1.099709659683175E-01   2.435444047942343E+00  -2.262392722834422E+07
  1.513562522939150E+01  -1.580223136400657E-01   2.211460608526601E+00  -2.262392722834422E+07
  1.520052154863673E+01  -2.078164085161708E-01   1.994987485380135E+00  -2.262392722834422E+07
  1.526653817560777E+01  -2.615142123534579E-01   1.786435862110236E+00  -2.262392722834422E+07
  1.533292427894386E+01  -3.209490580446101E-01   1.584933724205379E+00  -2.262392722834422E+07
  1.539879768936895E+01  -3.874971596195207E-01   1.388448432009245E+00  -2.262392722834422E+07
  1.546315210983151E+01  -4.619818252800530E-01   1.194082327157219E+00  -2.262392722834422E+07
  1.552489825296059E+01  -5.446225842456950E-01   9.984987593449685E-01   0.000000000000000E+00 6 RotatedCurve205 
  1.483999677831133E+01  -3.328753026991238E+00   2.371305725026311E+00  -3.318166559271262E+06
  1.487355166889538E+01  -3.377154455151622E+00   2.224245063483834E+00  -3.318166559271262E+06
  1.490884385917155E+01  -3.425561686378194E+00   2.076056075615070E+00  -3.318166559271262E+06
  1.494540342209485E+01  -3.474930529795246E+00   1.925801854550499E+00  -3.318166559271262E+06
  1.498249001461087E+01  -3.526530933775754E+00   1.772553018310798E+00  -3.318166559271262E+06
  1.501911538766306E+01  -3.581798740173120E+00   1.615511805926601E+00  -3.318166559271262E+06
  1.505408684317769E+01  -3.642155702189630E+00   1.454122903558801E+00  -3.318166559271262E+06
  1.508606878847491E+01  -3.708821108890975E+00   1.288155261897929E+00  -3.318166559271262E+06
  1.511365736545246E+01  -3.782640488920540E+00   1.117743080752305E+00  -3.318166559271262E+06
  1.513546132672068E+01  -3.863955524353798E+00   9.433798893034959E-01  -3.318166559271262E+06
  1.515018113919031E+01  -3.952534570792992E+00   7.658664519054993E-01  -3.318166559271262E+06
  1.515667792112571E+01  -4.047575605791075E+00   5.862201122252555E-01  -3.318166559271262E+06
  1.515402439263059E+01  -4.147783977011695E+00   4.055591430625976E-01  -3.318166559271262E+06
  1.514153157469780E+01  -4.251517238798508E+00   2.249797888053382E-01  -3.318166559271262E+06
  1.511874742544573E+01  -4.356980009969543E+00   4.544530431373960E-02  -3.318166559271262E+06
  1.508542675094316E+01  -4.462444443835020E+00  -1.322949164049897E-01  -3.318166559271262E+06
  1.504147525956659E+01  -4.566467610733928E+00  -3.077419892691912E-01  -3.318166559271262E+06
  1.498687414760903E+01  -4.668076495284796E+00  -4.806320662431217E-01  -3.318166559271262E+06
  1.492159467211045E+01  -4.766894558855221E+00  -6.508685147735163E-01  -3.318166559271262E+06
  1.484551435591580E+01  -4.863190553019472E+00  -8.184095855647328E-01  -3.318166559271262E+06
  1.475834741619215E+01  -4.957839664013209E+00  -9.831266887192313E-01  -3.318166559271262E+06
  1.465960146625690E+01  -5.052197933854140E+00  -1.144653824838673E+00  -3.318166559271262E+06
  1.454857042937031E+01  -5.147901851851601E+00  -1.302251429318031E+00  -3.318166559271262E+06
  1.442437002940143E+01  -5.246614635504452E+00  -1.454707385497042E+00  -3.318166559271262E+06
  1.428601748843831E+01  -5.349747787894700E+00  -1.600294185105147E+00  -3.318166559271262E+06
  1.413255164082257E+01  -5.458190128835639E+00  -1.736794562323783E+00  -3.318166559271262E+06
  1.396318417114646E+01  -5.572076198624995E+00  -1.861599217608072E+00  -3.318166559271262E+06
  1.377746776836011E+01  -5.690621780705268E+00  -1.971870609909761E+00  -3.318166559271262E+06
  1.357546331141972E+01  -5.812046828661249E+00  -2.064757526104683E+00  -3.318166559271262E+06
  1.335788631658961E+01  -5.933596271774593E+00  -2.137637517310097E+00  -3.318166559271262E+06
  1.312621315868775E+01  -6.051658249088262E+00  -2.188359416185411E+00  -3.318166559271262E+06
  1.288273016747267E+01  -6.161968633845446E+00  -2.215456764261596E+00  -3.318166559271262E+06
  1.263051346424789E+01  -6.259881541251204E+00  -2.218305374497230E+00  -3.318166559271262E+06
  1.237333393796275E+01  -6.340678915054662E+00  -2.197204216477929E+00  -3.318166559271262E+06
  1.211548941975962E+01  -6.399888955449899E+00  -2.153367638572579E+00  -3.318166559271262E+06
  1.186157408001200E+01  -6.433583339686261E+00  -2.088827532080040E+00  -3.318166559271262E+06
  1.161620243800743E+01  -6.438626704349806E+00  -2.006255039530905E+00  -3.318166559271262E+06
  1.138371125905228E+01  -6.412858106589280E+00  -1.908721378829968E+00  -3.318166559271262E+06
  1.116786626518619E+01  -6.355192256274730E+00  -1.799424978796017E+00  -3.318166559271262E+06
  1.097160148055501E+01  -6.265637136429601E+00  -1.681416376663528E+00  -3.318166559271262E+06
  1.079681694927605E+01  -6.145233109351246E+00  -1.557352626307441E+00  -3.318166559271262E+06
  1.064425562146876E+01  -5.995925770251430E+00  -1.429309237169705E+00  -3.318166559271262E+06
  1.051347285985370E+01  -5.820389934071420E+00  -1.298670368690079E+00  -3.318166559271262E+06
  1.040290302751665E+01  -5.621824823348642E+00  -1.166108076165174E+00  -3.318166559271262E+06
  1.031001794264913E+01  -5.403740716659563E+00  -1.031650123670676E+00  -3.318166559271262E+06
  1.023156269653273E+01  -5.169755297819431E+00  -8.948247100648540E-01  -3.318166559271262E+06
  1.016384647189416E+01  -4.923414255185725E+00  -7.548608429417417E-01  -3.318166559271262E+06
  1.010306046649163E+01  -4.668046016517322E+00  -6.109162842193087E-01  -3.318166559271262E+06
  1.004559245946933E+01  -4.406655608901548E+00  -4.623018510886519E-01  -3.318166559271262E+06
  9.988308255602266E+00  -4.141858175677728E+00  -3.086717745019383E-01  -3.318166559271262E+06
  9.928774127738246E+00  -3.875849169851718E+00  -1.501546487605678E-01  -3.318166559271262E+06
  9.865401002742120E+00  -3.610405959731180E+00   1.259240530599380E-02  -3.318166559271262E+06
  9.797499735191357E+00  -3.346914568585790E+00   1.784134694231143E-01  -3.318166559271262E+06
  9.725246393785110E+00  -3.086415346903111E+00   3.457634495424792E-01  -3.318166559271262E+06
  9.649565949226018E+00  -2.829662200874248E+00   5.128830937733411E-01  -3.318166559271262E+06
  9.571951026852558E+00  -2.577191149106021E+00   6.780163687417896E-01  -3.318166559271262E+06
  9.494238555622562E+00  -2.329395033001143E+00   8.396416451756643E-01  -3.318166559271262E+06
  9.418370554821896E+00  -2.086601835748108E+00   9.966863297551268E-01  -3.318166559271262E+06
  9.346165638718386E+00  -1.849154091993810E+00   1.148696644120820E+00  -3.318166559271262E+06
  9.279125147249507E+00  -1.617486297569814E+00   1.295939871750740E+00  -3.318166559271262E+06
  9.218292545562981E+00  -1.392196234350643E+00   1.439424798144036E+00  -3.318166559271262E+06
  9.164177593635896E+00  -1.174105024155043E+00   1.580836149052752E+00  -3.318166559271262E+06
  9.116748689730699E+00  -9.642999029590631E-01   1.722389287770346E+00  -3.318166559271262E+06
  9.075488743138596E+00  -7.641535382520291E-01   1.866620953341752E+00  -3.318166559271262E+06
  9.039502894973063E+00  -5.753144834880465E-01   2.016139249351951E+00  -3.318166559271262E+06
  9.007661181828009E+00  -3.996652029736251E-01   2.173360568766834E+00  -3.318166559271262E+06
  8.978756370424657E+00  -2.392469403324961E-01   2.340262204157675E+00  -3.318166559271262E+06
  8.951656909922489E+00  -9.615427372024721E-02   2.518177028020524E+00  -3.318166559271262E+06
  8.925437146171170E+00   2.759394085328221E-02   2.707651246717348E+00  -3.318166559271262E+06
  8.899471204390151E+00   1.301969417922899E-01   2.908378603851614E+00  -3.318166559271262E+06
  8.873482615883637E+00   2.102146972844104E-01   3.119215548812868E+00  -3.318166559271262E+06
  8.847548033990956E+00   2.666963391905652E-01   3.338272911463778E+00  -3.318166559271262E+06
  8.822059410112775E+00   2.992802100267534E-01   3.563071608393136E+00  -3.318166559271262E+06
  8.797654011866449E+00   3.082534299346460E-01   3.790743745895337E+00  -3.318166559271262E+06
  8.775125063891124E+00   2.945626584321160E-01   4.018256794575744E+00  -3.318166559271262E+06
  8.755327223232587E+00   2.597727771770054E-01   4.242637562726896E+00  -3.318166559271262E+06
  8.739090491992025E+00   2.059759536828877E-01   4.461174408266120E+00  -3.318166559271262E+06
  8.727153724903394E+00   1.356592307825924E-01   4.671580100178663E+00  -3.318166559271262E+06
  8.720125052461947E+00   5.154366412749605E-02   4.872103322833372E+00  -3.318166559271262E+06
  8.718471923367909E+00  -4.358857554578673E-02   5.061583219034268E+00  -3.318166559271262E+06
  8.722538763406105E+00  -1.470612987832924E-01   5.239447767848336E+00  -3.318166559271262E+06
  8.732586121457684E+00  -2.564485411947929E-01   5.405662445460101E+00  -3.318166559271262E+06
  8.748842185652434E+00  -3.696818239751083E-01   5.560639941375222E+00  -3.318166559271262E+06
  8.771556077993074E+00  -4.851109891493591E-01   5.705124342336872E+00  -3.318166559271262E+06
  8.801042519453873E+00  -6.015150078344039E-01   5.840064043934865E+00  -3.318166559271262E+06
  8.837709204557710E+00  -7.180653709257369E-01   5.966486831616574E+00  -3.318166559271262E+06
  8.882061221710472E+00  -8.342504185218027E-01   6.085388406783938E+00  -3.318166559271262E+06
  8.934680623843606E+00  -9.497734771116435E-01   6.197642564525159E+00  -3.318166559271262E+06
  8.996183220853114E+00  -1.064440357701339E+00   6.303937753081450E+00  -3.318166559271262E+06
  9.067158249165875E+00  -1.178052290188065E+00   6.404741334705911E+00  -3.318166559271262E+06
  9.148099265437258E+00  -1.290318704118399E+00   6.500289912702148E+00  -3.318166559271262E+06
  9.239336043725958E+00  -1.400800698335526E+00   6.590601854848713E+00  -3.318166559271262E+06
  9.340977250362890E+00  -1.508891123217088E+00   6.675506751967033E+00  -3.318166559271262E+06
  9.452872258182451E+00  -1.613831664115050E+00   6.754685989905644E+00  -3.318166559271262E+06
  9.574597869524894E+00  -1.714761972127350E+00   6.827718763209591E+00  -3.318166559271262E+06
  9.705472333034267E+00  -1.810791501539179E+00   6.894128530124703E+00  -3.318166559271262E+06
  9.844595351376359E+00  -1.901081887399525E+00   6.953425888012991E+00  -3.318166559271262E+06
  9.990909304184594E+00  -1.984926791729880E+00   7.005144938909821E+00  -3.318166559271262E+06
  1.014327412849128E+01  -2.061817227864633E+00   7.048871266873086E+00  -3.318166559271262E+06
  1.030054657580196E+01  -2.131483204923516E+00   7.084260574477166E+00  -3.318166559271262E+06
  1.046165411394042E+01  -2.193906625252137E+00   7.111047800048046E+00  -3.318166559271262E+06
  1.062565459632562E+01  -2.249305044788648E+00   7.129047182881387E+00  -3.318166559271262E+06
  1.079177483635328E+01  -2.298090425073672E+00   7.138144308205480E+00  -3.318166559271262E+06
  1.095942410193002E+01  -2.340810665018516E+00   7.138281692408766E+00  -3.318166559271262E+06
  1.112818187944020E+01  -2.378083951461778E+00   7.129439981808829E+00  -3.318166559271262E+06
  1.129776259325163E+01  -2.410536496210034E+00   7.111617314419711E+00  -3.318166559271262E+06
  1.146796286635365E+01  -2.438753001160423E+00   7.084809770413900E+00  -3.318166559271262E+06
  1.163859900292293E+01  -2.463246462309562E+00   7.048996017810791E+00  -3.318166559271262E+06
  1.180944341697768E+01  -2.484450177347504E+00   7.004129139631137E+00  -3.318166559271262E+06
  1.198016862296909E+01  -2.502730707881423E+00   6.950138119881350E+00  -3.318166559271262E+06
  1.215030619921962E+01  -2.518416766500873E+00   6.886940528208837E+00  -3.318166559271262E+06
  1.231922602953723E+01  -2.531836189980260E+00   6.814466607379059E+00  -3.318166559271262E+06
  1.248613842685094E+01  -2.543351796794516E+00   6.732693346302291E+00  -3.318166559271262E+06
  1.265011881368611E+01  -2.553387240996554E+00   6.641685404442943E+00  -3.318166559271262E+06
  1.281015185838931E+01  -2.562435915314883E+00   6.541638188479886E+00  -3.318166559271262E+06
  1.296518968595903E+01  -2.571049199457289E+00   6.432917238503101E+00  -3.318166559271262E+06
  1.311421726047795E+01  -2.579804347047399E+00   6.316087605900599E+00  -3.318166559271262E+06
  1.325631742496660E+01  -2.589256372854540E+00   6.191927276597951E+00  -3.318166559271262E+06
  1.339072841333510E+01  -2.599881732837618E+00   6.061419980463506E+00  -3.318166559271262E+06
  1.351688782779724E+01  -2.612023766609457E+00   5.925724864051846E+00  -3.318166559271262E+06
  1.363445891276234E+01  -2.625850374004165E+00   5.786123281382578E+00  -3.318166559271262E+06
  1.374333719190495E+01  -2.641333072096614E+00   5.643946043404597E+00  -3.318166559271262E+06
  1.384363787526266E+01  -2.658253574400079E+00   5.500487443041902E+00  -3.318166559271262E+06
  1.393566660044030E+01  -2.676239782585219E+00   5.356914792822687E+00  -3.318166559271262E+06
  1.401987780012446E+01  -2.694828237603871E+00   5.214183668338056E+00  -3.318166559271262E+06
  1.409682610917488E+01  -2.713545418939007E+00   5.072969240954887E+00  -3.318166559271262E+06
  1.416711664505483E+01  -2.731996586198191E+00   4.933622866412571E+00  -3.318166559271262E+06
  1.423135971064249E+01  -2.749948780562664E+00   4.796160527575513E+00  -3.318166559271262E+06
  1.429013455592908E+01  -2.767394565572409E+00   4.660286068606023E+00  -3.318166559271262E+06
  1.434396543824074E+01  -2.784585199636529E+00   4.525447842879244E+00  -3.318166559271262E+06
  1.439331152687570E+01  -2.802025971195651E+00   4.390922993651833E+00  -3.318166559271262E+06
  1.443857041405528E+01  -2.820431851858789E+00   4.255919711413272E+00  -3.318166559271262E+06
  1.448009332147680E+01  -2.840647651859272E+00   4.119685044204454E+00  -3.318166559271262E+06
  1.451820870639081E+01  -2.863542586010925E+00   3.981604630673489E+00  -3.318166559271262E+06
  1.455325000758576E+01  -2.889893675004239E+00   3.841281334049396E+00  -3.318166559271262E+06
  1.458558281389026E+01  -2.920274961745770E+00   3.698582183916465E+00  -3.318166559271262E+06
  1.461562681578118E+01  -2.954969629652760E+00   3.553647024626904E+00  -3.318166559271262E+06
  1.464386849238030E+01  -2.993919636427391E+00   3.406857329390628E+00  -3.318166559271262E+06
  1.467086152340290E+01  -3.036722675928822E+00   3.258769095593133E+00  -3.318166559271262E+06
  1.469721329279931E+01  -3.082679767067165E+00   3.110018831028298E+00  -3.318166559271262E+06
  1.472355743462820E+01  -3.130889438843414E+00   2.961215634178399E+00  -3.318166559271262E+06
  1.475051401179559E+01  -3.180377388868957E+00   2.812834655275967E+00  -3.318166559271262E+06
  1.477864045802159E+01  -3.230244698631981E+00   2.665127412946523E+00  -3.318166559271262E+06
  1.480837770050576E+01  -3.279814100573044E+00   2.518062436686539E+00  -3.318166559271262E+06
  1.483999677831133E+01  -3.328753026991238E+00   2.371305725026311E+00   0.000000000000000E+00 7 RotatedCurve206 
  1.904692406261261E+01  -8.507258935083176E+00   4.043086289188207E+00  -3.368539416178502E+07
  1.903722371086170E+01  -8.450864131075489E+00   3.556878025501875E+00  -3.368539416178502E+07
  1.898293824416242E+01  -8.422555507420697E+00   3.072534194344115E+00  -3.368539416178502E+07
  1.888046499193373E+01  -8.415737587788398E+00   2.600607920390369E+00  -3.368539416178502E+07
  1.872808020965853E+01  -8.422074628538462E+00   2.150107778249710E+00  -3.368539416178502E+07
  1.852663873072143E+01  -8.432262468346893E+00   1.727408697619477E+00  -3.368539416178502E+07
  1.828000310472409E+01  -8.436991968013132E+00   1.335457675710681E+00  -3.368539416178502E+07
  1.799511034626741E+01  -8.428011755403000E+00   9.733936124534278E-01  -3.368539416178502E+07
  1.768163258488338E+01  -8.399176277422393E+00   6.366494365790560E-01  -3.368539416178502E+07
  1.735124500294999E+01  -8.347355753543471E+00   3.175426658581995E-01  -3.368539416178502E+07
  1.701657223781819E+01  -8.273089772354387E+00   6.295946690741995E-03  -3.368539416178502E+07
  1.668993434937477E+01  -8.180886457098392E+00  -3.076292520483969E-01  -3.368539416178502E+07
  1.638204791458521E+01  -8.079102887580309E+00  -6.340466934991269E-01  -3.368539416178502E+07
  1.610085131663510E+01  -7.979386479177078E+00  -9.805916715668620E-01  -3.368539416178502E+07
  1.585061332175121E+01  -7.895706434256150E+00  -1.351483720257026E+00  -3.368539416178502E+07
  1.563145143888845E+01  -7.843053382767248E+00  -1.746665455242027E+00  -3.368539416178502E+07
  1.543933549831740E+01  -7.835927856804152E+00  -2.161431802255954E+00  -3.368539416178502E+07
  1.526658926140091E+01  -7.886768772737566E+00  -2.586603331944419E+00  -3.368539416178502E+07
  1.510283733651165E+01  -8.004487372128732E+00  -3.009229810646625E+00  -3.368539416178502E+07
  1.493628538389688E+01  -8.193267717231761E+00  -3.413744316309001E+00  -3.368539416178502E+07
  1.475517688313730E+01  -8.451771705297551E+00  -3.783432985223666E+00  -3.368539416178502E+07
  1.454924591366411E+01  -8.772846838378847E+00  -4.102047797064996E+00  -3.368539416178502E+07
  1.431098581139973E+01  -9.143782948507001E+00  -4.355374479237986E+00  -3.368539416178502E+07
  1.403657812333555E+01  -9.547105628277917E+00  -4.532576268130446E+00  -3.368539416178502E+07
