periods   1 
begin filament 
mirror NIL 
  1.578410163829844E+01   3.184391612124478E-01  -8.381330288432721E-01   2.431522696274319E+07
  1.589195237475581E+01   4.044655163290601E-01  -6.055400448166857E-01   2.431522696274319E+07
  1.600057653219846E+01   4.968133066879447E-01  -3.734941897621775E-01   2.431522696274319E+07
  1.610670006208316E+01   5.943637151247912E-01  -1.415997812734076E-01   2.431522696274319E+07
  1.620686368017512E+01   6.963561013119932E-01   9.045752181226943E-02   2.431522696274319E+07
  1.629758675439719E+01   8.024889991854028E-01   3.228816945850905E-01   2.431522696274319E+07
  1.637555705465203E+01   9.129395980293219E-01   5.557438759235782E-01   2.431522696274319E+07
  1.643783152565574E+01   1.028305394237164E+00   7.889656816088697E-01   2.431522696274319E+07
  1.648202751817745E+01   1.149480751102731E+00   1.022307633926135E+00   2.431522696274319E+07
  1.650648086233200E+01   1.277487730027191E+00   1.255362545215806E+00   2.431522696274319E+07
  1.651034773015866E+01   1.413284256418774E+00   1.487554441434789E+00   2.431522696274319E+07
  1.649363177829517E+01   1.557573399461947E+00   1.718144384911195E+00   2.431522696274319E+07
  1.645712626757832E+01   1.710635607120913E+00   1.946245107080407E+00   2.431522696274319E+07
  1.640227173353435E+01   1.872201757121469E+00   2.170846465850272E+00   2.431522696274319E+07
  1.633094179041071E+01   2.041379616971076E+00   2.390853238194135E+00   2.431522696274319E+07
  1.624518093032539E+01   2.216640513917218E+00   2.605135591034003E+00   2.431522696274319E+07
  1.614692683877895E+01   2.395867352387614E+00   2.812590815031826E+00   2.431522696274319E+07
  1.603775418506128E+01   2.576460049609766E+00   3.012212760594212E+00   2.431522696274319E+07
  1.591867602833847E+01   2.755490244733404E+00   3.203163199371974E+00   2.431522696274319E+07
  1.579003265055764E+01   2.929893836218620E+00   3.384837435250375E+00   2.431522696274319E+07
  1.565148639387681E+01   3.096687447556257E+00   3.556915307485285E+00   2.431522696274319E+07
  1.550212636942018E+01   3.253193191775751E+00   3.719388613851024E+00   2.431522696274319E+07
  1.534067077886679E+01   3.397255009130414E+00   3.872557164220043E+00   2.431522696274319E+07
  1.516573945769328E+01   3.527429389341406E+00   4.016988214428983E+00   2.431522696274319E+07
  1.497615749726499E+01   3.643133577630938E+00   4.153437782852717E+00   2.431522696274319E+07
  1.477124442501732E+01   3.744735623533580E+00   4.282736967253192E+00   2.431522696274319E+07
  1.455104368145622E+01   3.833573131620290E+00   4.405651328044545E+00   2.431522696274319E+07
  1.431645433032278E+01   3.911891543695344E+00   4.522726036916222E+00   2.431522696274319E+07
  1.406924031717883E+01   3.982698315699120E+00   4.634133120225342E+00   2.431522696274319E+07
  1.381191040354008E+01   4.049536316723725E+00   4.739539127331184E+00   2.431522696274319E+07
  1.354748163151844E+01   4.116187756317979E+00   4.838011454043632E+00   2.431522696274319E+07
  1.327915788366190E+01   4.186328231892672E+00   4.927979119280009E+00   2.431522696274319E+07
  1.300996987430692E+01   4.263158130545136E+00   5.007259093624449E+00   2.431522696274319E+07
  1.274243128395263E+01   4.349044533635048E+00   5.073152691443205E+00   2.431522696274319E+07
  1.247826612626076E+01   4.445209889518177E+00   5.122608733892593E+00   2.431522696274319E+07
  1.221825435720977E+01   4.551503164633254E+00   5.152442062479397E+00   2.431522696274319E+07
  1.196222699680751E+01   4.666284445273102E+00   5.159588545643186E+00   2.431522696274319E+07
  1.170922062980875E+01   4.786445033805420E+00   5.141371979853264E+00   2.431522696274319E+07
  1.145777702456720E+01   4.907572533539345E+00   5.095755103354160E+00   2.431522696274319E+07
  1.120635024732283E+01   5.024255387316656E+00   5.021546906130028E+00   2.431522696274319E+07
  1.095376459170430E+01   5.130505444229259E+00   4.918541757324091E+00   2.431522696274319E+07
  1.069965495483597E+01   5.220262292741094E+00   4.787572382979721E+00   2.431522696274319E+07
  1.044481908959727E+01   5.287931289530403E+00   4.630467792155625E+00   2.431522696274319E+07
  1.019141926639992E+01   5.328900187397263E+00   4.449917881803878E+00   2.431522696274319E+07
  9.942988635658139E+00   5.339978295738504E+00   4.249257406065095E+00   2.431522696274319E+07
  9.704222908563391E+00   5.319707765960611E+00   4.032191920099558E+00   2.431522696274319E+07
  9.480567597495119E+00   5.268508620160057E+00   3.802495909457183E+00   2.431522696274319E+07
  9.277640949582290E+00   5.188636414920245E+00   3.563717532295553E+00   2.431522696274319E+07
  9.100558633407271E+00   5.083952072691063E+00   3.318924552674429E+00   2.431522696274319E+07
  8.953244359157912E+00   4.959524990486313E+00   3.070521933317885E+00   2.431522696274319E+07
  8.837818040536252E+00   4.821110369994815E+00   2.820163522073546E+00   2.431522696274319E+07
  8.754148350859209E+00   4.674557228116663E+00   2.568769155043449E+00   2.431522696274319E+07
  8.699639742763239E+00   4.525212624180681E+00   2.316645580910075E+00   2.431522696274319E+07
  8.669297022156906E+00   4.377388927341689E+00   2.063696431790441E+00   2.431522696274319E+07
  8.656076688874064E+00   4.233954072213796E+00   1.809694662103845E+00   2.431522696274319E+07
  8.651497819104945E+00   4.096090405166414E+00   1.554581969455488E+00   2.431522696274319E+07
  8.646451075642338E+00   3.963247605766860E+00   1.298754910006849E+00   2.431522696274319E+07
  8.632117112590603E+00   3.833291779012395E+00   1.043297461023398E+00   2.431522696274319E+07
  8.600888987152095E+00   3.702829139294590E+00   7.901248208054440E-01   2.431522696274319E+07
  8.547189637422438E+00   3.567661818916682E+00   5.420128108487943E-01   2.431522696274319E+07
  8.468085751832996E+00   3.423317973773598E+00   3.025003226766181E-01   2.431522696274319E+07
  8.363622326487897E+00   3.265590554749539E+00   7.566733933869325E-02   2.431522696274319E+07
  8.236835058663601E+00   3.091019890286155E+00  -1.341936173917003E-01   2.431522696274319E+07
  8.093436296294797E+00   2.897264449360894E+00  -3.229810543420540E-01   2.431522696274319E+07
  7.941209606419366E+00   2.683320536342044E+00  -4.872211211165024E-01   2.431522696274319E+07
  7.789183070332756E+00   2.449572933913776E+00  -6.244895176227105E-01   2.431522696274319E+07
  7.646677650528741E+00   2.197681702587258E+00  -7.337705642876026E-01   2.431522696274319E+07
  7.522341063146007E+00   1.930332239995558E+00  -8.157104851355500E-01   2.431522696274319E+07
  7.423277802986821E+00   1.650893256671911E+00  -8.727321799736725E-01   2.431522696274319E+07
  7.354372419007313E+00   1.363038106990641E+00  -9.089929150441802E-01   2.431522696274319E+07
  7.317877750907320E+00   1.070387456195542E+00  -9.301828493926542E-01   2.431522696274319E+07
  7.313306072742582E+00   7.762252761233618E-01  -9.431792603095634E-01   2.431522696274319E+07
  7.337623460990398E+00   4.833265788569983E-01  -9.555867993057632E-01   2.431522696274319E+07
  7.385711156272667E+00   1.939161545002266E-01  -9.752063357620282E-01   2.431522696274319E+07
  7.451026920297085E+00  -9.024427399015982E-02  -1.009482545676968E+00   2.431522696274319E+07
  7.526378227666990E+00  -3.676643718005590E-01  -1.064982538359231E+00   2.431522696274319E+07
  7.604710024648172E+00  -6.368704433849391E-01  -1.146954283410070E+00   2.431522696274319E+07
  7.679813502697625E+00  -8.961402136543352E-01  -1.259004858087813E+00   2.431522696274319E+07
  7.746877897278154E+00  -1.143282717139099E+00  -1.402925628224159E+00   2.431522696274319E+07
  7.802832188184574E+00  -1.375513116072759E+00  -1.578675911715164E+00   2.431522696274319E+07
  7.846454025928481E+00  -1.589458490528373E+00  -1.784520234674695E+00   2.431522696274319E+07
  7.878254889379410E+00  -1.781310752868764E+00  -2.017298819593362E+00   2.431522696274319E+07
  7.900179034095237E+00  -1.947119675098477E+00  -2.272798129075418E+00   2.431522696274319E+07
  7.915175458623139E+00  -2.083195954655597E+00  -2.546179465945547E+00   2.431522696274319E+07
  7.926714243617577E+00  -2.186574707177360E+00  -2.832419644336170E+00   2.431522696274319E+07
  7.938319995601313E+00  -2.255476746493583E+00  -3.126718863582226E+00   2.431522696274319E+07
  7.953186110391401E+00  -2.289700595212811E+00  -3.424836816161609E+00   2.431522696274319E+07
  7.973915981373722E+00  -2.290883270027816E+00  -3.723327892251314E+00   2.431522696274319E+07
  8.002414089980427E+00  -2.262582065248182E+00  -4.019658846703906E+00   2.431522696274319E+07
  8.039924792618478E+00  -2.210151073362314E+00  -4.312205962550841E+00   2.431522696274319E+07
  8.087193357844813E+00  -2.140412214270824E+00  -4.600142009858668E+00   2.431522696274319E+07
  8.144705786701174E+00  -2.061147584771996E+00  -4.883234713225557E+00   2.431522696274319E+07
  8.212953644502793E+00  -1.980464270277012E+00  -5.161586841171618E+00   2.431522696274319E+07
  8.292668786129557E+00  -1.906100978698543E+00  -5.435352653333190E+00   2.431522696274319E+07
  8.384980332181488E+00  -1.844755353358983E+00  -5.704465990711975E+00   2.431522696274319E+07
  8.491461096576597E+00  -1.801510156001902E+00  -5.968411947943151E+00   2.431522696274319E+07
  8.614050361072660E+00  -1.779425619719164E+00  -6.226067427020370E+00   2.431522696274319E+07
  8.754861264372593E+00  -1.779345490753004E+00  -6.475626870655700E+00   2.431522696274319E+07
  8.915900781510921E+00  -1.799938167073014E+00  -6.714619243391125E+00   2.431522696274319E+07
  9.098745308093124E+00  -1.837965336553924E+00  -6.940012061724758E+00   2.431522696274319E+07
  9.304223005887177E+00  -1.888742461811218E+00  -7.148389083021532E+00   2.431522696274319E+07
  9.532154175171202E+00  -1.946732075658924E+00  -7.336181059948597E+00   2.431522696274319E+07
  9.781193095171217E+00  -2.006195233428046E+00  -7.499924379896983E+00   2.431522696274319E+07
  1.004880030994390E+01  -2.061820655005918E+00  -7.636520732120293E+00   2.431522696274319E+07
  1.033135549938016E+01  -2.109255789239320E+00  -7.743472136977246E+00   2.431522696274319E+07
  1.062440074316496E+01  -2.145478533144911E+00  -7.819069387056738E+00   2.431522696274319E+07
  1.092298520944044E+01  -2.168970607989236E+00  -7.862517607595715E+00   2.431522696274319E+07
  1.122206784170892E+01  -2.179680572432502E+00  -7.873989511107617E+00   2.431522696274319E+07
  1.151692654679515E+01  -2.178792473250807E+00  -7.854604209348092E+00   2.431522696274319E+07
  1.180352178839125E+01  -2.168341431273062E+00  -7.806336398868329E+00   2.431522696274319E+07
  1.207876932636519E+01  -2.150736684501856E+00  -7.731866708259180E+00   2.431522696274319E+07
  1.234068998155053E+01  -2.128263280344226E+00  -7.634388504214220E+00   2.431522696274319E+07
  1.258842172083219E+01  -2.102634438332631E+00  -7.517389212962468E+00   2.431522696274319E+07
  1.282209844349339E+01  -2.074657661777302E+00  -7.384425136601336E+00   2.431522696274319E+07
  1.304261782561932E+01  -2.044060354048838E+00  -7.238907926630580E+00   2.431522696274319E+07
  1.325133490149088E+01  -2.009497498215845E+00  -7.083918565242215E+00   2.431522696274319E+07
  1.344972679187411E+01  -1.968738144929967E+00  -6.922061249967440E+00   2.431522696274319E+07
  1.363907606443312E+01  -1.919002573573982E+00  -6.755365388627296E+00   2.431522696274319E+07
  1.382021556875007E+01  -1.857401399686769E+00  -6.585239411813139E+00   2.431522696274319E+07
  1.399336714295834E+01  -1.781414300805378E+00  -6.412475696788126E+00   2.431522696274319E+07
  1.415809206441956E+01  -1.689341120661488E+00  -6.237301913112272E+00   2.431522696274319E+07
  1.431335476059450E+01  -1.580662370795382E+00  -6.059470817007565E+00   2.431522696274319E+07
  1.445768552643679E+01  -1.456258809370357E+00  -5.878378127020821E+00   2.431522696274319E+07
  1.458941503452508E+01  -1.318458952546036E+00  -5.693196712906899E+00   2.431522696274319E+07
  1.470694497968324E+01  -1.170906345799914E+00  -5.503014948358659E+00   2.431522696274319E+07
  1.480901622821488E+01  -1.018262032941688E+00  -5.306967669786094E+00   2.431522696274319E+07
  1.489493844328974E+01  -8.657787527528307E-01  -5.104349638720550E+00   2.431522696274319E+07
  1.496475260271390E+01  -7.187992406207333E-01  -4.894703563311812E+00   2.431522696274319E+07
  1.501930870680652E+01  -5.822396747566307E-01  -4.677877392591090E+00   2.431522696274319E+07
  1.506025345994688E+01  -4.601198662604118E-01  -4.454048525074761E+00   2.431522696274319E+07
  1.508993484660013E+01  -3.551944440667492E-01  -4.223715526096884E+00   2.431522696274319E+07
  1.511124054781459E+01  -2.687252696577428E-01  -3.987660683282055E+00   2.431522696274319E+07
  1.512739374863393E+01  -2.004167103392931E-01  -3.746889024156530E+00   2.431522696274319E+07
  1.514173239672443E+01  -1.485148057996303E-01  -3.502551090115896E+00   2.431522696274319E+07
  1.515749641788499E+01  -1.100515335404716E-01  -3.255857679197919E+00   2.431522696274319E+07
  1.517764246030121E+01  -8.119884084805193E-02  -3.007994879246932E+00   2.431522696274319E+07
  1.520469861266780E+01  -5.768583416288352E-02  -2.760047034925600E+00   2.431522696274319E+07
  1.524066367819904E+01  -3.522767670994077E-02  -2.512933927878372E+00   2.431522696274319E+07
  1.528694844800654E+01  -9.916606361573051E-03  -2.267366571175235E+00   2.431522696274319E+07
  1.534435121315824E+01   2.146658519051074E-02  -2.023823851843154E+00   2.431522696274319E+07
  1.541305724157828E+01   6.124966776085077E-02  -1.782550050947165E+00   2.431522696274319E+07
  1.549265231179876E+01   1.107883825559262E-01  -1.543571278098576E+00   2.431522696274319E+07
  1.558214324881068E+01   1.705058948936053E-01  -1.306727290319392E+00   2.431522696274319E+07
  1.567998287009168E+01   2.400355755671747E-01  -1.071714174782985E+00   2.431522696274319E+07
  1.578410163829844E+01   3.184391612124478E-01  -8.381330288432721E-01   0.000000000000000E+00 1 CurveXYZFourier39 
  1.628174435979156E+01   3.302187748242032E+00  -3.846115816575329E+00   1.108344280122774E+07
  1.629275600231937E+01   3.447040737458369E+00  -3.557780187167300E+00   1.108344280122774E+07
  1.631789862347517E+01   3.623204233678125E+00  -3.271296277914629E+00   1.108344280122774E+07
  1.635607324474272E+01   3.821661374707430E+00  -2.981915867684675E+00   1.108344280122774E+07
  1.640370520652000E+01   4.031614649656336E+00  -2.684845775132907E+00   1.108344280122774E+07
  1.645499011280939E+01   4.241819239902003E+00  -2.375891045926990E+00   1.108344280122774E+07
  1.650240859983430E+01   4.441954989453811E+00  -2.052052248569885E+00   1.108344280122774E+07
  1.653744139401505E+01   4.623850945563015E+00  -1.711997187297388E+00   1.108344280122774E+07
  1.655138980214696E+01   4.782400985580016E+00  -1.356342662675169E+00   1.108344280122774E+07
  1.653619466953158E+01   4.916055973379675E+00  -9.877070075064972E-01   1.108344280122774E+07
  1.648515055929195E+01   5.026839779952414E+00  -6.105256592173824E-01   1.108344280122774E+07
  1.639343061706811E+01   5.119903911029929E+00  -2.306555559169564E-01   1.108344280122774E+07
  1.625836815925891E+01   5.202698370401445E+00   1.451752680010851E-01   1.108344280122774E+07
  1.607947852982442E+01   5.283885652932613E+00   5.099935538098782E-01   1.108344280122774E+07
  1.585824326182895E+01   5.372153615014711E+00   8.571912404693833E-01   1.108344280122774E+07
  1.559771202907820E+01   5.475087915715723E+00   1.181031488632692E+00   1.108344280122774E+07
  1.530200112907113E+01   5.598246019850632E+00   1.476977106269076E+00   1.108344280122774E+07
  1.497577683938991E+01   5.744536293675045E+00   1.741795847466051E+00   1.108344280122774E+07
  1.462380671103485E+01   5.913954330117058E+00   1.973432904843891E+00   1.108344280122774E+07
  1.425064290887605E+01   6.103672932855620E+00   2.170679778202112E+00   1.108344280122774E+07
  1.386047252002745E+01   6.308431173993534E+00   2.332704707023645E+00   1.108344280122774E+07
  1.345713544328858E+01   6.521129565364925E+00   2.458537271144095E+00   1.108344280122774E+07
  1.304427701476048E+01   6.733518276935314E+00   2.546613863563288E+00   1.108344280122774E+07
  1.262557576105105E+01   6.936865936207355E+00   2.594488548898634E+00   1.108344280122774E+07
  1.220497135953761E+01   7.122516752988560E+00   2.598794650411315E+00   1.108344280122774E+07
  1.178681689427516E+01   7.282279132050514E+00   2.555508066731649E+00   1.108344280122774E+07
  1.137589330055605E+01   7.408632624031871E+00   2.460517973541940E+00   1.108344280122774E+07
  1.097725044242516E+01   7.494783732015816E+00   2.310460250787647E+00   1.108344280122774E+07
  1.059587427361514E+01   7.534636501661338E+00   2.103720813165209E+00   1.108344280122774E+07
  1.023621710673998E+01   7.522764198192504E+00   1.841477243493426E+00   1.108344280122774E+07
  9.901661600160457E+00   7.454469564481119E+00   1.528624048726707E+00   1.108344280122774E+07
  9.594012494199310E+00   7.326002388003528E+00   1.174423927227849E+00   1.108344280122774E+07
  9.313118627290859E+00   7.134967182090882E+00   7.927465215980555E-01   1.108344280122774E+07
  9.056718820526219E+00   6.880906692979972E+00   4.017961352479350E-01   1.108344280122774E+07
  8.820579063081032E+00   6.565996919416852E+00   2.328676349694019E-02   1.108344280122774E+07
  8.598948116305104E+00   6.195745551858414E+00  -3.189100419707661E-01   1.108344280122774E+07
  8.385309703592281E+00   5.779556804262094E+00  -6.005497983864383E-01   1.108344280122774E+07
  8.173359096469213E+00   5.331018087410782E+00  -7.990753620829012E-01   1.108344280122774E+07
  7.958088026977293E+00   4.867781210529547E+00  -8.957492915540256E-01   1.108344280122774E+07
  7.736831791951478E+00   4.410952239937363E+00  -8.776303137156946E-01   1.108344280122774E+07
  7.510121806709475E+00   3.983965227682968E+00  -7.391679215313495E-01   1.108344280122774E+07
  7.282198715546904E+00   3.610987721742141E+00  -4.832185325329870E-01   1.108344280122774E+07
  7.061075262988496E+00   3.314979893104205E+00  -1.213408773913336E-01   1.108344280122774E+07
  6.858090938124223E+00   3.115593026577032E+00   3.266984118349278E-01   1.108344280122774E+07
  6.686965448973976E+00   3.027136634906114E+00   8.341940189378292E-01   1.108344280122774E+07
  6.562426781397531E+00   3.056858661744553E+00   1.369446094458531E+00   1.108344280122774E+07
  6.498552428459138E+00   3.203766012999032E+00   1.898203910877870E+00   1.108344280122774E+07
  6.507010232606007E+00   3.458163430196372E+00   2.386376531664580E+00   1.108344280122774E+07
  6.595410793080876E+00   3.802012596118024E+00   2.802746446435901E+00   1.108344280122774E+07
  6.765982033304814E+00   4.210119533307556E+00   3.121420006344430E+00   1.108344280122774E+07
  7.014747357755566E+00   4.652058895657532E+00   3.323776169779848E+00   1.108344280122774E+07
  7.331334732755075E+00   5.094651959920660E+00   3.399729265588118E+00   1.108344280122774E+07
  7.699471391848694E+00   5.504743636249012E+00   3.348195717879237E+00   1.108344280122774E+07
  8.098136789597099E+00   5.851982787308920E+00   3.176740093183724E+00   1.108344280122774E+07
  8.503265499925648E+00   6.111305738987809E+00   2.900462317765040E+00   1.108344280122774E+07
  8.889822627271277E+00   6.264856308641837E+00   2.540265389121854E+00   1.108344280122774E+07
  9.234026211883659E+00   6.303143004908914E+00   2.120702575932125E+00   1.108344280122774E+07
  9.515470608410530E+00   6.225326602998124E+00   1.667638528905716E+00   1.108344280122774E+07
  9.718914820948818E+00   6.038636881153714E+00   1.205966585454300E+00   1.108344280122774E+07
  9.835539160863023E+00   5.757021890063601E+00   7.576049644389259E-01   1.108344280122774E+07
  9.863537313926733E+00   5.399222815862436E+00   3.399509663573781E-01   1.108344280122774E+07
  9.807990682503849E+00   4.986530469057465E+00  -3.508903548399721E-02   1.108344280122774E+07
  9.680057320444119E+00   4.540507610619620E+00  -3.614469517510810E-01   1.108344280122774E+07
  9.495587828826391E+00   4.080951509932348E+00  -6.386423785461538E-01   1.108344280122774E+07
  9.273344977893906E+00   3.624325416608824E+00  -8.710223312578478E-01   1.108344280122774E+07
  9.033044524132343E+00   3.182813088083947E+00  -1.066628061927342E+00   1.108344280122774E+07
  8.793446944453647E+00   2.764058139958518E+00  -1.235854173918676E+00   1.108344280122774E+07
  8.570712744373063E+00   2.371553087943173E+00  -1.390071637167374E+00   1.108344280122774E+07
  8.377190694447524E+00   2.005555230719326E+00  -1.540371474625714E+00   1.108344280122774E+07
  8.220745345575878E+00   1.664340103716901E+00  -1.696553341037897E+00   1.108344280122774E+07
  8.104656494378021E+00   1.345566932118556E+00  -1.866438499899790E+00   1.108344280122774E+07
  8.028049129584781E+00   1.047528613527665E+00  -2.055536568949550E+00   1.108344280122774E+07
  7.986747750705436E+00   7.700904680669286E-01  -2.267046821353874E+00   1.108344280122774E+07
  7.974402140393456E+00   5.151816190007883E-01  -2.502134051840808E+00   1.108344280122774E+07
  7.983708268837711E+00   2.867807457676770E-01  -2.760390780713342E+00   1.108344280122774E+07
  8.007550131384157E+00   9.042192778506844E-02  -3.040384548746701E+00   1.108344280122774E+07
  8.039914433323984E+00  -6.767643912820759E-02  -3.340191635656714E+00   1.108344280122774E+07
  8.076475275693152E+00  -1.816976753148768E-01  -3.657834906640095E+00   1.108344280122774E+07
  8.114802970978237E+00  -2.473336854309096E-01  -3.991570057635177E+00   1.108344280122774E+07
  8.154211047087925E+00  -2.627176684583650E-01  -4.339996530154124E+00   1.108344280122774E+07
  8.195309523833211E+00  -2.290176408886860E-01  -4.702001632289349E+00   1.108344280122774E+07
  8.239373020898123E+00  -1.505814674174646E-01  -5.076574123608421E+00   1.108344280122774E+07
  8.287653819351519E+00  -3.459663363653673E-02  -5.462542914781903E+00   1.108344280122774E+07
  8.340770289343984E+00   1.096940467671497E-01  -5.858305321202224E+00   1.108344280122774E+07
  8.398281006073875E+00   2.721083279309079E-01  -6.261606955525236E+00   1.108344280122774E+07
  8.458518313376514E+00   4.428059578165943E-01  -6.669423012174942E+00   1.108344280122774E+07
  8.518708310643573E+00   6.135417916581678E-01  -7.077970972802292E+00   1.108344280122774E+07
  8.575354821777621E+00   7.786989955079737E-01  -7.482861176073056E+00   1.108344280122774E+07
  8.624820599213269E+00   9.359425654517706E-01  -7.879368137491833E+00   1.108344280122774E+07
  8.664006551051855E+00   1.086389839684855E+00  -8.262785619304362E+00   1.108344280122774E+07
  8.691013878808656E+00   1.234267082196397E+00  -8.628815103904554E+00   1.108344280122774E+07
  8.705676731784594E+00   1.386098501200340E+00  -8.973932223240208E+00   1.108344280122774E+07
  8.709873463130648E+00   1.549544471889999E+00  -9.295679201533652E+00   1.108344280122774E+07
  8.707559243854659E+00   1.732058596195213E+00  -9.592842520628597E+00   1.108344280122774E+07
  8.704505986239358E+00   1.939560594152104E+00  -9.865491764677524E+00   1.108344280122774E+07
  8.707780395843312E+00   2.175319824107924E+00  -1.011487517612329E+01   1.108344280122774E+07
  8.725030553079982E+00   2.439212907821136E+00  -1.034318683752097E+01   1.108344280122774E+07
  8.763679726071167E+00   2.727463330146547E+00  -1.055323678277791E+01   1.108344280122774E+07
  8.830139004001445E+00   3.032899475306504E+00  -1.074806656433151E+01   1.108344280122774E+07
  8.929146141587747E+00   3.345691175858283E+00  -1.093055760128408E+01   1.108344280122774E+07
  9.063317712804768E+00   3.654454995374645E+00  -1.110307778927948E+01   1.108344280122774E+07
  9.232968735254021E+00   3.947565588604129E+00  -1.126720414395107E+01   1.108344280122774E+07
  9.436213669799939E+00   4.214482392006023E+00  -1.142354725460038E+01   1.108344280122774E+07
  9.669321461362861E+00   4.446901596243531E+00  -1.157168911530323E+01   1.108344280122774E+07
  9.927261416288713E+00   4.639572456144075E+00  -1.171023168015497E+01   1.108344280122774E+07
  1.020435158682884E+01   4.790669818831590E+00  -1.183694123739637E+01   1.108344280122774E+07
  1.049491054198338E+01   4.901683054512620E+00  -1.194896487872952E+01   1.108344280122774E+07
  1.079381822122649E+01   4.976854833182765E+00  -1.204309072276572E+01   1.108344280122774E+07
  1.109691080093909E+01   5.022270217350277E+00  -1.211602315326068E+01   1.108344280122774E+07
  1.140116472628783E+01   5.044747194534336E+00  -1.216464750094406E+01   1.108344280122774E+07
  1.170466119276647E+01   5.050706498264790E+00  -1.218626419643136E+01   1.108344280122774E+07
  1.200635849581880E+01   5.045197529625637E+00  -1.217877908788200E+01   1.108344280122774E+07
  1.230573002036595E+01   5.031228844975805E+00  -1.214084303565335E+01   1.108344280122774E+07
  1.260234546786478E+01   5.009500660817134E+00  -1.207193904329609E+01   1.108344280122774E+07
  1.289547924521442E+01   4.978571239305849E+00  -1.197241849558861E+01   1.108344280122774E+07
  1.318382201963493E+01   4.935419146346150E+00  -1.184348951127392E+01   1.108344280122774E+07
  1.346535084330415E+01   4.876300109500693E+00  -1.168716042313855E+01   1.108344280122774E+07
  1.373738357444781E+01   4.797750361320575E+00  -1.150614075204176E+01   1.108344280122774E+07
  1.399680960840319E+01   4.697565170598592E+00  -1.130370165439771E+01   1.108344280122774E+07
  1.424045683727710E+01   4.575585288891213E+00  -1.108349849945002E+01   1.108344280122774E+07
  1.446552963236566E+01   4.434154599148754E+00  -1.084936046276114E+01   1.108344280122774E+07
  1.467003867702467E+01   4.278164564039277E+00  -1.060505583448153E+01   1.108344280122774E+07
  1.485314301954399E+01   4.114666983011970E+00  -1.035404665550409E+01   1.108344280122774E+07
  1.501533790241532E+01   3.952105819911770E+00  -1.009925138492068E+01   1.108344280122774E+07
  1.515844665734685E+01   3.799280668770762E+00  -9.842838357846999E+00   1.108344280122774E+07
  1.528540723605999E+01   3.664199126653546E+00  -9.586074556701847E+00   1.108344280122774E+07
  1.539987851717992E+01   3.552995897238209E+00  -9.329252656708872E+00   1.108344280122774E+07
  1.550572271382086E+01   3.469089514870034E+00  -9.071713855171357E+00   1.108344280122774E+07
  1.560644282294857E+01   3.412714030928037E+00  -8.811974745133686E+00   1.108344280122774E+07
  1.570466425406337E+01   3.380907807136056E+00  -8.547954266209199E+00   1.108344280122774E+07
  1.580174565654553E+01   3.367973016448103E+00  -8.277283049318646E+00   1.108344280122774E+07
  1.589758591513402E+01   3.366347940327480E+00  -7.997664245114716E+00   1.108344280122774E+07
  1.599066492263531E+01   3.367770548936972E+00  -7.707244360252883E+00   1.108344280122774E+07
  1.607831953313683E+01   3.364565879374724E+00  -7.404946734363396E+00   1.108344280122774E+07
  1.615721866815696E+01   3.350868473589043E+00  -7.090720567219715E+00   1.108344280122774E+07
  1.622396879222464E+01   3.323597976211496E+00  -6.765665520586280E+00   1.108344280122774E+07
  1.627575814627414E+01   3.283040069975678E+00  -6.432005527893920E+00   1.108344280122774E+07
  1.631093900084788E+01   3.232941287780222E+00  -6.092904148293306E+00   1.108344280122774E+07
  1.632945345460875E+01   3.180096575711481E+00  -5.752135277449050E+00   1.108344280122774E+07
  1.633302927443716E+01   3.133482377343680E+00  -5.413644321210018E+00   1.108344280122774E+07
  1.632510498071160E+01   3.103054517356664E+00  -5.081052878371440E+00   1.108344280122774E+07
  1.631048300616418E+01   3.098379440879442E+00  -4.757171655758416E+00   1.108344280122774E+07
  1.629475036154489E+01   3.127292152478804E+00  -4.443589576800806E+00   1.108344280122774E+07
  1.628354167868431E+01   3.194770890969700E+00  -4.140400787939776E+00   1.108344280122774E+07
  1.628174435979156E+01   3.302187748242032E+00  -3.846115816575329E+00   0.000000000000000E+00 2 CurveXYZFourier40 
  1.674186688161853E+01   9.651734061539305E+00  -2.722562494630529E+00   2.216507565517696E+07
  1.667282949281844E+01   9.475036899260306E+00  -2.415457547230243E+00   2.216507565517696E+07
  1.657731154189088E+01   9.292916666950191E+00  -2.109645440915524E+00   2.216507565517696E+07
  1.646257015317814E+01   9.110263495704396E+00  -1.801185921475991E+00   2.216507565517696E+07
  1.633643490369767E+01   8.933628517582642E+00  -1.485931005547756E+00   2.216507565517696E+07
  1.620665961500536E+01   8.771051544248246E+00  -1.160278434754503E+00   2.216507565517696E+07
  1.608024426109656E+01   8.631656188552190E+00  -8.218821609600859E-01   2.216507565517696E+07
  1.596279207587211E+01   8.525031543332853E+00  -4.702207416809995E-01   2.216507565517696E+07
  1.585796725172751E+01   8.460451319597599E+00  -1.069432534875347E-01   2.216507565517696E+07
  1.576711194408068E+01   8.446007969798778E+00   2.640575709538089E-01   2.216507565517696E+07
  1.568906800766949E+01   8.487756761200727E+00   6.368580968192407E-01   2.216507565517696E+07
  1.562023013672432E+01   8.588970209655320E+00   1.003976592777724E+00   2.216507565517696E+07
  1.555483468521942E+01   8.749595565432722E+00   1.357045071038469E+00   2.216507565517696E+07
  1.548546471712280E+01   8.965987825738576E+00   1.687592721991492E+00   2.216507565517696E+07
  1.540372932869886E+01   9.230960466352972E+00   1.987839520204195E+00   2.216507565517696E+07
  1.530105649147333E+01   9.534159613758671E+00   2.251398890099168E+00   2.216507565517696E+07
  1.516952573573829E+01   9.862729503637276E+00   2.473802696106936E+00   2.216507565517696E+07
  1.500266147503586E+01   1.020220281532756E+01   2.652787999064399E+00   2.216507565517696E+07
  1.479611040659376E+01   1.053752339110670E+01   2.788319051929638E+00   2.216507565517696E+07
  1.454813705309041E+01   1.085409439131905E+01   2.882354864411607E+00   2.216507565517696E+07
  1.425988907951879E+01   1.113874395566965E+01   2.938406989943886E+00   2.216507565517696E+07
  1.393540667816765E+01   1.138051294197534E+01   2.960959088122100E+00   2.216507565517696E+07
  1.358137563464039E+01   1.157119345892640E+01   2.954835583372798E+00   2.216507565517696E+07
  1.320664893291204E+01   1.170557928979034E+01   2.924609383757119E+00   2.216507565517696E+07
  1.282158420304629E+01   1.178142543119374E+01   2.874128133870665E+00   2.216507565517696E+07
  1.243726156351738E+01   1.179914892054290E+01   2.806216795302193E+00   2.216507565517696E+07
  1.206465666715840E+01   1.176133223560383E+01   2.722585044551330E+00   2.216507565517696E+07
  1.171384603971059E+01   1.167211007564254E+01   2.623935677157206E+00   2.216507565517696E+07
  1.139331603127169E+01   1.153652796264660E+01   2.510239872234006E+00   2.216507565517696E+07
  1.110943372223377E+01   1.135995625508244E+01   2.381121346010487E+00   2.216507565517696E+07
  1.086611957167793E+01   1.114762704943936E+01   2.236277541587395E+00   2.216507565517696E+07
  1.066473969139848E+01   1.090433683298741E+01   2.075863887074033E+00   2.216507565517696E+07
  1.050421290971000E+01   1.063432855926115E+01   1.900776763490166E+00   2.216507565517696E+07
  1.038130679823903E+01   1.034133750565227E+01   1.712790291114262E+00   2.216507565517696E+07
  1.029107981810947E+01   1.002876018330798E+01   1.514527999997241E+00   2.216507565517696E+07
  1.022741539141841E+01   9.699888296218402E+00   1.309278578295187E+00   2.216507565517696E+07
  1.018358897512034E+01   9.358142619311405E+00   1.100690615096594E+00   2.216507565517696E+07
  1.015281123969208E+01   9.007245434912104E+00   8.924004662003108E-01   2.216507565517696E+07
  1.012869856158831E+01   8.651283924736443E+00   6.876570806829360E-01   2.216507565517696E+07
  1.010563486659457E+01   8.294638261949334E+00   4.890064214969731E-01   2.216507565517696E+07
  1.007900456284507E+01   7.941773582285646E+00   2.980863739245807E-01   2.216507565517696E+07
  1.004529279455416E+01   7.596920473161494E+00   1.155628571203005E-01   2.216507565517696E+07
  1.000206448475226E+01   7.263690103402467E+00  -5.878729887196942E-02   2.216507565517696E+07
  9.947845865085782E+00   6.944684282552920E+00  -2.258670061013828E-01   2.216507565517696E+07
  9.881940160750917E+00   6.641165400005769E+00  -3.869655798101948E-01   2.216507565517696E+07
  9.804212189463037E+00   6.352845629340115E+00  -5.434386141490495E-01   2.216507565517696E+07
  9.714874902362007E+00   6.077839827221591E+00  -6.964229934145572E-01   2.216507565517696E+07
  9.614305028760821E+00   5.812804455367750E+00  -8.466427455815084E-01   2.216507565517696E+07
  9.502906173442137E+00   5.553258912582868E+00  -9.943451975595242E-01   2.216507565517696E+07
  9.381027454118755E+00   5.294059736963903E+00  -1.139383192090950E+00   2.216507565517696E+07
  9.248935646257241E+00   5.029976050505063E+00  -1.281431845276631E+00   2.216507565517696E+07
  9.106830276726198E+00   4.756299594238684E+00  -1.420302014092411E+00   2.216507565517696E+07
  8.954885301412236E+00   4.469416895883622E+00  -1.556291813878235E+00   2.216507565517696E+07
  8.793298570394438E+00   4.167275303203771E+00  -1.690505911171890E+00   2.216507565517696E+07
  8.622331345054743E+00   3.849688115443972E+00  -1.825072257165639E+00   2.216507565517696E+07
  8.442324274495794E+00   3.518444820090413E+00  -1.963197955523902E+00   2.216507565517696E+07
  8.253682610142672E+00   3.177217441833379E+00  -2.109028669935380E+00   2.216507565517696E+07
  8.056830883902338E+00   2.831279635056797E+00  -2.267306195798529E+00   2.216507565517696E+07
  7.852144524431320E+00   2.487077793887119E+00  -2.442852051254978E+00   2.216507565517696E+07
  7.639871738393150E+00   2.151710033676429E+00  -2.639936037108189E+00   2.216507565517696E+07
  7.420062487058579E+00   1.832377300891171E+00  -2.861612656296336E+00   2.216507565517696E+07
  7.192521972442716E+00   1.535870234871711E+00  -3.109120968918726E+00   2.216507565517696E+07
  6.956803596903730E+00   1.268146220587036E+00  -3.381442360174532E+00   2.216507565517696E+07
  6.712251225023667E+00   1.034035054440936E+00  -3.675095296978469E+00   2.216507565517696E+07
  6.458093510405056E+00   8.370914493782809E-01  -3.984218073262185E+00   2.216507565517696E+07
  6.193585095130096E+00   6.795913905055989E-01  -4.300953386554600E+00   2.216507565517696E+07
  5.918181822475613E+00   5.626502878483017E-01  -4.616107420934012E+00   2.216507565517696E+07
  5.631730863967527E+00   4.864266556935642E-01  -4.920016767175459E+00   2.216507565517696E+07
  5.334652791182134E+00   4.503675063092248E-01  -5.203524738803479E+00   2.216507565517696E+07
  5.028091731992054E+00   4.534514886868730E-01  -5.458949257053023E+00   2.216507565517696E+07
  4.714012038415137E+00   4.943925515473273E-01  -5.680920630399692E+00   2.216507565517696E+07
  4.395225120052821E+00   5.717790170398978E-01  -5.866980240056882E+00   2.216507565517696E+07
  4.075337624120565E+00   6.841380865401377E-01  -6.017859013318775E+00   2.216507565517696E+07
  3.758621021515661E+00   8.299312495977295E-01  -6.137394085119556E+00   2.216507565517696E+07
  3.449811761027772E+00   1.007499188143599E+00  -6.232087965675032E+00   2.216507565517696E+07
  3.153859327566868E+00   1.214983416934355E+00  -6.310360618153293E+00   2.216507565517696E+07
  2.875645758824732E+00   1.450254773054481E+00  -6.381584773829829E+00   2.216507565517696E+07
  2.619703670734133E+00   1.710875691359094E+00  -6.455023043983192E+00   2.216507565517696E+07
  2.389960201635317E+00   1.994114764468669E+00  -6.538797993914829E+00   2.216507565517696E+07
  2.189531493502889E+00   2.297020074505333E+00  -6.639021553484027E+00   2.216507565517696E+07
  2.020586762438594E+00   2.616544491781220E+00  -6.759188599645391E+00   2.216507565517696E+07
  1.884293379242885E+00   2.949704061235748E+00  -6.899904240185808E+00   2.216507565517696E+07
  1.780845627143644E+00   3.293742014591119E+00  -7.058970141856886E+00   2.216507565517696E+07
  1.709570978620253E+00   3.646267514122330E+00  -7.231808277917619E+00   2.216507565517696E+07
  1.669099861383711E+00   4.005340709273627E+00  -7.412157158347727E+00   2.216507565517696E+07
  1.657578838095168E+00   4.369483787095222E+00  -7.592941816651754E+00   2.216507565517696E+07
  1.672903526443196E+00   4.737610135421607E+00  -7.767199027758229E+00   2.216507565517696E+07
  1.712946740792243E+00   5.108878429494845E+00  -7.928935872423897E+00   2.216507565517696E+07
  1.775759211327384E+00   5.482492856980221E+00  -8.073812955054528E+00   2.216507565517696E+07
  1.859724483127326E+00   5.857482237257155E+00  -8.199571111302692E+00   2.216507565517696E+07
  1.963655610923942E+00   6.232497293969553E+00  -8.306158125377538E+00   2.216507565517696E+07
  2.086828270893288E+00   6.605665409363339E+00  -8.395554291321227E+00   2.216507565517696E+07
  2.228952066640801E+00   6.974535464885874E+00  -8.471336550741846E+00   2.216507565517696E+07
  2.390088306465775E+00   7.336132622861246E+00  -8.538054730402457E+00   2.216507565517696E+07
  2.570527694512621E+00   7.687125934596344E+00  -8.600515563377707E+00   2.216507565517696E+07
  2.770644728321763E+00   8.024093052920358E+00  -8.663077979330607E+00   2.216507565517696E+07
  2.990746886529706E+00   8.343849045353478E+00  -8.729056013318822E+00   2.216507565517696E+07
  3.230935927739598E+00   8.643793225921245E+00  -8.800305208014221E+00   2.216507565517696E+07
  3.490996037295956E+00   8.922221375659763E+00  -8.877038059331097E+00   2.216507565517696E+07
  3.770319568441767E+00   9.178552088021283E+00  -8.957878693096488E+00   2.216507565517696E+07
  4.067876265568409E+00   9.413425444519463E+00  -9.040131950548398E+00   2.216507565517696E+07
  4.382226720043404E+00   9.628648721086943E+00  -9.120212553165890E+00   2.216507565517696E+07
  4.711575967655363E+00   9.826985130291833E+00  -9.194160160077203E+00   2.216507565517696E+07
  5.053859089495623E+00   1.001180467078055E+01  -9.258158474338094E+00   2.216507565517696E+07
  5.406847801827383E+00   1.018663754921224E+01  -9.308981710935974E+00   2.216507565517696E+07
  5.768265541501976E+00   1.035468705888111E+01  -9.344308347252133E+00   2.216507565517696E+07
  6.135898537060594E+00   1.051836758178808E+01  -9.362867061862254E+00   2.216507565517696E+07
  6.507691712201233E+00   1.067893293104268E+01  -9.364408864030223E+00   2.216507565517696E+07
  6.881820773391983E+00   1.083625030854563E+01  -9.349527858446599E+00   2.216507565517696E+07
  7.256735158314688E+00   1.098875686943591E+01  -9.319376367671087E+00   2.216507565517696E+07
  7.631170270312308E+00   1.113361168153457E+01  -9.275334694678042E+00   2.216507565517696E+07
  8.004131172187096E+00   1.126702910385733E+01  -9.218699591086095E+00   2.216507565517696E+07
  8.374853248545012E+00   1.138475409724466E+01  -9.150448234209005E+00   2.216507565517696E+07
  8.742747906252317E+00   1.148261943235428E+01  -9.071117737786548E+00   2.216507565517696E+07
  9.107342885605329E+00   1.155711222886836E+01  -8.980816980139558E+00   2.216507565517696E+07
  9.468227026245680E+00   1.160587467799490E+01  -8.879361892355025E+00   2.216507565517696E+07
  9.825008323656462E+00   1.162807167919675E+01  -8.766501712188260E+00   2.216507565517696E+07
  1.017729191193812E+01   1.162457545660782E+01  -8.642186105487379E+00   2.216507565517696E+07
  1.052468143865101E+01   1.159794162114110E+01  -8.506814487601453E+00   2.216507565517696E+07
  1.086680350120082E+01   1.155217917554886E+01  -8.361410832351693E+00   2.216507565517696E+07
  1.120335083009067E+01   1.149234463869835E+01  -8.207679473433892E+00   2.216507565517696E+07
  1.153413622760161E+01   1.142401384514223E+01  -8.047917908593401E+00   2.216507565517696E+07
  1.185914640371982E+01   1.135270072827770E+01  -7.884788039933308E+00   2.216507565517696E+07
  1.217858324786344E+01   1.128329830397933E+01  -7.720973396808636E+00   2.216507565517696E+07
  1.249288008075920E+01   1.121961236340614E+01  -7.558772286169332E+00   2.216507565517696E+07
  1.280268222922936E+01   1.116404384486005E+01  -7.399691629094993E+00   2.216507565517696E+07
  1.310878483696390E+01   1.111745371412623E+01  -7.244110769027873E+00   2.216507565517696E+07
  1.341202591863370E+01   1.107921777958972E+01  -7.091077693714364E+00   2.216507565517696E+07
  1.371313881003578E+01   1.104745215097211E+01  -6.938282634881979E+00   2.216507565517696E+07
  1.401257469655801E+01   1.101936698326017E+01  -6.782228365292850E+00   2.216507565517696E+07
  1.431031201551510E+01   1.099169011387973E+01  -6.618586540867778E+00   2.216507565517696E+07
  1.460567437575011E+01   1.096109549352317E+01  -6.442699763262063E+00   2.216507565517696E+07
  1.489718142536985E+01   1.092457478358282E+01  -6.250164366748401E+00   2.216507565517696E+07
  1.518245719341290E+01   1.087970343346342E+01  -6.037413301298944E+00   2.216507565517696E+07
  1.545821746509530E+01   1.082477278917247E+01  -5.802214623790943E+00   2.216507565517696E+07
  1.572035169683388E+01   1.075878402492354E+01  -5.544009996732948E+00   2.216507565517696E+07
  1.596410619599702E+01   1.068132401632622E+01  -5.264038261861158E+00   2.216507565517696E+07
  1.618436452465157E+01   1.059236375449862E+01  -4.965218806475772E+00   2.216507565517696E+07
  1.637600941195707E+01   1.049203319542761E+01  -4.651803839143215E+00   2.216507565517696E+07
  1.653433918371051E+01   1.038043032473520E+01  -4.328842787886047E+00   2.216507565517696E+07
  1.665550223876073E+01   1.025751594422030E+01  -4.001530715098896E+00   2.216507565517696E+07
  1.673690674484023E+01   1.012313010958900E+01  -3.674531506663833E+00   2.216507565517696E+07
  1.677756056788101E+01   9.977143620857737E+00  -3.351372621648872E+00   2.216507565517696E+07
  1.677829916203605E+01   9.819731994039735E+00  -3.034000227286139E+00   2.216507565517696E+07
  1.674186688161853E+01   9.651734061539305E+00  -2.722562494630529E+00   0.000000000000000E+00 3 CurveXYZFourier41 
  1.141261625666530E+01   1.342511724781708E+01  -1.518252199510351E+00   1.018840182863078E+07
  1.133852660033845E+01   1.347386220348243E+01  -1.288532698476127E+00   1.018840182863078E+07
  1.124538542529391E+01   1.352723438239018E+01  -1.067758159583449E+00   1.018840182863078E+07
  1.113557018519104E+01   1.358372870218341E+01  -8.545611475750177E-01   1.018840182863078E+07
  1.101143700992184E+01   1.364126406606866E+01  -6.470367586516698E-01   1.018840182863078E+07
  1.087535676570882E+01   1.369723512902789E+01  -4.430035227872998E-01   1.018840182863078E+07
  1.072976841960557E+01   1.374861256064001E+01  -2.402643958695729E-01   1.018840182863078E+07
  1.057722910692457E+01   1.379208273501605E+01  -3.684226378523714E-02   1.018840182863078E+07
  1.042044160654197E+01   1.382421318155649E+01   1.688294567659138E-01   1.018840182863078E+07
  1.026224459375504E+01   1.384162754379448E+01   3.777722992745977E-01   1.018840182863078E+07
  1.010555820482944E+01   1.384117352397119E+01   5.903865927619653E-01   1.018840182863078E+07
  9.953285871775417E+00   1.382006927850900E+01   8.064278786557504E-01   1.018840182863078E+07
  9.808181652377193E+00   1.377601756453588E+01   1.025024152508639E+00   1.018840182863078E+07
  9.672699020682687E+00   1.370728193261510E+01   1.244719255347902E+00   1.018840182863078E+07
  9.548841194439170E+00   1.361272456704313E+01   1.463528189561171E+00   1.018840182863078E+07
  9.438033893263940E+00   1.349181012407390E+01   1.678993701628088E+00   1.018840182863078E+07
  9.341038818135829E+00   1.334458336615675E+01   1.888239321336068E+00   1.018840182863078E+07
  9.257920546413825E+00   1.317163003973374E+01   2.088020898073499E+00   1.018840182863078E+07
  9.188071856244663E+00   1.297403012654399E+01   2.274785029598991E+00   1.018840182863078E+07
  9.130293973610231E+00   1.275331049923017E+01   2.444747174412305E+00   1.018840182863078E+07
  9.082920253214901E+00   1.251140063735415E+01   2.594003512835793E+00   1.018840182863078E+07
  9.043965654885055E+00   1.225059114767458E+01   2.718688134664947E+00   1.018840182863078E+07
  9.011281062974886E+00   1.197349122335530E+01   2.815180910416368E+00   1.018840182863078E+07
  8.982691568665990E+00   1.168297866495422E+01   2.880362181629729E+00   1.018840182863078E+07
  8.956101303880024E+00   1.138213527543422E+01   2.911899542672482E+00   1.018840182863078E+07
  8.929553744200526E+00   1.107416163053004E+01   2.908541279906029E+00   1.018840182863078E+07
  8.901244584098389E+00   1.076226834207482E+01   2.870382448557656E+00   1.018840182863078E+07
  8.869493015897001E+00   1.044954552784684E+01   2.799064918883889E+00   1.018840182863078E+07
  8.832685090369573E+00   1.013881751508658E+01   2.697873366521812E+00   1.018840182863078E+07
  8.789208490735984E+00   9.832494876391545E+00   2.571695755044242E+00   1.018840182863078E+07
  8.737400521811056E+00   9.532439725148343E+00   2.426829122198610E+00   1.018840182863078E+07
  8.675529889853019E+00   9.239861911712913E+00   2.270628286447679E+00   1.018840182863078E+07
  8.601827980731496E+00   8.955262778299790E+00   2.111014486522749E+00   1.018840182863078E+07
  8.514577457918975E+00   8.678439274989433E+00   1.955880437886279E+00   1.018840182863078E+07
  8.412256206211460E+00   8.408554803460014E+00   1.812445092261947E+00   1.018840182863078E+07
  8.293724377873332E+00   8.144274884457678E+00   1.686622938467917E+00   1.018840182863078E+07
  8.158433109341598E+00   7.883956750727715E+00   1.582476954855608E+00   1.018840182863078E+07
  8.006626812740242E+00   7.625873574284199E+00   1.501820165647888E+00   1.018840182863078E+07
  7.839507926389527E+00   7.368447590110946E+00   1.444018111751881E+00   1.018840182863078E+07
  7.659334257607984E+00   7.110463032549712E+00   1.406024532304114E+00   1.018840182863078E+07
  7.469424602701522E+00   6.851230328932299E+00   1.382657346031322E+00   1.018840182863078E+07
  7.274057611104434E+00   6.590677644715630E+00   1.367094616815013E+00   1.018840182863078E+07
  7.078260769424889E+00   6.329354294760964E+00   1.351544017322149E+00   1.018840182863078E+07
  6.887499430603281E+00   6.068341792291859E+00   1.328017780879359E+00   1.018840182863078E+07
  6.707288338572288E+00   5.809080985851475E+00   1.289131179677759E+00   1.018840182863078E+07
  6.542758483616290E+00   5.553136120241345E+00   1.228838207672094E+00   1.018840182863078E+07
  6.398219020110194E+00   5.301926968251016E+00   1.143024193271114E+00   1.018840182863078E+07
  6.276756486392399E+00   5.056466822644851E+00   1.029890983983853E+00   1.018840182863078E+07
  6.179911349283183E+00   4.817145947178275E+00   8.900942860260119E-01   1.018840182863078E+07
  6.107465215236793E+00   4.583596513128381E+00   7.266217710971055E-01   1.018840182863078E+07
  6.057361720303795E+00   4.354666270967468E+00   5.444310319381731E-01   1.018840182863078E+07
  6.025771376949427E+00   4.128515136838570E+00   3.498944976952017E-01   1.018840182863078E+07
  6.007297017604848E+00   3.902833061407860E+00   1.501204173879322E-01   1.018840182863078E+07
  5.995303484497962E+00   3.675160996057105E+00  -4.776783193167371E-02   1.018840182863078E+07
  5.982344274387287E+00   3.443281671223431E+00  -2.373092117919237E-01   1.018840182863078E+07
  5.960650035018975E+00   3.205635343486265E+00  -4.132624871588813E-01   1.018840182863078E+07
  5.922639767100606E+00   2.961709347698890E+00  -5.719846362895521E-01   1.018840182863078E+07
  5.861415460270645E+00   2.712350266136318E+00  -7.115960298741946E-01   1.018840182863078E+07
  5.771204362547381E+00   2.459954055119246E+00  -8.319268465672515E-01   1.018840182863078E+07
  5.647719442536125E+00   2.208501948781111E+00  -9.342677301787321E-01   1.018840182863078E+07
  5.488416890034549E+00   1.963426986764481E+00  -1.020972306443706E+00   1.018840182863078E+07
  5.292638652473923E+00   1.731315552507847E+00  -1.094976615488720E+00   1.018840182863078E+07
  5.061637016547671E+00   1.519467951159332E+00  -1.159308546011277E+00   1.018840182863078E+07
  4.798486296686255E+00   1.335359327884434E+00  -1.216658061310692E+00   1.018840182863078E+07
  4.507893236970603E+00   1.186054917565455E+00  -1.269066902162374E+00   1.018840182863078E+07
  4.195922527337530E+00   1.077640070982124E+00  -1.317776405328268E+00   1.018840182863078E+07
  3.869656917461365E+00   1.014724844478420E+00  -1.363247039069008E+00   1.018840182863078E+07
  3.536813035106279E+00   1.000075192556590E+00  -1.405336840340353E+00   1.018840182863078E+07
  3.205334547371999E+00   1.034408888343378E+00  -1.443601907114010E+00   1.018840182863078E+07
  2.882984116473275E+00   1.116375919460232E+00  -1.477663843381999E+00   1.018840182863078E+07
  2.576954979001071E+00   1.242722530036268E+00  -1.507579117580850E+00   1.018840182863078E+07
  2.293522044246281E+00   1.408617831090811E+00  -1.534145025339680E+00   1.018840182863078E+07
  2.037751107815982E+00   1.608104444308577E+00  -1.559086317444691E+00   1.018840182863078E+07
  1.813282899716641E+00   1.834622059082143E+00  -1.585084176285296E+00   1.018840182863078E+07
  1.622205929937148E+00   2.081546504199644E+00  -1.615632556520545E+00   1.018840182863078E+07
  1.465028164596929E+00   2.342687577005492E+00  -1.654732616698641E+00   1.018840182863078E+07
  1.340752280544840E+00   2.612696162273460E+00  -1.706460410093436E+00   1.018840182863078E+07
  1.247052633154705E+00   2.887344007299454E+00  -1.774462723494747E+00   1.018840182863078E+07
  1.180544429964684E+00   3.163656127617734E+00  -1.861448177185915E+00   1.018840182863078E+07
  1.137127517615648E+00   3.439894007690251E+00  -1.968743710367429E+00   1.018840182863078E+07
  1.112379493158959E+00   3.715405218280599E+00  -2.095979942738838E+00   1.018840182863078E+07
  1.101966526140244E+00   3.990369664765454E+00  -2.240953527132556E+00   1.018840182863078E+07
  1.102036321217991E+00   4.265482730547643E+00  -2.399692586593247E+00   1.018840182863078E+07
  1.109556911859608E+00   4.541620066207279E+00  -2.566725649904701E+00   1.018840182863078E+07
  1.122567998921435E+00   4.819527441857390E+00  -2.735528619077237E+00   1.018840182863078E+07
  1.140318446508986E+00   5.099572436681274E+00  -2.899101666163859E+00   1.018840182863078E+07
  1.163273927853040E+00   5.381583958345249E+00  -3.050611528595422E+00   1.018840182863078E+07
  1.192991672364113E+00   5.664792313749398E+00  -3.184026538670665E+00   1.018840182863078E+07
  1.231873461472264E+00   5.947868670206792E+00  -3.294672827301546E+00   1.018840182863078E+07
  1.282821824814939E+00   6.229050097586942E+00  -3.379650181585549E+00   1.018840182863078E+07
  1.348836080414421E+00   6.506326530712425E+00  -3.438063531397334E+00   1.018840182863078E+07
  1.432592865165383E+00   6.777660022841915E+00  -3.471048567407850E+00   1.018840182863078E+07
  1.536058907054687E+00   7.041205062769660E+00  -3.481594534960281E+00   1.018840182863078E+07
  1.660181349604417E+00   7.295501358984171E+00  -3.474190620128248E+00   1.018840182863078E+07
  1.804692986485562E+00   7.539616645067086E+00  -3.454341626519690E+00   1.018840182863078E+07
  1.968057051662771E+00   7.773225590230270E+00  -3.428011562087071E+00   1.018840182863078E+07
  2.147560142323033E+00   7.996620425940254E+00  -3.401058969500609E+00   1.018840182863078E+07
  2.339544327461853E+00   8.210658015532172E+00  -3.378725064830292E+00   1.018840182863078E+07
  2.539752674393722E+00   8.416655568300930E+00  -3.365225777180656E+00   1.018840182863078E+07
  2.743748449878824E+00   8.616252146894844E+00  -3.363483286187313E+00   1.018840182863078E+07
  2.947358957011527E+00   8.811255100326360E+00  -3.375013940801245E+00   1.018840182863078E+07
  3.147091627058101E+00   9.003489618342181E+00  -3.399970096878126E+00   1.018840182863078E+07
  3.340473123166951E+00   9.194666226951110E+00  -3.437315930014325E+00   1.018840182863078E+07
  3.526271520172910E+00   9.386276039639394E+00  -3.485103738075915E+00   1.018840182863078E+07
  3.704575978653848E+00   9.579517931842011E+00  -3.540809039990760E+00   1.018840182863078E+07
  3.876725931368187E+00   9.775256512581816E+00  -3.601680474675683E+00   1.018840182863078E+07
  4.045100398297120E+00   9.974005668073385E+00  -3.665063835039957E+00   1.018840182863078E+07
  4.212795242962885E+00   1.017593010795536E+01  -3.728667526324910E+00   1.018840182863078E+07
  4.383229746401853E+00   1.038085696100037E+01  -3.790747768970161E+00   1.018840182863078E+07
  4.559732045230400E+00   1.058829088191013E+01  -3.850204157635690E+00   1.018840182863078E+07
  4.745154706266512E+00   1.079742886498354E+01  -3.906587941048361E+00   1.018840182863078E+07
  4.941566797437988E+00   1.100717431829152E+01  -3.960035082527639E+00   1.018840182863078E+07
  5.150057953068175E+00   1.121615315465366E+01  -4.011142757892445E+00   1.018840182863078E+07
  5.370674603320248E+00   1.142273698427811E+01  -4.060810994548532E+00   1.018840182863078E+07
  5.602490816064567E+00   1.162507941790104E+01  -4.110070799932535E+00   1.018840182863078E+07
  5.843798466784936E+00   1.182117075932201E+01  -4.159917028287659E+00   1.018840182863078E+07
  6.092386074077001E+00   1.200891405647738E+01  -4.211159401182574E+00   1.018840182863078E+07
  6.345864642050146E+00   1.218622197361400E+01  -4.264299681876202E+00   1.018840182863078E+07
  6.601993650850558E+00   1.235112986751700E+01  -4.319438088064907E+00   1.018840182863078E+07
  6.858961545449870E+00   1.250191655305389E+01  -4.376208436022943E+00   1.018840182863078E+07
  7.115582425563526E+00   1.263722128112745E+01  -4.433739681152713E+00   1.018840182863078E+07
  7.371383038214809E+00   1.275614404474252E+01  -4.490641459979180E+00   1.018840182863078E+07
  7.626569849039086E+00   1.285831685001125E+01  -4.545012548509621E+00   1.018840182863078E+07
  7.881882729018396E+00   1.294393609594651E+01  -4.594473136797575E+00   1.018840182863078E+07
  8.138357337975927E+00   1.301375042250958E+01  -4.636223646048570E+00   1.018840182863078E+07
  8.397030520499436E+00   1.306900373590402E+01  -4.667133691023911E+00   1.018840182863078E+07
  8.658630353735330E+00   1.311133881887364E+01  -4.683864136591862E+00   1.018840182863078E+07
  8.923294006735066E+00   1.314267211058896E+01  -4.683022772375264E+00   1.018840182863078E+07
  9.190352212918121E+00   1.316505407766488E+01  -4.661350096052291E+00   1.018840182863078E+07
  9.458209658240335E+00   1.318053146373302E+01  -4.615926606989673E+00   1.018840182863078E+07
  9.724337377708924E+00   1.319102726081450E+01  -4.544387723787475E+00   1.018840182863078E+07
  9.985378238988677E+00   1.319825150498373E+01  -4.445127964358385E+00   1.018840182863078E+07
  1.023735187980730E+01   1.320365133226030E+01  -4.317473351978220E+00   1.018840182863078E+07
  1.047593305960966E+01   1.320840281445577E+01  -4.161800911154709E+00   1.018840182863078E+07
  1.069676890785301E+01   1.321344080936552E+01  -3.979587002374495E+00   1.018840182863078E+07
  1.089579702352307E+01   1.321951735568737E+01  -3.773372058758691E+00   1.018840182863078E+07
  1.106952809663802E+01   1.322727489376455E+01  -3.546637486340797E+00   1.018840182863078E+07
  1.121526322776899E+01   1.323731845863325E+01  -3.303600100369597E+00   1.018840182863078E+07
  1.133122630013420E+01   1.325027131410090E+01  -3.048939225282224E+00   1.018840182863078E+07
  1.141660401482469E+01   1.326680124457562E+01  -2.787480111955699E+00   1.018840182863078E+07
  1.147149870301910E+01   1.328760949281332E+01  -2.523863355488853E+00   1.018840182863078E+07
  1.149680998809237E+01   1.331338041297715E+01  -2.262232573454313E+00   1.018840182863078E+07
  1.149406929218038E+01   1.334469638273935E+01  -2.005971242572972E+00   1.018840182863078E+07
  1.146525508000162E+01   1.338192840608379E+01  -1.757514366535779E+00   1.018840182863078E+07
  1.141261625666530E+01   1.342511724781708E+01  -1.518252199510351E+00   0.000000000000000E+00 4 CurveXYZFourier42 
  1.578410163829844E+01  -3.184391612124478E-01   8.381330288432721E-01  -2.431522696274319E+07
  1.589195237475581E+01  -4.044655163290601E-01   6.055400448166857E-01  -2.431522696274319E+07
  1.600057653219846E+01  -4.968133066879447E-01   3.734941897621775E-01  -2.431522696274319E+07
  1.610670006208316E+01  -5.943637151247912E-01   1.415997812734076E-01  -2.431522696274319E+07
  1.620686368017512E+01  -6.963561013119932E-01  -9.045752181226943E-02  -2.431522696274319E+07
  1.629758675439719E+01  -8.024889991854028E-01  -3.228816945850905E-01  -2.431522696274319E+07
  1.637555705465203E+01  -9.129395980293219E-01  -5.557438759235782E-01  -2.431522696274319E+07
  1.643783152565574E+01  -1.028305394237164E+00  -7.889656816088697E-01  -2.431522696274319E+07
  1.648202751817745E+01  -1.149480751102731E+00  -1.022307633926135E+00  -2.431522696274319E+07
  1.650648086233200E+01  -1.277487730027191E+00  -1.255362545215806E+00  -2.431522696274319E+07
  1.651034773015866E+01  -1.413284256418774E+00  -1.487554441434789E+00  -2.431522696274319E+07
  1.649363177829517E+01  -1.557573399461947E+00  -1.718144384911195E+00  -2.431522696274319E+07
  1.645712626757832E+01  -1.710635607120913E+00  -1.946245107080407E+00  -2.431522696274319E+07
  1.640227173353435E+01  -1.872201757121469E+00  -2.170846465850272E+00  -2.431522696274319E+07
  1.633094179041071E+01  -2.041379616971076E+00  -2.390853238194135E+00  -2.431522696274319E+07
  1.624518093032539E+01  -2.216640513917218E+00  -2.605135591034003E+00  -2.431522696274319E+07
  1.614692683877895E+01  -2.395867352387614E+00  -2.812590815031826E+00  -2.431522696274319E+07
  1.603775418506128E+01  -2.576460049609766E+00  -3.012212760594212E+00  -2.431522696274319E+07
  1.591867602833847E+01  -2.755490244733404E+00  -3.203163199371974E+00  -2.431522696274319E+07
  1.579003265055764E+01  -2.929893836218620E+00  -3.384837435250375E+00  -2.431522696274319E+07
  1.565148639387681E+01  -3.096687447556257E+00  -3.556915307485285E+00  -2.431522696274319E+07
  1.550212636942018E+01  -3.253193191775751E+00  -3.719388613851024E+00  -2.431522696274319E+07
  1.534067077886679E+01  -3.397255009130414E+00  -3.872557164220043E+00  -2.431522696274319E+07
  1.516573945769328E+01  -3.527429389341406E+00  -4.016988214428983E+00  -2.431522696274319E+07
  1.497615749726499E+01  -3.643133577630938E+00  -4.153437782852717E+00  -2.431522696274319E+07
  1.477124442501732E+01  -3.744735623533580E+00  -4.282736967253192E+00  -2.431522696274319E+07
  1.455104368145622E+01  -3.833573131620290E+00  -4.405651328044545E+00  -2.431522696274319E+07
  1.431645433032278E+01  -3.911891543695344E+00  -4.522726036916222E+00  -2.431522696274319E+07
  1.406924031717883E+01  -3.982698315699120E+00  -4.634133120225342E+00  -2.431522696274319E+07
  1.381191040354008E+01  -4.049536316723725E+00  -4.739539127331184E+00  -2.431522696274319E+07
  1.354748163151844E+01  -4.116187756317979E+00  -4.838011454043632E+00  -2.431522696274319E+07
  1.327915788366190E+01  -4.186328231892672E+00  -4.927979119280009E+00  -2.431522696274319E+07
  1.300996987430692E+01  -4.263158130545136E+00  -5.007259093624449E+00  -2.431522696274319E+07
  1.274243128395263E+01  -4.349044533635048E+00  -5.073152691443205E+00  -2.431522696274319E+07
  1.247826612626076E+01  -4.445209889518177E+00  -5.122608733892593E+00  -2.431522696274319E+07
  1.221825435720977E+01  -4.551503164633254E+00  -5.152442062479397E+00  -2.431522696274319E+07
  1.196222699680751E+01  -4.666284445273102E+00  -5.159588545643186E+00  -2.431522696274319E+07
  1.170922062980875E+01  -4.786445033805420E+00  -5.141371979853264E+00  -2.431522696274319E+07
  1.145777702456720E+01  -4.907572533539345E+00  -5.095755103354160E+00  -2.431522696274319E+07
  1.120635024732283E+01  -5.024255387316656E+00  -5.021546906130028E+00  -2.431522696274319E+07
  1.095376459170430E+01  -5.130505444229259E+00  -4.918541757324091E+00  -2.431522696274319E+07
  1.069965495483597E+01  -5.220262292741094E+00  -4.787572382979721E+00  -2.431522696274319E+07
  1.044481908959727E+01  -5.287931289530403E+00  -4.630467792155625E+00  -2.431522696274319E+07
  1.019141926639992E+01  -5.328900187397263E+00  -4.449917881803878E+00  -2.431522696274319E+07
  9.942988635658139E+00  -5.339978295738504E+00  -4.249257406065095E+00  -2.431522696274319E+07
  9.704222908563391E+00  -5.319707765960611E+00  -4.032191920099558E+00  -2.431522696274319E+07
  9.480567597495119E+00  -5.268508620160057E+00  -3.802495909457183E+00  -2.431522696274319E+07
  9.277640949582290E+00  -5.188636414920245E+00  -3.563717532295553E+00  -2.431522696274319E+07
  9.100558633407271E+00  -5.083952072691063E+00  -3.318924552674429E+00  -2.431522696274319E+07
  8.953244359157912E+00  -4.959524990486313E+00  -3.070521933317885E+00  -2.431522696274319E+07
  8.837818040536252E+00  -4.821110369994815E+00  -2.820163522073546E+00  -2.431522696274319E+07
  8.754148350859209E+00  -4.674557228116663E+00  -2.568769155043449E+00  -2.431522696274319E+07
  8.699639742763239E+00  -4.525212624180681E+00  -2.316645580910075E+00  -2.431522696274319E+07
  8.669297022156906E+00  -4.377388927341689E+00  -2.063696431790441E+00  -2.431522696274319E+07
  8.656076688874064E+00  -4.233954072213796E+00  -1.809694662103845E+00  -2.431522696274319E+07
  8.651497819104945E+00  -4.096090405166414E+00  -1.554581969455488E+00  -2.431522696274319E+07
  8.646451075642338E+00  -3.963247605766860E+00  -1.298754910006849E+00  -2.431522696274319E+07
  8.632117112590603E+00  -3.833291779012395E+00  -1.043297461023398E+00  -2.431522696274319E+07
  8.600888987152095E+00  -3.702829139294590E+00  -7.901248208054440E-01  -2.431522696274319E+07
  8.547189637422438E+00  -3.567661818916682E+00  -5.420128108487943E-01  -2.431522696274319E+07
  8.468085751832996E+00  -3.423317973773598E+00  -3.025003226766181E-01  -2.431522696274319E+07
  8.363622326487897E+00  -3.265590554749539E+00  -7.566733933869325E-02  -2.431522696274319E+07
  8.236835058663601E+00  -3.091019890286155E+00   1.341936173917003E-01  -2.431522696274319E+07
  8.093436296294797E+00  -2.897264449360894E+00   3.229810543420540E-01  -2.431522696274319E+07
  7.941209606419366E+00  -2.683320536342044E+00   4.872211211165024E-01  -2.431522696274319E+07
  7.789183070332756E+00  -2.449572933913776E+00   6.244895176227105E-01  -2.431522696274319E+07
  7.646677650528741E+00  -2.197681702587258E+00   7.337705642876026E-01  -2.431522696274319E+07
  7.522341063146007E+00  -1.930332239995558E+00   8.157104851355500E-01  -2.431522696274319E+07
  7.423277802986821E+00  -1.650893256671911E+00   8.727321799736725E-01  -2.431522696274319E+07
  7.354372419007313E+00  -1.363038106990641E+00   9.089929150441802E-01  -2.431522696274319E+07
  7.317877750907320E+00  -1.070387456195542E+00   9.301828493926542E-01  -2.431522696274319E+07
  7.313306072742582E+00  -7.762252761233618E-01   9.431792603095634E-01  -2.431522696274319E+07
  7.337623460990398E+00  -4.833265788569983E-01   9.555867993057632E-01  -2.431522696274319E+07
  7.385711156272667E+00  -1.939161545002266E-01   9.752063357620282E-01  -2.431522696274319E+07
  7.451026920297085E+00   9.024427399015982E-02   1.009482545676968E+00  -2.431522696274319E+07
  7.526378227666990E+00   3.676643718005590E-01   1.064982538359231E+00  -2.431522696274319E+07
  7.604710024648172E+00   6.368704433849391E-01   1.146954283410070E+00  -2.431522696274319E+07
  7.679813502697625E+00   8.961402136543352E-01   1.259004858087813E+00  -2.431522696274319E+07
  7.746877897278154E+00   1.143282717139099E+00   1.402925628224159E+00  -2.431522696274319E+07
  7.802832188184574E+00   1.375513116072759E+00   1.578675911715164E+00  -2.431522696274319E+07
  7.846454025928481E+00   1.589458490528373E+00   1.784520234674695E+00  -2.431522696274319E+07
  7.878254889379410E+00   1.781310752868764E+00   2.017298819593362E+00  -2.431522696274319E+07
  7.900179034095237E+00   1.947119675098477E+00   2.272798129075418E+00  -2.431522696274319E+07
  7.915175458623139E+00   2.083195954655597E+00   2.546179465945547E+00  -2.431522696274319E+07
  7.926714243617577E+00   2.186574707177360E+00   2.832419644336170E+00  -2.431522696274319E+07
  7.938319995601313E+00   2.255476746493583E+00   3.126718863582226E+00  -2.431522696274319E+07
  7.953186110391401E+00   2.289700595212811E+00   3.424836816161609E+00  -2.431522696274319E+07
  7.973915981373722E+00   2.290883270027816E+00   3.723327892251314E+00  -2.431522696274319E+07
  8.002414089980427E+00   2.262582065248182E+00   4.019658846703906E+00  -2.431522696274319E+07
  8.039924792618478E+00   2.210151073362314E+00   4.312205962550841E+00  -2.431522696274319E+07
  8.087193357844813E+00   2.140412214270824E+00   4.600142009858668E+00  -2.431522696274319E+07
  8.144705786701174E+00   2.061147584771996E+00   4.883234713225557E+00  -2.431522696274319E+07
  8.212953644502793E+00   1.980464270277012E+00   5.161586841171618E+00  -2.431522696274319E+07
  8.292668786129557E+00   1.906100978698543E+00   5.435352653333190E+00  -2.431522696274319E+07
  8.384980332181488E+00   1.844755353358983E+00   5.704465990711975E+00  -2.431522696274319E+07
  8.491461096576597E+00   1.801510156001902E+00   5.968411947943151E+00  -2.431522696274319E+07
  8.614050361072660E+00   1.779425619719164E+00   6.226067427020370E+00  -2.431522696274319E+07
  8.754861264372593E+00   1.779345490753004E+00   6.475626870655700E+00  -2.431522696274319E+07
  8.915900781510921E+00   1.799938167073014E+00   6.714619243391125E+00  -2.431522696274319E+07
  9.098745308093124E+00   1.837965336553924E+00   6.940012061724758E+00  -2.431522696274319E+07
  9.304223005887177E+00   1.888742461811218E+00   7.148389083021532E+00  -2.431522696274319E+07
  9.532154175171202E+00   1.946732075658924E+00   7.336181059948597E+00  -2.431522696274319E+07
  9.781193095171217E+00   2.006195233428046E+00   7.499924379896983E+00  -2.431522696274319E+07
  1.004880030994390E+01   2.061820655005918E+00   7.636520732120293E+00  -2.431522696274319E+07
  1.033135549938016E+01   2.109255789239320E+00   7.743472136977246E+00  -2.431522696274319E+07
  1.062440074316496E+01   2.145478533144911E+00   7.819069387056738E+00  -2.431522696274319E+07
  1.092298520944044E+01   2.168970607989236E+00   7.862517607595715E+00  -2.431522696274319E+07
  1.122206784170892E+01   2.179680572432502E+00   7.873989511107617E+00  -2.431522696274319E+07
  1.151692654679515E+01   2.178792473250807E+00   7.854604209348092E+00  -2.431522696274319E+07
  1.180352178839125E+01   2.168341431273062E+00   7.806336398868329E+00  -2.431522696274319E+07
  1.207876932636519E+01   2.150736684501856E+00   7.731866708259180E+00  -2.431522696274319E+07
  1.234068998155053E+01   2.128263280344226E+00   7.634388504214220E+00  -2.431522696274319E+07
  1.258842172083219E+01   2.102634438332631E+00   7.517389212962468E+00  -2.431522696274319E+07
  1.282209844349339E+01   2.074657661777302E+00   7.384425136601336E+00  -2.431522696274319E+07
  1.304261782561932E+01   2.044060354048838E+00   7.238907926630580E+00  -2.431522696274319E+07
  1.325133490149088E+01   2.009497498215845E+00   7.083918565242215E+00  -2.431522696274319E+07
  1.344972679187411E+01   1.968738144929967E+00   6.922061249967440E+00  -2.431522696274319E+07
  1.363907606443312E+01   1.919002573573982E+00   6.755365388627296E+00  -2.431522696274319E+07
  1.382021556875007E+01   1.857401399686769E+00   6.585239411813139E+00  -2.431522696274319E+07
  1.399336714295834E+01   1.781414300805378E+00   6.412475696788126E+00  -2.431522696274319E+07
  1.415809206441956E+01   1.689341120661488E+00   6.237301913112272E+00  -2.431522696274319E+07
  1.431335476059450E+01   1.580662370795382E+00   6.059470817007565E+00  -2.431522696274319E+07
  1.445768552643679E+01   1.456258809370357E+00   5.878378127020821E+00  -2.431522696274319E+07
  1.458941503452508E+01   1.318458952546036E+00   5.693196712906899E+00  -2.431522696274319E+07
  1.470694497968324E+01   1.170906345799914E+00   5.503014948358659E+00  -2.431522696274319E+07
  1.480901622821488E+01   1.018262032941688E+00   5.306967669786094E+00  -2.431522696274319E+07
  1.489493844328974E+01   8.657787527528307E-01   5.104349638720550E+00  -2.431522696274319E+07
  1.496475260271390E+01   7.187992406207333E-01   4.894703563311812E+00  -2.431522696274319E+07
  1.501930870680652E+01   5.822396747566307E-01   4.677877392591090E+00  -2.431522696274319E+07
  1.506025345994688E+01   4.601198662604118E-01   4.454048525074761E+00  -2.431522696274319E+07
  1.508993484660013E+01   3.551944440667492E-01   4.223715526096884E+00  -2.431522696274319E+07
  1.511124054781459E+01   2.687252696577428E-01   3.987660683282055E+00  -2.431522696274319E+07
  1.512739374863393E+01   2.004167103392931E-01   3.746889024156530E+00  -2.431522696274319E+07
  1.514173239672443E+01   1.485148057996303E-01   3.502551090115896E+00  -2.431522696274319E+07
  1.515749641788499E+01   1.100515335404716E-01   3.255857679197919E+00  -2.431522696274319E+07
  1.517764246030121E+01   8.119884084805193E-02   3.007994879246932E+00  -2.431522696274319E+07
  1.520469861266780E+01   5.768583416288352E-02   2.760047034925600E+00  -2.431522696274319E+07
  1.524066367819904E+01   3.522767670994077E-02   2.512933927878372E+00  -2.431522696274319E+07
  1.528694844800654E+01   9.916606361573051E-03   2.267366571175235E+00  -2.431522696274319E+07
  1.534435121315824E+01  -2.146658519051074E-02   2.023823851843154E+00  -2.431522696274319E+07
  1.541305724157828E+01  -6.124966776085077E-02   1.782550050947165E+00  -2.431522696274319E+07
  1.549265231179876E+01  -1.107883825559262E-01   1.543571278098576E+00  -2.431522696274319E+07
  1.558214324881068E+01  -1.705058948936053E-01   1.306727290319392E+00  -2.431522696274319E+07
  1.567998287009168E+01  -2.400355755671747E-01   1.071714174782985E+00  -2.431522696274319E+07
  1.578410163829844E+01  -3.184391612124478E-01   8.381330288432721E-01   0.000000000000000E+00 5 RotatedCurve115 
  1.628174435979156E+01  -3.302187748242032E+00   3.846115816575329E+00  -1.108344280122774E+07
  1.629275600231937E+01  -3.447040737458369E+00   3.557780187167300E+00  -1.108344280122774E+07
  1.631789862347517E+01  -3.623204233678125E+00   3.271296277914629E+00  -1.108344280122774E+07
  1.635607324474272E+01  -3.821661374707430E+00   2.981915867684675E+00  -1.108344280122774E+07
  1.640370520652000E+01  -4.031614649656336E+00   2.684845775132907E+00  -1.108344280122774E+07
  1.645499011280939E+01  -4.241819239902003E+00   2.375891045926990E+00  -1.108344280122774E+07
  1.650240859983430E+01  -4.441954989453811E+00   2.052052248569885E+00  -1.108344280122774E+07
  1.653744139401505E+01  -4.623850945563015E+00   1.711997187297388E+00  -1.108344280122774E+07
  1.655138980214696E+01  -4.782400985580016E+00   1.356342662675169E+00  -1.108344280122774E+07
  1.653619466953158E+01  -4.916055973379675E+00   9.877070075064972E-01  -1.108344280122774E+07
  1.648515055929195E+01  -5.026839779952414E+00   6.105256592173824E-01  -1.108344280122774E+07
  1.639343061706811E+01  -5.119903911029929E+00   2.306555559169564E-01  -1.108344280122774E+07
  1.625836815925891E+01  -5.202698370401445E+00  -1.451752680010851E-01  -1.108344280122774E+07
  1.607947852982442E+01  -5.283885652932613E+00  -5.099935538098782E-01  -1.108344280122774E+07
  1.585824326182895E+01  -5.372153615014711E+00  -8.571912404693833E-01  -1.108344280122774E+07
  1.559771202907820E+01  -5.475087915715723E+00  -1.181031488632692E+00  -1.108344280122774E+07
  1.530200112907113E+01  -5.598246019850632E+00  -1.476977106269076E+00  -1.108344280122774E+07
  1.497577683938991E+01  -5.744536293675045E+00  -1.741795847466051E+00  -1.108344280122774E+07
  1.462380671103485E+01  -5.913954330117058E+00  -1.973432904843891E+00  -1.108344280122774E+07
  1.425064290887605E+01  -6.103672932855620E+00  -2.170679778202112E+00  -1.108344280122774E+07
  1.386047252002745E+01  -6.308431173993534E+00  -2.332704707023645E+00  -1.108344280122774E+07
  1.345713544328858E+01  -6.521129565364925E+00  -2.458537271144095E+00  -1.108344280122774E+07
  1.304427701476048E+01  -6.733518276935314E+00  -2.546613863563288E+00  -1.108344280122774E+07
  1.262557576105105E+01  -6.936865936207355E+00  -2.594488548898634E+00  -1.108344280122774E+07
  1.220497135953761E+01  -7.122516752988560E+00  -2.598794650411315E+00  -1.108344280122774E+07
  1.178681689427516E+01  -7.282279132050514E+00  -2.555508066731649E+00  -1.108344280122774E+07
  1.137589330055605E+01  -7.408632624031871E+00  -2.460517973541940E+00  -1.108344280122774E+07
  1.097725044242516E+01  -7.494783732015816E+00  -2.310460250787647E+00  -1.108344280122774E+07
  1.059587427361514E+01  -7.534636501661338E+00  -2.103720813165209E+00  -1.108344280122774E+07
  1.023621710673998E+01  -7.522764198192504E+00  -1.841477243493426E+00  -1.108344280122774E+07
  9.901661600160457E+00  -7.454469564481119E+00  -1.528624048726707E+00  -1.108344280122774E+07
  9.594012494199310E+00  -7.326002388003528E+00  -1.174423927227849E+00  -1.108344280122774E+07
  9.313118627290859E+00  -7.134967182090882E+00  -7.927465215980555E-01  -1.108344280122774E+07
  9.056718820526219E+00  -6.880906692979972E+00  -4.017961352479350E-01  -1.108344280122774E+07
  8.820579063081032E+00  -6.565996919416852E+00  -2.328676349694019E-02  -1.108344280122774E+07
  8.598948116305104E+00  -6.195745551858414E+00   3.189100419707661E-01  -1.108344280122774E+07
  8.385309703592281E+00  -5.779556804262094E+00   6.005497983864383E-01  -1.108344280122774E+07
  8.173359096469213E+00  -5.331018087410782E+00   7.990753620829012E-01  -1.108344280122774E+07
  7.958088026977293E+00  -4.867781210529547E+00   8.957492915540256E-01  -1.108344280122774E+07
  7.736831791951478E+00  -4.410952239937363E+00   8.776303137156946E-01  -1.108344280122774E+07
  7.510121806709475E+00  -3.983965227682968E+00   7.391679215313495E-01  -1.108344280122774E+07
  7.282198715546904E+00  -3.610987721742141E+00   4.832185325329870E-01  -1.108344280122774E+07
  7.061075262988496E+00  -3.314979893104205E+00   1.213408773913336E-01  -1.108344280122774E+07
  6.858090938124223E+00  -3.115593026577032E+00  -3.266984118349278E-01  -1.108344280122774E+07
  6.686965448973976E+00  -3.027136634906114E+00  -8.341940189378292E-01  -1.108344280122774E+07
  6.562426781397531E+00  -3.056858661744553E+00  -1.369446094458531E+00  -1.108344280122774E+07
  6.498552428459138E+00  -3.203766012999032E+00  -1.898203910877870E+00  -1.108344280122774E+07
  6.507010232606007E+00  -3.458163430196372E+00  -2.386376531664580E+00  -1.108344280122774E+07
  6.595410793080876E+00  -3.802012596118024E+00  -2.802746446435901E+00  -1.108344280122774E+07
  6.765982033304814E+00  -4.210119533307556E+00  -3.121420006344430E+00  -1.108344280122774E+07
  7.014747357755566E+00  -4.652058895657532E+00  -3.323776169779848E+00  -1.108344280122774E+07
  7.331334732755075E+00  -5.094651959920660E+00  -3.399729265588118E+00  -1.108344280122774E+07
  7.699471391848694E+00  -5.504743636249012E+00  -3.348195717879237E+00  -1.108344280122774E+07
  8.098136789597099E+00  -5.851982787308920E+00  -3.176740093183724E+00  -1.108344280122774E+07
  8.503265499925648E+00  -6.111305738987809E+00  -2.900462317765040E+00  -1.108344280122774E+07
  8.889822627271277E+00  -6.264856308641837E+00  -2.540265389121854E+00  -1.108344280122774E+07
  9.234026211883659E+00  -6.303143004908914E+00  -2.120702575932125E+00  -1.108344280122774E+07
  9.515470608410530E+00  -6.225326602998124E+00  -1.667638528905716E+00  -1.108344280122774E+07
  9.718914820948818E+00  -6.038636881153714E+00  -1.205966585454300E+00  -1.108344280122774E+07
  9.835539160863023E+00  -5.757021890063601E+00  -7.576049644389259E-01  -1.108344280122774E+07
  9.863537313926733E+00  -5.399222815862436E+00  -3.399509663573781E-01  -1.108344280122774E+07
  9.807990682503849E+00  -4.986530469057465E+00   3.508903548399721E-02  -1.108344280122774E+07
  9.680057320444119E+00  -4.540507610619620E+00   3.614469517510810E-01  -1.108344280122774E+07
  9.495587828826391E+00  -4.080951509932348E+00   6.386423785461538E-01  -1.108344280122774E+07
  9.273344977893906E+00  -3.624325416608824E+00   8.710223312578478E-01  -1.108344280122774E+07
  9.033044524132343E+00  -3.182813088083947E+00   1.066628061927342E+00  -1.108344280122774E+07
  8.793446944453647E+00  -2.764058139958518E+00   1.235854173918676E+00  -1.108344280122774E+07
  8.570712744373063E+00  -2.371553087943173E+00   1.390071637167374E+00  -1.108344280122774E+07
  8.377190694447524E+00  -2.005555230719326E+00   1.540371474625714E+00  -1.108344280122774E+07
  8.220745345575878E+00  -1.664340103716901E+00   1.696553341037897E+00  -1.108344280122774E+07
  8.104656494378021E+00  -1.345566932118556E+00   1.866438499899790E+00  -1.108344280122774E+07
  8.028049129584781E+00  -1.047528613527665E+00   2.055536568949550E+00  -1.108344280122774E+07
  7.986747750705436E+00  -7.700904680669286E-01   2.267046821353874E+00  -1.108344280122774E+07
  7.974402140393456E+00  -5.151816190007883E-01   2.502134051840808E+00  -1.108344280122774E+07
  7.983708268837711E+00  -2.867807457676770E-01   2.760390780713342E+00  -1.108344280122774E+07
  8.007550131384157E+00  -9.042192778506844E-02   3.040384548746701E+00  -1.108344280122774E+07
  8.039914433323984E+00   6.767643912820759E-02   3.340191635656714E+00  -1.108344280122774E+07
  8.076475275693152E+00   1.816976753148768E-01   3.657834906640095E+00  -1.108344280122774E+07
  8.114802970978237E+00   2.473336854309096E-01   3.991570057635177E+00  -1.108344280122774E+07
  8.154211047087925E+00   2.627176684583650E-01   4.339996530154124E+00  -1.108344280122774E+07
  8.195309523833211E+00   2.290176408886860E-01   4.702001632289349E+00  -1.108344280122774E+07
  8.239373020898123E+00   1.505814674174646E-01   5.076574123608421E+00  -1.108344280122774E+07
  8.287653819351519E+00   3.459663363653673E-02   5.462542914781903E+00  -1.108344280122774E+07
  8.340770289343984E+00  -1.096940467671497E-01   5.858305321202224E+00  -1.108344280122774E+07
  8.398281006073875E+00  -2.721083279309079E-01   6.261606955525236E+00  -1.108344280122774E+07
  8.458518313376514E+00  -4.428059578165943E-01   6.669423012174942E+00  -1.108344280122774E+07
  8.518708310643573E+00  -6.135417916581678E-01   7.077970972802292E+00  -1.108344280122774E+07
  8.575354821777621E+00  -7.786989955079737E-01   7.482861176073056E+00  -1.108344280122774E+07
  8.624820599213269E+00  -9.359425654517706E-01   7.879368137491833E+00  -1.108344280122774E+07
  8.664006551051855E+00  -1.086389839684855E+00   8.262785619304362E+00  -1.108344280122774E+07
  8.691013878808656E+00  -1.234267082196397E+00   8.628815103904554E+00  -1.108344280122774E+07
  8.705676731784594E+00  -1.386098501200340E+00   8.973932223240208E+00  -1.108344280122774E+07
  8.709873463130648E+00  -1.549544471889999E+00   9.295679201533652E+00  -1.108344280122774E+07
  8.707559243854659E+00  -1.732058596195213E+00   9.592842520628597E+00  -1.108344280122774E+07
  8.704505986239358E+00  -1.939560594152104E+00   9.865491764677524E+00  -1.108344280122774E+07
  8.707780395843312E+00  -2.175319824107924E+00   1.011487517612329E+01  -1.108344280122774E+07
  8.725030553079982E+00  -2.439212907821136E+00   1.034318683752097E+01  -1.108344280122774E+07
  8.763679726071167E+00  -2.727463330146547E+00   1.055323678277791E+01  -1.108344280122774E+07
  8.830139004001445E+00  -3.032899475306504E+00   1.074806656433151E+01  -1.108344280122774E+07
  8.929146141587747E+00  -3.345691175858283E+00   1.093055760128408E+01  -1.108344280122774E+07
  9.063317712804768E+00  -3.654454995374645E+00   1.110307778927948E+01  -1.108344280122774E+07
  9.232968735254021E+00  -3.947565588604129E+00   1.126720414395107E+01  -1.108344280122774E+07
  9.436213669799939E+00  -4.214482392006023E+00   1.142354725460038E+01  -1.108344280122774E+07
  9.669321461362861E+00  -4.446901596243531E+00   1.157168911530323E+01  -1.108344280122774E+07
  9.927261416288713E+00  -4.639572456144075E+00   1.171023168015497E+01  -1.108344280122774E+07
  1.020435158682884E+01  -4.790669818831590E+00   1.183694123739637E+01  -1.108344280122774E+07
  1.049491054198338E+01  -4.901683054512620E+00   1.194896487872952E+01  -1.108344280122774E+07
  1.079381822122649E+01  -4.976854833182765E+00   1.204309072276572E+01  -1.108344280122774E+07
  1.109691080093909E+01  -5.022270217350277E+00   1.211602315326068E+01  -1.108344280122774E+07
  1.140116472628783E+01  -5.044747194534336E+00   1.216464750094406E+01  -1.108344280122774E+07
  1.170466119276647E+01  -5.050706498264790E+00   1.218626419643136E+01  -1.108344280122774E+07
  1.200635849581880E+01  -5.045197529625637E+00   1.217877908788200E+01  -1.108344280122774E+07
  1.230573002036595E+01  -5.031228844975805E+00   1.214084303565335E+01  -1.108344280122774E+07
  1.260234546786478E+01  -5.009500660817134E+00   1.207193904329609E+01  -1.108344280122774E+07
  1.289547924521442E+01  -4.978571239305849E+00   1.197241849558861E+01  -1.108344280122774E+07
  1.318382201963493E+01  -4.935419146346150E+00   1.184348951127392E+01  -1.108344280122774E+07
  1.346535084330415E+01  -4.876300109500693E+00   1.168716042313855E+01  -1.108344280122774E+07
  1.373738357444781E+01  -4.797750361320575E+00   1.150614075204176E+01  -1.108344280122774E+07
  1.399680960840319E+01  -4.697565170598592E+00   1.130370165439771E+01  -1.108344280122774E+07
  1.424045683727710E+01  -4.575585288891213E+00   1.108349849945002E+01  -1.108344280122774E+07
  1.446552963236566E+01  -4.434154599148754E+00   1.084936046276114E+01  -1.108344280122774E+07
  1.467003867702467E+01  -4.278164564039277E+00   1.060505583448153E+01  -1.108344280122774E+07
  1.485314301954399E+01  -4.114666983011970E+00   1.035404665550409E+01  -1.108344280122774E+07
  1.501533790241532E+01  -3.952105819911770E+00   1.009925138492068E+01  -1.108344280122774E+07
  1.515844665734685E+01  -3.799280668770762E+00   9.842838357846999E+00  -1.108344280122774E+07
  1.528540723605999E+01  -3.664199126653546E+00   9.586074556701847E+00  -1.108344280122774E+07
  1.539987851717992E+01  -3.552995897238209E+00   9.329252656708872E+00  -1.108344280122774E+07
  1.550572271382086E+01  -3.469089514870034E+00   9.071713855171357E+00  -1.108344280122774E+07
  1.560644282294857E+01  -3.412714030928037E+00   8.811974745133686E+00  -1.108344280122774E+07
  1.570466425406337E+01  -3.380907807136056E+00   8.547954266209199E+00  -1.108344280122774E+07
  1.580174565654553E+01  -3.367973016448103E+00   8.277283049318646E+00  -1.108344280122774E+07
  1.589758591513402E+01  -3.366347940327480E+00   7.997664245114716E+00  -1.108344280122774E+07
  1.599066492263531E+01  -3.367770548936972E+00   7.707244360252883E+00  -1.108344280122774E+07
  1.607831953313683E+01  -3.364565879374724E+00   7.404946734363396E+00  -1.108344280122774E+07
  1.615721866815696E+01  -3.350868473589043E+00   7.090720567219715E+00  -1.108344280122774E+07
  1.622396879222464E+01  -3.323597976211496E+00   6.765665520586280E+00  -1.108344280122774E+07
  1.627575814627414E+01  -3.283040069975678E+00   6.432005527893920E+00  -1.108344280122774E+07
  1.631093900084788E+01  -3.232941287780222E+00   6.092904148293306E+00  -1.108344280122774E+07
  1.632945345460875E+01  -3.180096575711481E+00   5.752135277449050E+00  -1.108344280122774E+07
  1.633302927443716E+01  -3.133482377343680E+00   5.413644321210018E+00  -1.108344280122774E+07
  1.632510498071160E+01  -3.103054517356664E+00   5.081052878371440E+00  -1.108344280122774E+07
  1.631048300616418E+01  -3.098379440879442E+00   4.757171655758416E+00  -1.108344280122774E+07
  1.629475036154489E+01  -3.127292152478804E+00   4.443589576800806E+00  -1.108344280122774E+07
  1.628354167868431E+01  -3.194770890969700E+00   4.140400787939776E+00  -1.108344280122774E+07
  1.628174435979156E+01  -3.302187748242032E+00   3.846115816575329E+00   0.000000000000000E+00 6 RotatedCurve116 
  1.674186688161853E+01  -9.651734061539305E+00   2.722562494630529E+00  -2.216507565517696E+07
  1.667282949281844E+01  -9.475036899260306E+00   2.415457547230243E+00  -2.216507565517696E+07
  1.657731154189088E+01  -9.292916666950191E+00   2.109645440915524E+00  -2.216507565517696E+07
  1.646257015317814E+01  -9.110263495704396E+00   1.801185921475991E+00  -2.216507565517696E+07
  1.633643490369767E+01  -8.933628517582642E+00   1.485931005547756E+00  -2.216507565517696E+07
  1.620665961500536E+01  -8.771051544248246E+00   1.160278434754503E+00  -2.216507565517696E+07
  1.608024426109656E+01  -8.631656188552190E+00   8.218821609600859E-01  -2.216507565517696E+07
  1.596279207587211E+01  -8.525031543332853E+00   4.702207416809995E-01  -2.216507565517696E+07
  1.585796725172751E+01  -8.460451319597599E+00   1.069432534875347E-01  -2.216507565517696E+07
  1.576711194408068E+01  -8.446007969798778E+00  -2.640575709538089E-01  -2.216507565517696E+07
  1.568906800766949E+01  -8.487756761200727E+00  -6.368580968192407E-01  -2.216507565517696E+07
  1.562023013672432E+01  -8.588970209655320E+00  -1.003976592777724E+00  -2.216507565517696E+07
  1.555483468521942E+01  -8.749595565432722E+00  -1.357045071038469E+00  -2.216507565517696E+07
  1.548546471712280E+01  -8.965987825738576E+00  -1.687592721991492E+00  -2.216507565517696E+07
  1.540372932869886E+01  -9.230960466352972E+00  -1.987839520204195E+00  -2.216507565517696E+07
  1.530105649147333E+01  -9.534159613758671E+00  -2.251398890099168E+00  -2.216507565517696E+07
  1.516952573573829E+01  -9.862729503637276E+00  -2.473802696106936E+00  -2.216507565517696E+07
  1.500266147503586E+01  -1.020220281532756E+01  -2.652787999064399E+00  -2.216507565517696E+07
  1.479611040659376E+01  -1.053752339110670E+01  -2.788319051929638E+00  -2.216507565517696E+07
  1.454813705309041E+01  -1.085409439131905E+01  -2.882354864411607E+00  -2.216507565517696E+07
  1.425988907951879E+01  -1.113874395566965E+01  -2.938406989943886E+00  -2.216507565517696E+07
  1.393540667816765E+01  -1.138051294197534E+01  -2.960959088122100E+00  -2.216507565517696E+07
  1.358137563464039E+01  -1.157119345892640E+01  -2.954835583372798E+00  -2.216507565517696E+07
  1.320664893291204E+01  -1.170557928979034E+01  -2.924609383757119E+00  -2.216507565517696E+07
  1.282158420304629E+01  -1.178142543119374E+01  -2.874128133870665E+00  -2.216507565517696E+07
  1.243726156351738E+01  -1.179914892054290E+01  -2.806216795302193E+00  -2.216507565517696E+07
  1.206465666715840E+01  -1.176133223560383E+01  -2.722585044551330E+00  -2.216507565517696E+07
  1.171384603971059E+01  -1.167211007564254E+01  -2.623935677157206E+00  -2.216507565517696E+07
  1.139331603127169E+01  -1.153652796264660E+01  -2.510239872234006E+00  -2.216507565517696E+07
  1.110943372223377E+01  -1.135995625508244E+01  -2.381121346010487E+00  -2.216507565517696E+07
  1.086611957167793E+01  -1.114762704943936E+01  -2.236277541587395E+00  -2.216507565517696E+07
  1.066473969139848E+01  -1.090433683298741E+01  -2.075863887074033E+00  -2.216507565517696E+07
  1.050421290971000E+01  -1.063432855926115E+01  -1.900776763490166E+00  -2.216507565517696E+07
  1.038130679823903E+01  -1.034133750565227E+01  -1.712790291114262E+00  -2.216507565517696E+07
  1.029107981810947E+01  -1.002876018330798E+01  -1.514527999997241E+00  -2.216507565517696E+07
  1.022741539141841E+01  -9.699888296218402E+00  -1.309278578295187E+00  -2.216507565517696E+07
  1.018358897512034E+01  -9.358142619311405E+00  -1.100690615096594E+00  -2.216507565517696E+07
  1.015281123969208E+01  -9.007245434912104E+00  -8.924004662003108E-01  -2.216507565517696E+07
  1.012869856158831E+01  -8.651283924736443E+00  -6.876570806829360E-01  -2.216507565517696E+07
  1.010563486659457E+01  -8.294638261949334E+00  -4.890064214969731E-01  -2.216507565517696E+07
  1.007900456284507E+01  -7.941773582285646E+00  -2.980863739245807E-01  -2.216507565517696E+07
  1.004529279455416E+01  -7.596920473161494E+00  -1.155628571203005E-01  -2.216507565517696E+07
  1.000206448475226E+01  -7.263690103402467E+00   5.878729887196942E-02  -2.216507565517696E+07
  9.947845865085782E+00  -6.944684282552920E+00   2.258670061013828E-01  -2.216507565517696E+07
  9.881940160750917E+00  -6.641165400005769E+00   3.869655798101948E-01  -2.216507565517696E+07
  9.804212189463037E+00  -6.352845629340115E+00   5.434386141490495E-01  -2.216507565517696E+07
  9.714874902362007E+00  -6.077839827221591E+00   6.964229934145572E-01  -2.216507565517696E+07
  9.614305028760821E+00  -5.812804455367750E+00   8.466427455815084E-01  -2.216507565517696E+07
  9.502906173442137E+00  -5.553258912582868E+00   9.943451975595242E-01  -2.216507565517696E+07
  9.381027454118755E+00  -5.294059736963903E+00   1.139383192090950E+00  -2.216507565517696E+07
  9.248935646257241E+00  -5.029976050505063E+00   1.281431845276631E+00  -2.216507565517696E+07
  9.106830276726198E+00  -4.756299594238684E+00   1.420302014092411E+00  -2.216507565517696E+07
  8.954885301412236E+00  -4.469416895883622E+00   1.556291813878235E+00  -2.216507565517696E+07
  8.793298570394438E+00  -4.167275303203771E+00   1.690505911171890E+00  -2.216507565517696E+07
  8.622331345054743E+00  -3.849688115443972E+00   1.825072257165639E+00  -2.216507565517696E+07
  8.442324274495794E+00  -3.518444820090413E+00   1.963197955523902E+00  -2.216507565517696E+07
  8.253682610142672E+00  -3.177217441833379E+00   2.109028669935380E+00  -2.216507565517696E+07
  8.056830883902338E+00  -2.831279635056797E+00   2.267306195798529E+00  -2.216507565517696E+07
  7.852144524431320E+00  -2.487077793887119E+00   2.442852051254978E+00  -2.216507565517696E+07
  7.639871738393150E+00  -2.151710033676429E+00   2.639936037108189E+00  -2.216507565517696E+07
  7.420062487058579E+00  -1.832377300891171E+00   2.861612656296336E+00  -2.216507565517696E+07
  7.192521972442716E+00  -1.535870234871711E+00   3.109120968918726E+00  -2.216507565517696E+07
  6.956803596903730E+00  -1.268146220587036E+00   3.381442360174532E+00  -2.216507565517696E+07
  6.712251225023667E+00  -1.034035054440936E+00   3.675095296978469E+00  -2.216507565517696E+07
  6.458093510405056E+00  -8.370914493782809E-01   3.984218073262185E+00  -2.216507565517696E+07
  6.193585095130096E+00  -6.795913905055989E-01   4.300953386554600E+00  -2.216507565517696E+07
  5.918181822475613E+00  -5.626502878483017E-01   4.616107420934012E+00  -2.216507565517696E+07
  5.631730863967527E+00  -4.864266556935642E-01   4.920016767175459E+00  -2.216507565517696E+07
  5.334652791182134E+00  -4.503675063092248E-01   5.203524738803479E+00  -2.216507565517696E+07
  5.028091731992054E+00  -4.534514886868730E-01   5.458949257053023E+00  -2.216507565517696E+07
  4.714012038415137E+00  -4.943925515473273E-01   5.680920630399692E+00  -2.216507565517696E+07
  4.395225120052821E+00  -5.717790170398978E-01   5.866980240056882E+00  -2.216507565517696E+07
  4.075337624120565E+00  -6.841380865401377E-01   6.017859013318775E+00  -2.216507565517696E+07
  3.758621021515661E+00  -8.299312495977295E-01   6.137394085119556E+00  -2.216507565517696E+07
  3.449811761027772E+00  -1.007499188143599E+00   6.232087965675032E+00  -2.216507565517696E+07
  3.153859327566868E+00  -1.214983416934355E+00   6.310360618153293E+00  -2.216507565517696E+07
  2.875645758824732E+00  -1.450254773054481E+00   6.381584773829829E+00  -2.216507565517696E+07
  2.619703670734133E+00  -1.710875691359094E+00   6.455023043983192E+00  -2.216507565517696E+07
  2.389960201635317E+00  -1.994114764468669E+00   6.538797993914829E+00  -2.216507565517696E+07
  2.189531493502889E+00  -2.297020074505333E+00   6.639021553484027E+00  -2.216507565517696E+07
  2.020586762438594E+00  -2.616544491781220E+00   6.759188599645391E+00  -2.216507565517696E+07
  1.884293379242885E+00  -2.949704061235748E+00   6.899904240185808E+00  -2.216507565517696E+07
  1.780845627143644E+00  -3.293742014591119E+00   7.058970141856886E+00  -2.216507565517696E+07
  1.709570978620253E+00  -3.646267514122330E+00   7.231808277917619E+00  -2.216507565517696E+07
  1.669099861383711E+00  -4.005340709273627E+00   7.412157158347727E+00  -2.216507565517696E+07
  1.657578838095168E+00  -4.369483787095222E+00   7.592941816651754E+00  -2.216507565517696E+07
  1.672903526443196E+00  -4.737610135421607E+00   7.767199027758229E+00  -2.216507565517696E+07
  1.712946740792243E+00  -5.108878429494845E+00   7.928935872423897E+00  -2.216507565517696E+07
  1.775759211327384E+00  -5.482492856980221E+00   8.073812955054528E+00  -2.216507565517696E+07
  1.859724483127326E+00  -5.857482237257155E+00   8.199571111302692E+00  -2.216507565517696E+07
  1.963655610923942E+00  -6.232497293969553E+00   8.306158125377538E+00  -2.216507565517696E+07
  2.086828270893288E+00  -6.605665409363339E+00   8.395554291321227E+00  -2.216507565517696E+07
  2.228952066640801E+00  -6.974535464885874E+00   8.471336550741846E+00  -2.216507565517696E+07
  2.390088306465775E+00  -7.336132622861246E+00   8.538054730402457E+00  -2.216507565517696E+07
  2.570527694512621E+00  -7.687125934596344E+00   8.600515563377707E+00  -2.216507565517696E+07
  2.770644728321763E+00  -8.024093052920358E+00   8.663077979330607E+00  -2.216507565517696E+07
  2.990746886529706E+00  -8.343849045353478E+00   8.729056013318822E+00  -2.216507565517696E+07
  3.230935927739598E+00  -8.643793225921245E+00   8.800305208014221E+00  -2.216507565517696E+07
  3.490996037295956E+00  -8.922221375659763E+00   8.877038059331097E+00  -2.216507565517696E+07
  3.770319568441767E+00  -9.178552088021283E+00   8.957878693096488E+00  -2.216507565517696E+07
  4.067876265568409E+00  -9.413425444519463E+00   9.040131950548398E+00  -2.216507565517696E+07
  4.382226720043404E+00  -9.628648721086943E+00   9.120212553165890E+00  -2.216507565517696E+07
  4.711575967655363E+00  -9.826985130291833E+00   9.194160160077203E+00  -2.216507565517696E+07
  5.053859089495623E+00  -1.001180467078055E+01   9.258158474338094E+00  -2.216507565517696E+07
  5.406847801827383E+00  -1.018663754921224E+01   9.308981710935974E+00  -2.216507565517696E+07
  5.768265541501976E+00  -1.035468705888111E+01   9.344308347252133E+00  -2.216507565517696E+07
  6.135898537060594E+00  -1.051836758178808E+01   9.362867061862254E+00  -2.216507565517696E+07
  6.507691712201233E+00  -1.067893293104268E+01   9.364408864030223E+00  -2.216507565517696E+07
  6.881820773391983E+00  -1.083625030854563E+01   9.349527858446599E+00  -2.216507565517696E+07
  7.256735158314688E+00  -1.098875686943591E+01   9.319376367671087E+00  -2.216507565517696E+07
  7.631170270312308E+00  -1.113361168153457E+01   9.275334694678042E+00  -2.216507565517696E+07
  8.004131172187096E+00  -1.126702910385733E+01   9.218699591086095E+00  -2.216507565517696E+07
  8.374853248545012E+00  -1.138475409724466E+01   9.150448234209005E+00  -2.216507565517696E+07
  8.742747906252317E+00  -1.148261943235428E+01   9.071117737786548E+00  -2.216507565517696E+07
  9.107342885605329E+00  -1.155711222886836E+01   8.980816980139558E+00  -2.216507565517696E+07
  9.468227026245680E+00  -1.160587467799490E+01   8.879361892355025E+00  -2.216507565517696E+07
  9.825008323656462E+00  -1.162807167919675E+01   8.766501712188260E+00  -2.216507565517696E+07
  1.017729191193812E+01  -1.162457545660782E+01   8.642186105487379E+00  -2.216507565517696E+07
  1.052468143865101E+01  -1.159794162114110E+01   8.506814487601453E+00  -2.216507565517696E+07
  1.086680350120082E+01  -1.155217917554886E+01   8.361410832351693E+00  -2.216507565517696E+07
  1.120335083009067E+01  -1.149234463869835E+01   8.207679473433892E+00  -2.216507565517696E+07
  1.153413622760161E+01  -1.142401384514223E+01   8.047917908593401E+00  -2.216507565517696E+07
  1.185914640371982E+01  -1.135270072827770E+01   7.884788039933308E+00  -2.216507565517696E+07
  1.217858324786344E+01  -1.128329830397933E+01   7.720973396808636E+00  -2.216507565517696E+07
  1.249288008075920E+01  -1.121961236340614E+01   7.558772286169332E+00  -2.216507565517696E+07
  1.280268222922936E+01  -1.116404384486005E+01   7.399691629094993E+00  -2.216507565517696E+07
  1.310878483696390E+01  -1.111745371412623E+01   7.244110769027873E+00  -2.216507565517696E+07
  1.341202591863370E+01  -1.107921777958972E+01   7.091077693714364E+00  -2.216507565517696E+07
  1.371313881003578E+01  -1.104745215097211E+01   6.938282634881979E+00  -2.216507565517696E+07
  1.401257469655801E+01  -1.101936698326017E+01   6.782228365292850E+00  -2.216507565517696E+07
  1.431031201551510E+01  -1.099169011387973E+01   6.618586540867778E+00  -2.216507565517696E+07
  1.460567437575011E+01  -1.096109549352317E+01   6.442699763262063E+00  -2.216507565517696E+07
  1.489718142536985E+01  -1.092457478358282E+01   6.250164366748401E+00  -2.216507565517696E+07
  1.518245719341290E+01  -1.087970343346342E+01   6.037413301298944E+00  -2.216507565517696E+07
  1.545821746509530E+01  -1.082477278917247E+01   5.802214623790943E+00  -2.216507565517696E+07
  1.572035169683388E+01  -1.075878402492354E+01   5.544009996732948E+00  -2.216507565517696E+07
  1.596410619599702E+01  -1.068132401632622E+01   5.264038261861158E+00  -2.216507565517696E+07
  1.618436452465157E+01  -1.059236375449862E+01   4.965218806475772E+00  -2.216507565517696E+07
  1.637600941195707E+01  -1.049203319542761E+01   4.651803839143215E+00  -2.216507565517696E+07
  1.653433918371051E+01  -1.038043032473520E+01   4.328842787886047E+00  -2.216507565517696E+07
  1.665550223876073E+01  -1.025751594422030E+01   4.001530715098896E+00  -2.216507565517696E+07
  1.673690674484023E+01  -1.012313010958900E+01   3.674531506663833E+00  -2.216507565517696E+07
  1.677756056788101E+01  -9.977143620857737E+00   3.351372621648872E+00  -2.216507565517696E+07
  1.677829916203605E+01  -9.819731994039735E+00   3.034000227286139E+00  -2.216507565517696E+07
  1.674186688161853E+01  -9.651734061539305E+00   2.722562494630529E+00   0.000000000000000E+00 7 RotatedCurve117 
  1.141261625666530E+01  -1.342511724781708E+01   1.518252199510351E+00  -1.018840182863078E+07
  1.133852660033845E+01  -1.347386220348243E+01   1.288532698476127E+00  -1.018840182863078E+07
  1.124538542529391E+01  -1.352723438239018E+01   1.067758159583449E+00  -1.018840182863078E+07
  1.113557018519104E+01  -1.358372870218341E+01   8.545611475750177E-01  -1.018840182863078E+07
  1.101143700992184E+01  -1.364126406606866E+01   6.470367586516698E-01  -1.018840182863078E+07
  1.087535676570882E+01  -1.369723512902789E+01   4.430035227872998E-01  -1.018840182863078E+07
  1.072976841960557E+01  -1.374861256064001E+01   2.402643958695729E-01  -1.018840182863078E+07
  1.057722910692457E+01  -1.379208273501605E+01   3.684226378523714E-02  -1.018840182863078E+07
  1.042044160654197E+01  -1.382421318155649E+01  -1.688294567659138E-01  -1.018840182863078E+07
  1.026224459375504E+01  -1.384162754379448E+01  -3.777722992745977E-01  -1.018840182863078E+07
  1.010555820482944E+01  -1.384117352397119E+01  -5.903865927619653E-01  -1.018840182863078E+07
  9.953285871775417E+00  -1.382006927850900E+01  -8.064278786557504E-01  -1.018840182863078E+07
  9.808181652377193E+00  -1.377601756453588E+01  -1.025024152508639E+00  -1.018840182863078E+07
  9.672699020682687E+00  -1.370728193261510E+01  -1.244719255347902E+00  -1.018840182863078E+07
  9.548841194439170E+00  -1.361272456704313E+01  -1.463528189561171E+00  -1.018840182863078E+07
  9.438033893263940E+00  -1.349181012407390E+01  -1.678993701628088E+00  -1.018840182863078E+07
  9.341038818135829E+00  -1.334458336615675E+01  -1.888239321336068E+00  -1.018840182863078E+07
  9.257920546413825E+00  -1.317163003973374E+01  -2.088020898073499E+00  -1.018840182863078E+07
  9.188071856244663E+00  -1.297403012654399E+01  -2.274785029598991E+00  -1.018840182863078E+07
  9.130293973610231E+00  -1.275331049923017E+01  -2.444747174412305E+00  -1.018840182863078E+07
  9.082920253214901E+00  -1.251140063735415E+01  -2.594003512835793E+00  -1.018840182863078E+07
  9.043965654885055E+00  -1.225059114767458E+01  -2.718688134664947E+00  -1.018840182863078E+07
  9.011281062974886E+00  -1.197349122335530E+01  -2.815180910416368E+00  -1.018840182863078E+07
  8.982691568665990E+00  -1.168297866495422E+01  -2.880362181629729E+00  -1.018840182863078E+07
