periods   1 
begin filament 
mirror NIL 
  2.045250815995107E+01   3.835904135379248E+00  -1.357210725797234E+00   2.006904937350997E+07
  2.042827891304898E+01   3.904439043899626E+00  -1.189383923961205E+00   2.006904937350997E+07
  2.040384885090831E+01   3.964148142649244E+00  -1.039080501550016E+00   2.006904937350997E+07
  2.038004572454321E+01   4.014766022126268E+00  -9.070514179152629E-01   2.006904937350997E+07
  2.035722177969564E+01   4.056849205307691E+00  -7.919152926947056E-01   2.006904937350997E+07
  2.033523793987298E+01   4.091727726719815E+00  -6.903480197027674E-01   2.006904937350997E+07
  2.031353279334328E+01   4.121352289715209E+00  -5.975406875928060E-01   2.006904937350997E+07
  2.029126429949041E+01   4.148054430461168E+00  -5.078680787306642E-01   2.006904937350997E+07
  2.026750000673877E+01   4.174250322952797E+00  -4.156785318086122E-01   2.006904937350997E+07
  2.024142344865691E+01   4.202128060521719E+00  -3.160964184954990E-01   2.006904937350997E+07
  2.021252158476319E+01   4.233361965397394E+00  -2.057239985111543E-01   2.006904937350997E+07
  2.018072113035090E+01   4.268894995613468E+00  -8.314096733663862E-02   2.006904937350997E+07
  2.014644988252494E+01   4.308821815926518E+00   5.087371494504502E-02   2.006904937350997E+07
  2.011061134398817E+01   4.352391640292078E+00   1.934355877057078E-01   2.006904937350997E+07
  2.007447508110547E+01   4.398133351199216E+00   3.399582667052471E-01   2.006904937350997E+07
  2.003949902618181E+01   4.444087969467982E+00   4.848173969394088E-01   2.006904937350997E+07
  2.000711110677050E+01   4.488117773902369E+00   6.221880950597446E-01   2.006904937350997E+07
  1.997848434423459E+01   4.528249555923218E+00   7.469431636998366E-01   2.006904937350997E+07
  1.995434081494996E+01   4.563003421558665E+00   8.554889652215993E-01   2.006904937350997E+07
  1.993481540866680E+01   4.591659217102577E+00   9.464225403137818E-01   2.006904937350997E+07
  1.991940087060815E+01   4.614420108907016E+00   1.020916579304189E+00   2.006904937350997E+07
  1.990698270128804E+01   4.632446182876484E+00   1.082775095557775E+00   2.006904937350997E+07
  1.989595819018071E+01   4.647748390142597E+00   1.138147095683072E+00   2.006904937350997E+07
  1.988442047377360E+01   4.662952390291404E+00   1.194931973456119E+00   2.006904937350997E+07
  1.987037818026661E+01   4.680960191444734E+00   1.261952242113371E+00   2.006904937350997E+07
  1.985197560058126E+01   4.704552406620023E+00   1.348000655950802E+00   2.006904937350997E+07
  1.982767829739753E+01   4.735983335435137E+00   1.460885327082747E+00   2.006904937350997E+07
  1.979639462120402E+01   4.776623580570798E+00   1.606595806018951E+00   2.006904937350997E+07
  1.975751384330853E+01   4.826700095744513E+00   1.788695410373120E+00   2.006904937350997E+07
  1.971085489671227E+01   4.885172007571361E+00   2.008012935833468E+00   2.006904937350997E+07
  1.965653391930116E+01   4.949763744533956E+00   2.262664911677616E+00   2.006904937350997E+07
  1.959477167181262E+01   5.017157138561767E+00   2.548393802821031E+00   2.006904937350997E+07
  1.952567143818370E+01   5.083323840678085E+00   2.859164557934031E+00   2.006904937350997E+07
  1.944900274314542E+01   5.143961263834668E+00   3.187927767860646E+00   2.006904937350997E+07
  1.936402545808470E+01   5.194981676654788E+00   3.527437217932047E+00   2.006904937350997E+07
  1.926938281074118E+01   5.232996745237734E+00   3.871005567658422E+00   2.006904937350997E+07
  1.916308150617006E+01   5.255739641011710E+00   4.213094642242023E+00   2.006904937350997E+07
  1.904256430456119E+01   5.262373745485178E+00   4.549664297467219E+00   2.006904937350997E+07
  1.890486705974669E+01   5.253650022197909E+00   4.878241821106212E+00   2.006904937350997E+07
  1.874684050561079E+01   5.231892569299065E+00   5.197716661217055E+00   2.006904937350997E+07
  1.856540877751061E+01   5.200811482875960E+00   5.507906575478283E+00   2.006904937350997E+07
  1.835783296058515E+01   5.165161523853092E+00   5.808975014778267E+00   2.006904937350997E+07
  1.812194926573269E+01   5.130281888686540E+00   6.100800805840798E+00   2.006904937350997E+07
  1.785635730488506E+01   5.101564753180685E+00   6.382406988446821E+00   2.006904937350997E+07
  1.756054317590823E+01   5.083906945716171E+00   6.651545316147017E+00   2.006904937350997E+07
  1.723493294399687E+01   5.081199628763732E+00   6.904508166145074E+00   2.006904937350997E+07
  1.688088266057247E+01   5.095905517287028E+00   7.136204267157863E+00   2.006904937350997E+07
  1.650061944556298E+01   5.128762911543357E+00   7.340494119254593E+00   2.006904937350997E+07
  1.609715296398200E+01   5.178642143902091E+00   7.510741342278811E+00   2.006904937350997E+07
  1.567417712568388E+01   5.242564678388529E+00   7.640503349823706E+00   2.006904937350997E+07
  1.523597811217964E+01   5.315879822928743E+00   7.724263530682839E+00   2.006904937350997E+07
  1.478735776800907E+01   5.392580377584410E+00   7.758100571379040E+00   2.006904937350997E+07
  1.433357251009775E+01   5.465727728445408E+00   7.740199491225486E+00   2.006904937350997E+07
  1.388027910104738E+01   5.527949609323160E+00   7.671131881348138E+00   2.006904937350997E+07
  1.343347182343534E+01   5.571970199925211E+00   7.553866163160685E+00   2.006904937350997E+07
  1.299939237601297E+01   5.591132181486715E+00   7.393507317794898E+00   2.006904937350997E+07
  1.258439514848054E+01   5.579873280669234E+00   7.196803663382416E+00   2.006904937350997E+07
  1.219475654058354E+01   5.534124979079764E+00   6.971490206176790E+00   2.006904937350997E+07
  1.183642689598937E+01   5.451607703877645E+00   6.725559211154421E+00   2.006904937350997E+07
  1.151473584177405E+01   5.332004296750171E+00   6.466555981396195E+00   2.006904937350997E+07
  1.123407422103051E+01   5.177001407552169E+00   6.200990590961203E+00   2.006904937350997E+07
  1.099758603338795E+01   4.990196386574308E+00   5.933935902704043E+00   2.006904937350997E+07
  1.080690971054560E+01   4.776875116251869E+00   5.668852026433170E+00   2.006904937350997E+07
  1.066200809837261E+01   4.543673958006852E+00   5.407642277053675E+00   2.006904937350997E+07
  1.056112004413399E+01   4.298146489787634E+00   5.150911190719687E+00   2.006904937350997E+07
  1.050085392288137E+01   4.048262746748688E+00   4.898366569637502E+00   2.006904937350997E+07
  1.047642628029031E+01   3.801874838420256E+00   4.649289151200771E+00   2.006904937350997E+07
  1.048202940849638E+01   3.566187495276487E+00   4.402987947608713E+00   2.006904937350997E+07
  1.051129303929840E+01   3.347274552657267E+00   4.159167110451675E+00   2.006904937350997E+07
  1.055779045687373E+01   3.149681842841075E+00   3.918149726790404E+00   2.006904937350997E+07
  1.061553081440911E+01   2.976152800124363E+00   3.680931761916189E+00   2.006904937350997E+07
  1.067937903730724E+01   2.827504954667088E+00   3.449070639936881E+00   2.006904937350997E+07
  1.074535295925853E+01   2.702673519727894E+00   3.224442383563924E+00   2.006904937350997E+07
  1.081076345326835E+01   2.598923141877219E+00   3.008923846409566E+00   2.006904937350997E+07
  1.087418516571453E+01   2.512211841546347E+00   2.804068545989794E+00   2.006904937350997E+07
  1.093526987718582E+01   2.437673981630761E+00   2.610843911559756E+00   2.006904937350997E+07
  1.099443775435116E+01   2.370173853567015E+00   2.429484503086017E+00   2.006904937350997E+07
  1.105250006711678E+01   2.304870323815069E+00   2.259492186803082E+00   2.006904937350997E+07
  1.111027716639249E+01   2.237727862394253E+00   2.099784425626253E+00   2.006904937350997E+07
  1.116827563291265E+01   2.165911548795637E+00   1.948960983029638E+00   2.006904937350997E+07
  1.122647803225642E+01   2.088013860871507E+00   1.805632995961150E+00   2.006904937350997E+07
  1.128427886016985E+01   2.004078728595246E+00   1.668741505548072E+00   2.006904937350997E+07
  1.134057385283894E+01   1.915411939031839E+00   1.537788669960269E+00   2.006904937350997E+07
  1.139398093017908E+01   1.824194002606184E+00   1.412915477535986E+00   2.006904937350997E+07
  1.144314436328238E+01   1.732938802397749E+00   1.294783891345784E+00   2.006904937350997E+07
  1.148705398324246E+01   1.643865172006700E+00   1.184255704838290E+00   2.006904937350997E+07
  1.152530224344034E+01   1.558265527595177E+00   1.081899769204611E+00   2.006904937350997E+07
  1.155820609632435E+01   1.475962969397422E+00   9.873972931220485E-01   2.006904937350997E+07
  1.158673837164342E+01   1.394944076047711E+00   8.989450349005171E-01   2.006904937350997E+07
  1.161224290153949E+01   1.311238540319420E+00   8.127726581911879E-01   2.006904937350997E+07
  1.163594523691884E+01   1.219089993271182E+00   7.228893444593250E-01   2.006904937350997E+07
  1.165831104474272E+01   1.111427511827827E+00   6.211544955077992E-01   2.006904937350997E+07
  1.167834089165091E+01   9.806083500306265E-01   4.977294420147939E-01   2.006904937350997E+07
  1.169291685206678E+01   8.193641537766605E-01   3.419157497182180E-01   2.006904937350997E+07
  1.169632795644048E+01   6.218503356198208E-01   1.433275792531805E-01   2.006904937350997E+07
  1.168009450086793E+01   3.846760141583076E-01  -1.067113039165993E-01   2.006904937350997E+07
  1.163318476480085E+01   1.077835286198643E-01  -4.137023914219676E-01   2.006904937350997E+07
  1.154267365152580E+01  -2.049459904303587E-01  -7.786254414330797E-01   2.006904937350997E+07
  1.139483585498336E+01  -5.454611241858172E-01  -1.196902668604924E+00   2.006904937350997E+07
  1.117660331749624E+01  -9.017455519873797E-01  -1.657848179708029E+00   2.006904937350997E+07
  1.087725635676830E+01  -1.258475752805863E+00  -2.144732734310344E+00   2.006904937350997E+07
  1.049016861695988E+01  -1.598094366345482E+00  -2.635529114370327E+00   2.006904937350997E+07
  1.001439576425427E+01  -1.902211957368049E+00  -3.104325065247680E+00   2.006904937350997E+07
  9.455892388412114E+00  -2.153207094015077E+00  -3.523308411435801E+00   2.006904937350997E+07
  8.828163700453258E+00  -2.335865151040557E+00  -3.865153038513490E+00   2.006904937350997E+07
  8.152207602171238E+00  -2.438884192385605E+00  -4.105575068260691E+00   2.006904937350997E+07
  7.455674166007962E+00  -2.456083758151060E+00  -4.225794080579726E+00   2.006904937350997E+07
  6.771255866434307E+00  -2.387179109440218E+00  -4.214630073311814E+00   2.006904937350997E+07
  6.134413006687139E+00  -2.238026817826395E+00  -4.069994692328224E+00   2.006904937350997E+07
  5.580623466067255E+00  -2.020302764407537E+00  -3.799592757382465E+00   2.006904937350997E+07
  5.142413181678880E+00  -1.750634323899716E+00  -3.420731072866296E+00   2.006904937350997E+07
  4.846464408409286E+00  -1.449267651546021E+00  -2.959226665109296E+00   2.006904937350997E+07
  4.711106492530143E+00  -1.138401555541160E+00  -2.447504696569529E+00   2.006904937350997E+07
  4.744466282780636E+00  -8.403553870719315E-01  -1.922065608406298E+00   2.006904937350997E+07
  4.943494377853338E+00  -5.757554127541304E-01  -1.420570743379216E+00   2.006904937350997E+07
  5.293995393516488E+00  -3.619202364320765E-01  -9.788373619689663E-01   2.006904937350997E+07
  5.771685101380537E+00  -2.116015441148469E-01  -6.280425825261275E-01   2.006904937350997E+07
  6.344186810945600E+00  -1.321947777244719E-01  -3.924104174353286E-01   2.006904937350997E+07
  6.973776797016128E+00  -1.254804244593520E-01  -2.875999829217972E-01   2.006904937350997E+07
  7.620606228155597E+00  -1.878970159205524E-01  -3.199331102274363E-01   2.006904937350997E+07
  8.246074923424947E+00  -3.112888594459522E-01  -4.865057833928967E-01   2.006904937350997E+07
  8.816016741566147E+00  -4.840218757037335E-01  -7.761314291993078E-01   2.006904937350997E+07
  9.303379432031228E+00  -6.923254354452260E-01  -1.170976542137420E+00   2.006904937350997E+07
  9.690140579893278E+00  -9.217006508720096E-01  -1.648680551600765E+00   2.006904937350997E+07
  9.968288709030244E+00  -1.158237731842701E+00  -2.184709753065259E+00   2.006904937350997E+07
  1.013980404773886E+01  -1.389705830749281E+00  -2.754683583628844E+00   2.006904937350997E+07
  1.021568416097908E+01  -1.606315026459389E+00  -3.336430695236241E+00   2.006904937350997E+07
  1.021416236191054E+01  -1.801096645248224E+00  -3.911578550947797E+00   2.006904937350997E+07
  1.015834945257436E+01  -1.969898744663144E+00  -4.466546823903903E+00   2.006904937350997E+07
  1.007358251495558E+01  -2.111041739132471E+00  -4.992892676302815E+00   2.006904937350997E+07
  9.984782620802388E+00  -2.224718809467450E+00  -5.487035009653419E+00   2.006904937350997E+07
  9.914105369504261E+00  -2.312252204834829E+00  -5.949455309450755E+00   2.006904937350997E+07
  9.879117542969796E+00  -2.375326990137056E+00  -6.383526610590457E+00   2.006904937350997E+07
  9.891657317601014E+00  -2.415317583318590E+00  -6.794153759460455E+00   2.006904937350997E+07
  9.957444767793353E+00  -2.432801143198180E+00  -7.186415040020997E+00   2.006904937350997E+07
  1.007641573142839E+01  -2.427319014360184E+00  -7.564378141656233E+00   2.006904937350997E+07
  1.024366732992358E+01  -2.397407916247080E+00  -7.930226158238891E+00   2.006904937350997E+07
  1.045083779747233E+01  -2.340881983273150E+00  -8.283777947825275E+00   2.006904937350997E+07
  1.068770415247193E+01  -2.255310653086813E+00  -8.622429287384929E+00   2.006904937350997E+07
  1.094377226656928E+01  -2.138610481106999E+00  -8.941484701476728E+00   2.006904937350997E+07
  1.120965458521196E+01  -1.989654533726990E+00  -9.234801783987431E+00   2.006904937350997E+07
  1.147807677478019E+01  -1.808802570182946E+00  -9.495635807731398E+00   2.006904937350997E+07
  1.174441840254702E+01  -1.598268304810673E+00  -9.717555724958048E+00   2.006904937350997E+07
  1.200676485357121E+01  -1.362264370910615E+00  -9.895304072764111E+00   2.006904937350997E+07
  1.226551784651682E+01  -1.106897465720890E+00  -1.002549113104737E+01   2.006904937350997E+07
  1.252267067013000E+01  -8.398209392482547E-01  -1.010704421227694E+01   2.006904937350997E+07
  1.278089417535694E+01  -5.696849679160573E-01  -1.014137108008502E+01   2.006904937350997E+07
  1.304259612798075E+01  -3.054510366099855E-01  -1.013223650009348E+01   2.006904937350997E+07
  1.330910870901144E+01  -5.565436960443555E-02  -1.008538736271253E+01   2.006904937350997E+07
  1.358012915812455E+01   1.722967283890907E-01  -1.000799019280247E+01   2.006904937350997E+07
  1.385349218280213E+01   3.727022202075421E-01  -9.907962188897519E+00   2.006904937350997E+07
  1.412529729925034E+01   5.419670818522052E-01  -9.793282016486351E+00   2.006904937350997E+07
  1.439035818898494E+01   6.787731129689674E-01  -9.671360010538921E+00   2.006904937350997E+07
  1.464289263013040E+01   7.840146468904702E-01  -9.548531360010490E+00   2.006904937350997E+07
  1.487733734797755E+01   8.605163288456857E-01  -9.429713481514259E+00   2.006904937350997E+07
  1.508915663719778E+01   9.125767571814475E-01  -9.318243893599369E+00   2.006904937350997E+07
  1.527551836359353E+01   9.454005163472102E-01  -9.215891158853985E+00   2.006904937350997E+07
  1.543573448088081E+01   9.644908781719664E-01  -9.123011951285466E+00   2.006904937350997E+07
  1.557140134193025E+01   9.750754375008813E-01  -9.038814127743647E+00   2.006904937350997E+07
  1.568622170349368E+01   9.816277648285785E-01  -8.961679744865878E+00   2.006904937350997E+07
  1.578553825221434E+01   9.875315896050791E-01  -8.889502993123690E+00   2.006904937350997E+07
  1.587565060152160E+01   9.949127481008455E-01  -8.820004744587543E+00   2.006904937350997E+07
  1.596301799256368E+01   1.004641279036859E+00  -8.750995884074683E+00   2.006904937350997E+07
  1.605346427558334E+01   1.016484770114757E+00  -8.680573590560824E+00   2.006904937350997E+07
  1.615149851585628E+01   1.029377055194902E+00  -8.607246155932268E+00   2.006904937350997E+07
  1.625984475394087E+01   1.041755556665934E+00  -8.529991127841672E+00   2.006904937350997E+07
  1.637924144941478E+01   1.051916881518198E+00  -8.448257576401216E+00   2.006904937350997E+07
  1.650853017878756E+01   1.058343574231353E+00  -8.361925898174212E+00   2.006904937350997E+07
  1.664501048193963E+01   1.059964104112876E+00  -8.271238258519409E+00   2.006904937350997E+07
  1.678499966494369E+01   1.056321386650048E+00  -8.176710505068915E+00   2.006904937350997E+07
  1.692450831972644E+01   1.047640164793726E+00  -8.079033363271270E+00   2.006904937350997E+07
  1.705992813048174E+01   1.034798112763334E+00  -7.978968097023443E+00   2.006904937350997E+07
  1.718862987808531E+01   1.019217567944593E+00  -7.877240423750606E+00   2.006904937350997E+07
  1.730938577725248E+01   1.002702904918192E+00  -7.774436675950112E+00   2.006904937350997E+07
  1.742255857669007E+01   9.872520297971504E-01  -7.670907824482742E+00   2.006904937350997E+07
  1.753003572606086E+01   9.748693577548839E-01  -7.566689369184583E+00   2.006904937350997E+07
  1.763492489712993E+01   9.674027022635302E-01  -7.461447292791190E+00   2.006904937350997E+07
  1.774106162944602E+01   9.664190250551834E-01  -7.354461219136884E+00   2.006904937350997E+07
  1.785240592789079E+01   9.731255091930724E-01  -7.244654748818235E+00   2.006904937350997E+07
  1.797241873179969E+01   9.883344529424601E-01  -7.130679203266018E+00   2.006904937350997E+07
  1.810350962745548E+01   1.012464308044018E+00  -7.011050786214153E+00   2.006904937350997E+07
  1.824663436185472E+01   1.045565620619400E+00  -6.884333162910868E+00   2.006904937350997E+07
  1.840109693893249E+01   1.087359942376429E+00  -6.749348873306674E+00   2.006904937350997E+07
  1.856458017024308E+01   1.137281677255081E+00  -6.605395373422265E+00   2.006904937350997E+07
  1.873339525356897E+01   1.194516568935692E+00  -6.452436430685457E+00   2.006904937350997E+07
  1.890291019170007E+01   1.258035082881832E+00  -6.291238424467153E+00   2.006904937350997E+07
  1.906809301743057E+01   1.326623179252428E+00  -6.123424628524253E+00   2.006904937350997E+07
  1.922409206196861E+01   1.398915932487277E+00  -5.951428843311519E+00   2.006904937350997E+07
  1.936677348845975E+01   1.473440468952540E+00  -5.778342040895923E+00   2.006904937350997E+07
  1.949314582259561E+01   1.548673538564667E+00  -5.607660447777757E+00   2.006904937350997E+07
  1.960162037149634E+01   1.623115949719907E+00  -5.442958607943175E+00   2.006904937350997E+07
  1.969208200712518E+01   1.695381732656514E+00  -5.287524060495389E+00   2.006904937350997E+07
  1.976577276382675E+01   1.764295192207622E+00  -5.143999067936729E+00   2.006904937350997E+07
  1.982501684349596E+01   1.828985007181970E+00  -5.014077579268595E+00   2.006904937350997E+07
  1.987283617663115E+01   1.888962173066347E+00  -4.898301375078563E+00   2.006904937350997E+07
  1.991251789660155E+01   1.944168528656941E+00  -4.795988233157612E+00   2.006904937350997E+07
  1.994719756793975E+01   1.994985101119395E+00  -4.705308185356206E+00   2.006904937350997E+07
  1.997951491478987E+01   2.042194316922662E+00  -4.623503697992001E+00   2.006904937350997E+07
  2.001138371062899E+01   2.086896575106709E+00  -4.547228775240883E+00   2.006904937350997E+07
  2.004389714017427E+01   2.130388735716461E+00  -4.472963704705890E+00   2.006904937350997E+07
  2.007736772612992E+01   2.174018536506658E+00  -4.397449372090492E+00   2.006904937350997E+07
  2.011148034574272E+01   2.219033644067949E+00  -4.318080016428529E+00   2.006904937350997E+07
  2.014552103708475E+01   2.266446040616900E+00  -4.233197151024517E+00   2.006904937350997E+07
  2.017863541695623E+01   2.316931227750087E+00  -4.142239995137631E+00   2.006904937350997E+07
  2.021006961221578E+01   2.370777297955457E+00  -4.045727646055257E+00   2.006904937350997E+07
  2.023935335336258E+01   2.427891832123247E+00  -3.945072678928800E+00   2.006904937350997E+07
  2.026639780014879E+01   2.487865850240380E+00  -3.842251372962813E+00   2.006904937350997E+07
  2.029149735308417E+01   2.550085019914232E+00  -3.739378486899797E+00   2.006904937350997E+07
  2.031524224270502E+01   2.613870472817465E+00  -3.638250861964275E+00   2.006904937350997E+07
  2.033836415633840E+01   2.678626227235835E+00  -3.539931355218163E+00   2.006904937350997E+07
  2.036154809033074E+01   2.743968350498678E+00  -3.444441218958646E+00   2.006904937350997E+07
  2.038524837099106E+01   2.809813077848611E+00  -3.350615119621353E+00   2.006904937350997E+07
  2.040954480825707E+01   2.876406973088591E+00  -3.256150218941210E+00   2.006904937350997E+07
  2.043406679890036E+01   2.944291091127822E+00  -3.157852221077309E+00   2.006904937350997E+07
  2.045800044877416E+01   3.014201686729544E+00  -3.052051117173693E+00   2.006904937350997E+07
  2.048017872028358E+01   3.086920683036299E+00  -2.935132037313364E+00   2.006904937350997E+07
  2.049923983901570E+01   3.163098163552758E+00  -2.804106392550102E+00   2.006904937350997E+07
  2.051382720661596E+01   3.243075066691156E+00  -2.657138687231201E+00   2.006904937350997E+07
  2.052279684000448E+01   3.326735963416076E+00  -2.493946885876595E+00   2.006904937350997E+07
  2.052539703116242E+01   3.413418829202220E+00  -2.316009128387482E+00   2.006904937350997E+07
  2.052138963406632E+01   3.501901341318729E+00  -2.126535143383893E+00   2.006904937350997E+07
  2.051109226496607E+01   3.590472402350706E+00  -1.930193498135593E+00   2.006904937350997E+07
  2.049533403091544E+01   3.677084847183003E+00  -1.732621234430127E+00   2.006904937350997E+07
  2.047533191029549E+01   3.759572525789292E+00  -1.539775317791927E+00   2.006904937350997E+07
  2.045250815995107E+01   3.835904135379248E+00  -1.357210725797234E+00   0.000000000000000E+00 1 CurveXYZFourier70 
  1.605030665592841E+01   6.760944428962188E+00  -2.092125836047012E+00   1.196984702052579E+07
  1.606775959330050E+01   6.776680546702814E+00  -2.027333683835111E+00   1.196984702052579E+07
  1.608496784974491E+01   6.793060963587188E+00  -1.958040220352764E+00   1.196984702052579E+07
  1.610286412097352E+01   6.811427582573553E+00  -1.879023501924542E+00   1.196984702052579E+07
  1.612192566184578E+01   6.833329426415013E+00  -1.785841812890047E+00   1.196984702052579E+07
  1.614207144719895E+01   6.860393923980589E+00  -1.675284026243802E+00   1.196984702052579E+07
  1.616263618084935E+01   6.894173090142320E+00  -1.545669912899158E+00   1.196984702052579E+07
  1.618242572464189E+01   6.935979672374038E+00  -1.396967296613474E+00   1.196984702052579E+07
  1.619984713035175E+01   6.986730979338976E+00  -1.230717541660998E+00   1.196984702052579E+07
  1.621309606889411E+01   7.046818744721518E+00  -1.049786186487013E+00   1.196984702052579E+07
  1.622037656271705E+01   7.116021745009993E+00  -8.579780492546681E-01   1.196984702052579E+07
  1.622012366199670E+01   7.193474004296320E+00  -6.595727058721442E-01   1.196984702052579E+07
  1.621119964542610E+01   7.277695616465431E+00  -4.588446274872684E-01   1.196984702052579E+07
  1.619303842828473E+01   7.366686120941674E+00  -2.596314084209763E-01   1.196984702052579E+07
  1.616572046455147E+01   7.458072833972037E+00  -6.500370645296540E-02   1.196984702052579E+07
  1.612997036348640E+01   7.549299537157715E+00   1.229266606353699E-01   1.196984702052579E+07
  1.608708019869012E+01   7.637835425586208E+00   3.030459243725127E-01   1.196984702052579E+07
  1.603877146032623E+01   7.721381041910036E+00   4.751336712009799E-01   1.196984702052579E+07
  1.598701632183342E+01   7.798047621686350E+00   6.396443037585789E-01   1.196984702052579E+07
  1.593384325821646E+01   7.866489034506550E+00   7.974207827471648E-01   1.196984702052579E+07
  1.588115249168631E+01   7.925971095120913E+00   9.493952930119737E-01   1.196984702052579E+07
  1.583056329511052E+01   7.976370802284814E+00   1.096331250859564E+00   1.196984702052579E+07
  1.578330850270591E+01   8.018107064462107E+00   1.238652218974036E+00   1.196984702052579E+07
  1.574018281055891E+01   8.052013495925383E+00   1.376387241160093E+00   1.196984702052579E+07
  1.570154206707170E+01   8.079171659200396E+00   1.509241358956312E+00   1.196984702052579E+07
  1.566734231416768E+01   8.100728551381863E+00   1.636777846577371E+00   1.196984702052579E+07
  1.563720124520951E+01   8.117724328893818E+00   1.758678453995566E+00   1.196984702052579E+07
  1.561046201523443E+01   8.130954805876081E+00   1.875032853286957E+00   1.196984702052579E+07
  1.558624044684392E+01   8.140888218257707E+00   1.986600957781252E+00   1.196984702052579E+07
  1.556344146603878E+01   8.147647710171396E+00   2.094993124066663E+00   1.196984702052579E+07
  1.554073830865667E+01   8.151061021741938E+00   2.202723430220472E+00   1.196984702052579E+07
  1.551651739055123E+01   8.150768316827238E+00   2.313108899805249E+00   1.196984702052579E+07
  1.548880115402710E+01   8.146369511477419E+00   2.430010222248950E+00   1.196984702052579E+07
  1.545516904350557E+01   8.137585307065418E+00   2.557433936742914E+00   1.196984702052579E+07
  1.541270157118361E+01   8.124402573633725E+00   2.699038620133837E+00   1.196984702052579E+07
  1.535797318148531E+01   8.107175481786285E+00   2.857604981280353E+00   1.196984702052579E+07
  1.528711588547515E+01   8.086658967998718E+00   3.034539248431629E+00   1.196984702052579E+07
  1.519596767515013E+01   8.063960224027618E+00   3.229479268820928E+00   1.196984702052579E+07
  1.508030847702316E+01   8.040405816856683E+00   3.440063075207789E+00   1.196984702052579E+07
  1.493617335376910E+01   8.017335196469556E+00   3.661901439260685E+00   1.196984702052579E+07
  1.476021965191497E+01   7.995843896011936E+00   3.888771473336780E+00   1.196984702052579E+07
  1.455011375212986E+01   7.976509818687027E+00   4.113020900904362E+00   1.196984702052579E+07
  1.430489574445095E+01   7.959142031027456E+00   4.326145872157513E+00   1.196984702052579E+07
  1.402527801005399E+01   7.942592322080516E+00   4.519482760836639E+00   1.196984702052579E+07
  1.371383697849685E+01   7.924664989079379E+00   4.684939268611783E+00   1.196984702052579E+07
  1.337506611729556E+01   7.902150182090058E+00   4.815684415673879E+00   1.196984702052579E+07
  1.301527160672550E+01   7.870991749034711E+00   4.906721368897015E+00   1.196984702052579E+07
  1.264230860529300E+01   7.826583578438371E+00   4.955280942860069E+00   1.196984702052579E+07
  1.226517351085339E+01   7.764171087796089E+00   4.960995124453859E+00   1.196984702052579E+07
  1.189348396978213E+01   7.679319060542674E+00   4.925836242047342E+00   1.196984702052579E+07
  1.153689149134924E+01   7.568395658267892E+00   4.853834960056195E+00   1.196984702052579E+07
  1.120447968994748E+01   7.429016845292823E+00   4.750615559250996E+00   1.196984702052579E+07
  1.090420333411939E+01   7.260396682459780E+00   4.622806776553642E+00   1.196984702052579E+07
  1.064241923174275E+01   7.063557138556228E+00   4.477398449212277E+00   1.196984702052579E+07
  1.042355004201513E+01   6.841365480790811E+00   4.321117072964792E+00   1.196984702052579E+07
  1.024990763537360E+01   6.598386345289445E+00   4.159887129711928E+00   1.196984702052579E+07
  1.012168544889411E+01   6.340556999530298E+00   3.998430867843739E+00   1.196984702052579E+07
  1.003711155234308E+01   6.074715453610470E+00   3.840039333901317E+00   1.196984702052579E+07
  9.992738022208959E+00   5.808029273285666E+00   3.686524728271422E+00   1.196984702052579E+07
  9.983829628686971E+00   5.547385817569271E+00   3.538341702332723E+00   1.196984702052579E+07
  1.000480717294541E+01   5.298810414568366E+00   3.394845942836218E+00   1.196984702052579E+07
  1.004969878242521E+01   5.066976815918258E+00   3.254644619699734E+00   1.196984702052579E+07
  1.011255603224694E+01   4.854864247936955E+00   3.115986435530249E+00   1.196984702052579E+07
  1.018780013285708E+01   4.663598625640348E+00   2.977139495973796E+00   1.196984702052579E+07
  1.027047523170191E+01   4.492494008257674E+00   2.836712366621385E+00   1.196984702052579E+07
  1.035639935737379E+01   4.339286775283887E+00   2.693885955735885E+00   1.196984702052579E+07
  1.044221679829281E+01   4.200532211400196E+00   2.548539112864773E+00   1.196984702052579E+07
  1.052536700540178E+01   4.072114051072157E+00   2.401266652452876E+00   1.196984702052579E+07
  1.060399307021722E+01   3.949804449156930E+00   2.253302602062437E+00   1.196984702052579E+07
  1.067681664233842E+01   3.829806455537863E+00   2.106371987186151E+00   1.196984702052579E+07
  1.074300564581024E+01   3.709214050849880E+00   1.962500245833490E+00   1.196984702052579E+07
  1.080205680081753E+01   3.586335756945904E+00   1.823810088531226E+00   1.196984702052579E+07
  1.085370776243689E+01   3.460845368289201E+00   1.692331775120702E+00   1.196984702052579E+07
  1.089788501933581E+01   3.333745226875228E+00   1.569845546031590E+00   1.196984702052579E+07
  1.093468505882910E+01   3.207150910532673E+00   1.457765948828187E+00   1.196984702052579E+07
  1.096437911068940E+01   3.083928267753597E+00   1.357068819304599E+00   1.196984702052579E+07
  1.098742713251097E+01   2.967231656516100E+00   1.268254333713546E+00   1.196984702052579E+07
  1.100448523060251E+01   2.860003827735126E+00   1.191335045229425E+00   1.196984702052579E+07
  1.101639251227568E+01   2.764501765132168E+00   1.125836744469852E+00   1.196984702052579E+07
  1.102412798746295E+01   2.681908580258930E+00   1.070802246002674E+00   1.196984702052579E+07
  1.102873467826006E+01   2.612079925909364E+00   1.024793062712260E+00   1.196984702052579E+07
  1.103121535870052E+01   2.553455928771064E+00   9.858901602442739E-01   1.196984702052579E+07
  1.103241104321214E+01   2.503148661499504E+00   9.517011019711481E-01   1.196984702052579E+07
  1.103287829412947E+01   2.457193386518318E+00   9.193854396465359E-01   1.196984702052579E+07
  1.103278375026803E+01   2.410931964378316E+00   8.857120065293894E-01   1.196984702052579E+07
  1.103183355012820E+01   2.359481371538897E+00   8.471601697500392E-01   1.196984702052579E+07
  1.102925159598874E+01   2.298231037640273E+00   8.000720807855713E-01   1.196984702052579E+07
  1.102381442603880E+01   2.223310670380719E+00   7.408551736355246E-01   1.196984702052579E+07
  1.101394277246290E+01   2.131975419898030E+00   6.662248148524923E-01   1.196984702052579E+07
  1.099784186835338E+01   2.022866752680211E+00   5.734676977986778E-01   1.196984702052579E+07
  1.097367546427939E+01   1.896123585529437E+00   4.606989969184631E-01   1.196984702052579E+07
  1.093975342504114E+01   1.753336863208588E+00   3.270819807523866E-01   1.196984702052579E+07
  1.089471048674343E+01   1.597359408239952E+00   1.729788041886465E-01   1.196984702052579E+07
  1.083765462106766E+01   1.431999183620171E+00   5.993231433844455E-06   1.196984702052579E+07
  1.076826735179528E+01   1.261636145260298E+00  -1.890226178136447E-01   1.196984702052579E+07
  1.068684471311789E+01   1.090809317610730E+00  -3.902700864791752E-01   1.196984702052579E+07
  1.059427538007375E+01   9.238210861285784E-01  -5.991578832642886E-01   1.196984702052579E+07
  1.049196067373509E+01   7.644002674202242E-01  -8.107307669184289E-01   1.196984702052579E+07
  1.038168844933367E+01   6.154553383394750E-01  -1.020069227533202E+00   1.196984702052579E+07
  1.026547826719837E+01   4.789358930814295E-01  -1.222706044121224E+00   1.196984702052579E+07
  1.014541798666035E+01   3.558058891070252E-01  -1.415001269373360E+00   1.196984702052579E+07
  1.002351169245870E+01   2.461185193271714E-01  -1.594433681402040E+00   1.196984702052579E+07
  9.901555802087135E+00   1.491713617845767E-01  -1.759776105294696E+00   1.196984702052579E+07
  9.781054881031368E+00   6.371310466246810E-02  -1.911135854457117E+00   1.196984702052579E+07
  9.663182013728951E+00  -1.182969188770466E-02  -2.049858047250426E+00   1.196984702052579E+07
  9.548781629227225E+00  -7.913564347477010E-02  -2.178306475462344E+00   1.196984702052579E+07
  9.438406560399013E+00  -1.398056498710365E-01  -2.299551701416692E+00   1.196984702052579E+07
  9.332376759562795E+00  -1.952299540838867E-01  -2.417007052372059E+00   1.196984702052579E+07
  9.230845128134872E+00  -2.465113721511295E-01  -2.534058634232318E+00   1.196984702052579E+07
  9.133856566853893E+00  -2.944414826982414E-01  -2.653734657831157E+00   1.196984702052579E+07
  9.041389406837368E+00  -3.395187800181982E-01  -2.778452416455909E+00   1.196984702052579E+07
  8.953373238426067E+00  -3.819927204039091E-01  -2.909869209476799E+00   1.196984702052579E+07
  8.869682922854794E+00  -4.219158116716302E-01  -3.048848140341628E+00   1.196984702052579E+07
  8.790114218449968E+00  -4.591874471535930E-01  -3.195533264437634E+00   1.196984702052579E+07
  8.714350974725136E+00  -4.935775792048788E-01  -3.349513400525368E+00   1.196984702052579E+07
  8.641936435111795E+00  -5.247246476821958E-01  -3.510042215450204E+00   1.196984702052579E+07
  8.572261360317734E+00  -5.521092422426519E-01  -3.676275583187367E+00   1.196984702052579E+07
  8.504579365338701E+00  -5.750115262139086E-01  -3.847486574884506E+00   1.196984702052579E+07
  8.438055401851360E+00  -5.924653517873919E-01  -4.023223732935370E+00   1.196984702052579E+07
  8.371847430014679E+00  -6.032244176365182E-01  -4.203388613616504E+00   1.196984702052579E+07
  8.305214979806491E+00  -6.057553487019094E-01  -4.388222304161569E+00   1.196984702052579E+07
  8.237642570778695E+00  -5.982692786971163E-01  -4.578205599235143E+00   1.196984702052579E+07
  8.168961835208012E+00  -5.787979115904268E-01  -4.773891464362804E+00   1.196984702052579E+07
  8.099454430954660E+00  -5.453130206676674E-01  -4.975699210770097E+00   1.196984702052579E+07
  8.029918831625510E+00  -4.958810300514894E-01  -5.183705850142619E+00   1.196984702052579E+07
  7.961687804479170E+00  -4.288378810993644E-01  -5.397470522960229E+00   1.196984702052579E+07
  7.896589357567341E+00  -3.429648520828831E-01  -5.615922700287078E+00   1.196984702052579E+07
  7.836851315668734E+00  -2.376441230233432E-01  -5.837334904935265E+00   1.196984702052579E+07
  7.784957386587933E+00  -1.129740072717038E-01  -6.059387563174686E+00   1.196984702052579E+07
  7.743469446155906E+00   3.017219467810390E-02  -6.279319335756101E+00   1.196984702052579E+07
  7.714835746105137E+00   1.901533606771817E-01  -6.494143096039857E+00   1.196984702052579E+07
  7.701207047416178E+00   3.646354871643296E-01  -6.700897648937644E+00   1.196984702052579E+07
  7.704281911062121E+00   5.507278938837229E-01  -6.896899849565612E+00   1.196984702052579E+07
  7.725198607042915E+00   7.451666944373012E-01  -7.079961792236728E+00   1.196984702052579E+07
  7.764484855210488E+00   9.445258639719540E-01  -7.248543161364499E+00   1.196984702052579E+07
  7.822068791259054E+00   1.145433158116663E+00  -7.401818795021913E+00   1.196984702052579E+07
  7.897346306613324E+00   1.344768052169694E+00  -7.539654443705732E+00   1.196984702052579E+07
  7.989292460724707E+00   1.539821747820786E+00  -7.662497596358549E+00   1.196984702052579E+07
  8.096599112027972E+00   1.728404690585713E+00  -7.771202941918784E+00   1.196984702052579E+07
  8.217818078069607E+00   1.908894162905323E+00  -7.866821583420284E+00   1.196984702052579E+07
  8.351489422880881E+00   2.080222347903720E+00  -7.950388066598340E+00   1.196984702052579E+07
  8.496237811492806E+00   2.241812703955917E+00  -8.022738890491986E+00   1.196984702052579E+07
  8.650825731624540E+00   2.393478539849858E+00  -8.084390529550850E+00   1.196984702052579E+07
  8.814159839105717E+00   2.535301548874614E+00  -8.135495024385186E+00   1.196984702052579E+07
  8.985254569515424E+00   2.667509293725430E+00  -8.175878469937874E+00   1.196984702052579E+07
  9.163164241120011E+00   2.790369166429237E+00  -8.205154246087483E+00   1.196984702052579E+07
  9.346900045403386E+00   2.904112498382508E+00  -8.222890707547975E+00   1.196984702052579E+07
  9.535350769892016E+00   3.008896913544114E+00  -8.228804170925002E+00   1.196984702052579E+07
  9.727225435773656E+00   3.104808576569083E+00  -8.222943789473351E+00   1.196984702052579E+07
  9.921032357838708E+00   3.191899653050683E+00  -8.205835948543310E+00   1.196984702052579E+07
  1.011510301722105E+01   3.270250986448908E+00  -8.178561979789100E+00   1.196984702052579E+07
  1.030766153568605E+01   3.340046439705653E+00  -8.142753315167127E+00   1.196984702052579E+07
  1.049693265139975E+01   3.401644001023158E+00  -8.100501071434376E+00   1.196984702052579E+07
  1.068127417332838E+01   3.455629726588115E+00  -8.054190466145352E+00   1.196984702052579E+07
  1.085931504880044E+01   3.502843658456299E+00  -8.006282328313048E+00   1.196984702052579E+07
  1.103007821715150E+01   3.544371485284023E+00  -7.959072434405369E+00   1.196984702052579E+07
  1.119306870216830E+01   3.581501167851493E+00  -7.914463155620807E+00   1.196984702052579E+07
  1.134831177726904E+01   3.615649195181330E+00  -7.873780361075401E+00   1.196984702052579E+07
  1.149633289650454E+01   3.648265764815117E+00  -7.837661922554106E+00   1.196984702052579E+07
  1.163807940622042E+01   3.680731333155043E+00  -7.806033533941688E+00   1.196984702052579E+07
  1.177479258228611E+01   3.714258237240446E+00  -7.778174541416667E+00   1.196984702052579E+07
  1.190784597382250E+01   3.749810317777435E+00  -7.752863095591501E+00   1.196984702052579E+07
  1.203857122582121E+01   3.788050844808516E+00  -7.728578253717867E+00   1.196984702052579E+07
  1.216809467939512E+01   3.829324997139725E+00  -7.703728479070158E+00   1.196984702052579E+07
  1.229720674796341E+01   3.873678301598208E+00  -7.676872556049904E+00   1.196984702052579E+07
  1.242628149717799E+01   3.920907519133517E+00  -7.646900769525685E+00   1.196984702052579E+07
  1.255525667147143E+01   3.970636177792487E+00  -7.613150969190604E+00   1.196984702052579E+07
  1.268367566924757E+01   4.022403887031647E+00  -7.575444766210258E+00   1.196984702052579E+07
  1.281078397495074E+01   4.075757115247622E+00  -7.534041901627567E+00   1.196984702052579E+07
  1.293566466018861E+01   4.130329417715877E+00  -7.489523760465333E+00   1.196984702052579E+07
  1.305739196061006E+01   4.185901052750444E+00  -7.442628042189022E+00   1.196984702052579E+07
  1.317517947276141E+01   4.242431176971852E+00  -7.394064001744803E+00   1.196984702052579E+07
  1.328850057583906E+01   4.300059852601734E+00  -7.344340288748276E+00   1.196984702052579E+07
  1.339716311457838E+01   4.359081328417088E+00  -7.293634840145917E+00   1.196984702052579E+07
  1.350132751668078E+01   4.419893871367268E+00  -7.241728953524372E+00   1.196984702052579E+07
  1.360146628289928E+01   4.482934316436878E+00  -7.188016772507447E+00   1.196984702052579E+07
  1.369827185073724E+01   4.548607114414454E+00  -7.131588712523161E+00   1.196984702052579E+07
  1.379252781453921E+01   4.617217837418191E+00  -7.071374898611163E+00   1.196984702052579E+07
  1.388496416676313E+01   4.688919908398106E+00  -7.006324498625842E+00   1.196984702052579E+07
  1.397611973545779E+01   4.763681002521358E+00  -6.935590581867908E+00   1.196984702052579E+07
  1.406623394071064E+01   4.841272518460498E+00  -6.858688857846341E+00   1.196984702052579E+07
  1.415518553014194E+01   4.921282207830277E+00  -6.775602600239646E+00   1.196984702052579E+07
  1.424248875413094E+01   5.003146958744674E+00  -6.686814642980907E+00   1.196984702052579E+07
  1.432734859988805E+01   5.086200268681537E+00  -6.593259199464433E+00   1.196984702052579E+07
  1.440876756941220E+01   5.169727407889227E+00  -6.496199505739223E+00   1.196984702052579E+07
  1.448568845930219E+01   5.253020810085567E+00  -6.397049778005083E+00   1.196984702052579E+07
  1.455715191580346E+01   5.335428812927854E+00  -6.297169648581486E+00   1.196984702052579E+07
  1.462244507811319E+01   5.416392340846738E+00  -6.197664469539819E+00   1.196984702052579E+07
  1.468121877840000E+01   5.495466200681532E+00  -6.099224706645840E+00   1.196984702052579E+07
  1.473355537752350E+01   5.572324007870165E+00  -6.002031998842098E+00   1.196984702052579E+07
  1.477997669024787E+01   5.646748032041311E+00  -5.905749124307424E+00   1.196984702052579E+07
  1.482139047527319E+01   5.718607143066285E+00  -5.809597660925998E+00   1.196984702052579E+07
  1.485898325853961E+01   5.787827331670297E+00  -5.712512663763406E+00   1.196984702052579E+07
  1.489407539976341E+01   5.854359857851037E+00  -5.613350526712797E+00   1.196984702052579E+07
  1.492796004856700E+01   5.918151941401872E+00  -5.511116521646602E+00   1.196984702052579E+07
  1.496175007714665E+01   5.979124145892711E+00  -5.405173989131470E+00   1.196984702052579E+07
  1.499625583168955E+01   6.037157387315474E+00  -5.295398686323615E+00   1.196984702052579E+07
  1.503191178891116E+01   6.092091027289770E+00  -5.182249337819461E+00   1.196984702052579E+07
  1.506876265152994E+01   6.143731998625540E+00  -5.066737984921337E+00   1.196984702052579E+07
  1.510651021543897E+01   6.191873542457112E+00  -4.950299463185044E+00   1.196984702052579E+07
  1.514461290034469E+01   6.236321047922963E+00  -4.834575869982062E+00   1.196984702052579E+07
  1.518242160925932E+01   6.276921756842122E+00  -4.721146620862032E+00   1.196984702052579E+07
  1.521932984814434E+01   6.313594750442248E+00  -4.611245236776766E+00   1.196984702052579E+07
  1.525491369883708E+01   6.346357651167658E+00  -4.505508526647603E+00   1.196984702052579E+07
  1.528903868440083E+01   6.375346799354101E+00  -4.403801376169949E+00   1.196984702052579E+07
  1.532191560563760E+01   6.400828240096187E+00  -4.305151014556480E+00   1.196984702052579E+07
  1.535409531587326E+01   6.423197620747511E+00  -4.207809559833609E+00   1.196984702052579E+07
  1.538640194873347E+01   6.442968005693382E+00  -4.109444912970417E+00   1.196984702052579E+07
  1.541981386451949E+01   6.460745624811919E+00  -4.007440384988640E+00   1.196984702052579E+07
  1.545531003296870E+01   6.477194652131171E+00  -3.899265742213554E+00   1.196984702052579E+07
  1.549370540477362E+01   6.492993221396626E+00  -3.782869387906789E+00   1.196984702052579E+07
  1.553550110861142E+01   6.508783966587935E+00  -3.657035292012199E+00   1.196984702052579E+07
  1.558077364418748E+01   6.525123341820409E+00  -3.521650210201824E+00   1.196984702052579E+07
  1.562912182291725E+01   6.542434712507601E+00  -3.377836720018311E+00   1.196984702052579E+07
  1.567968180854270E+01   6.560970584802502E+00  -3.227924478472433E+00   1.196984702052579E+07
  1.573121046496953E+01   6.580789218981149E+00  -3.075253658319910E+00   1.196984702052579E+07
  1.578222684256207E+01   6.601750145629093E+00  -2.923827789466522E+00   1.196984702052579E+07
  1.583119259494931E+01   6.623531716933121E+00  -2.777854927966927E+00   1.196984702052579E+07
  1.587670580072920E+01   6.645671806343304E+00  -2.641233052213002E+00   1.196984702052579E+07
  1.591768005898968E+01   6.667630245390203E+00  -2.517045303645533E+00   1.196984702052579E+07
  1.595348227813295E+01   6.688868787239384E+00  -2.407131593130516E+00   1.196984702052579E+07
  1.598400810948070E+01   6.708941633109521E+00  -2.311794858459193E+00   1.196984702052579E+07
  1.600968271850109E+01   6.727587227674293E+00  -2.229683854222062E+00   1.196984702052579E+07
  1.603138527869541E+01   6.744810509480666E+00  -2.157871929865717E+00   1.196984702052579E+07
  1.605030665592841E+01   6.760944428962188E+00  -2.092125836047012E+00   0.000000000000000E+00 2 CurveXYZFourier71 
  1.311437027892010E+01   8.660042406405930E+00  -1.649080593277154E+00   1.208227974350938E+07
  1.316043973253527E+01   8.719486406522289E+00  -1.475983322905905E+00   1.208227974350938E+07
  1.319879574894287E+01   8.784815746710770E+00  -1.299745030702400E+00   1.208227974350938E+07
  1.322889948350076E+01   8.854624627180000E+00  -1.122072316661796E+00   1.208227974350938E+07
  1.325062277964691E+01   8.927056995608433E+00  -9.449219771374995E-01   1.208227974350938E+07
  1.326427086529197E+01   8.999993611576523E+00  -7.703356502784863E-01   1.208227974350938E+07
  1.327056216564749E+01   9.071267511635773E+00  -6.002390592428511E-01   1.208227974350938E+07
  1.327056287920471E+01   9.138879246284738E+00  -4.362288518913172E-01   1.208227974350938E+07
  1.326557916128647E+01   9.201183904187824E+00  -2.793736284453273E-01   1.208227974350938E+07
  1.325701509209466E+01   9.257026632618766E+00  -1.300558499240654E-01   1.208227974350938E+07
  1.324620936392843E+01   9.305811355474352E+00   1.212222284177907E-02   1.208227974350938E+07
  1.323426712352066E+01   9.347497433531849E+00   1.483522377835867E-01   1.208227974350938E+07
  1.322190509618698E+01   9.382529553254594E+00   2.805460685826361E-01   1.208227974350938E+07
  1.320932765932398E+01   9.411715552262411E+00   4.111782471059306E-01   1.208227974350938E+07
  1.319614885963606E+01   9.436073758263023E+00   5.430584391326889E-01   1.208227974350938E+07
  1.318137071655396E+01   9.456674707807899E+00   6.790567930487099E-01   1.208227974350938E+07
  1.316342204043087E+01   9.474501363242219E+00   8.218111713053724E-01   1.208227974350938E+07
  1.314025515767680E+01   9.490347342366375E+00   9.734478905408036E-01   1.208227974350938E+07
  1.310949124458651E+01   9.504765010552036E+00   1.135346285661874E+00   1.208227974350938E+07
  1.306859930902698E+01   9.518065844426921E+00   1.307972344304379E+00   1.208227974350938E+07
  1.301508999670292E+01   9.530365833886778E+00   1.490798506711116E+00   1.208227974350938E+07
  1.294670388718211E+01   9.541660459795285E+00   1.682316579828248E+00   1.208227974350938E+07
  1.286157502844987E+01   9.551908365802694E+00   1.880139919326530E+00   1.208227974350938E+07
  1.275835403041761E+01   9.561101187742993E+00   2.081181004477461E+00   1.208227974350938E+07
  1.263628064269107E+01   9.569299462457586E+00   2.281882555110921E+00   1.208227974350938E+07
  1.249520263030911E+01   9.576620787656426E+00   2.478475398112627E+00   1.208227974350938E+07
  1.233554498513843E+01   9.583175489755051E+00   2.667234926103815E+00   1.208227974350938E+07
  1.215824005199654E+01   9.588955526282332E+00   2.844710240484387E+00   1.208227974350938E+07
  1.196463406136941E+01   9.593692476383874E+00   3.007905472288442E+00   1.208227974350938E+07
  1.175638810785265E+01   9.596708522523425E+00   3.154400441984760E+00   1.208227974350938E+07
  1.153539137912175E+01   9.596788832756543E+00   3.282406582455913E+00   1.208227974350938E+07
  1.130370139917464E+01   9.592103760209421E+00   3.390762627143868E+00   1.208227974350938E+07
  1.106352058440709E+01   9.580204507885167E+00   3.478881755790164E+00   1.208227974350938E+07
  1.081721127172091E+01   9.558106832897838E+00   3.546666743462303E+00   1.208227974350938E+07
  1.056734358762023E+01   9.522465156411982E+00   3.594411609568674E+00   1.208227974350938E+07
  1.031676324673010E+01   9.469825822025713E+00   3.622707204979215E+00   1.208227974350938E+07
  1.006866073492409E+01   9.396935226804692E+00   3.632364460755515E+00   1.208227974350938E+07
  9.826620297786198E+00   9.301068161418330E+00   3.624363399688048E+00   1.208227974350938E+07
  9.594627342054338E+00   9.180335661901681E+00   3.599829500306721E+00   1.208227974350938E+07
  9.377016457557332E+00   9.033931144113831E+00   3.560032727230069E+00   1.208227974350938E+07
  9.178348994665162E+00   8.862278943418827E+00   3.506399555643903E+00   1.208227974350938E+07
  9.003218243966781E+00   8.667060143823244E+00   3.440525440224242E+00   1.208227974350938E+07
  8.855990641905468E+00   8.451105466547945E+00   3.364174867706420E+00   1.208227974350938E+07
  8.740501711631360E+00   8.218162059165151E+00   3.279258415384975E+00   1.208227974350938E+07
  8.659734222698273E+00   7.972557953883171E+00   3.187780711550674E+00   1.208227974350938E+07
  8.615512023856269E+00   7.718802354146129E+00   3.091759089139046E+00   1.208227974350938E+07
  8.608245184067444E+00   7.461169649703740E+00   2.993119028921592E+00   1.208227974350938E+07
  8.636759932992879E+00   7.203318631868902E+00   2.893578109930575E+00   1.208227974350938E+07
  8.698240428472635E+00   6.947995090078591E+00   2.794534121527104E+00   1.208227974350938E+07
  8.788299159752603E+00   6.696856072675603E+00   2.696974496028660E+00   1.208227974350938E+07
  8.901179892693028E+00   6.450438777525853E+00   2.601422921525436E+00   1.208227974350938E+07
  9.030082933177409E+00   6.208278276569711E+00   2.507934961237358E+00   1.208227974350938E+07
  9.167588793504862E+00   5.969158571243109E+00   2.416148247445905E+00   1.208227974350938E+07
  9.306144762753704E+00   5.731463503127704E+00   2.325385212737891E+00   1.208227974350938E+07
  9.438570865945664E+00   5.493580294634341E+00   2.234798488432836E+00   1.208227974350938E+07
  9.558538309639053E+00   5.254300912731725E+00   2.143542233764408E+00   1.208227974350938E+07
  9.660975273883246E+00   5.013166155920874E+00   2.050947847852118E+00   1.208227974350938E+07
  9.742361726638203E+00   4.770704491479251E+00   1.956680574420684E+00   1.208227974350938E+07
  9.800886096914956E+00   4.528531327222486E+00   1.860854848600810E+00   1.208227974350938E+07
  9.836450902818665E+00   4.289292794359449E+00   1.764090794273986E+00   1.208227974350938E+07
  9.850530160242206E+00   4.056458786078648E+00   1.667501522284219E+00   1.208227974350938E+07
  9.845896779456456E+00   3.833990153617884E+00   1.572609860856185E+00   1.208227974350938E+07
  9.826251408169856E+00   3.625921878188803E+00   1.481202649317967E+00   1.208227974350938E+07
  9.795793773860614E+00   3.435915418875811E+00   1.395139419634279E+00   1.208227974350938E+07
  9.758782431468481E+00   3.266837742548975E+00   1.316138937283699E+00   1.208227974350938E+07
  9.719128426323872E+00   3.120421197847123E+00   1.245570698433262E+00   1.208227974350938E+07
  9.680062863011353E+00   2.997047872701188E+00   1.184278517225930E+00   1.208227974350938E+07
  9.643908470187327E+00   2.895685822865409E+00   1.132459712768719E+00   1.208227974350938E+07
  9.611972228549613E+00   2.813984800813092E+00   1.089616557977411E+00   1.208227974350938E+07
  9.584561600190396E+00   2.748518536565438E+00   1.054587473312355E+00   1.208227974350938E+07
  9.561112630739345E+00   2.695142000055220E+00   1.025655161073684E+00   1.208227974350938E+07
  9.540405890470154E+00   2.649417888906436E+00   1.000718866353978E+00   1.208227974350938E+07
  9.520837297976165E+00   2.607058681314629E+00   9.775095747622895E-01   1.208227974350938E+07
  9.500706301387750E+00   2.564329932776414E+00   9.538213513080076E-01   1.208227974350938E+07
  9.478484086879993E+00   2.518367033501111E+00   9.277299488777592E-01   1.208227974350938E+07
  9.453029250953657E+00   2.467370349893964E+00   8.977715460331775E-01   1.208227974350938E+07
  9.423726956846147E+00   2.410660689262049E+00   8.630597707928201E-01   1.208227974350938E+07
  9.390538786424040E+00   2.348595935622329E+00   8.233273045761696E-01   1.208227974350938E+07
  9.353962795478372E+00   2.282367879116225E+00   7.788882328851617E-01   1.208227974350938E+07
  9.314915086620346E+00   2.213713234740788E+00   7.305275852193036E-01   1.208227974350938E+07
  9.274554044578890E+00   2.144582652503035E+00   6.793338139707895E-01   1.208227974350938E+07
  9.234075044750385E+00   2.076814962820367E+00   6.264970759939551E-01   1.208227974350938E+07
  9.194506198718269E+00   2.011860700070276E+00   5.731001895983964E-01   1.208227974350938E+07
  9.156534315731186E+00   1.950589764867839E+00   5.199295650233727E-01   1.208227974350938E+07
  9.120385051355971E+00   1.893204407883527E+00   4.673302597527885E-01   1.208227974350938E+07
  9.085772982454724E+00   1.839262625916172E+00   4.151230826504939E-01   1.208227974350938E+07
  9.051927258662666E+00   1.787800920868321E+00   3.625932567006084E-01   1.208227974350938E+07
  9.017687910657182E+00   1.737531491483531E+00   3.085507145823038E-01   1.208227974350938E+07
  8.981658246529495E+00   1.687079225555882E+00   2.514529160756069E-01   1.208227974350938E+07
  8.942391285705360E+00   1.635219602074063E+00   1.895733434668097E-01   1.208227974350938E+07
  8.898583798949950E+00   1.581080243118786E+00   1.211935217404497E-01   1.208227974350938E+07
  8.849250751952651E+00   1.524275953828369E+00   4.479413955899727E-02   1.208227974350938E+07
  8.793855817816084E+00   1.464958451092347E+00  -4.077819774203791E-02   1.208227974350938E+07
  8.732379687613252E+00   1.403775812775511E+00  -1.361881213751885E-01   1.208227974350938E+07
  8.665316321755988E+00   1.341750868013450E+00  -2.415458291832661E-01   1.208227974350938E+07
  8.593596916909215E+00   1.280100182786726E+00  -3.564041821340270E-01   1.208227974350938E+07
  8.518450948963359E+00   1.220024167665139E+00  -4.798161331705705E-01   1.208227974350938E+07
  8.441221959002608E+00   1.162502904211980E+00  -6.104427541000014E-01   1.208227974350938E+07
  8.363161731036355E+00   1.108131044200819E+00  -7.466964647661147E-01   1.208227974350938E+07
  8.285229438457021E+00   1.057018864837253E+00  -8.869006935389645E-01   1.208227974350938E+07
  8.207921882639237E+00   1.008776281074865E+00  -1.029446413825142E+00   1.208227974350938E+07
  8.131157216269694E+00   9.625839104623152E-01  -1.172927746790824E+00   1.208227974350938E+07
  8.054228049123909E+00   9.173420704946458E-01  -1.316242698507419E+00   1.208227974350938E+07
  7.975831422506188E+00   8.718768164807794E-01  -1.458650451938068E+00   1.208227974350938E+07
  7.894173877707926E+00   8.251735060070070E-01  -1.599782648881358E+00   1.208227974350938E+07
  7.807140882257699E+00   7.766041196558755E-01  -1.739611932042084E+00   1.208227974350938E+07
  7.712512300981405E+00   7.261152338762389E-01  -1.878385919762910E+00   1.208227974350938E+07
  7.608200297202446E+00   6.743489621103284E-01  -2.016538190576720E+00   1.208227974350938E+07
  7.492483613816857E+00   6.226784999610615E-01  -2.154589449635218E+00   1.208227974350938E+07
  7.364212842602499E+00   5.731517282442352E-01  -2.293051799035881E+00   1.208227974350938E+07
  7.222964891190395E+00   5.283489123808169E-01  -2.432347162264771E+00   1.208227974350938E+07
  7.069130899063669E+00   4.911720841525105E-01  -2.572747845882820E+00   1.208227974350938E+07
  6.903929557145482E+00   4.645925901911664E-01  -2.714343508227285E+00   1.208227974350938E+07
  6.729346195446134E+00   4.513883485880933E-01  -2.857035024417497E+00   1.208227974350938E+07
  6.548006111028241E+00   4.539029601039072E-01  -3.000552409664656E+00   1.208227974350938E+07
  6.362997473963347E+00   4.738550168579667E-01  -3.144491478430255E+00   1.208227974350938E+07
  6.177664010431353E+00   5.122184109832848E-01  -3.288362489607657E+00   1.208227974350938E+07
  5.995390021382078E+00   5.691843529231763E-01  -3.431643683974043E+00   1.208227974350938E+07
  5.819399967198516E+00   6.442046730260935E-01  -3.573833217372580E+00   1.208227974350938E+07
  5.652591972514714E+00   7.361054055286906E-01  -3.714494265757470E+00   1.208227974350938E+07
  5.497419615539441E+00   8.432511049810617E-01  -3.853289698955142E+00   1.208227974350938E+07
  5.355829931515049E+00   9.637349374982137E-01  -3.990004365731711E+00   1.208227974350938E+07
  5.229258495463887E+00   1.095567941081403E+00  -4.124554443444029E+00   1.208227974350938E+07
  5.118675615757991E+00   1.236843010188766E+00  -4.256984325109119E+00   1.208227974350938E+07
  5.024671870749802E+00   1.385854626170810E+00  -4.387452110090798E+00   1.208227974350938E+07
  4.947567109921291E+00   1.541163167116860E+00  -4.516205008950527E+00   1.208227974350938E+07
  4.887525052311013E+00   1.701601532297688E+00  -4.643546026165906E+00   1.208227974350938E+07
  4.844655918014822E+00   1.866230454474934E+00  -4.769793337570172E+00   1.208227974350938E+07
  4.819092017703006E+00   2.034256001970327E+00  -4.895234003992776E+00   1.208227974350938E+07
  4.811025540048480E+00   2.204927433279640E+00  -5.020074162515100E+00   1.208227974350938E+07
  4.820703351721340E+00   2.377435218982668E+00  -5.144388615174165E+00   1.208227974350938E+07
  4.848379758305760E+00   2.550827625528834E+00  -5.268073683378648E+00   1.208227974350938E+07
  4.894234115344502E+00   2.723960163725590E+00  -5.390808108527252E+00   1.208227974350938E+07
  4.958265211296322E+00   2.895486221555782E+00  -5.512027388395392E+00   1.208227974350938E+07
  5.040177870351751E+00   3.063890347567588E+00  -5.630916970984200E+00   1.208227974350938E+07
  5.139278827715005E+00   3.227559020774836E+00  -5.746428963083761E+00   1.208227974350938E+07
  5.254398425086274E+00   3.384878328668118E+00  -5.857325341056665E+00   1.208227974350938E+07
  5.383852116609679E+00   3.534344520511041E+00  -5.962248119588589E+00   1.208227974350938E+07
  5.525451458008062E+00   3.674672301097799E+00  -6.059813752244862E+00   1.208227974350938E+07
  5.676568666985279E+00   3.804886979555424E+00  -6.148725572918214E+00   1.208227974350938E+07
  5.834252628085427E+00   3.924389816501053E+00  -6.227894819486181E+00   1.208227974350938E+07
  5.995388079113603E+00   4.032990458620288E+00  -6.296558235027805E+00   1.208227974350938E+07
  6.156884361329718E+00   4.130905383918831E+00  -6.354378905124726E+00   1.208227974350938E+07
  6.315876159998885E+00   4.218725953798727E+00  -6.401517227548800E+00   1.208227974350938E+07
  6.469916571113950E+00   4.297363250850208E+00  -6.438660894232735E+00   1.208227974350938E+07
  6.617142865818073E+00   4.367978881324797E+00  -6.467006424445833E+00   1.208227974350938E+07
  6.756397514483577E+00   4.431911153389792E+00  -6.488189797765656E+00   1.208227974350938E+07
  6.887291168216930E+00   4.490604644270101E+00  -6.504169542827119E+00   1.208227974350938E+07
  7.010199951407974E+00   4.545548562049425E+00  -6.517071525686093E+00   1.208227974350938E+07
  7.126195998559933E+00   4.598226107288979E+00  -6.529009862061570E+00   1.208227974350938E+07
  7.236916968836973E+00   4.650073937949005E+00  -6.541902103033508E+00   1.208227974350938E+07
  7.344386558590934E+00   4.702448477374299E+00  -6.557298518358030E+00   1.208227974350938E+07
  7.450803121062353E+00   4.756594648053716E+00  -6.576244577704203E+00   1.208227974350938E+07
  7.558316834013845E+00   4.813612877311945E+00  -6.599192572389711E+00   1.208227974350938E+07
  7.668817058451812E+00   4.874421826255078E+00  -6.625973027156835E+00   1.208227974350938E+07
  7.783750463344943E+00   4.939716884271226E+00  -6.655829729520059E+00   1.208227974350938E+07
  7.903987258770644E+00   5.009927481077487E+00  -6.687514695062868E+00   1.208227974350938E+07
  8.029747827714770E+00   5.085179023246532E+00  -6.719432158617533E+00   1.208227974350938E+07
  8.160595720844551E+00   5.165267108176697E+00  -6.749814695524630E+00   1.208227974350938E+07
  8.295496066926269E+00   5.249652095323599E+00  -6.776910654640769E+00   1.208227974350938E+07
  8.432931707784773E+00   5.337480857519932E+00  -6.799160784848239E+00   1.208227974350938E+07
  8.571063525600945E+00   5.427639635908231E+00  -6.815343472274546E+00   1.208227974350938E+07
  8.707917124792266E+00   5.518837736190341E+00  -6.824672204297443E+00   1.208227974350938E+07
  8.841575719566672E+00   5.609716954404267E+00  -6.826835198228299E+00   1.208227974350938E+07
  8.970358993736825E+00   5.698976901319639E+00  -6.821974737733928E+00   1.208227974350938E+07
  9.092969820592929E+00   5.785502641490226E+00  -6.810611623412343E+00   1.208227974350938E+07
  9.208594786213579E+00   5.868479011066315E+00  -6.793527196867607E+00   1.208227974350938E+07
  9.316949959972364E+00   5.947476130647282E+00  -6.771620678544606E+00   1.208227974350938E+07
  9.418269651358880E+00   6.022493158534232E+00  -6.745762351000647E+00   1.208227974350938E+07
  9.513242249597242E+00   6.093952030909064E+00  -6.716663051384432E+00   1.208227974350938E+07
  9.602902932729053E+00   6.162639239247907E+00  -6.684777542017470E+00   1.208227974350938E+07
  9.688497416814460E+00   6.229600740807564E+00  -6.650254037648248E+00   1.208227974350938E+07
  9.771333520043038E+00   6.296001856763283E+00  -6.612935252175404E+00   1.208227974350938E+07
  9.852637887331065E+00   6.362969444156803E+00  -6.572408784879883E+00   1.208227974350938E+07
  9.933433752613757E+00   6.431436843992778E+00  -6.528097579761445E+00   1.208227974350938E+07
  1.001445234735361E+01   6.502012518553382E+00  -6.479375573078080E+00   1.208227974350938E+07
  1.009608594497948E+01   6.574890708780062E+00  -6.425690287153545E+00   1.208227974350938E+07
  1.017838516444437E+01   6.649817127217418E+00  -6.366673493436416E+00   1.208227974350938E+07
  1.026109771896505E+01   6.726115337029335E+00  -6.302223215804774E+00   1.208227974350938E+07
  1.034374095432949E+01   6.802771069822763E+00  -6.232544930202377E+00   1.208227974350938E+07
  1.042569684678881E+01   6.878563509844001E+00  -6.158146137742186E+00   1.208227974350938E+07
  1.050631603143783E+01   6.952225735374355E+00  -6.079785593522836E+00   1.208227974350938E+07
  1.058501710466310E+01   7.022612101469919E+00  -5.998385301200874E+00   1.208227974350938E+07
  1.066136885448157E+01   7.088849076277362E+00  -5.914918920376430E+00   1.208227974350938E+07
  1.073514596638186E+01   7.150448158705586E+00  -5.830293664621888E+00   1.208227974350938E+07
  1.080635269515638E+01   7.207364760228619E+00  -5.745243595565828E+00   1.208227974350938E+07
  1.087521343237142E+01   7.259994605985328E+00  -5.660250337332797E+00   1.208227974350938E+07
  1.094213343957600E+01   7.309108203517188E+00  -5.575502946211370E+00   1.208227974350938E+07
  1.100763670167143E+01   7.355732928746662E+00  -5.490902632706285E+00   1.208227974350938E+07
  1.107229043569855E+01   7.400999953647870E+00  -5.406111166795479E+00   1.208227974350938E+07
  1.113662698595609E+01   7.445978433230787E+00  -5.320635142759953E+00   1.208227974350938E+07
  1.120107356225398E+01   7.491521282061690E+00  -5.233932841927422E+00   1.208227974350938E+07
  1.126589865030360E+01   7.538145185886133E+00  -5.145527027456477E+00   1.208227974350938E+07
  1.133118123433315E+01   7.585962431991358E+00  -5.055106142272902E+00   1.208227974350938E+07
  1.139680564330873E+01   7.634674433151091E+00  -4.962598180877542E+00   1.208227974350938E+07
  1.146248134963994E+01   7.683627601030972E+00  -4.868205685855606E+00   1.208227974350938E+07
  1.152778389282299E+01   7.731922871550364E+00  -4.772396238354870E+00   1.208227974350938E+07
  1.159221067658887E+01   7.778562106046881E+00  -4.675849564362660E+00   1.208227974350938E+07
  1.165524397570056E+01   7.822609017482350E+00  -4.579368936834076E+00   1.208227974350938E+07
  1.171641320543486E+01   7.863340061416309E+00  -4.483769921523399E+00   1.208227974350938E+07
  1.177534930118383E+01   7.900362245296011E+00  -4.389762879790659E+00   1.208227974350938E+07
  1.183182572293172E+01   7.933679842627613E+00  -4.297846500630395E+00   1.208227974350938E+07
  1.188578282132756E+01   7.963699809652889E+00  -4.208227867389071E+00   1.208227974350938E+07
  1.193733470145829E+01   7.991175120494642E+00  -4.120780455692286E+00   1.208227974350938E+07
  1.198675992268350E+01   8.017094835925951E+00  -4.035045650967299E+00   1.208227974350938E+07
  1.203447906490923E+01   8.042538033583668E+00  -3.950276770274822E+00   1.208227974350938E+07
  1.208102316860630E+01   8.068514468423654E+00  -3.865518199280980E+00   1.208227974350938E+07
  1.212699724886174E+01   8.095817096265439E+00  -3.779707099933911E+00   1.208227974350938E+07
  1.217304256452150E+01   8.124909996928293E+00  -3.691782006917739E+00   1.208227974350938E+07
  1.221980028547092E+01   8.155869978813788E+00  -3.600781996088389E+00   1.208227974350938E+07
  1.226787792045417E+01   8.188391996756655E+00  -3.505922069602069E+00   1.208227974350938E+07
  1.231781865095829E+01   8.221858682871641E+00  -3.406634646171472E+00   1.208227974350938E+07
  1.237007284310894E+01   8.255464259637980E+00  -3.302572894961462E+00   1.208227974350938E+07
  1.242497067966586E+01   8.288374406598365E+00  -3.193578173118034E+00   1.208227974350938E+07
  1.248269515094578E+01   8.319897632800227E+00  -3.079619969560045E+00   1.208227974350938E+07
  1.254325551421346E+01   8.349641320978490E+00  -2.960721519107730E+00   1.208227974350938E+07
  1.260646259359754E+01   8.377627270573868E+00  -2.836886834595200E+00   1.208227974350938E+07
  1.267190866463491E+01   8.404347080494949E+00  -2.708044847283591E+00   1.208227974350938E+07
  1.273895581533051E+01   8.430746299537303E+00  -2.574023596454190E+00   1.208227974350938E+07
  1.280673727393880E+01   8.458136680564740E+00  -2.434562343867252E+00   1.208227974350938E+07
  1.287417598779814E+01   8.488046564604621E+00  -2.289362861704991E+00   1.208227974350938E+07
  1.294002359647267E+01   8.522028796426918E+00  -2.138173976011471E+00   1.208227974350938E+07
  1.300292089412808E+01   8.561452220913202E+00  -1.980896879890520E+00   1.208227974350938E+07
  1.306147811778315E+01   8.607305714469272E+00  -1.817693843093790E+00   1.208227974350938E+07
  1.311437027892010E+01   8.660042406405930E+00  -1.649080593277154E+00   0.000000000000000E+00 3 CurveXYZFourier72 
  1.065378400436182E+01   9.527112373870384E+00  -1.451995411531430E+00   1.008206140733103E+07
  1.068786809822319E+01   9.551940087505512E+00  -1.362428268373961E+00   1.008206140733103E+07
  1.071885684278779E+01   9.575262655739351E+00  -1.273707570436974E+00   1.008206140733103E+07
  1.074743000196754E+01   9.597640990799354E+00  -1.183873390634594E+00   1.008206140733103E+07
  1.077415498875473E+01   9.619771191751903E+00  -1.090463331404243E+00   1.008206140733103E+07
  1.079937810506336E+01   9.642525574932883E+00  -9.907258928802058E-01   1.008206140733103E+07
  1.082312364446154E+01   9.666990350745335E+00  -8.818861878483670E-01   1.008206140733103E+07
  1.084500983201533E+01   9.694486986404991E+00  -7.614362166393727E-01   1.008206140733103E+07
  1.086418967226178E+01   9.726564198676128E+00  -6.274177515614116E-01   1.008206140733103E+07
  1.087932333238995E+01   9.764949714162567E+00  -4.786656055953155E-01   1.008206140733103E+07
  1.088858681511885E+01   9.811455325686472E+00  -3.149827954351583E-01   1.008206140733103E+07
  1.088971949001216E+01   9.867834918666153E+00  -1.372264449741445E-01   1.008206140733103E+07
  1.088011066280348E+01   9.935602290050086E+00   5.270667912673377E-02   1.008206140733103E+07
  1.085692287109918E+01   1.001582276723145E+01   2.519946094875778E-01   1.008206140733103E+07
  1.081724709807149E+01   1.010889880207710E+01   4.570927101651347E-01   1.008206140733103E+07
  1.075828269274401E+01   1.021437387538137E+01   6.640023736199233E-01   1.008206140733103E+07
  1.067753258720236E+01   1.033078042023809E+01   8.685766447586400E-01   1.008206140733103E+07
  1.057300253690611E+01   1.045555561520580E+01   1.066829852029268E+00   1.008206140733103E+07
  1.044339172920006E+01   1.058504378398559E+01   1.255218697836151E+00   1.008206140733103E+07
  1.028826136919235E+01   1.071459618649184E+01   1.430866578204861E+00   1.008206140733103E+07
  1.010816792157431E+01   1.083876902480750E+01   1.591710541629349E+00   1.008206140733103E+07
  9.904748697600642E+00   1.095160965969682E+01   1.736560212060589E+00   1.008206140733103E+07
  9.680749512910806E+00   1.104701065534511E+01   1.865068865743554E+00   1.008206140733103E+07
  9.439987210075429E+00   1.111910266028969E+01   1.977627245024417E+00   1.008206140733103E+07
  9.187243844383584E+00   1.116265143507296E+01   2.075199290090783E+00   1.008206140733103E+07
  8.928094063162499E+00   1.117342236339387E+01   2.159124720579408E+00   1.008206140733103E+07
  8.668672345811871E+00   1.114847789537342E+01   2.230915660336730E+00   1.008206140733103E+07
  8.415391896546177E+00   1.108637942270894E+01   2.292073113107608E+00   1.008206140733103E+07
  8.174631616184440E+00   1.098727443023731E+01   2.343944401560021E+00   1.008206140733103E+07
  7.952411231415728E+00   1.085286133764120E+01   2.387635448678119E+00   1.008206140733103E+07
  7.754076881192478E+00   1.068623688008904E+01   2.423983098006211E+00   1.008206140733103E+07
  7.584019903285981E+00   1.049164270337285E+01   2.453583784661037E+00   1.008206140733103E+07
  7.445450036591906E+00   1.027413766861910E+01   2.476867011537006E+00   1.008206140733103E+07
  7.340240755923356E+00   1.003922903142897E+01   2.494196296647444E+00   1.008206140733103E+07
  7.268859195513057E+00   9.792498441663673E+00   2.505977254574755E+00   1.008206140733103E+07
  7.230386508482274E+00   9.539257361138976E+00   2.512752559698321E+00   1.008206140733103E+07
  7.222627136124177E+00   9.284261298307873E+00   2.515266570675363E+00   1.008206140733103E+07
  7.242298021628031E+00   9.031503971597282E+00   2.514487825807459E+00   1.008206140733103E+07
  7.285282037229665E+00   8.784102267562591E+00   2.511584581204247E+00   1.008206140733103E+07
  7.346924498780233E+00   8.544272002448768E+00   2.507856006873237E+00   1.008206140733103E+07
  7.422348190023989E+00   8.313384404217340E+00   2.504628498201586E+00   1.008206140733103E+07
  7.506761188161531E+00   8.092085133044232E+00   2.503131842888109E+00   1.008206140733103E+07
  7.595733105819154E+00   7.880452467027657E+00   2.504373001421570E+00   1.008206140733103E+07
  7.685419009869068E+00   7.678169487220946E+00   2.509025652626663E+00   1.008206140733103E+07
  7.772715856822723E+00   7.484686716213755E+00   2.517351448018993E+00   1.008206140733103E+07
  7.855343196250833E+00   7.299356249569693E+00   2.529164499550899E+00   1.008206140733103E+07
  7.931847391022226E+00   7.121525138582249E+00   2.543844682572614E+00   1.008206140733103E+07
  8.001535880702608E+00   6.950583552051464E+00   2.560398746925960E+00   1.008206140733103E+07
  8.064354302741194E+00   6.785970888971189E+00   2.577561929957711E+00   1.008206140733103E+07
  8.120723941790446E+00   6.627149436892068E+00   2.593927615848501E+00   1.008206140733103E+07
  8.171359558010233E+00   6.473559508579566E+00   2.608089251713161E+00   1.008206140733103E+07
  8.217087957782930E+00   6.324571726896952E+00   2.618777598141124E+00   1.008206140733103E+07
  8.258685789907945E+00   6.179451159081070E+00   2.624977523706792E+00   1.008206140733103E+07
  8.296751304014476E+00   6.037344631511877E+00   2.626011696429161E+00   1.008206140733103E+07
  8.331619727615545E+00   5.897297439960560E+00   2.621583161229651E+00   1.008206140733103E+07
  8.363326169259262E+00   5.758299704114404E+00   2.611774222585102E+00   1.008206140733103E+07
  8.391614249587718E+00   5.619356793169160E+00   2.597004505564488E+00   1.008206140733103E+07
  8.415983668213221E+00   5.479573510589535E+00   2.577955817064684E+00   1.008206140733103E+07
  8.435766175270027E+00   5.338238813448713E+00   2.555474885012568E+00   1.008206140733103E+07
  8.450217287266192E+00   5.194897192769152E+00   2.530466846001683E+00   1.008206140733103E+07
  8.458610698233381E+00   5.049394528556568E+00   2.503792366565298E+00   1.008206140733103E+07
  8.460323590499637E+00   4.901889960466926E+00   2.476179660713132E+00   1.008206140733103E+07
  8.454903641863801E+00   4.752830469475458E+00   2.448159764640274E+00   1.008206140733103E+07
  8.442112001911777E+00   4.602890617747581E+00   2.420029756797491E+00   1.008206140733103E+07
  8.421940330872866E+00   4.452885327387262E+00   2.391844740579679E+00   1.008206140733103E+07
  8.394603615405172E+00   4.303667834379138E+00   2.363435885975267E+00   1.008206140733103E+07
  8.360513421771790E+00   4.156027360504045E+00   2.334449100065407E+00   1.008206140733103E+07
  8.320238173331962E+00   4.010601221763046E+00   2.304397247219350E+00   1.008206140733103E+07
  8.274457772127580E+00   3.867814001647795E+00   2.272718361119258E+00   1.008206140733103E+07
  8.223919434338363E+00   3.727852375727631E+00   2.238832888509164E+00   1.008206140733103E+07
  8.169400158995559E+00   3.590678794364095E+00   2.202194430725716E+00   1.008206140733103E+07
  8.111679115762724E+00   3.456081331352967E+00   2.162330356136539E+00   1.008206140733103E+07
  8.051520817914509E+00   3.323751485565943E+00   2.118870664431702E+00   1.008206140733103E+07
  7.989667654093605E+00   3.193377420526161E+00   2.071565246515109E+00   1.008206140733103E+07
  7.926838553235994E+00   3.064737699288891E+00   2.020290946284904E+00   1.008206140733103E+07
  7.863729517328297E+00   2.937780392250274E+00   1.965050464573960E+00   1.008206140733103E+07
  7.801011606687142E+00   2.812674538787785E+00   1.905965161112145E+00   1.008206140733103E+07
  7.739322683153144E+00   2.689825022963945E+00   1.843263342136008E+00   1.008206140733103E+07
  7.679250649287219E+00   2.569847376870419E+00   1.777264892156680E+00   1.008206140733103E+07
  7.621307798803769E+00   2.453505046466859E+00   1.708362379088951E+00   1.008206140733103E+07
  7.565897884978456E+00   2.341617354682422E+00   1.636998275209636E+00   1.008206140733103E+07
  7.513279281229945E+00   2.234950934980084E+00   1.563637866657831E+00   1.008206140733103E+07
  7.463528858403305E+00   2.134110118655073E+00   1.488737841333335E+00   1.008206140733103E+07
  7.416511733422331E+00   2.039442244522515E+00   1.412711399126506E+00   1.008206140733103E+07
  7.371861770133068E+00   1.950972050920282E+00   1.335891857568340E+00   1.008206140733103E+07
  7.328976680451306E+00   1.868375472015608E+00   1.258497886382273E+00   1.008206140733103E+07
  7.287029945562113E+00   1.790997850455272E+00   1.180604416653085E+00   1.008206140733103E+07
  7.244999805176825E+00   1.717915561265996E+00   1.102123674105215E+00   1.008206140733103E+07
  7.201713546918455E+00   1.648034175878047E+00   1.022800493153051E+00   1.008206140733103E+07
  7.155903565575247E+00   1.580211405625271E+00   9.422250047609738E-01   1.008206140733103E+07
  7.106270402970708E+00   1.513389824049943E+00   8.598640192685914E-01   1.008206140733103E+07
  7.051547387542993E+00   1.446723202202222E+00   7.751101435656453E-01   1.008206140733103E+07
  6.990561623707133E+00   1.379681321640649E+00   6.873451893771464E-01   1.008206140733103E+07
  6.922286876369963E+00   1.312121161054649E+00   5.960121197765508E-01   1.008206140733103E+07
  6.845885197077619E+00   1.244316909276276E+00   5.006880236262397E-01   1.008206140733103E+07
  6.760735715730232E+00   1.176946660869438E+00   4.011497238514488E-01   1.008206140733103E+07
  6.666450615056848E+00   1.111039121867431E+00   2.974238222885919E-01   1.008206140733103E+07
  6.562879666344101E+00   1.047888430934768E+00   1.898143137468326E-01   1.008206140733103E+07
  6.450105639825740E+00   9.889486515023096E-01   7.890324619639641E-02   1.008206140733103E+07
  6.328433301194963E+00   9.357211961634428E-01  -3.447701661038936E-02   1.008206140733103E+07
  6.198374556176497E+00   8.896482591790346E-01  -1.492979623224635E-01   1.008206140733103E+07
  6.060631695548565E+00   8.520233917281795E-01  -2.644102847262116E-01   1.008206140733103E+07
  5.916079790986870E+00   8.239270437467638E-01  -3.786325111622676E-01   1.008206140733103E+07
  5.765748313283060E+00   8.061907845413148E-01  -4.908433062861199E-01   1.008206140733103E+07
  5.610801212673607E+00   7.993896593540341E-01  -6.000674177506526E-01   1.008206140733103E+07
  5.452514206884321E+00   8.038583828044790E-01  -7.055461084259903E-01   1.008206140733103E+07
  5.292247988138069E+00   8.197243412090676E-01  -8.067849968135689E-01   1.008206140733103E+07
  5.131416515728212E+00   8.469490121209642E-01  -9.035752058246528E-01   1.008206140733103E+07
  4.971450436173743E+00   8.853695138659459E-01  -9.959871694863752E-01   1.008206140733103E+07
  4.813756809381422E+00   9.347334323221552E-01  -1.084339867603572E+00   1.008206140733103E+07
  4.659677494585950E+00   9.947224906453278E-01  -1.169151157310562E+00   1.008206140733103E+07
  4.510449517529632E+00   1.064963541327927E+00  -1.251076838328766E+00   1.008206140733103E+07
  4.367171273504677E+00   1.145028223972892E+00  -1.330846862841438E+00   1.008206140733103E+07
  4.230778354996684E+00   1.234424938621769E+00  -1.409206605983155E+00   1.008206140733103E+07
  4.102032059273371E+00   1.332588147373438E+00  -1.486869472713800E+00   1.008206140733103E+07
  3.981522276659304E+00   1.438870234598499E+00  -1.564484633691568E+00   1.008206140733103E+07
  3.869684645444960E+00   1.552540241034524E+00  -1.642620788816712E+00   1.008206140733103E+07
  3.766829840545691E+00   1.672791960082690E+00  -1.721764044157613E+00   1.008206140733103E+07
  3.673180954675484E+00   1.798761532256406E+00  -1.802325727136307E+00   1.008206140733103E+07
  3.588913457183670E+00   1.929552278178067E+00  -1.884654629101794E+00   1.008206140733103E+07
  3.514191457679178E+00   2.064262563090406E+00  -1.969047966288766E+00   1.008206140733103E+07
  3.449194147416400E+00   2.202011398482576E+00  -2.055756305158749E+00   1.008206140733103E+07
  3.394127399728688E+00   2.341956516246755E+00  -2.144979620182811E+00   1.008206140733103E+07
  3.349217491964630E+00   2.483300850446192E+00  -2.236854182393647E+00   1.008206140733103E+07
  3.314686531575459E+00   2.625285564372092E+00  -2.331432641950985E+00   1.008206140733103E+07
  3.290712077081397E+00   2.767170602047071E+00  -2.428661957766516E+00   1.008206140733103E+07
  3.277376218963314E+00   2.908206719528959E+00  -2.528365282483205E+00   1.008206140733103E+07
  3.274611594292286E+00   3.047605500810330E+00  -2.630234203255226E+00   1.008206140733103E+07
  3.282153075469551E+00   3.184515462519637E+00  -2.733836731433976E+00   1.008206140733103E+07
  3.299503936719606E+00   3.318012608648344E+00  -2.838644214527952E+00   1.008206140733103E+07
  3.325924062618721E+00   3.447112524296521E+00  -2.944077217620795E+00   1.008206140733103E+07
  3.360445307633817E+00   3.570808358265470E+00  -3.049566872560168E+00   1.008206140733103E+07
  3.401915714880465E+00   3.688135154332900E+00  -3.154624811170811E+00   1.008206140733103E+07
  3.449070380828037E+00   3.798256483549142E+00  -3.258912186198588E+00   1.008206140733103E+07
  3.500622835840609E+00   3.900564882082110E+00  -3.362296957693403E+00   1.008206140733103E+07
  3.555367453385924E+00   3.994783932231690E+00  -3.464888924884595E+00   1.008206140733103E+07
  3.612281110087912E+00   4.081057591935663E+00  -3.567044015253447E+00   1.008206140733103E+07
  3.670611477960678E+00   4.160012060360024E+00  -3.669332933336304E+00   1.008206140733103E+07
  3.729940139284569E+00   4.232777285998646E+00  -3.772473991894601E+00   1.008206140733103E+07
  3.790211154222745E+00   4.300959094656077E+00  -3.877235160552934E+00   1.008206140733103E+07
  3.851719535865245E+00   4.366558442836904E+00  -3.984315315570543E+00   1.008206140733103E+07
  3.915058850392257E+00   4.431840824557856E+00  -4.094218593775349E+00   1.008206140733103E+07
  3.981032268180194E+00   4.499165529863562E+00  -4.207137986322206E+00   1.008206140733103E+07
  4.050536181361525E+00   4.570790355756093E+00  -4.322864409670082E+00   1.008206140733103E+07
  4.124429329299177E+00   4.648671649211046E+00  -4.440735308977769E+00   1.008206140733103E+07
  4.203402697184094E+00   4.734281546554507E+00  -4.559632558187977E+00   1.008206140733103E+07
  4.287865919044735E+00   4.828463579666921E+00  -4.678033514086109E+00   1.008206140733103E+07
  4.377864405327192E+00   4.931344414101002E+00  -4.794112310113243E+00   1.008206140733103E+07
  4.473038065115845E+00   5.042313700806194E+00  -4.905881750668050E+00   1.008206140733103E+07
  4.572627687285229E+00   5.160076526352475E+00  -5.011360431830307E+00   1.008206140733103E+07
  4.675529365450148E+00   5.282774648999678E+00  -5.108745810514544E+00   1.008206140733103E+07
  4.780391505483101E+00   5.408164651070265E+00  -5.196572483153759E+00   1.008206140733103E+07
  4.885743681774038E+00   5.533834352834443E+00  -5.273836204842748E+00   1.008206140733103E+07
  4.990142585442445E+00   5.657434200444317E+00  -5.340068092209855E+00   1.008206140733103E+07
  5.092318056822757E+00   5.776898470862163E+00  -5.395349545570393E+00   1.008206140733103E+07
  5.191302014733579E+00   5.890632286141219E+00  -5.440265917109989E+00   1.008206140733103E+07
  5.286525021505927E+00   5.997644463238317E+00  -5.475804845713917E+00   1.008206140733103E+07
  5.377869021463516E+00   6.097612636020658E+00  -5.503212400838350E+00   1.008206140733103E+07
  5.465669988578888E+00   6.190875060631980E+00  -5.523825725149859E+00   1.008206140733103E+07
  5.550670166412502E+00   6.278352045862069E+00  -5.538903952114265E+00   1.008206140733103E+07
  5.633925538263506E+00   6.361407968474049E+00  -5.549479345002685E+00   1.008206140733103E+07
  5.716679390549688E+00   6.441671353481325E+00  -5.556247803448005E+00   1.008206140733103E+07
  5.800216690620583E+00   6.520834746250741E+00  -5.559512472517948E+00   1.008206140733103E+07
  5.885716035393158E+00   6.600457611876786E+00  -5.559186895652398E+00   1.008206140733103E+07
  5.974115920527421E+00   6.681794166683167E+00  -5.554855974804340E+00   1.008206140733103E+07
  6.066010073810824E+00   6.765664144377743E+00  -5.545885067928212E+00   1.008206140733103E+07
  6.161582884100589E+00   6.852378614727253E+00  -5.531560967270417E+00   1.008206140733103E+07
  6.260591038856978E+00   6.941725928179637E+00  -5.511244179848886E+00   1.008206140733103E+07
  6.362391996706184E+00   7.033015593333563E+00  -5.484510477591818E+00   1.008206140733103E+07
  6.466014555704529E+00   7.125171328529266E+00  -5.451261300921106E+00   1.008206140733103E+07
  6.570262183088982E+00   7.216859449286299E+00  -5.411787056816513E+00   1.008206140733103E+07
  6.673836476742212E+00   7.306635707886729E+00  -5.366774021529494E+00   1.008206140733103E+07
  6.775466475450027E+00   7.393092938702732E+00  -5.317253499218497E+00   1.008206140733103E+07
  6.874029645014036E+00   7.474993314219784E+00  -5.264499983609705E+00   1.008206140733103E+07
  6.968652132728665E+00   7.551372323576607E+00  -5.209892184806134E+00   1.008206140733103E+07
  7.058778992148555E+00   7.621606166328909E+00  -5.154755925313860E+00   1.008206140733103E+07
  7.144209068903297E+00   7.685439399587700E+00  -5.100210370065441E+00   1.008206140733103E+07
  7.225093557887804E+00   7.742974657340483E+00  -5.047038510313836E+00   1.008206140733103E+07
  7.301901336633247E+00   7.794630432133623E+00  -4.995599374310250E+00   1.008206140733103E+07
  7.375357560063136E+00   7.841075797831505E+00  -4.945793602553932E+00   1.008206140733103E+07
  7.446364307012026E+00   7.883152310915051E+00  -4.897086649626091E+00   1.008206140733103E+07
  7.515913105588402E+00   7.921793154734093E+00  -4.848586014937615E+00   1.008206140733103E+07
  7.584998921959571E+00   7.957948109476105E+00  -4.799161673302052E+00   1.008206140733103E+07
  7.654543835533857E+00   7.992520535893525E+00  -4.747593280060487E+00   1.008206140733103E+07
  7.725336438889127E+00   8.026319744894000E+00  -4.692724522337098E+00   1.008206140733103E+07
  7.797990373298874E+00   8.060029390015405E+00  -4.633604580191906E+00   1.008206140733103E+07
  7.872922744067447E+00   8.094190295872181E+00  -4.569599042381280E+00   1.008206140733103E+07
  7.950350821565164E+00   8.129194716403374E+00  -4.500457382717220E+00   1.008206140733103E+07
  8.030303704581558E+00   8.165288520696457E+00  -4.426330500323498E+00   1.008206140733103E+07
  8.112644662248069E+00   8.202578168308781E+00  -4.347738894851019E+00   1.008206140733103E+07
  8.197099704669260E+00   8.241040340761028E+00  -4.265498745029568E+00   1.008206140733103E+07
  8.283288459167444E+00   8.280533415869353E+00  -4.180618524815003E+00   1.008206140733103E+07
  8.370754447434063E+00   8.320811242836102E+00  -4.094182086150572E+00   1.008206140733103E+07
  8.458993108504425E+00   8.361540567315441E+00  -4.007234949071045E+00   1.008206140733103E+07
  8.547477121413815E+00   8.402323731660157E+00  -3.920688840252374E+00   1.008206140733103E+07
  8.635679512842206E+00   8.442727840748621E+00  -3.835255662798306E+00   1.008206140733103E+07
  8.723095525636339E+00   8.482320500024867E+00  -3.751416736221018E+00   1.008206140733103E+07
  8.809264208130637E+00   8.520710707007785E+00  -3.669427201319102E+00   1.008206140733103E+07
  8.893790200531098E+00   8.557591824565961E+00  -3.589349897135573E+00   1.008206140733103E+07
  8.976365375641207E+00   8.592782145510087E+00  -3.511108665914444E+00   1.008206140733103E+07
  9.056789036197504E+00   8.626257714474058E+00  -3.434548592350223E+00   1.008206140733103E+07
  9.134984508982271E+00   8.658172058509939E+00  -3.359490484273767E+00   1.008206140733103E+07
  9.211009423554229E+00   8.688858407015198E+00  -3.285768932906090E+00   1.008206140733103E+07
  9.285056886472859E+00   8.718811801572762E+00  -3.213247167702349E+00   1.008206140733103E+07
  9.357445244258212E+00   8.748650986956113E+00  -3.141806957840328E+00   1.008206140733103E+07
  9.428595155718542E+00   8.779062779066907E+00  -3.071317132239673E+00   1.008206140733103E+07
  9.498994153702501E+00   8.810734285787397E+00  -3.001588964340749E+00   1.008206140733103E+07
  9.569150571918213E+00   8.844280465133437E+00  -2.932329867113580E+00   1.008206140733103E+07
  9.639540394862360E+00   8.880175661273482E+00  -2.863107972385325E+00   1.008206140733103E+07
  9.710551993614455E+00   8.918697717728321E+00  -2.793338965126267E+00   1.008206140733103E+07
  9.782434598797128E+00   8.959891966307056E+00  -2.722303129081910E+00   1.008206140733103E+07
  9.855256559576185E+00   9.003559970078467E+00  -2.649195428091568E+00   1.008206140733103E+07
  9.928878861367467E+00   9.049274686840382E+00  -2.573205392640820E+00   1.008206140733103E+07
  1.000294804885232E+01   9.096420185837808E+00  -2.493617582130746E+00   1.008206140733103E+07
  1.007691075463388E+01   9.144250734878636E+00  -2.409918461859515E+00   1.008206140733103E+07
  1.015004968632872E+01   9.191961501824011E+00  -2.321892556031433E+00   1.008206140733103E+07
  1.022153845502021E+01   9.238761705637355E+00  -2.229690331144314E+00   1.008206140733103E+07
  1.029051033709522E+01   9.283941054139737E+00  -2.133852669304481E+00   1.008206140733103E+07
  1.035613423283495E+01   9.326921741960430E+00  -2.035281822759240E+00   1.008206140733103E+07
  1.041768994679626E+01   9.367290941322418E+00  -1.935155798491374E+00   1.008206140733103E+07
  1.047463461102859E+01   9.404812179156636E+00  -1.834791264416992E+00   1.008206140733103E+07
  1.052665264588627E+01   9.439417687020807E+00  -1.735468144474379E+00   1.008206140733103E+07
  1.057368304478278E+01   9.471187105312623E+00  -1.638235879094929E+00   1.008206140733103E+07
  1.061591982688501E+01   9.500320231360806E+00  -1.543725798873897E+00   1.008206140733103E+07
  1.065378400436182E+01   9.527112373870384E+00  -1.451995411531430E+00   0.000000000000000E+00 4 CurveXYZFourier73 
  9.046642511593706E+00   1.053412828946678E+01  -8.471353876186807E-01   1.132498566589954E+07
  9.098780574017557E+00   1.070763715313616E+01  -6.750522148163206E-01   1.132498566589954E+07
  9.125510708176726E+00   1.090118050048909E+01  -5.005772186010076E-01   1.132498566589954E+07
  9.120575922729751E+00   1.111154850553041E+01  -3.268309793809805E-01   1.132498566589954E+07
  9.078682883731384E+00   1.133386100616067E+01  -1.566415720647747E-01   1.132498566589954E+07
  8.996063182042139E+00   1.156167917248860E+01   7.716649445048887E-03   1.132498566589954E+07
  8.870925185226186E+00   1.178726759984368E+01   1.647073569965715E-01   1.132498566589954E+07
  8.703749650727296E+00   1.200199594427752E+01   3.136191455177140E-01   1.132498566589954E+07
  8.497398396571256E+00   1.219685322248744E+01   4.545478333858288E-01   1.132498566589954E+07
  8.257024459157885E+00   1.236303397892564E+01   5.882809693277514E-01   1.132498566589954E+07
  7.989792090698533E+00   1.249254547326189E+01   7.161040927915167E-01   1.132498566589954E+07
  7.704433432305228E+00   1.257878023902085E+01   8.395580553519447E-01   1.132498566589954E+07
  7.410683775156028E+00   1.261699958008580E+01   9.601821997073828E-01   1.132498566589954E+07
  7.118647507108766E+00   1.260468085455710E+01   1.079278742151778E+00   1.132498566589954E+07
  6.838151284316327E+00   1.254169404903273E+01   1.197729352511211E+00   1.132498566589954E+07
  6.578139512415727E+00   1.243028980463300E+01   1.315886401124815E+00   1.132498566589954E+07
  6.346160386636047E+00   1.227489984643103E+01   1.433549949752403E+00   1.132498566589954E+07
  6.147979606820930E+00   1.208176954235001E+01   1.550028986444941E+00   1.132498566589954E+07
  5.987344931435445E+00   1.185845892078395E+01   1.664273460187471E+00   1.132498566589954E+07
  5.865909637270396E+00   1.161326101547652E+01   1.775054046287321E+00   1.132498566589954E+07
  5.783308364284624E+00   1.135459348696898E+01   1.881160584994995E+00   1.132498566589954E+07
  5.737366194581874E+00   1.109042036601214E+01   1.981588548247145E+00   1.132498566589954E+07
  5.724412230560767E+00   1.082775550078659E+01   2.075685815050037E+00   1.132498566589954E+07
  5.739663042106459E+00   1.057228862819674E+01   2.163238931356692E+00   1.132498566589954E+07
  5.777639315217435E+00   1.032816031897455E+01   2.244487787491209E+00   1.132498566589954E+07
  5.832580585405156E+00   1.009789519580429E+01   2.320068765056513E+00   1.132498566589954E+07
  5.898827456603629E+00   9.882485822133662E+00   2.390897219406628E+00   1.132498566589954E+07
  5.971147334562594E+00   9.681604476450930E+00   2.458009086915984E+00   1.132498566589954E+07
  6.044987486444438E+00   9.493908329030369E+00   2.522387162722782E+00   1.132498566589954E+07
  6.116647245967171E+00   9.317396491975082E+00   2.584799400115328E+00   1.132498566589954E+07
  6.183368618355689E+00   9.149775560559760E+00   2.645674250274016E+00   1.132498566589954E+07
  6.243350807952535E+00   8.988793482652099E+00   2.705032017302620E+00   1.132498566589954E+07
  6.295698937150484E+00   8.832509147473134E+00   2.762482414658037E+00   1.132498566589954E+07
  6.340320324790268E+00   8.679475752375080E+00   2.817288329203346E+00   1.132498566589954E+07
  6.377783219492208E+00   8.528828261800388E+00   2.868485763577673E+00   1.132498566589954E+07
  6.409153054861163E+00   8.380277503839194E+00   2.915041523872713E+00   1.132498566589954E+07
  6.435820403722721E+00   8.234024171070796E+00   2.956024668968369E+00   1.132498566589954E+07
  6.459333170113035E+00   8.090614028557113E+00   2.990765820035120E+00   1.132498566589954E+07
  6.481243453871596E+00   7.950760249079803E+00   3.018980374700239E+00   1.132498566589954E+07
  6.502977178487190E+00   7.815159763379789E+00   3.040837138095193E+00   1.132498566589954E+07
  6.525732146721870E+00   7.684328092935536E+00   3.056962017595659E+00   1.132498566589954E+07
  6.550407781097835E+00   7.558472000682958E+00   3.068375996746557E+00   1.132498566589954E+07
  6.577567481135183E+00   7.437412411849907E+00   3.076376183915777E+00   1.132498566589954E+07
  6.607432337868521E+00   7.320562509439855E+00   3.082376922454347E+00   1.132498566589954E+07
  6.639902950193461E+00   7.206958746024811E+00   3.087733578991150E+00   1.132498566589954E+07
  6.674604371127572E+00   7.095336603496906E+00   3.093573917604043E+00   1.132498566589954E+07
  6.710947881701530E+00   6.984238858403571E+00   3.100660643938435E+00   1.132498566589954E+07
  6.748202461846141E+00   6.872142118954335E+00   3.109304020307336E+00   1.132498566589954E+07
  6.785568603386977E+00   6.757587405077917E+00   3.119336148651970E+00   1.132498566589954E+07
  6.822247550556597E+00   6.639302182669387E+00   3.130149695479518E+00   1.132498566589954E+07
  6.857500151560067E+00   6.516303992003880E+00   3.140794788875257E+00   1.132498566589954E+07
  6.890691170150074E+00   6.387979013533027E+00   3.150119850537630E+00   1.132498566589954E+07
  6.921316962098968E+00   6.254132021529660E+00   3.156936345010725E+00   1.132498566589954E+07
  6.949016619156267E+00   6.115006755477444E+00   3.160184597971872E+00   1.132498566589954E+07
  6.973568732203239E+00   5.971277557623168E+00   3.159078272471703E+00   1.132498566589954E+07
  6.994877536226185E+00   5.824014166129117E+00   3.153208633083783E+00   1.132498566589954E+07
  7.012953131040990E+00   5.674621991419225E+00   3.142595768162785E+00   1.132498566589954E+07
  7.027890574636520E+00   5.524760343057905E+00   3.127681536255304E+00   1.132498566589954E+07
  7.039851897125921E+00   5.376241265583391E+00   3.109267021471517E+00   1.132498566589954E+07
  7.049053598592050E+00   5.230912188345003E+00   3.088404575276241E+00   1.132498566589954E+07
  7.055760220305583E+00   5.090526675668615E+00   3.066260092613777E+00   1.132498566589954E+07
  7.060282461465614E+00   4.956609180638230E+00   3.043964315924538E+00   1.132498566589954E+07
  7.062976445870890E+00   4.830321665490246E+00   3.022472363774675E+00   1.132498566589954E+07
  7.064239501948291E+00   4.712341891985584E+00   3.002448439023348E+00   1.132498566589954E+07
  7.064497500957321E+00   4.602764636902166E+00   2.984188263888982E+00   1.132498566589954E+07
  7.064179559197087E+00   4.501037563244947E+00   2.967585986843691E+00   1.132498566589954E+07
  7.063677731731203E+00   4.405942570620000E+00   2.952146040913415E+00   1.132498566589954E+07
  7.063292001236745E+00   4.315630926853986E+00   2.937034647910061E+00   1.132498566589954E+07
  7.063164021563012E+00   4.227716359584126E+00   2.921161167820280E+00   1.132498566589954E+07
  7.063206216959204E+00   4.139424848527560E+00   2.903276844811610E+00   1.132498566589954E+07
  7.063035421587101E+00   4.047793654454907E+00   2.882077933961273E+00   1.132498566589954E+07
  7.061921762526968E+00   3.949905897675666E+00   2.856301595153990E+00   1.132498566589954E+07
  7.058763556002286E+00   3.843141606158579E+00   2.824805895293160E+00   1.132498566589954E+07
  7.052097405607548E+00   3.725422417509093E+00   2.786629127808333E+00   1.132498566589954E+07
  7.040149505048568E+00   3.595425713869635E+00   2.741027695619592E+00   1.132498566589954E+07
  7.020929647761118E+00   3.452745301390864E+00   2.687495291612737E+00   1.132498566589954E+07
  6.992364146595568E+00   3.297979875407533E+00   2.625768476488442E+00   1.132498566589954E+07
  6.952458445010303E+00   3.132737117493574E+00   2.555824662527825E+00   1.132498566589954E+07
  6.899475405168876E+00   2.959549672139101E+00   2.477877914792389E+00   1.132498566589954E+07
  6.832111802466722E+00   2.781708489425781E+00   2.392376114828565E+00   1.132498566589954E+07
  6.749654014983838E+00   2.603027977974289E+00   2.300000366537486E+00   1.132498566589954E+07
  6.652094614460117E+00   2.427564963607576E+00   2.201664673784582E+00   1.132498566589954E+07
  6.540194595659091E+00   2.259318616076198E+00   2.098511528461374E+00   1.132498566589954E+07
  6.415481064173022E+00   2.101940599725258E+00   1.991897671170595E+00   1.132498566589954E+07
  6.280176790592803E+00   1.958483425635789E+00   1.883364288349489E+00   1.132498566589954E+07
  6.137065359921198E+00   1.831210473011104E+00   1.774587393101364E+00   1.132498566589954E+07
  5.989302803718373E+00   1.721483972292283E+00   1.667306921899895E+00   1.132498566589954E+07
  5.840192699250541E+00   1.629738318513568E+00   1.563236727041090E+00   1.132498566589954E+07
  5.692945974365409E+00   1.555536553249238E+00   1.463961529632996E+00   1.132498566589954E+07
  5.550448515935278E+00   1.497698927117511E+00   1.370830312612744E+00   1.132498566589954E+07
  5.415058896004058E+00   1.454485241457733E+00   1.284857910277655E+00   1.132498566589954E+07
  5.288455197164938E+00   1.423808022631803E+00   1.206647180608235E+00   1.132498566589954E+07
  5.171544460641130E+00   1.403451990387869E+00   1.136342872190454E+00   1.132498566589954E+07
  5.064441391876660E+00   1.391276796099566E+00   1.073625168842149E+00   1.132498566589954E+07
  4.966515509145616E+00   1.385384250927769E+00   1.017746274110783E+00   1.132498566589954E+07
  4.876498835547165E+00   1.384237496700154E+00   9.676079118225825E-01   1.132498566589954E+07
  4.792640366462667E+00   1.386726805290790E+00   9.218720682634113E-01   1.132498566589954E+07
  4.712889558749230E+00   1.392183843023907E+00   8.790925369324932E-01   1.132498566589954E+07
  4.635089376898619E+00   1.400352292617394E+00   8.378516138309897E-01   1.132498566589954E+07
  4.557160068679114E+00   1.411326894430219E+00   7.968851854190816E-01   1.132498566589954E+07
  4.477257585072029E+00   1.425474793694132E+00   7.551807027207325E-01   1.132498566589954E+07
  4.393894894240340E+00   1.443352497739761E+00   7.120360389103142E-01   1.132498566589954E+07
  4.306019671309606E+00   1.465629085079732E+00   6.670725304377547E-01   1.132498566589954E+07
  4.213047206456234E+00   1.493022221044151E+00   6.202018616614606E-01   1.132498566589954E+07
  4.114852138983773E+00   1.526248886779218E+00   5.715529480478081E-01   1.132498566589954E+07
  4.011726220699542E+00   1.565988444665888E+00   5.213706393381256E-01   1.132498566589954E+07
  3.904311392587969E+00   1.612852570813134E+00   4.699020438139682E-01   1.132498566589954E+07
  3.793517947004928E+00   1.667355272249182E+00   4.172879505744470E-01   1.132498566589954E+07
  3.680436628458344E+00   1.729876919636196E+00   3.634759214236606E-01   1.132498566589954E+07
  3.566251599100092E+00   1.800618826053152E+00   3.081682492147275E-01   1.132498566589954E+07
  3.452158792417201E+00   1.879548881536877E+00   2.508126249287088E-01   1.132498566589954E+07
  3.339291862974858E+00   1.966343318858118E+00   1.906368193139746E-01   1.132498566589954E+07
  3.228656200459783E+00   2.060333891933681E+00   1.267219542929275E-01   1.132498566589954E+07
  3.121070639137015E+00   2.160472655908932E+00   5.810304233520345E-02   1.132498566589954E+07
  3.017116664666662E+00   2.265327382872385E+00  -1.611868168984313E-02   1.132498566589954E+07
  2.917095966005218E+00   2.373118982126507E+00  -9.666887246201614E-02   1.132498566589954E+07
  2.820998755813531E+00   2.481808085184732E+00  -1.840149484349789E-01   1.132498566589954E+07
  2.728486897945455E+00   2.589231615302452E+00  -2.783155772890614E-01   1.132498566589954E+07
  2.638896994893123E+00   2.693282508123029E+00  -3.794121251928346E-01   1.132498566589954E+07
  2.551268719823131E+00   2.792117901985951E+00  -4.868627455226096E-01   1.132498566589954E+07
  2.464402506434876E+00   2.884374329838086E+00  -6.000129654156775E-01   1.132498566589954E+07
  2.376948153854914E+00   2.969363922122531E+00  -7.180907457002036E-01   1.132498566589954E+07
  2.287522159689694E+00   3.047224326715157E+00  -8.403099837308586E-01   1.132498566589954E+07
  2.194847127512348E+00   3.118997510002882E+00  -9.659649606409729E-01   1.132498566589954E+07
  2.097902081274673E+00   3.186618840408515E+00  -1.094499577157029E+00   1.132498566589954E+07
  1.996068744586492E+00   3.252807328644854E+00  -1.225539210928471E+00   1.132498566589954E+07
  1.889256576572327E+00   3.320859548660021E+00  -1.358879080134742E+00   1.132498566589954E+07
  1.777989215165234E+00   3.394362139786419E+00  -1.494430194738223E+00   1.132498566589954E+07
  1.663437307975253E+00   3.476849242125476E+00  -1.632131201817152E+00   1.132498566589954E+07
  1.547387497879084E+00   3.571440116794496E+00  -1.771840540278766E+00   1.132498566589954E+07
  1.432144172574104E+00   3.680497181986711E+00  -1.913227316984975E+00   1.132498566589954E+07
  1.320368718989268E+00   3.805344851248107E+00  -2.055680510831496E+00   1.132498566589954E+07
  1.214869403613514E+00   3.946084601113389E+00  -2.198254232090672E+00   1.132498566589954E+07
  1.118362449364079E+00   4.101532009841184E+00  -2.339662008759987E+00   1.132498566589954E+07
  1.033230250350232E+00   4.269288138694213E+00  -2.478326085356142E+00   1.132498566589954E+07
  9.613050166748192E-01   4.445942146944109E+00  -2.612479506669297E+00   1.132498566589954E+07
  9.037048948673222E-01   4.627386353262133E+00  -2.740310536053788E+00   1.132498566589954E+07
  8.607446638791704E-01   4.809211078978860E+00  -2.860131973089572E+00   1.132498566589954E+07
  8.319348831803158E-01   4.987136353088343E+00  -2.970553279957289E+00   1.132498566589954E+07
  8.160727853893542E-01   5.157432317096535E+00  -3.070631865489390E+00   1.132498566589954E+07
